{"layer0": {"kernels": [[[[-1.1562827159782632, -0.25240770073280616, -0.19773316382773454, -0.6610377444410178, -1.1646472763436266, -0.23886545167012477, -0.8473499134272302, -0.3113994037842928, -0.9433274848275958, -0.524664679738878, -1.2159799426578655, -0.3693348713679466, -0.4769714179824336, -0.2106951463847469, -0.3650173856580679, -0.14844636458161958]], [[-1.334692298873408, -0.27326157678894514, -0.137452279367279, -0.7282474763349114, -1.2930860286211816, -0.1544844995874237, -1.205021033509938, -0.39852360956307287, -1.0437637044269987, -0.6058479396863601, -1.4004393939190873, -0.5683831254671767, -0.6003793092802077, -0.1818269538923003, -0.5015382441410035, -0.16883157674642943]], [[-1.124160365837709, -0.2194465544917941, -0.12610682335905113, -0.8740012199680479, -0.9361011256732437, -0.2636162879464838, -1.323487843706731, -0.5228144233207068, -0.9215708202965759, -0.532661881796346, -1.1671688348083262, -0.7314338373561783, -0.5671366090697668, -0.30956803850822867, -0.44208960716137147, -0.07557143947731465]], [[-0.7626038668279912, -0.10591827311061403, -0.04904970018192929, -0.9030798251263794, -0.6014470143986174, -0.2474329489940534, -1.3281907198276555, -0.5556847676223304, -0.6063426259864728, -0.2975227558590805, -0.7785937359422801, -0.8461485937530795, -0.4637857872239745, -0.2521024624754053, -0.42238510339173807, -0.21692520904890383]]], [[[-1.3913347329561498, -0.2968121139773303, -0.14834301331689653, -0.6768998156684511, -1.3439541858979016, -0.25248163680702085, -1.069257132054513, -0.28281693475296815, -1.163661663696241, -0.6142327357343196, -1.5241003517966982, -0.5037250746739378, -0.6086376976930162, -0.12979804580593593, -0.455175672885208, -0.06484215479529296]], [[-1.4256497585591847, -0.3030164783953289, -0.15244391400374394, -0.9032262151114208, -1.4118697326948615, -0.2943248854026492, -1.378325654128595, -0.41984636762350735, -1.2564234589828212, -0.6327020283447933, -1.518023782835129, -0.7147507196570505, -0.750869739218127, -0.2406830076898825, -0.4634153314401045, -0.13897254553295219]], [[-1.089458164091861, -0.20025500769681115, -0.12216960546128924, -1.0515348978600207, -0.9818766257483844, -0.25202856603806667, -1.5572283302522343, -0.6000105887162441, -1.1259417018585485, -0.4996059389740711, -1.2630097944667749, -1.0618971287013206, -0.704859664995191, -0.29845570521979475, -0.6066679570762932, -0.16465759572330885]], [[-0.7094348324638864, -0.19150540108487335, -0.05707874542148922, -0.9923823583172355, -0.5644383518436334, -0.3436757990891283, -1.421610231932901, -0.6284399999831065, -0.7471932480447019, -0.3246279095684578, -0.8404687902276345, -0.8705874982491599, -0.5710124860977508, -0.27886459706443695, -0.43876595526549034, -0.15685024692061636]]], [[[-1.3965395797707505, -0.3564798617698207, -0.21521621733220814, -0.9156157143013655, -1.5325517251675531, -0.2259346441727512, -0.7946353541022421, -0.28132363446642245, -1.118173253521649, -0.7688299096264468, -1.4298728421734377, -0.6024615975395896, -0.660640867045211, -0.11585512520127905, -0.29588530629135024, -0.040824525929449886]], [[-1.1889395056720107, -0.3919096982600109, -0.13680686667551847, -0.9457371361315525, -1.403133486730685, -0.2874901975545544, -1.20351923903874, -0.5447098761674122, -1.2257347215763617, -0.5733873473469857, -1.5067110982236875, -0.8608710046606703, -0.778921267174076, -0.15687586118302937, -0.3953381722888847, -0.16838243984782647]], [[-0.8546504876775213, -0.33050004269705835, -0.06544892324389075, -0.9132633041489064, -0.9606270014560258, -0.3333060426686011, -1.3975936815646675, -0.5781695153899198, -1.0081929859111396, -0.5783030991093928, -1.3056536813607302, -0.9072332026167146, -0.5302340294075174, -0.28706916548797207, -0.47212638154377884, -0.14143589953136065]], [[-0.551501562632034, -0.19770454504415297, -0.0369819276217107, -0.6637456236683446, -0.6736986936045993, -0.22446386411955913, -1.3467516623524922, -0.5178531388727889, -0.8660119643231566, -0.26673458951060686, -0.9051546665768574, -0.8504806649711798, -0.4012664484396857, -0.34703352289968015, -0.4402462082156759, -0.10224761475583091]]], [[[-0.9488943164307257, -0.39539976446294023, -0.1197054092781637, -0.828406955401991, -1.1759249250763608, -0.23533133386619837, -0.6748835972346167, -0.24092187365881423, -0.9784878095848479, -0.5426539483929118, -1.2264760038417015, -0.5868118139939726, -0.6676283460335148, -0.16981698606256534, -0.32565314151717734, -0.1095073237856991]], [[-0.9488301451276353, -0.3498755780921394, -0.128770530506443, -0.824073214245903, -1.117023794286239, -0.3224789429063617, -1.0176710970309428, -0.3547407437262525, -1.033422467626718, -0.6125818882278595, -1.141493314326393, -0.7983802363455542, -0.5462307697326116, -0.09816775561823438, -0.20200503427206573, -0.06741218592845791]], [[-0.6388458721881461, -0.19968982114272654, -0.0939663271401858, -0.5997391178453013, -0.9233457944281921, -0.2724531648744701, -1.131044057395267, -0.48928965327945223, -0.9579229158628892, -0.3035101849428175, -1.0592687946141564, -0.8241885511119471, -0.5659362765920649, -0.28623904160783403, -0.46968745964220754, -0.049672366449689385]], [[-0.4847012260138449, -0.24265734491630447, -0.05977694092951673, -0.5278029035859011, -0.6334780455442209, -0.17333297522325147, -1.0379437779648704, -0.4827544421003319, -0.7151562894205562, -0.32382178494506236, -0.8500323288185088, -0.619743007354502, -0.4475970808779324, -0.18943885604619948, -0.37737202408712844, -0.14609766693803078]]]], "biases": [[-1.952281060826408], [-0.6231915634984944], [-0.2887872479750513], [-0.9031350236004982], [-1.9108365793217672], [-0.49060850529895106], [-2.220834952153382], [-0.8997990250475425], [-1.8145191481798975], [-0.9418993489925924], [-2.241129856687621], [-1.3958097115810233], [-0.9672933668261976], [-0.5151255449345626], [-0.7844818101202691], [-0.25373697764780445]]}, "layer2": {"kernels": [[[[-1.0176335795147826, 0.009620719824527621, -0.006506451543846815, -0.014977526894059696, -0.0797733151498213, -0.042514180269099186, 0.01645359932039568, -0.025693989417772817, -0.01873663984964677, 0.00875735232427309], [-0.27372432549289294, -0.0013108115964425675, 0.003744299984823257, -0.02119641385631148, 0.03448335034903349, 0.0318018643507325, 0.01643226685952474, 0.019893621754109247, -0.023956980788138425, -0.02736955629497152], [-0.10946682910426328, 0.028865471198353913, -0.005990496152439712, 0.03752957635902682, -0.025504738430932015, -0.01245909265284888, 0.0015848783444943754, 0.027414036808314196, -0.0016433870792816867, 0.00045770302373346686], [-0.011523626913764514, -0.09356093361744733, -0.3970119854858189, -0.34668996365507754, -0.06085119917681596, -0.016343673015531843, -0.6615753843475128, -0.021613607938172966, -0.12540472703836908, -0.010355187705795159], [-1.1212709689438363, 0.014596378060086582, -0.04689979312639697, 0.019010415971945832, -0.0040989714982204994, -0.04100144312199539, -0.023119736451446608, -0.04060383425987849, -0.0217595491012169, 0.022199488625288887], [-0.2806603266108594, -0.021566178083802855, 0.019271912878522146, -0.01604455805579031, 0.019583703563719267, 0.006293511692524229, 0.03599268309527786, -0.024859118043412162, 0.07786912245440389, 0.016421368072956036], [-1.3515531983494742, -0.007948196100795186, -0.040911749002803297, -0.0344563482452831, -0.10806711467663777, -0.026640749326828982, 0.0021823362904480996, -0.032293699294055934, -0.002698832681188583, 0.003983693952921939], [-0.5690602032051965, 0.027225559511132813, -0.009617139798501864, 0.023246116146592423, -0.023614057693919437, 0.026059240837184725, -0.027776985818008117, -0.0036134585209002743, 0.030042287920252216, -0.020428741037280568], [-1.2728055387358408, -0.060713879409080546, -0.0811444099886391, -0.06539996110505047, -0.0761990906569592, 0.024691456326770583, -0.01636934444180141, 8.86021926230357e-05, -0.01882253596892277, -0.020245908567216378], [-0.5455137315877725, -0.01191370635918726, 0.0016767777737224862, -0.032256789954057924, 0.007477024126636159, 0.021714126633498216, -0.006890310652081126, 0.012789673295280898, -0.022026346308916988, -0.022202613442662666], [-1.380997511817581, -0.013131551270544058, -0.0247230263294276, -0.02506510705530268, -0.10113816187878594, 0.017888190799475998, -0.05643656620508298, -0.015345813373493153, -0.03063489706190392, -0.014158255098644039], [-0.8414473712222748, -0.0777489000237644, 0.0036756918044566246, 0.0017778049071474518, -0.07618161726001864, -0.01804493455415885, 0.018704419397338985, -0.01736586340543441, 0.04083643722950456, 0.0038982030261896956], [-0.6431333083580304, -0.021756021169865896, -0.0498007852357206, 0.018127315038500052, -0.011503928232242128, 0.0009706838842198908, -0.03968698085166198, -0.02193546373734698, 0.009589729841295611, -0.010184283871129903], [-0.2749672971472695, -0.008584685047267351, -0.02676916695413199, -0.018761526658924388, -0.062119048799516394, 0.043225110360904546, -0.01364125477433273, 0.022392164119221847, -0.03590166759897433, 0.015149005591376979], [-0.5050190432311507, 0.021478574863828565, -0.0016660120218782316, 0.05178864939102365, -0.06936754126476663, -0.0010282017757698232, 0.00710487326461059, 0.03188573601553148, -0.01823087326515345, -0.01279927136136371], [-0.13501630764453024, -0.025083324401687146, 0.0099944645318574, 0.026677272997160623, -0.018279085205982842, 0.051576334431093954, 0.04507906407614273, 0.003431951938196783, -0.06920276345956826, -0.05085854460805688]], [[-1.1938927054614914, 0.025358770338342617, -0.006474968130020131, -0.07872142612639335, -0.08306285335397473, 0.03970628465433683, -0.013049765500466395, -0.04823692746867307, 0.02973989155343052, -0.009413492082308648], [-0.3284075074892012, 0.002411876082156877, -0.009969964704581627, -0.021059251277259734, 0.028917747163777985, 0.02321512509823379, 0.020114191149529004, 0.0035500926333673355, 0.017686815047080046, -0.003752847747778074], [-0.08123444497568746, 0.024758751932798067, 0.019486889172611446, 0.044874455811547996, 0.007869453935989437, -0.046094440594972017, -0.031223742715051916, 0.036204664848541276, -0.012786567229298985, 0.006723557786385772], [-0.03791725078052381, -0.07689205948602323, -0.34623091804521133, -0.34720598717670237, -0.06345888990107675, 0.00577884761222703, -0.6855615329772149, -0.020871080831037805, -0.05724160456228758, -0.02452790613374119], [-1.2705525037340766, 0.013741054923034794, -0.03401448382040273, -0.03900096418111955, -0.06789384238686187, -0.028251962780042997, 0.025191120172765757, -0.009579579419695207, -0.020090116377277523, -0.01322068634644437], [-0.2925809348157556, 0.04283406224367521, 0.022321637112100026, -0.021641008738282737, 0.011035784826803379, -0.004726544618834616, -0.006491743861133538, 0.0439403735667108, -0.01452721614914214, -0.013473958350758219], [-1.4949255332698235, -0.04365942378459181, -0.008195722601590814, -0.05711722958226578, -0.08850986602041054, -0.03620604433302262, -0.022913467491756174, 0.0027200594452584104, 0.012695128087965572, -0.001831954070854576], [-0.5468685550868737, 0.040452984939004996, 0.02220632349127441, -0.042606540252717776, -0.034757101724619544, 0.011925493929980695, -0.011214644954339254, 0.009488405805220645, -0.05501996477767869, -0.02713264563141953], [-1.281688971907601, -0.06634655687898958, -0.034285779976130096, -0.029789840756279343, -0.11185816493195429, -0.006159241075471691, -0.022796724002112394, -0.01704487329960669, -0.029076355335293534, -0.00780123517326807], [-0.6204926585499886, -0.0013516412824195164, -0.02295291882636917, 0.0007619652654178889, 0.020281084210694036, 0.0028179409319139415, 0.0029789160782406074, -0.03925393525072628, 0.011959344206467722, -0.0228922348031828], [-1.5064499605857824, 0.006758788544846815, -0.007480500646705572, -0.011015341856566864, -0.06491335595578951, -0.020071637013662685, 0.0012491100784108606, 0.023085582241676145, -0.006413892135777682, 0.00023829637875883228], [-0.8791668127965462, -0.024008817188214154, -0.004796930877002215, 0.008329845197337163, -0.016252699911011047, -0.028415002478344328, -0.0069015183645598, -0.009621263623583516, -0.025760584347756688, -0.01924278064272382], [-0.7288392615418833, -0.0098696361382317, -0.04930540730573881, -0.004390546669027225, -0.0471259414347811, -0.01933919083502496, -0.04084335509919563, 0.008156805364646635, -0.0656999250757676, -0.04482001787476508], [-0.30359196325905136, 0.028375283568656602, 0.029881765143233187, -0.04077575846955461, -0.030177445938380218, -0.04431796044053302, 0.025374100853922967, -0.041520833695220145, -0.011301164478580384, 0.019943655362927856], [-0.49812682335584646, 0.036193572421603586, -0.024057342785239626, -0.004422236606485878, -0.01762285755086041, -0.007948732749774146, 0.03511241215137335, -0.0065729812127940795, -0.0498913276678018, 0.0908504913817528], [-0.06826470086593563, 6.953688151430494e-05, -0.03922758387121705, -0.00343462010455782, -0.02158738424076685, 0.014501563661270644, 0.01048627064860892, 0.057485193134242246, -0.001944789968626829, 0.010709840158302956]], [[-1.2101568231711262, -0.008114641968290169, -0.016209733482601775, -0.024877301069897634, -0.0551427970743998, -0.02047787725775043, -0.0295949426707936, -0.031319368027598306, 0.014121780559007164, -0.004575099491801984], [-0.2814257520190663, -0.024570747011905557, -0.010401005450697977, -0.08273527901065948, -0.02621596121754043, -0.014841902881636745, 0.011266331816059112, 0.05406966683329209, -0.011905750194062703, 0.036409076553992656], [-0.0843117711957149, 0.02355945664724356, -0.013901533881326871, 0.030689447500456227, -0.03288693695500729, 0.0112336828329728, -0.02493276887430811, -0.013574341742715702, -0.04263023037694776, -0.016400046454173423], [-0.01089434908273382, -0.16095650671856193, -0.30013671660293384, -0.3546698394621396, -0.03488061772089206, -0.004679354706960556, -0.7995303694347808, -0.021305951381623812, -0.09166495298262213, -0.024331332560040785], [-1.2669541597595233, -0.03073406226854844, 0.003105214485994663, -0.07424573494117112, -0.05676414013487881, -0.049841789712552355, 0.029763241775747462, -0.023690238547568646, 0.008835792824082794, 0.0007787022039936345], [-0.2684138285929294, -0.00439904193166251, 0.0197330338493478, -0.05921792441507275, -0.044544618131774266, 0.016537574064290718, -0.0012711220581771848, -0.019967106294028578, -0.010095598587768003, 0.012008165617135096], [-1.3932867384931482, -0.002457888463394703, -0.04682952436585025, -0.10472517577180429, -0.07935039413704395, 0.006838422992904002, -0.029467681159049332, -0.026576411972861168, -0.05267110675704932, 0.0032545652700772428], [-0.5809920520009361, -0.03662382271410719, -0.018846340311953647, -0.04410670139674442, 0.004540344015477642, 0.01143935580702304, 0.04052294324896039, 0.013496229988095632, -0.018370163079418547, -0.013493502200967442], [-1.2800018932514718, -0.005663731249804812, -0.012438424526442709, -0.10827848146573571, -0.06928520294471924, -0.08356521335537381, -0.012685385748131967, -0.060664927696061036, -0.008000864704617743, -0.02248477136058708], [-0.6277175075050585, 0.032204352867304734, -0.031270914372514086, -0.020749098042938816, -0.07683838582833843, -0.0011714963012520066, 0.009882869948804052, 0.009700928058754978, -0.03144924077923428, 0.00303267416757747], [-1.5087594155690391, -0.00965233410891503, -0.009609245607113973, -0.06946107580000807, -0.08478401166561332, -0.034272502463907326, -0.032147906087162746, 0.02724969222356298, 0.02172791821077731, -0.04883387209255526], [-0.83914720497439, 0.002532691169971228, 0.004965658376232307, -0.05823184811804523, -0.08588091018997497, -0.02129529751340927, -0.014227863154797848, -0.03976191825449764, -0.02380388230778965, -0.015297935528330652], [-0.7207612399235157, 0.032416165168054394, -0.03672357912509224, -0.047488119661027894, -0.06367119520694077, 0.03213560537071223, -0.0015629053423674186, 0.00933424665398095, -0.017953408809483845, 0.0005088801453664413], [-0.2955280580255089, 0.02576500993084544, -0.015207329720858781, -0.05552193262822105, -0.039641715253335395, -0.06917338960387046, -0.0007511296411886405, -0.008882793148413969, -0.0018792301743425438, 0.03174189641427514], [-0.47333162704681225, 0.01528135516803475, 0.005587903121816305, -0.03484370103661957, -0.08946070658886618, 0.015634187741149858, -0.013378008897682312, -0.023480363397958677, -0.04108055594428172, -0.002791828143339163], [-0.07907617585808599, -0.0018261979333359822, -0.004853444849734208, 0.016764913650625428, 0.014046219784073482, 0.014716251022870545, 0.08749225091519654, -0.01800633083404644, -0.01543555718503546, -0.029008544500177497]]], [[[-1.1523149601330356, -0.0277886342867761, -0.10807497306810478, -0.03147464891550366, -0.04221942747166184, 0.020974902203093396, -0.04860146938209531, -0.02755742430013684, -0.019138094442501637, -0.03070571179060968], [-0.28011673698445483, -0.004734379895231861, -0.0077897666665330545, -0.016282660268398804, 0.06763476681979985, -0.013620983383599294, 0.02237261757761145, -0.028051720993773042, 0.002277162054960421, -0.020912676657462596], [-0.11082609227306998, -0.022640444523348957, -0.0015795613700505893, -0.004132130305188708, 0.04071616151617772, -0.03258093112548669, -0.031979003316688556, 0.046432966536768476, 0.012095038194681707, -0.05254176223051985], [-0.00024035852716533523, -0.09139979488291762, -0.43375390850078255, -0.3849895244624299, -0.057727722936168846, 0.00025510752048424, -0.7011664707801378, -0.012419751276261609, -0.07409815222045218, -0.00544178463555892], [-1.2113340020114691, -0.03110827701821922, -0.05482749157137311, -0.04763553418474517, -0.015515639160959799, -0.03471430039730268, -0.01644349815464856, -0.00739133948722295, 0.022984296362350304, -0.061905825040294835], [-0.32532615520219654, -0.003699076796906491, -0.026480584570883568, 0.020887667101311933, -0.05880534232172523, 0.00629140529275069, 0.01332487963290435, -0.008706613752974199, 0.02597360736037961, -0.03452883238656534], [-1.473940386638291, -0.03026393849146175, -0.03954390063234206, -0.02834898563934214, -0.038116633218546386, 0.011673173233286295, -0.04312398364730766, -0.014354624812260727, -0.020856644417667883, -0.019567406126364588], [-0.6119916564468629, 0.043669764067379234, -0.014714051343396813, 0.0314494148640585, -0.03531349059943972, -0.03251339546927401, 0.0019592870022862594, -0.01697446963157892, 0.05172915586142442, 0.00367149326121278], [-1.2644629079172132, -0.01399489063470076, -0.07758758241563193, -0.013619556430305274, -0.026100197778911753, 0.009330788011708648, -0.0047667943881166686, -0.03567157271943528, -0.04447100089412781, -0.010986566290665987], [-0.5546884053503275, 0.009319615604575233, -0.0270573759450495, -0.01655617474934579, -0.004778774765886, 0.00992609318000012, -0.002421039231665853, -0.00864524572392088, -0.007251730192942788, 0.01970570924857171], [-1.4997664280212382, -0.005703754752627104, -0.052833607544149175, 0.012741077789466117, -0.0053037634141940015, 0.006876074254465615, 0.00866595541157025, -0.06455804499893683, -0.0026127061973480886, 0.04071533224944493], [-0.934384294152312, -0.03265715148522402, -0.03585724921054366, 0.017173147092645127, -0.035755852622677935, -0.020667604612773904, -0.004127225621700762, 0.02328709418189398, 0.006328478022463221, 0.056727697100695224], [-0.70286994035844, 0.01051948660305932, -0.015749329262064054, -0.008853452758491167, -0.04417109468601327, 0.0036400590527428467, 0.014028819337055225, -0.04279565916888558, -0.021847719835692617, -0.010207748869883487], [-0.29246747879837653, -0.011139506912812736, 0.004452185939434798, -0.002517172200139926, 0.017442382145445516, -0.04942124438227079, 0.04287833831819352, 0.04405948697010047, -0.006665409678527067, 0.01255108452566251], [-0.4934388570282444, -0.024053010105430223, -0.0012813718885679413, 0.015582244101722993, -0.0008451105896283978, 0.02370907977987326, 0.0021535507657176396, -0.0028493027379692115, -0.02458685438520025, -0.020852444275439308], [-0.10397346433504927, 0.04015808264063537, 0.0016650266760241325, -0.028120428900378285, -0.00268454584068728, -0.00731483800072562, -0.08128023641799104, 0.01883043619253478, -0.04698728002572911, 0.012949919854693556]], [[-1.2968979675213061, -0.04331275769398096, -0.028321495080027605, -0.06999522985739455, -0.0637258437927508, 0.0020933214866503827, 0.013412774544913346, -0.002065383691152438, -0.017370224573226744, -0.02708347906583947], [-0.2912610409047297, -0.021070879962831326, 0.02279435169207006, -0.01923133908234611, 0.04530959460703901, 0.02030756361211803, -0.029512437359081573, 0.0011701728078763463, 0.0009317154861542623, 0.018143084700515497], [-0.1104039782756567, 0.0063172153929011415, -0.016606903143157117, -0.031986986017651056, 0.025783589910393805, -0.017053984105180456, 0.0343522079393943, 0.014578263719843623, -0.028273605920034917, -0.0064415463946700825], [-0.02366079010795457, -0.15979330296523322, -0.3447474041065392, -0.4294659358640144, -0.005623127568001041, 0.003400934751377104, -0.821450189177714, -0.020133181361278323, -0.07278156647203703, -0.04145563422922229], [-1.282325035854863, 0.015370870964381455, -0.045976873465010185, -0.0436038627470263, -0.005626350833670288, -0.007836915204100802, 0.0228116671987281, 0.019771677947251515, -0.012834812783139696, -0.041040135825135764], [-0.3215289413730376, 0.014460760912833472, 0.022945225976645646, -0.03818779075774094, -0.008673489517059478, 0.003999044956750342, 0.010579708395161657, 0.014531924305568572, -0.031198337316801893, -0.01204373316500498], [-1.531498155338985, 0.003791611197548143, -0.02477492814755055, -0.022852719078784264, -0.07029585636480556, 0.006528764675400665, -0.010807815405247617, -0.058482784907712214, -0.05441977090986601, -0.010396924792361723], [-0.6146057034367369, -0.020223303427047888, -0.0068117521211138905, -0.04882613629984882, -0.02137172340891315, -0.005623474948674152, -0.023291854734866044, -0.06652909200582191, 0.023828481781519424, 0.0036670193079523586], [-1.452461594592227, -0.019711501244619574, -0.03481983883069286, -0.047267348319656295, -0.01639260167029931, -0.034280697599981175, 0.00619064665196501, -0.019702888483587477, -0.02913756671642508, -0.013058295266428897], [-0.6234696352460064, 0.019654265695246996, -0.046808227465471065, -0.02854942130409367, -0.004033754868188747, -0.006032131187029645, 0.010531695276337218, 0.0042280866890936075, 0.021662925149352488, -0.004881658550915275], [-1.6603780072025118, -0.014968557117220775, -0.05571550757764905, -0.0588989884810528, -0.061879684918509925, -0.07144480713861462, 0.012153382271516891, -0.03839187353552379, -0.0665849190030515, -0.033221759668364347], [-0.9819654750021392, 0.011089256996598604, -0.02050447929284563, 0.0022304665990515726, -0.01403475433856479, -0.042607260005599966, -0.03948154136174607, 0.010667438255583944, 0.021795282921656355, -0.013678879572753141], [-0.7589564197715198, -0.04042885486241868, -0.07642145941819939, -0.053163556200576084, -0.017819534883424755, -0.01374348861111034, -0.0037743147543667288, -0.028885847868423048, 0.01246982528193082, 0.03842258483256689], [-0.31720294711641467, 0.05107779150285884, -0.022533056458097032, -0.026455582837601074, -0.007263974794325476, -0.013462440775719347, 0.02977134469883673, -0.026854476066363656, 0.02624471321780012, -0.00036919963398915605], [-0.4666623202676634, -0.016947356458223775, -0.00945074918485643, -0.016528793345719724, -0.07625901433956286, 0.011589564691221636, 0.012440035086646874, -0.02059622391045656, -0.04677997534094986, -0.04971220557656888], [-0.08238471998895547, 0.02745212084366673, 0.03967560254878956, -0.02827357323162186, -0.03781013658279593, -0.009580577060359738, -0.05164777596787715, -0.004935110808256253, 0.01721671900857807, 0.04106388169425273]], [[-1.2986220134739024, 0.038994389510851546, -0.018725528010394257, -0.06865105138672273, -0.056206631910375726, 0.0020009374924382017, -0.00510502706608519, -0.039337505126387326, -0.03683885161094208, 0.003548694215063668], [-0.3611967703397185, -0.04113276325095832, -0.02597807916496083, -0.03641726243004699, -0.05406756444728756, 0.007543627950134571, 0.03987228970017046, 0.058164694739852, 0.025562763877760235, -0.0242928715889323], [-0.08031059345619485, 0.02764956840809909, -0.05669372665094711, 0.016032091968679822, 0.017309845835859584, 0.0024861362573854106, 0.007753245035821185, 0.0002973952242460026, 0.038364435058600134, -0.011940709759468246], [-0.02220039613168747, -0.15047897359498674, -0.28199632664867424, -0.46920779156774084, 0.00415091152993409, -0.0132047603975939, -0.797311947764037, -0.025001531908668218, -0.03568464139137721, -0.009604068217595341], [-1.360720747551263, 0.0017301020896274086, -0.012383893228792714, -0.06207704164128561, -0.04792934830870883, 0.05074538587712315, -0.034364627169520004, -0.06653134581915734, -0.0050211364340455155, -0.007076890483604621], [-0.3465272035019491, -0.009480808044406848, -0.02455127989222327, 0.006495448470848226, -0.028490157490205913, 0.024521084357375166, 0.011614237394238367, -0.0265096559733251, -0.005369240409083088, 0.008198649422855912], [-1.5272133386137658, 0.0017277930886520198, -0.042728096803074794, -0.07365846951554542, -0.10295215172552394, 0.013999593198074457, -0.0666802498149867, -0.037571577552728386, -0.024524249983420572, -0.0206498580065691], [-0.5611143521349313, -0.009467450785789009, -0.0043063934238361246, -0.052944023887789654, -0.07284233959307894, -0.014129710107580157, 0.05802809828263103, -0.022631381460775323, -0.007040166048404372, -0.01629837491505263], [-1.3486325451841392, -0.0027050642752900547, -0.03385324418198286, -0.060293944893550826, -0.07559545127876174, -0.015434587207682371, 0.010568916335767316, -0.04512928782129265, -0.061840260582493096, 0.0029283200908786847], [-0.6815601296376371, -0.013086418582414135, -0.04124433278412618, -0.040180661875312065, -0.027524783859509513, -0.01581093351220075, 0.01783178484280949, 0.02603304490492006, -0.018203823602330534, 0.01009586789082683], [-1.6114502435996272, -0.005880543298182037, -0.013600842182326038, -0.09739798643520173, -0.08711530613635085, -0.026139459443016867, -0.018563180401358056, -0.04836768997383851, -0.008221937842039999, -0.043933761103094465], [-0.9212585116539032, -0.029182173132638763, -0.07012191071513432, -0.04851474744302718, -0.04352068370505606, 0.034060126369717024, -0.0369746756551508, -0.01075056141529477, -0.037649298819449936, -0.019585425072524792], [-0.8028073900482703, -0.02500115026998967, -0.05230693436388656, -0.04146472171218883, -0.05583691902877091, -0.006224886786008625, -0.00037504697288522353, -0.010193313846838616, -0.002128764842694294, 0.008107315050516522], [-0.25937206799324625, -0.00692917372159732, -0.003036303929723219, -0.050428511755776485, -0.03375629949474166, 0.040708947569690776, 4.218124245943482e-05, -0.030479320708185393, 0.02562921278772496, -0.011356012759484425], [-0.5191051017735479, -0.04441424279509808, 0.015571510515743271, -0.07017875543367019, -0.04049994178106225, 0.009013301328427346, 0.004980069877419249, -0.026172781956302526, -0.015213314425279366, 0.02211991094439135], [-0.03674906487849569, -0.015385951694045878, 0.010547933646127931, 0.039376150279889714, 0.016717851271935903, -0.021757121941736242, -0.010987096228769302, -0.016356399386950105, -0.02912578859521358, -0.019244073194495705]]], [[[-1.171564843952646, -0.030695875480217665, -0.06368475600720735, 0.0007937084002791021, -0.041533938430182285, 0.01356848122321113, -0.007686248185979093, -0.013434179035323797, 0.006819615232376446, 0.010608248823668152], [-0.2554520316524869, 0.01289970756659798, -0.032224277071148826, 0.07616572626464958, 0.04989421758141585, 0.020342161329956424, 0.018017917197438976, -0.0007756613484538079, 0.015610921353418065, -0.000157865705387371], [-0.10473387480202137, -0.01791432371315064, 0.009567856511077166, -0.040817290268007164, 0.008859911626556544, -0.02260984218109995, 0.013120855302090086, -0.020655303262469744, 0.045164818711612965, 0.018673147386829504], [-0.05931742394529658, -0.03363724814692012, -0.3703281712975043, -0.36469523196805387, -0.08522304029723488, -0.002942456114813691, -0.648154203703197, -0.0433580362567405, -0.11106562676962939, -0.03055036645516208], [-1.1351422379690548, 0.020524676312730604, -0.11777567537877567, 0.01396998193294701, -0.02367376036168695, -0.012692836780662329, 0.006775175045360623, -0.009779591930682542, -0.005946086245002216, -0.012480501569703002], [-0.2630123823691324, -0.013481159056554096, -0.023365906886579014, 0.0030331195883517145, -0.03298222071548455, -0.010304866050554659, -0.008394862070004087, -0.0024887870165477555, -0.03488504491524451, -0.03192418259220114], [-1.495815778968654, 0.009676282712580836, -0.11729719476945688, 0.018533940567909517, -0.020050719649141763, -0.012056938501271031, 0.009036326077802175, -0.07227694233053097, -0.05406963548459679, 0.014861713809040285], [-0.6037071393510894, -0.03933648403014642, -0.03333188533622691, 0.015714207676398657, 0.010461846615107684, -0.0048756697325021345, -0.024116197934638522, -0.0043790253630244975, -0.0034831297435570178, -0.010482006489050101], [-1.2297225367194506, -0.014517526064940636, -0.11008306952216167, -0.06384941737813876, -0.0011245230133764411, 0.03262605428669213, -0.021523491775860194, -0.039510303863846026, -0.013997474856380906, -0.017294881248101995], [-0.5959044579214607, 0.02029051511346991, -0.08942129314905353, 0.017367466958403893, -0.034258844700787376, 0.03101261534661961, 0.004548146560428505, -0.022647219715055365, -0.006284195161829972, 0.011108068833333373], [-1.4564334490343553, -0.004745193920851445, -0.11160361733839222, -0.016249369653987503, -0.017586005584167612, -0.05131814301674534, 0.0057910354668178204, -0.005792472830310522, 0.007360367796448067, -0.024970823926656314], [-0.9340775105379142, 0.010738384466590662, -0.06754856006247867, -0.026818379500756113, -0.020942126452027997, -0.00782137662075199, 0.019936671172270982, -0.020154122952733392, -0.014011780911631792, 0.003694044499742184], [-0.705890255967955, -0.0059923686357861924, -0.06202918943091132, -0.007461470041603774, -0.010141770266775547, -0.002307125405057272, -0.009978284007662009, 0.06822420791854514, -0.036389259424979226, -0.03049933277662447], [-0.32471203968170104, -0.02326301376253546, -0.023085507058264555, 0.033371056933121174, 0.04776001448375213, 0.002153900809767964, -0.06445888710258836, 0.010497079187089225, -0.04687663020280373, -0.016345474481263278], [-0.5398549524602092, 0.0010837214813188938, -0.051261312903635614, 0.016244425972004123, 0.009357520069285391, -0.011646681733648528, -7.551273415474678e-05, 0.01221748663617666, -0.019832890541962758, 0.0180571842742441], [-0.10915208131368125, 0.003547036619454029, 0.011618823244889626, 0.030969672733881695, 0.00842668928140232, -0.0019129059984758444, 0.01705237361584555, -0.03729372156280373, 0.034914046574474424, -0.03550452932786807]], [[-1.264723414069712, -0.02287385987415509, -0.08923990029253004, -0.03958369373569425, -0.029449148989353423, -0.02615232554886749, -0.06027883174582571, -0.012601708777916658, -0.039271530065459706, -0.021154330229527403], [-0.29390559233294383, 0.04025240530949912, -0.061195787144857475, 0.0024207301716230416, -0.021507541295206514, 0.038527628599342854, -0.017211065130143727, -0.06793057777761992, 0.04758774274912142, -0.02871339240230044], [-0.06664630744652651, 0.017810269191572626, 0.006334676114276655, -0.0072007062574331445, 0.008015594900026632, 0.02971679534245588, -0.010144425981589125, 0.004982839180246506, 0.01766667370661851, 0.0005557645022082414], [-0.035062171384228596, -0.06446633678517488, -0.3390831118433968, -0.4039968336025599, -0.08029172866954047, -0.03949283822279762, -0.6962192715700481, -0.0020457170605107967, -0.10271591175413092, -0.01633330796758712], [-1.277008065975323, 0.048500094594997656, -0.07040661297297351, -0.006659013798406256, 0.014379683523485592, -0.016989195929688183, 0.01924787667747504, -0.06271792079693628, -0.03388193920530443, 0.00645389665565336], [-0.23229251568866718, 0.01679534591961574, -0.011509040385728971, -0.01440942994049317, -0.03464253170620798, 0.01384654853584984, -0.009764907369932128, -0.004373868109700696, -0.02834601902829079, 0.00296300754272592], [-1.6402441046785607, 0.0035485946583135655, -0.057541981581326465, -0.03884020373267536, 0.01267493024952332, 0.0009450528576451563, 0.013133698048550552, -0.01580575344497913, -0.052635957997274704, 0.04591885081983804], [-0.5823609401427591, -0.009170884494171574, -0.05287216527795034, -0.008716016118947751, 0.00972296033026502, -0.0008146024432364495, 0.00327523710936914, -0.01306232366056781, -0.01668024631465726, 0.03070701362732796], [-1.3060842387523663, -0.05471890383342004, -0.10094620270708546, -0.07235609317613176, -0.061288135642104176, 0.010019657270672867, -0.020625937762012894, -0.09860268895035994, -0.015232866105613602, 0.027649606472703744], [-0.5693583055312725, -0.021131959118137464, -0.024764967245664744, -0.08714755015020276, -0.024668701858529974, 0.011084504347118834, 0.01126362500992696, 0.01726993463223294, 0.015079804164367341, -0.004682746024315504], [-1.5509774725990741, -0.0005744455869186246, -0.09403486133792543, -0.07158311838453478, -0.027890741962361992, -0.018255010960196792, 0.018753753741953746, -0.04123496595571402, -0.04447685888569146, -0.04108014890522951], [-0.9387528398393934, 0.02039589349352945, -0.03082783669166829, -0.11819652288013593, -0.07246650242262787, 0.04554911438726766, -0.010502527970158155, -0.02249148568404749, 0.006010103382686368, -0.0007379259194716312], [-0.7872166329635957, -0.01170988103700046, -0.014916538244187816, -0.05879185886581634, 0.030421583990884654, -0.007514579914436461, -0.0038421275552243473, 0.03329708690253867, -0.025041085934861686, 0.022652373276092288], [-0.338379700363207, -0.0410016188893992, -0.019513052749653596, 0.0172877608871652, -0.011647621629793103, 0.009881563947857329, 0.003625859481631459, -0.006647623511573598, -0.023491943587765667, -0.003749533289390437], [-0.5884219838056237, -0.017679670560591613, -0.07399911987941057, -0.01325305074637391, -0.007529453704651613, -0.025659328384931533, 0.019049022583519877, -0.01430927751110668, -0.00392360438687583, -0.016951940739624985], [-0.09728969919613085, 0.024930453796065545, -0.021872132235104362, -0.02575018049071094, 0.024230308024115473, -0.0637456381975888, -0.06923248676761928, -0.03838980937770167, -0.002183232384785307, 0.002646035532251681]], [[-1.282128675949331, -0.00338957431099033, -0.03767901184013982, -0.03108544456710001, -0.009822808902725334, -0.03248312295602403, 0.010823608640798128, -0.05471474900103727, -0.03202223467668691, -0.030674155733568916], [-0.2931633978858892, 0.008738642484653163, -0.031163271750304054, -0.04570863396326963, -0.041494635380333315, -0.0204680341719109, -0.020816810558896844, 0.012476553055821404, -0.02603362116456186, -0.0074718573359402445], [-0.10863174585781447, 0.026368703804576035, 0.03402816338749364, 0.005629086351974351, -0.00428795986900308, 0.03589770158138322, 0.011562107813690855, -0.013206376388403324, 0.02143318513731088, 0.0037650572772706626], [-0.05852172661695559, -0.08088182582069914, -0.2997494350716414, -0.4559119569226774, -0.10186566122044002, -0.010838941055353778, -0.7008822905203145, -0.02499383726252743, -0.042487720485780166, -0.00942637424445443], [-1.3076097178216912, -0.04577827148985702, -0.08503050822805289, -0.06937786993493972, -0.0026109162477685605, -0.06528987730772898, 0.006353919213741836, 0.011747184364813729, -0.03090758801077404, -0.010360253802758337], [-0.2554375169205661, -0.021607479921257774, 0.010891887259471045, -0.008540851686266766, -0.05313550331015721, 0.0013951804514965417, -0.03868926315446349, 0.006590719896405646, -0.05138003544079536, -0.05011504592462769], [-1.4868584259752406, -0.03185642129255704, -0.03598149919741852, -0.124855124126043, -0.07048421711450312, 0.012905310677307599, -0.0230967845573965, -0.060575708827347266, -0.05382047375699443, 0.005218346312283417], [-0.49258726600427283, 0.0015500518011169542, -0.0453569868563722, -0.06126665263110036, -0.053355723420574375, 0.01197003164953898, -0.028962201413545125, -0.02122674580265779, -0.044263010196080685, -0.05728980511953262], [-1.3795396461725395, -0.030215214626721144, -0.06860524098120468, -0.09414958965614886, -0.060258825990343934, -0.03799125311466722, -0.026903853050715538, -0.05579321884370182, -0.024254842156019984, 0.040606178370791564], [-0.6215765512029982, -0.038249138617456296, -0.009472585693715195, -0.06315658370348436, 0.008706653617508102, -0.013716132302958498, 0.002030932586796481, 0.06414558079647212, -0.028225170740657043, -0.018793477092937556], [-1.5773536375488, -0.010405740528403302, -0.09680356125322673, -0.11452590998704809, -0.0382320538791277, 0.02139599471406265, -0.02623993816176126, -0.07909386055634358, 0.01630632167204392, -0.047731170978351375], [-0.8199476493752009, 0.0002067932331932757, -0.08176867863358946, -0.06111624655330402, -0.06355045446125489, -0.03669443207169336, -0.036211728804960444, -0.007448214819611831, -0.032979985034759365, 0.016567607312425816], [-0.7874086970994866, 0.014667310066432227, -0.006136187005986352, -0.04859167327040411, -0.04769592523283005, -0.008676760506687703, 0.03393500471235562, -0.008520611868590475, -0.01617486142327726, -0.04733792463455567], [-0.2547122856148335, 0.0379444677453752, 0.019581990783515482, -0.01609216479249354, -0.019534992723638518, -0.028539530930968872, -0.015971989199810147, -0.050053271180258575, 0.04442004214854675, -0.008039637953056396], [-0.4345010907762316, -0.00802944875043199, -0.06189293666195028, 0.004729027545417534, -0.04818294009994768, -0.019654101203166453, 0.04188864146393753, 0.018114660881573527, -0.06478799530842504, -0.010003937141571585], [-0.13182536457817975, 0.011597482754769385, 0.04556038931041552, -0.020429056350943386, 0.03241220939104777, -0.02741277662271314, 0.05760385749880587, -0.02172551258317074, -0.018949315331910375, 0.005644919575168132]]]], "biases": [[-1.066152346553281], [0.5069883125688648], [0.438762305959699], [-0.16937933553708717], [0.2302492330854875], [-0.5473965893716013], [1.0070553480436502], [-0.20900251967759687], [0.28497186028107535], [-0.20939109825212654]]}, "layer4": {"weights": [[-0.007991381353066061, 0.00612001369603332, -0.004438630177844444, 0.002375047113947432, -0.0052495031893657895, 0.00043556572987623205, -5.1704523349116795e-05, -0.001859365208863341, 0.0019345908534620345, -0.004433030109120707, 0.0022007778321578484, 0.000790047229176637, -0.011392541261743943, 0.007917141385936351, 0.001458424078549401, 0.0061419260310133315, -0.0007207609238555323, -0.009403460497592005, -0.0016572400968728267, -0.004864902752809115, -0.004659208224298224, -0.001928112180239265, 0.0004132781837971502, -0.00693308435347565, -0.00028725041815003447, -0.001820568054747421, 0.0024683263851256287, -0.007108136819765333, -0.0016771339942947634, 0.006550761742422655, -0.008564203972396114, 0.0028875008570492227, 0.004930106205271154, 2.4991479113939777e-05, 0.003427355993329236, 0.004113592557768747, 0.006158489280216643, -0.0016562730416426754, -0.00043706726466226457, 0.003183199372540151, -0.005355362018282009, 0.00016110911543303202, -0.003006095103987675, -0.009150869128403169, 0.0009597001156282767, 0.006736708685969255, -0.0015180782730437657, 0.0003169642390188602, -0.0017788088072296863, -0.0029263024678997697, -0.0008594568013138783, 0.004218828163744852, 0.008475314937273453, 0.0032954068919572557, -0.004182951959332078, -0.0056260259338705276, 0.0051276274359533126, 0.0013343829557362719, -0.002394493379232572, -0.004174298177299608, -0.004381871614670346, 0.004830421075746924, -0.00043640933596811706, -0.005527023521247733, 0.0028854362097711756, 0.0012419902883129567, -0.0011781562412114842, 0.0025099389182667983, -0.00325462893704597, 0.003810354569490215, -0.0070312543006937, -0.0037551100221754623, -0.005815405139927952, -0.001640950888880309, -0.0037788242099148633, -0.0014258813686896068, -2.515510717778864e-05, 0.0022884123419745104, 0.0005505631190407328, 0.0009994301383135097, 0.0052346760075068655, -0.0013833290359181315, -0.0060818730901986045, 0.0037396042863590555, 0.0064777737342494555, 0.0007249660329385092, 0.0032091715613653264, -0.0023407309220942404, 0.0005772971437869103, 0.0025296509180285066, 0.0019510179826628775, -0.0024123875666197617, 0.006398159953429455, 0.0006125293500159814, 0.0033590861869499953, 0.0015863896590272793, 0.0033017410869284466, 0.004099054681907885, -0.001111504165363052, 0.003305535671603129, 0.005090269518959199, 0.007896655858216788, 0.002795605982392012, 0.006600988755626378, -0.0053627277687384135, 0.005819426575072057, 0.0002840315676450126, -0.0075405703276572, 0.000653410826448193, 0.0038500319411667733, -0.008159005011727623, 0.007648323223774808, 0.00497068145231777, -0.005055565935680166, 0.003553296426822628, 0.0004412393343874184, -0.0022069521099360072, -0.0019139803532958618, -0.0017592969823104951, -0.004817924100062491, -0.008086425243972347, 0.0027198087960121774, 0.005290358842913521, 0.005801055832292847, -0.0028867549712341964, -0.00046523104465467013, -0.0034388865589714728, 0.003458001008427313, -0.006516373829782552, -0.005397466014180336, -0.00814378584568178, 0.0009665085073067381, -0.0014707114001819958, 0.0001920177463783982, -0.000299326141474164, 0.0009195676374579046, -0.0041415639648033275, -0.0017196685469867852, 0.0022854251417186414, 0.0010965297747096594, -5.100446126506423e-05, -0.002976699247560198, 0.003497076737566477, 0.005847638839060362, -0.0007556995935213176, 0.0010488890882103098, 0.0008365255145839326, 0.0018109504745105994, 0.0015474333544121372, 0.005792907508256565, -0.0022629456214123614, 0.0033993343312380716, 0.0011612542924733546, -0.004089315399744901, 0.0015456239929000173, -0.0009089560593797683, -0.002550937132410952, -0.003879135676529651, -0.0002442683222771628, -0.0024213837289776903, 0.002934539333245511, 0.0063020330054752716, -0.0012992377330387362, 0.002817989263776169, 0.004150238978257907, -0.0006786739654261123, 0.007280292010671689, 0.003264305920129798, -0.00035120448694282095, -0.00713364228490075, -0.009775196582849487, 0.0012156850640262858, -0.0020506279758414647, -6.603795725363869e-05, -0.0039047116700504612, 0.000983687777752235, -0.0018404960829127978, -0.0065344719126212356, -0.0013068798922820008, -0.0022776714034638116, -0.011508843985261415, 0.005496583508958964, -0.000589754476182788, -0.0012711695956293585, 0.0019964657413263026, -0.0003242311907628925, 0.0029445042557014363, -0.005946359428281827, -0.004185020739943157, 0.0021530359048773737, 0.0037651973402128562, 1.1429359065409425e-06, 0.0008326407422614961, -0.0032547009730101713, -0.0007209364447432864, -0.002803351961008296, -0.0007766347623258737, 0.0031972750527737796, -0.008181077513920538, 0.0008463014587083362, -0.007114037661337605, -0.002560768203583715, 0.004310184603564961, 0.0010901949903448184, 0.003525873691653446, -0.006974244540927332, -0.001631079361384446, -0.0022970622063321886, -0.002329840166769943, 0.0017381198880715104, -0.0025889273406518505, -0.00438014420387098, -0.00411396369018477, -0.004969141252600075, 0.004099802615879555, -0.0020378899272378345, -0.0004241820700337761, -0.0019344941493320035, -0.003809820743933203, 0.0014618976437413337, -0.005462882396994071, 0.0037077547730631232, -0.001176208157752358, -0.0011449087123074945, -0.002955197351305877, 0.005876743597419927, 0.003942868809540781, -0.0006166182551462973, 0.002563487308410892, -0.002329900814889339, 0.002271945096560178, -0.0023630774132303834, -0.0016230293319315677, -0.0014147468167870845, 0.0062653842984194555, 0.0005765136014263929, 0.0042347238330611775, -0.0006214190750698404, -0.004791592758257025, 0.0030543015940056374, -0.0068756182142988695, -0.005240118135563696, -0.0016867519316293201, 0.0025398715594923903, 0.006844722497520756, -0.005489904018289927, -0.008746752591143842, 0.003472758280486955, 0.0012026392363885833, -0.0022408953614695333, -0.0030742068326605164, 0.0028577665859946685, 0.0074254943913391915, -0.000492508939283966, 0.004930925100404143, -0.0017873177207660086, -0.002059946147499889, 0.0013335574466554541, -0.0043702334380961595, -0.005164854990751551, -0.0023557822289512792, -0.007780221331631293, 0.00022502012755133143, -0.0012678471181672441, -0.0018569381907730669, -0.0052627696112080465, -0.008079984078683341, -0.0030584007429131596, -0.004552742705099607, -0.0017029508076663018, -0.007004227161881888, -0.002953852077037262, -0.004534315927474434, 0.0011652222521627553, -0.0037094052452980556, -0.003784334510111469, -0.0012053454544866786, 0.0005982753022545995, 0.008384913306303114, 0.006359033926039039, -0.012038762549325973, -0.00527577285687043, 2.894056308324453e-07, 0.0022353150115803737, -0.001436718183725031, 0.00859162498987165, 0.0046103258870662635, 0.006232884720397322, -0.0016895811368389344, -0.003548321230626907, -0.007507568015617012, -0.0004946265465974758, -0.004955361541627643, -0.002473645488731253, -0.0023627327777438712, 0.0037310762371694146, -0.0019519795012187674, -0.005251546930083565, -0.0019849354506365625, 0.0007538671578497413, -0.0012720224072655935, -0.0036533216896694146, 0.002480039318740322, 0.005398165946787642, 0.001919547220539485, 0.0009407844208730793, -0.001775374135156846, -0.0028563950507180017, -0.008024055588613778, 0.002401163502080573, -0.00718211791379161, 0.0005979508706765658, 0.0017511889237959816, -0.0031518678396002518, 0.0037596978943827634, 0.0004441485953231618, 0.005901782078180011, 0.00010721783797165828, 0.0012606415862738282, -0.001096710284625992, -0.0011871278649272258, -0.008326394918004553, -0.002387147631302338, -0.0011986624082244329, -0.006639195721683237, -0.003146164844857966, -0.008616299071521814, 0.00036618650674838203, -0.005551791967334402, 0.0014450191567249272, -0.00711510449983127, -0.0033168426447815168, -0.006300968401881711, -0.002671067790771653, 0.0007106808908641694, -0.0005013182110583199, 0.0025905378233942867, -0.0032473859915701786, 0.006363235564588879, -0.0009511982844395159, -0.008434935388031757, 0.0051490140442413575, 0.005237872062748205, -0.00033636715700648286, -0.002192411171961488, 0.003593964089842797, -0.0035837912410824286, 0.0035110017885172, -0.005452242998468341, -0.00034224742252854666, -0.005808442290645657, 0.004746591470216139, -0.00747315737648307, 0.0009366215828789853, -0.0007724306620086099, 1.0739776065725328e-05, -0.003543272429225988, -0.0055276870045370885, -0.0017769549035505405, -0.0009730803507721073, -0.0015701113944552505, 0.0004156639465647525, -0.0003165439991363715, 0.002777911960441066, -0.006955906190242875, 0.002858325239070103, 0.003571713288404713, 0.003136284322734692, -0.0012567912675179255, -0.004902881468827643, -0.012067225172870535, 0.000965345559875626, 0.0018048492222015105, 0.005069654964415155, 0.005269387590603365, 0.0034496784508185525, 9.022164322443817e-05, 0.0004938734292511762, -0.0008851919531930345, 0.004150531668829732, -0.005552649506846541, 0.0008374830660463305, -0.005226932096513627, 0.0041788504674395285, -0.006911610517975925, 0.004868191589114739, 0.0038354341637775184, -0.006601306591991288, -0.00022815329386192184, -0.004906645500783001, -0.004646891044912931, 0.0021637125676011878, -0.0005301095094720774, -0.005343845600949196, 0.0003176368880701723, 0.0010159931599939733, -0.00018501815012576995, -0.003868781317907453, -0.0015589521826893998, 0.0010785741951335713, -0.00262828440116346, 0.008335157694667014, 0.0010285151406414224, -0.0008650453641224866, 0.0020688373932448855, -0.004372276818845547, 0.0016621011005162674, 0.0060653613007815715, -0.0034933522275018562, 0.0011783031948892, -0.0014116488249650211, -0.006705038699911551, 0.0063024236551828166, -0.004167629596505392, -0.0013782486444770237, 0.0015029072570756062, -0.0009320666400944414, 0.0026504269603382616, 0.0006011462809743556, 0.0022372029553207667, -0.005945870534852144, 0.005800477961384704, -0.008202412852730379, 0.0014277202370234952, -0.0016295675832782846, -0.003792968946771866, -0.0032359083683517155, -0.0026965786319238794, 0.0023005552560727916, -0.003560927745417651, -0.0066327610777041825, 0.0010587861902389018, -0.0047347833565765255, 0.004398274991595417, 0.009131828968978692, -0.0026660651660133936, 0.0035904601162793158, -0.0014490156178952056, 0.0021537104821498705, -0.0007310103927244637, 0.002821505653729366, -0.0013131316339940094, 0.0029221110406271325, 0.002391198230694878, -0.004638185260336442, -0.008539590482856695, 0.0022365560662469834, 0.0030450866991701426, -0.002054833702486328, -0.0025176323172859403, -0.003764795453060428, 0.0033397714338347186, 0.003377595776991347, 0.0010225381042982084, -0.0036080155409939684, -0.004815431694650232, -0.007935219725794047, -0.0007117226312778387, 0.007665828476196812, 0.001871867714599568, -0.009322504117713624, -0.006038064206155893, -0.0030236923366015866, 2.476648600046097e-05, -0.001829038562904992, 0.003588205871331884, -0.000685810781273238, 0.0022850847867500954, -0.00038478938271323314, -0.00076839489008104, -0.003717081455448966, -0.0029728373250106125, -0.0014835723257269808, -0.005097211048542609, -0.0005804596101790351, 0.004227248702316255, 0.002640185781237408, 0.002385114873445686, 0.0042238927515611925, 0.0024546213727068096, -0.005103509011029704, 0.0016000467753786434, -0.004157750445109712, 0.002105073332102375, 0.002802730848212724, -0.003529203240813724, 0.0008768025531628365, 0.003962868730056147, -0.0015081185971804324, -0.005215130849571829, -0.0041033497832566644, 0.006284465234128932, -0.0035894334481606587, -0.0003736741423633589, -0.0036799265649625924, -0.0014242933847815468, 0.0008638374456945818, 0.006071313799174305, -0.003003063201490068, -0.002788804145239053, -0.0036856063720314895, -0.004338367641528895, -0.0060206379628435095, -0.0033599826046663227, -0.0001900126447855288, 0.00015731444162252485, 0.004635179496069096, -0.0034155939312861725, -0.003082459596022752, -0.0029928085709526506, -0.0015596450398405448, -0.0006427220055373625, 0.0029592675000035913, -0.0031172841267603554, 0.003668857536346811, 0.0037231514755688595, -0.0010508985564938623, -0.0028945943648353337, 0.0007240563540709639, -0.003138633439434914, 0.003964692718764092, 0.0005321780839075275, 0.003010878617503341, -0.005014279537649558, -0.0071537199364883584, 0.002714310752757683, 0.002009048721370762, -0.0034324254680118513, -0.0022167308050109707, -0.002703681360206377, -0.0032556540965438087, 0.0036198313057033884, -0.006174118357534173, 0.0018850975880815985, -0.0036626137785861733, -0.002101100738553801, -0.000684631551852914, -0.005668571713613134, 0.011310622988740119, 0.009572778263608535, -0.002444193549819348, 0.0025685046846552124, -0.004288918733179212, 0.00936623258242349, -0.00010897884502168126, -0.0004892848691727436, 0.0047001662014434205, 0.0005679710972546847, -0.002974990832621002, -0.0008828183598228209, -0.010231821931701413, 0.0002360836223691391, 0.0018652015779187041, 0.0020691286418430886, 0.004664131144912075, -1.9681717741767895e-05, 0.003729313839298875, 0.006099662991473673, -0.004749253656065355, 0.002796226206430222, -0.014165758352179474, -0.005968376276086271, 0.0059831163849712885, 0.0044720580696446174, 0.0011074410375363371, -0.001891487662205405, 0.005894348608693529, -0.005953402721337515, 0.00034843277916152206, 0.0018971894685642996, -0.0038939820827941507, -0.006014170233311917, -0.012464307951056757, 0.00044637124904912647, 0.00021485788476043011, 0.0006812764506797109, -0.0035001082298225495, -0.0007102862573459197, -0.00601076846416935, 0.001650291324947817, -0.004427529755004391, -0.0028679386447283046, -0.008203628649625405, -0.0005081253714545516, -0.0017784037296345646, -0.0003229531654898142, 0.005126363494824587, 0.00022840579912954213, 0.00818441955032865, 0.0015214431988677818, -0.008077562489727741, 0.004496468281349569, -0.00024449935662599676, -0.0018990271874147944, 0.0004772221331909788, 0.0004519590674296367, -0.006188554795061001, -0.003127238837718859, 0.004358689910864684, 0.000687440972914242, 0.003240316952938156, 0.004016413070373619, 0.007176207149727894, -0.0024855453091922265, -0.0025809483408395627, -0.0036687285293620794, -0.002372526297941061, -0.003714001975623994, -5.982775394481504e-05, -0.0004284544296813492, 0.0017714033498531859, -0.0047182337193042555, -0.002560804719130928, 0.0014510398164558618, 0.0028939889636756225, -0.009164390956372063, -0.002391035123659703, -0.0013468071605258732, -0.008061324448397954, 0.001765774837182416, 0.003499500767567032, -0.007694385035466035, -0.006103188571524969, 0.0037685480365463532, 0.00450406969136102, -0.00503956713115266, -0.0039270053751007845, 0.0023219824042926603, -0.0009378614318663456, -0.0020721410194100747, 0.004922006656579209, 0.0011627751128737236, -0.007039464223044186, 0.0009876935819336968, -0.005393287953954472, 0.0029241156148844347, 0.003843745263487497, 0.0015780960851852902, 0.0037308060815725848, 0.007753873189519045, -0.0006108093482888729, -0.0014724829350384462, -0.004243548026464033, 0.0008419253826766409, -0.0038046847756655114, -0.005695726186396902, -0.0018657706427462062, -0.007399756936394179, -0.005054778115026917, 0.0019623067543128835, -0.009344990999174818, -0.0012086625658132184, -0.0001405148530425815, -0.007769091611736001, 0.000779206123932736, -2.414522822008493e-05, -0.00021076164044567475, 0.0007857717876302428, -0.008473924641349313, 0.007532975246126964, -0.010113798761752021, -0.005661681480866216, 0.0003311765832904578, -0.0050536217675181, -0.0002593160472622942, 0.002129396224829612, -0.005229350206892756, 0.002770820809354914, 0.0006134455505165242, 0.0013566455548023686, -0.007332185086929665, 0.002049997575855653, 0.004136662325310475, 0.0033792660081773886, 0.001031854747346161, -0.0030238089141307843, 0.0011290416472334026, -0.0027865949581349445, -0.005684672217259346, -0.00016582629715806649, -0.011106845929057706, 0.004513917411428567, -0.000312544061646902, 0.00018365782326256402, 0.002179878453380189, -0.0016536354421952664, -0.0010134432322034715, 0.004319895806441053, -0.005566754219181167, -0.0034149234221093807, -0.0027714200393740064, 0.0031291955172956646, 0.0012144176483570672, -0.004536823981578286, -0.00406570488753692, 0.006697327991799654, 0.001260152770153569, -0.0021589701720113306, -0.0021205080666118164, 0.014741575274096017, 0.007010797006843867, -0.006498524947074299, -0.0016207985556569687, 0.0029197695633656796, -0.0008544214585497756, 0.004483290559650604, 0.006968147121540666, -1.5427215562949187e-05, 0.0011619273090382395, -0.0006651737600933819, 0.005187922664083421, 0.005921495416165627, 0.00393064073796785, -0.0042438191678532316, 0.0033599852188262547, -0.002296570613900683, 0.006903716975628129, 0.001707015451460292, 0.004184023716612201, -8.607241699167753e-05, 0.001501542744437125, 0.0017074481483471285, 0.0001971016274665856, 0.006253610946326354, -0.004072983353498217, 0.002698349414737967, -0.0023237715532067396, 0.003379880624744909, -0.007086854623013231, 0.0050798561359663335, 0.00016117752554706787, -0.004866107540059763, 0.0031673567026447077, -0.0007638627498898288, 0.0016889584259782992, 0.004842060987892046, -0.004317288431290998, -0.002758971722447047, 0.00035725928923085207, 0.0022418529710239586, -0.003694583740038734, -0.003117065408433566, 0.003292173506501922, 0.003858074972400822, 0.006212456343441486, -0.0011763936734260376, -0.010204629361214823, 0.0020217329682759113, 0.0030531341048965965, -0.005807977301725798, -0.004131888327925303, 0.001108687879553882, 0.00146006678560421, -0.0018662482983605121, 0.0008128128535849128, 0.0023671201632082554, -0.007010670626840708, 0.003260050557677356, -0.0013887645714739801, 0.003003214506006635, -0.009670846122101086, -0.006747563678023955, 0.004634706061709292, 0.006464796864467617, -0.007456496519893412, -0.005108684210666518, 0.00039294070028904294, -0.004636750876095308, 0.0030738353670276245, -0.003168161399938841, -0.010327128185471348, 0.0008583383896226109, -0.008821531377309283, -0.001277324352923614, 0.007327966098995137, 0.0023235816495368183, -0.003929993670877862, 0.003586131891998336, 0.008120355553748085, 0.005045588687421139, -0.00852658669629783, -0.0025808601454656637, -0.001527512571228539, -0.004123895390359084, -0.0005672733727172521, -0.003972338949096062, -0.0034487585798344306, 0.0010692137020772978, -0.0023908847811894636, -0.0008185090302950727, 0.008130571734708637, 0.0014740520250329859, 0.004943622345367454, 0.0017828855048612404, 0.0021093404566639843, -0.0053308335308176, -0.0021385566548439124, -0.000690749883719052, -0.0019375440581475502, -0.0008659397135703577, 0.0038701860983377688, -0.0009140796788142597, 0.0029966126500287666, -0.0008758555919928203, 0.004571157344349624, -5.6511229600205556e-05, -0.00236243536159171, -0.004713869504199594, -0.0030450756450723106, -0.0010023346027158442, 0.00904558499525329, -0.005037459969726128, 0.004468030525074124, -0.0002900725166014709, -0.002652110348503172, -0.005216568684006208, 0.002162240733144131, -0.00733729923388768, -0.0018278372616418019, -0.0017364561060592546, 0.003633873951519008, 0.0022976107272072123, -0.0020203507545717733, 0.0005132975143481302, -0.0039596379183044, 0.00022442374048567364, 0.0024032987444109187, -0.0011059227541453391, 0.0014634467017709024, 0.0004202095193861415, 0.00189435057782091, -0.0002438870394839079, -0.0004094346314575659, -0.007791449587743963, -0.004959863350273834, 0.0017085081893814273, -0.00825636133067491, 0.004955714995514695, -0.005553938948089476, 0.00012887406033157466, 0.002689305220851116, -0.0025242947359303877, 0.004818830826938954, -0.005425734136771908, 0.004490176463364904, 0.0005872882363949214, -0.0005998023459513602, 0.004149188568346772, 0.002163753649915834, -0.004759802876591624, 0.0032322634844560243, 0.003958670769082107, 0.0004646181974413757, 0.0005833802746633853, 0.005827837005040966, 0.006557528312812735, 0.002417946092640401, -0.004767171051109809, 0.0005343967423233299, 0.003234098551942525, -0.008902535258681248, -0.004776509618680192, -0.00011885750263351146, 0.0004381269139073233, 0.001439502808439321, 0.004869254839376961, -0.008628462126592091, 1.48576198681077e-05, -0.0007898693086210653, 6.318273730773003e-05, -0.006711133203481394, 0.004051450679973894, 0.001954092509110462, -0.00017312960950703163, -0.00016668273335578108, 0.00042427848096181095, -0.000533879271748012, 0.004770884149988914, -0.007660796883587302, -0.005529457820576634, 0.0014645063194299898, 0.0022664560537728018, 0.00240926385254847, 0.004620485888129886, -0.008553361354339248, 0.005696062769420764, -0.004622311405222107, -0.004002563627137282, 0.003902380925049817, -0.004592718364325366, 0.002754457026265855, 0.005644099228410382, -0.002428627855138419, -0.0022700197856597797, 0.00240335426220065, 0.0035503887540147814, 0.0013598239144787271, -0.005906351425337421, 0.00624761483181494, 0.002398690318719418, -0.005410239649752645, -0.0035676514259656384, -0.004004409465745339, -0.002940934359398236, 0.00122513276976407, -0.002815128829122462, 0.004833007245149665, 0.0050168238883754115, 0.0002949049112175414, -0.004159682127288732, 0.005605865408721279, 0.0016052170314206809, 0.004840299991729899, -0.0017128978010582298, 0.0008608126991634909, -0.003933854961452296, -0.0018273370112979156, 0.0052917098444505714, 0.0063126300578944415, -0.0013555004344205843, 0.004459917926524794, -0.0030052069618274916, -0.005789538538966896, 0.0015545130115392934, 0.002653077164377988, 0.0023944232476818916, 0.00010446959315554347, 0.0027179480975125206, 0.0006626759551989782, 0.004931443027666029, 0.005278099008328043, 0.005733276646726896, 0.004415278997760226, 0.0014535477196501042, -0.004049574511379751, 0.002051903097739688, 0.0012682647198181344, 0.008087765079026333, 0.0029533373859455705, -0.004458448076078111, -0.002349700569557444, 0.0038007302301667108, -0.0007513957148620555, -0.004746585532717342, 0.002674476109572921, 0.001960384278250353, -0.00047425042680252866, 0.0035845068758441866, -0.00037342771538210394, 0.007378902994001983, -0.007086425680696794, 0.003575159682681107, 0.003727773643247925, 0.00500917144100353, -0.0001967623110321609, -0.0016223710972046003, 0.00686710406387743, 0.0020122112185553616, -0.002258263309475452, 0.003296903753516133, 0.0001154479351765346, 0.0026184824866042986, -0.0032458383737093365, 0.0038762451758983883, -0.006389336346893407, 0.0030803977512124697, 0.0038463935970217246, -0.0012304431706450967, 0.0010753461306846665, 0.0006135837916021158, -0.009408197380797498, -0.00340308362152128, -0.0014996980736713436, -0.0024357948017273063, 0.005301018460550478, -0.005348433381856774, 0.0070794667525865655, -0.0013399261412494726, -0.0031903974124361813, -0.002138524609102011, -0.008698665047498505, -0.0080440270189552, 0.0030202448394894815, -0.0005594376624175067, -0.004016897691076399, -0.005153133188018401, -0.002254444363168925, -0.005066036308192936, 0.004953877990308494, -0.007515301653891905, -0.0036492799621017395, -0.0034984224929090584, 0.001873332653553185, 0.0010535127228161344, -0.0009513536758071614, -0.0006726138910566944, 0.0015660194522940768, -0.002910615033538978, 0.0018393041683465094, -0.00526341751742611], [0.0029349893531709515, -0.001901360603474664, 0.005097534113991076, -0.0047798401990354015, -0.0016095167554211701, -0.0032399889586136313, 0.004502602429871283, -0.005253456832364364, 0.003496402213496311, 0.0018531577941878897, 0.003536104160254379, -0.0025605088588957696, 0.0028865966185443836, 0.007000857548053464, -0.0023253612420038273, 0.0010083565173519807, 0.0005059323006237948, -0.0038728939997335655, -0.0032562569413492307, 0.0020925464886505543, 0.0012389999829683978, -0.009500273322089432, 0.0031914352133476675, -0.0011402935755281535, 0.004268166089880883, -0.0025368871657756114, 0.011241789690520443, -0.0032982196028409536, 0.0030392300032030016, -0.004245230314350271, 0.0011239738148653604, -0.004409081794505392, 0.005643139415426191, 5.4624472305226434e-05, 0.006537532044708484, -0.0003759802816707606, -0.0049257183258055144, -0.0031503476111257446, -0.0015285639647953453, 0.005454541517736578, 0.008603080432306922, -0.0004505455605775116, 0.001289278217054528, 0.0050357644266232, -0.004312563355209211, -0.001235583010890005, 0.0023373575209030676, 0.0013143470401801355, -0.00030099228627728327, -0.0038733050251333135, -0.004364534933253777, 0.002726435028567659, -0.0032419375819088634, 0.0003008352629094477, 0.007909202073548399, 0.0018989946213991632, -3.910909656769466e-05, -0.004335955951526739, -0.0021503959008173867, -0.0012609295532062129, -0.009355266293843744, -0.004940206956396993, -0.006648510440504853, -0.000894891805701567, 0.0026381495802000857, 0.0024457427469529586, -0.00079129147796601, 0.003372457481198851, -0.0034228070149957953, -0.002703419267168922, -0.006293226094693319, -0.0036876308097098217, 0.0008521831487339183, -0.0027403728715483786, 0.0037959175592504036, -0.0034649613460196508, -0.0006497630040395424, 0.006647081681731992, -0.00496345505426082, -0.002180423738568955, -0.006120469446495789, -0.004232283145194571, 0.0014169864009235806, 0.0018927444276515817, -0.003079214425390692, -0.0020141762397793274, -0.00037678517971878383, 0.0015129568020764061, -0.004648449013228076, 0.009095153689949636, -0.0013910857228590198, 0.0005006022970740633, -0.0017548991023947887, -0.0009899510958406232, -0.0031666429291756113, 0.006463958823047597, -0.0068839097953524225, -0.0003719549574039153, 0.0024995160989305467, -0.006316886722700773, 0.0031848823754151933, 0.005337558343740753, 0.002097905658193791, 8.24646013878225e-05, 0.00016350767256870325, -0.0011105641212398151, 0.0036575027812048118, -0.002893458478562961, 0.001292760134958173, -0.0013152794079149186, -0.00029012738761093667, -0.004358648860800293, 0.004034729878649585, -0.0022025221174147604, 0.004851702649317606, -0.00010830237511509818, 0.0025440045091568095, -0.0036286539856483324, -0.003950970846334412, 0.002176376490745037, 0.0015948339091245971, 0.000460871531775197, 0.003911908373883895, 0.002249700430539537, -0.0005607781226044299, 0.011443110707183485, 0.015550972100569927, 0.0023645474635888256, -0.005681390185037766, -0.0035328454248984885, 0.0022245858785509493, -0.002164877592815838, 0.00031194156021999636, -0.007715660356983845, 0.002480628661233877, 0.004778254147341586, -0.003286533728201785, -0.0011601624930318495, -0.001401197047346946, -0.009833312668042826, -0.005872926223156719, -0.0022074002232044592, -0.005690403996694835, -0.003418946270224334, 0.0011833772163317604, 0.001350790702325425, -0.00022077948847989883, -0.0024562673049858814, -0.0032326779313021745, 0.0005628274729762238, -0.008717451436332, 0.004128348166056327, 0.0040655323254463445, -0.001989054089856967, -0.006802591783265438, 0.0007259581250372004, -0.006943834396730596, 0.0029066227510297932, 0.0027880108489513724, -0.004161458803211306, -0.004094994528125287, 0.005549034938606845, 0.0010138312378884658, 0.0022118496868272887, -0.0026624846108040776, -0.0033958456903881193, -0.0003061564933690185, 0.00068352527696752, -0.00038852142973618405, -0.0002776255979812551, -0.003986333826187578, -0.0007800058269804337, -0.002067896453399145, -0.0014157098059192446, -0.0011725395528226971, -0.0019229239899735636, -0.0038918818035656604, -0.0018766400450618119, -0.001944493346487164, 0.007850812113623575, -0.0035638018187452844, 0.0068674603998980874, -0.0034245222402209613, 0.0028647460283737344, -3.0838087200422005e-05, 0.006691696036521983, -0.0038613525379469437, 0.007516342374212703, -0.002577010622087156, 2.8444243456210152e-05, -0.004298847818187866, 6.011968384178619e-05, 0.00015123831957412128, -0.00432634758663895, -0.00670077456043612, 0.0035639289638631786, 0.0025737854869765197, -0.002167143178229657, -0.0005537159097466256, -0.002866154717608505, 0.0015365596333306612, 0.001141586859085193, 0.0026075645320498006, -0.001856761415976149, -0.00039390379693815053, 0.002041702866130624, -0.0004073127832886838, -0.0014877092566145352, 0.0003244833144366649, 0.0019796837213646415, 0.0010839501312225118, 0.003355938091967389, 0.0013627426923780567, -0.0024749127436864706, 0.0011493450943048848, -0.005756872585620838, -0.003452367597567664, 0.0022473947267507045, -0.007017810223545393, -0.003160310903305032, 0.00619221385686351, 0.0014651854603445922, -0.002022592463039791, 0.0001935562317234391, -0.004695163914688333, -0.004502682668178956, 0.003327432730300364, 0.0030548729043367476, -0.00012159002011711657, -0.0003362428406124951, -0.003608989672063753, 0.00033018495622382963, 0.0034908190416379123, 0.00459303596920901, 0.002050067299074094, 0.0004822615619615891, 0.0026945890464232245, 0.002262149710560956, -0.0018790513857984313, -0.001467680838434827, -0.00814751580533493, -0.0024874651542655403, 0.006995346957691659, 0.003131001229179155, -0.0026625828201457167, 0.0001675017766800548, -0.0011953705008264873, -0.0005730140178501176, -0.0037754938651572713, 0.005709730154048141, -0.013023021836272037, 0.0034474549855421934, -0.0004425503642987107, -0.0033451690017453992, -0.0011216333739629024, -0.007314431357457986, -0.004061306257427536, 0.002555638988563785, -0.0020774087619809195, 0.0011712686487505503, -0.01860475657361032, -0.0020504764113033493, -0.005865543346127153, 0.003466823660205169, 0.0001095802156594551, -0.00018670959778194557, -0.006476910797914287, -0.001161111985251116, 0.0030706316649396393, -0.004119928894440313, -0.0032817532000033924, 0.002853071795563468, 0.003994060592129428, -0.0015790843653192643, 0.003808424080106503, 0.003956040367973716, -0.0028446882983083344, 0.004619829953261651, -0.0019000734418719118, -0.0002874603175958009, 0.0021904574372036863, 0.008109023041239647, -0.005827627428598934, 0.0035885038568108786, -0.00492714831936028, 0.0008373575074831203, -0.004534366966799212, 0.0013977279409654307, -0.0014211238896108885, 0.0015577890537291305, 0.003946690864064486, -0.0011875128279848829, 0.003842231710998178, -0.0010495578611972598, 0.0034725184300455603, 0.004672228945360561, 0.0015717279995938033, 0.0017049389837017468, -0.0072468449810056965, -0.0030505594008472386, 0.0006259058701813792, -0.000424478579881619, -0.004038382506795966, -0.004976727719519971, 0.0002947462494856525, 0.0008233560511363325, 0.007119873196724117, 0.006527732379749905, 0.0020901216473088956, -0.0014334143318092752, 0.006217189045983022, -0.0029667854983825293, 0.0026218562876316664, 0.00731517863910539, 0.006793837442820572, -0.0011944350202549435, 0.008783081871257335, -0.0005697446086602768, -0.002423012170914638, -0.006356423685454452, 0.0037947013904691632, 0.0012631209242717476, 0.004955691040882929, 0.003493689661045366, -0.0001577844036357618, 0.003411934130324424, 0.011383560568003043, 0.009733911009126607, 0.0030753647048604063, 0.001138348383322237, -0.0016640996335350851, 0.00029733606861007404, -0.002342437196500994, 0.006461542301842716, 0.0035268430965957774, 0.0005795445576075726, 0.00606709402559529, 0.0033151713403797847, -0.004923252427702463, 0.004880724664086203, -0.00938296387590817, -0.00525144204733836, 0.0004640712020458483, -0.001272556019142299, -0.0031161717181483607, 0.006259937533835975, -0.00360871075142467, -0.0005816107984074795, -0.0009421385281612028, -0.0015627983669846085, -0.009200941681774391, -0.0012578840083843368, 0.012004634734200976, -0.00432856341563152, -0.00028151775728116633, -0.0018587200593892775, -0.008784251383386713, -0.003012300336582151, 0.0001282466619635311, 0.0036747245477023443, -0.004982096802965513, 0.0028076222879258273, -0.0023813286793704274, 0.007376528147942861, 0.0061633614320059345, 0.006969532021753805, -0.008234154770545806, 0.0022934750286983017, 0.0027535772529428096, 0.002310731104922234, -0.004906384851996332, 0.0022749280896007845, -0.0012516164441491644, 0.004528779633216903, 0.0049559531463475, 0.0025145007285864076, -0.00487434942757208, 0.0019316870184598652, 0.0047192207871509725, -0.0005031952475805802, 0.00026429921661689365, -0.00274557635548637, 0.0024016732707448267, -0.0051826403113344926, -0.004280096483548509, 0.008256394921095634, -0.001601460339351101, 0.005143099490318094, -0.010879558080323457, -0.0009501899695974483, 0.00212655273604915, -0.0019978353701446336, 0.002066838156874822, -0.003318437865600788, 0.005980867250540643, 0.0026123033467057534, -0.0027922688765366923, 0.0029001311554402963, 0.00110885883927757, 0.006342648061507722, 0.008437852431729474, -0.004235477006032866, -0.0014033542016050186, 0.004148799109756547, -0.004498273072517535, 0.0023726869856153555, 0.0014586166910227185, 0.002990171936761658, 0.002131719711012425, 0.001494622356121196, 0.0011451917223522555, 0.0002753237758907445, 0.006522235064874072, -0.00043578749879250755, 0.0028546669914721596, 0.006517201917665934, 0.01284697025259133, 0.007049024588408517, 0.0005787738515128395, 0.00041105689961906894, 3.3187256547745347e-06, -0.0020193783916359134, 5.748518306804926e-05, -0.005258721710537911, 0.0032921295193854496, -0.0011252921339768753, 0.0073163883367120775, 0.00458547025914624, 0.005541205573790168, -0.003070630805267935, -0.006162790217178117, -0.0029209412010532854, -0.006505756839257187, -0.0025060889146119917, -0.0027522872156088667, 0.004469743656449634, -0.012243855309069233, 0.0017734380104859643, -0.0009323858160129197, -0.001818085103977059, -0.010876443506746571, 0.001837472485595313, -0.0012048961934666143, 0.00925031610973975, 0.0004958757123843061, -0.001860711790648471, -0.007321391753530022, -0.0013929268880623492, 0.006366783240538248, 0.0021355004349488693, -0.00613372704954108, -0.004958902616920633, -0.0028968810652600535, 6.882595938739972e-05, -0.001756815403066081, 0.0027789775118734453, -0.0026170339255877197, -0.001925574240353466, -0.011328585307347747, -0.0036542911176313674, -0.015832357806931655, 0.002379653664423107, 0.007274358902107505, 0.0010768739405208662, 0.0060742172446309585, 0.0013362203678896206, -0.002612472147693735, 0.0011085831608081147, 0.002894387403053533, -0.0036658052167267852, -0.008572920625462058, 0.0060823917100794765, 0.003758079294321126, -0.005642142946238533, 0.0036113058879689536, 0.004867537933349087, -0.006027856166133759, 0.0017841473036966742, -0.002568873454635544, 0.0012173531607579363, -0.000741264176881232, -0.0013668410301670938, 0.0010800253140371137, -0.0022840661816620174, 0.002986251771889508, -0.0025474307543362053, 0.0005524931219682352, 0.0020918992217113727, -0.0034702054424062675, -0.0016025238765733137, 0.0059198263254846934, 0.005618426561261324, -0.0006980094596753961, -0.0003057546205401378, 0.00045062734559060143, -0.006926686440492273, 0.0029125874936093464, 0.00413351586179149, 0.0029457037999322997, -0.0019448482431609728, 0.007247526725517733, -0.0008350699510460742, 0.003092672632407749, 0.0039594615692194095, -0.0018478716228992448, 0.001894753211945904, -0.0019159874231734404, 0.004882708344487755, -0.006104871229518418, -0.00024057107512105632, 0.003739986946432112, 0.003465850443586552, 0.008572515732848554, -0.00041307091379652063, 0.001148071237920399, -0.004186902460381517, 0.007108356452039941, 0.004759600734085871, 0.004668510655661027, -0.0039282722020153775, -0.0032352223329650434, 0.0035624899554422425, 0.004168781443851695, -0.007809948961945531, -0.0022597374029219384, -0.008677371448422986, 0.0008165805402154322, 0.000847085855266945, 0.0014231382725015014, 0.0017911925038110858, -0.003192495623660238, -0.00041347570235106767, -0.006394160489810271, 0.0008972636881904171, 0.0033640286225423525, -0.005582952015724858, -0.006517468367299252, 0.0043613595021981975, 0.006532564020790049, -0.0018483988702423105, -0.015304506787571828, -0.0023068760383572404, -0.004125060384452143, -0.0020170201115814104, 0.0029761416689560324, -0.0075967113428179215, -0.01415657479161872, 0.007020419979289011, -0.003087257939296061, 0.00466654440749457, -0.01987183292313214, 0.00349133657772161, -0.006551375489907456, -0.004153374752911347, -0.00651950750828651, 0.0021548490851169048, -0.011443278038338597, -0.004560223537060001, 0.0026861542882641956, 0.006188857316408426, -0.010469797721043473, 0.0011631153632902572, 0.0024545057348329662, 0.006254488110540515, -0.0021122594416916906, -0.0038642274662101695, 0.0002794415881362507, 0.00539058804752709, -0.004948457043720926, 0.0032094260828606164, -0.0057751939787526975, -0.00014033042168339055, -0.00412044421141089, -0.005867711256630383, -0.002816690734865209, -0.0002863749807199936, 0.002920710516751303, -0.0049958559916314215, 0.0036728731541594167, 0.0008317850405874673, 0.003079116285875084, 0.008128696729737494, -0.00010722416021881706, 0.00047757814724893406, -0.006349149893935978, -0.002650042464629176, 0.007464446482414328, 0.009124143025372513, 0.0002931310192028801, -0.000252154963839497, 0.008356486290598918, 0.0013223665952721189, 0.011017372268686081, -0.003677261834250428, -0.005382857875927899, -0.002942243564325721, 0.00015684376998919506, 0.0017336918082332077, 0.00011618420318755787, -0.0059619919082748805, 0.0051054728997138345, -0.0010921253748137545, 0.002529448754088312, -0.002267498124182739, -0.0008279332139760514, -0.0011438597592721674, 0.009755221704474125, -0.003525260626695962, -0.00229818272693397, 0.00026962053864668627, 0.004167109881390283, 0.004567373476103618, 0.00011653541191804939, 0.0016958887542152866, 0.001194437421388531, -0.0033789577072710205, 0.002938074470801302, 0.0005863725005809332, -0.003142729960854283, 0.010275895102216562, 0.001214068448561703, 0.004117715068722276, 0.007007343758653676, 0.00816423447340989, -0.006175852429539295, -0.0025357258725602918, -0.00472155699404523, -0.0017286101850661345, -0.0013701048964307938, -0.0058131185616156055, -0.0005015929955114011, 0.005093569825147021, -0.0030670523376641863, 0.002675681861568261, 0.0039012005122707662, 0.0026150454341889082, -0.008442673395403824, 0.009291557740834944, 0.008326596464145006, -0.0019441708407013489, -0.010969236003010287, -0.005110759288705349, 0.001819287724481046, -0.00024519395546187856, 0.0017884301525130405, -0.001663559838071435, -0.010895256113772483, -0.004409155426133763, -0.002368603190751252, 0.0005764204192028367, -0.01276122784195632, 0.003268607941708274, 0.0021015953175211226, 0.003376437806104248, 0.0004955599999502448, 0.007338163595198929, 0.0019904530773728196, -0.002507972545023413, -0.00418875624840947, 0.0030199515482002373, -0.009260027668932306, 0.0033598255306195204, -0.002215136074570707, -0.004396043080759774, -0.0014601786183275674, 0.006865558205386048, -0.006202191280804806, 0.0025919365576853783, -0.002464697172367419, -0.003486369679082183, -0.00973946476751644, -0.008745894495586038, -0.0016939179305657916, 0.0032566306549936955, -0.0002590472791403922, -0.003345713040459345, -0.001644622224137385, 0.0016133323602441905, 0.0029281903056220587, -0.002918577981793801, 0.000993658758615617, 0.0014346990264223235, 0.006172750770403151, -0.004886144686257142, -0.0007780913556290949, -0.007113230437983879, 0.00014314771632005247, 0.002521972434838773, 0.006415056568152003, -0.0010054981440632497, 0.006409269161422593, -0.003831717719266231, -0.0031294066900834183, -0.0029535609736328107, 0.003816959445422978, -0.008284361592325517, 0.006556169279716093, -0.0013614615027433654, -0.0041765204581306415, 0.0008771954025357376, 0.0020232584917472935, -0.004313671443326709, -0.000820299415279026, -0.005844896574436673, -0.005798335255073774, -0.003154424052143005, -0.0003441967334178275, 0.00441375981100521, -0.0003211778649125695, -0.004582913341066927, 0.004167290496602285, 0.0027194743877401177, 0.0035573065928100425, 0.007081152996621104, -0.002153355398161778, 0.005068665440297645, 0.002236154271185483, 0.0009615566701867923, -0.0033816439228264166, -0.004086440893618625, 0.008327719683915654, 0.007446688268068941, 0.001730647812620078, 0.0034913936617287705, 0.0018274364724877588, 0.006251777805160847, -0.006178298608875339, 0.0066855640277399845, -0.006612476317607988, 0.006326907950186993, 0.005178610898269019, -0.004883507516743626, -0.0028410907207162173, -8.7748464943303e-05, 0.003914709354854362, -0.00857454683974283, -0.0029986543357669792, 0.002409345101994462, 0.00314651421249925, 0.002563178726568874, -0.00901111173470254, -0.0014867470011548445, -0.002528406165081991, 0.009767546570030088, -0.004023073794281786, 0.0009590493370199936, -0.00574335087258456, -0.001039110364857466, 0.001289016642495686, -0.002310197470389043, -0.009587015871257647, -0.0016093482094614465, 0.002610078427702681, -0.0018754846440025268, -0.0001423957830208717, 2.0942860991282912e-05, 0.0026532961684413697, 0.006973197997677874, -0.004818124165863563, -0.003166725425275495, -0.01537817427102232, -0.0013765696631188166, -0.000363046092078083, -0.0031476255807829793, 0.0007171698321893133, -0.002174428044222258, -0.0038418736165624886, -0.007568622302100962, 0.0020835872538513853, -0.004004043180559364, -0.006742615013735293, 0.0024056965618253347, -0.004536853054447118, 0.003799296422483246, 0.0007622968798621455, 0.0008739223187513766, -0.005145264329034194, -0.004773765824380241, -0.00021180431896340054, -0.0013706734516165768, -3.631664580721651e-05, -0.000545216880615693, -0.0015235281001579836, -0.0005003098067708787, 0.0025386136909224494, -0.0036685436998927707, 0.001746195635745228, 0.0005486268408954689, -0.0022257143912687845, -0.000535408636715036, 0.008791047128189879, -0.006909985355971478, 0.00827129860472459, -0.0003924920166617964, 0.0014422542854281367, -0.00490945313693284, 0.007080008135617919, -9.509011183412795e-05, -0.004253305550805098, -0.0011318360397027441, -0.001218294892193084, 0.008752928352018565, 0.0020512144518765596, 0.0019927324796009693, 0.0015318173651659589, -0.0033749686112891863, 0.0041350069698326926, -0.009790189164998783, -0.004214219065331767, 0.002108870095976254, 0.0036127738050416077, -0.008855564700292617, -0.0046433796041635686, 0.003473733882671555, -0.0061951252028039396, 8.929180676502776e-05, -0.0035173319776377796, 0.004137875055359803, 0.0019355259293540954, 0.0035306680191132017, 0.00043580938137931756, 0.0013289194152756446, 0.0013792000673312137, -0.005076852766429833, 0.001178769232219023, -0.0028114684019676997, -0.0033383974494898836, -0.0042670507591153675, 0.004347147466990804, 0.0032121174617239677, -0.003760292561034648, -0.008156878262298162, 0.002343461344539794, 0.0045362316328808215, 0.0030426035980123233, -0.0010443977032007685, -0.006882683400483713, -0.0004736662865161308, -0.003588214977596885, -0.003181731683985341, -0.006276189344126545, -0.0024942543634337865, 5.1678543391339726e-05, 0.003451696407501869, -0.005913999322504866, 0.0009985943127512984, -0.0016032010422178137, -0.0014308637204212577, -0.00814291256119244, -0.0035268370424703112, 0.000894562615039206, 0.0028927480517505965, -0.004951879703361901, -0.0017640280656802286, -0.002071965104366596, 0.00032557273813650997, -0.002438904545669929, 0.0029252544780106232, 0.0003055593092891362, -0.0035279971090464196, -0.004132599189211677, -0.0030323692096320106, 0.0025039932975918808, 0.0069746374479416375, 0.0001671679082229944, -0.006651436825586038, 0.0004265835707101375, 0.0015941477837422002, -0.004512129046900465, 0.002401771813707039, -0.003040141123686616, -0.00425445373322434, 0.0020004498636132144, -0.0006862777052326748, -0.007318679747102997, 0.0008289195852076893, -0.004459605598065108, 0.002472820172865362, -0.006014391176697141, 0.001752134346793971, 0.003407729510299249, -0.005936199484642147, 0.003715076392388577, 0.004438218974894404, -0.005716072963404837, -0.003814162391632997, 0.0013544783789591962, -0.0005207717156268094, 0.005252095087835832, -0.00043025425564267096, 0.01294059557823568, -0.0011406031601554148, 0.006398722008958779, -0.0022089606942070138, -0.0009429158851536569, -0.0069314788131350155, 0.01054505847793311, 1.9696502830766292e-05, -0.002181755473327038, -0.004490303051024302, 0.006407502839049633, 0.0008994698284859633, -0.0031967231643159665, 0.005333160036367206, 7.70202090531986e-05, -0.0010556163363760914, 0.010450972557708271, 0.0002568923415490095, -0.0007943665975493423, -0.0015375918497654933, 0.012799216977706682, 0.008439130518151941, 0.004862431922384594, -0.0004412806816934459, -0.0019028442403012465, 0.0016384157614456767, 0.003685431151073979, -0.0054645009263940515, 0.004535698814112586, -0.001998892166484127, 0.0041321753481783395, -0.00046488413471201833, 0.00020535393750883667, -0.005094389825586281, -0.002760924830389977, -0.002586774912391738, 0.0015830907091034974, 0.0017680349851368214, -0.001117750726850853, -0.003001466230471129, 0.0017022279161775754, -1.6832836445699763e-05, 0.0018597432823174221, 0.0015181911797447572, -0.0030668260323120505, -0.0025267302058735314, 0.0024455051300981603, 0.00771181394346248, 0.001887093828420738, -0.0026647853356070676, -0.0010801223933706826, -0.006462089713147353, -0.003614295489825184, 0.0049109808578119895, -0.0017297756264990588, 0.005983725185535023, -0.009695280034081504, -0.002790363733148794, 0.0012879695588771747, 0.0007631113683240075, -0.006620292505370535, -9.826210495666933e-05, -0.0026873555090926784, 0.0037914870971734976, -0.002985356599367733, -0.0049649073467571865, -0.003688089116014834, -0.010305168081791492, 0.003140497291433133, 0.0019344443358657525, -0.006933397444393537, -0.002695614256865113, -0.00682171492069432, -0.006895542337074949, 0.00235364514106893, 0.0003888253079211238, 2.176939576807157e-05, -0.0004381532834225707, 0.0009845261210266949, -0.0063359279772569, -0.0001849908519250083, 0.0014468653915595269, 0.004564091774462224, 0.0005697682106521364, -0.004071847142349216, 0.0018743010263165675, -0.0028412708787953146, 0.004473197985786901, 0.0010877878383076859, -0.0026596986093366808, 0.003594505265367556, 0.006308213317123324, -0.0025497027307399044, 0.007114717067749462, 0.0007304137935537391, 0.00436838467026652, 0.005880619515994455, 0.002726849968995821, 0.007099723477645314, 0.0007195488930695224, 0.004723814567088914, 0.0007527173127125775, 0.0054326283705152315, -0.00030166084715531143, -0.003013969715664656, -0.0008909827906893175, 0.007740825495781166, 0.000734242985493876, 0.0017704732846061386, -0.00290587810027], [0.00697468007664007, 0.001561610272230016, 0.0019438567251510365, 0.00019316821657947976, 0.002420169223753223, -0.00033057532186195977, 0.0007455443475267762, 0.0033418157433473547, -0.0011983064797019664, -0.00021957743279729837, -0.0022226957919383563, -0.000891343406285793, -0.004169230814073461, -0.0035906176293555836, -0.002606485972353295, 0.007522614691899752, 0.006548868811470339, 0.0016327463914495902, 0.0011984277859086831, 0.004705385386463132, -0.0032632437772254727, -0.004859119724853515, 0.0006949003085773122, -0.002907646926160062, -0.005027609440572889, -0.0016736872796725302, 0.005128115545210779, 0.004190223456671949, -0.0002936632087738656, 0.0011670785253012307, 0.008338000648495955, -0.010205147567264905, 0.0034219357366500384, -0.008063333231445107, 0.0014293651205683413, 0.002132973748325981, 0.005101863701231628, -0.0018801502867718898, 0.0023065242441384676, 0.002336240054932104, 0.010084321769874248, -0.006162948171858895, -0.0024929292159411778, 0.001410819413116759, -0.0005753878643925155, 0.002706051873573181, 0.0044071970777186595, 0.0012415838609984057, 0.0017076161845325669, 0.0007258811497650174, 0.002852608315965861, 0.0021354836650262967, -0.0018144302019788108, 0.006175562909695996, 0.004735112840924906, -0.0027379492663412203, 0.00290261278464356, -0.005271593731594449, 0.0003197633993241978, 0.006166149758402307, 0.006511092971607537, 0.0038084853969557802, 0.005365721644850174, 0.0005590157908601446, 0.005142469857838324, -0.0008399213691136449, 0.002851630320165283, -0.005720901795794432, -0.0029474455664532475, -0.001399504187096729, 0.006981850302809809, -0.004260919315981872, 0.0009164666770620397, -0.006343050173043714, -0.0007944239695682424, -0.0027681313374763317, 0.007866211109575595, -0.0028358522390802554, -0.0006437658583697147, 0.003529016915612068, 0.00044525466277603356, 0.001857254725649935, -0.00041658151324785314, -0.003681674494668005, -0.0023857149488981802, 0.00296380950845432, -0.0013427560290348427, 0.0030123849903836816, 0.0001490573969225484, -0.003383047812436662, 0.0010030199689842808, 0.008461798236759509, 6.459312598133858e-05, -0.00315122369085956, 0.0016347734558715963, -0.0015472989410269596, -0.00507083493937965, 0.0013930693687412984, -0.0038605066427323913, 0.004883362830891225, 0.005351478104858925, 0.002663851559497725, 0.0002939886412933711, -0.003362044779529976, 0.0010860122892292477, -0.0030134870043962677, 0.005481376949803664, -0.005282959939826693, 0.005735069273601291, -0.00043177217143852925, -0.00029857569043674205, -0.004545958006695475, 0.002690231550060988, 0.001810902488920454, 0.0029111808745866004, -0.00042732088833754764, -0.00031682593564725105, 0.0006867604813823693, -0.004814173562482153, -0.0006618385044883405, 0.000616325313256371, 0.005035499056573809, 0.002370483044117664, -0.001417186767974146, -0.0020065973750992452, 0.004165594777306197, -8.706028220157149e-05, -0.00021279168121306053, 0.002220401657426066, -0.0030215455240007252, 0.009687163239672525, 0.000984832643510894, 0.006707800401375338, 0.0002208182668006683, 0.011053379000410346, 0.0016058558615501897, 0.0032633305919229985, -0.004912937755407664, 0.001005250600821782, -0.005452900913029234, 0.0040833562118909065, -0.0013451140731379591, 0.003967858805166087, -0.0010610160715585697, -0.0010529267213426046, -0.0031097135505744567, 0.0010165363853618763, -0.0017893504681972814, 0.007133608821073557, -0.0033561762743269173, 0.0013376684693493634, -0.0025010258208343354, 0.004719463461077071, -0.007540480222898215, 0.005771130949124171, -0.0036760998612923685, -0.0015944623278273053, -0.004816634308782886, 0.0017301278539574483, -0.002719498106584226, 0.006359473561722275, 2.520500431217513e-05, -0.00930666891603104, -0.00027488200877762164, 0.0019679984621717244, -0.005087594610441237, -0.0032218829802402173, -8.419588473703432e-06, 0.00612440523515362, 0.005681582666667762, 0.011841476718949437, -0.003451099758094416, 0.002295340725980138, -0.0021142819544456033, 0.003271518490315358, -0.0003628903056292185, -0.005564916693691345, 0.0025257615857467316, -0.008262729167542638, 0.009296409870919837, 0.014394223938770366, -0.002554420078628182, -0.0002596129845921667, 0.00028900502375362326, 0.0019586162687430016, 0.0023421230670085036, -0.005308351459230049, -0.003975884890584961, 0.003324916818154412, 0.001781661845405323, -0.0011526236946749722, -0.00523844020933304, 0.0011307803750160424, -0.0016953801583307684, 0.004164530327749125, 0.004210993095662581, 0.00328659785501848, 0.0011923835773445363, 0.0012143535726094371, 0.003484182205819899, -0.0030494604995342754, -0.006303313271215897, 0.002183292137112867, 0.001132103865858181, 0.0010354078222524648, -0.0005209676117637991, -0.008158675254427063, 0.011480375625686944, 0.010836415110467897, -0.0020285115020905126, 0.0043014897510228545, 0.00033575621200681894, 0.000968890166608108, 0.0014381873637665712, 0.004117227191554835, -0.0026409056174912324, 0.004096044449318213, 0.0029107528816981506, -0.010075587486986285, 0.005803272638886945, 0.004867940227507675, -0.002318088470027882, 0.00020709569130278774, 0.0021331267529466507, -0.0011911582078826225, 0.0020811351803396052, -0.006517243474876704, 0.0009513275453826408, 0.004385463509489195, 0.0029736075513166183, 0.003481308248680746, -0.0031032099914358015, 0.0002280733425712677, -0.004601736902509216, 0.0003749986021868189, -0.0006858610718042175, 0.00369161609905518, 0.005584441348089968, 0.003343882565747082, -0.0032758305517751286, -0.0007823289111601113, -0.0034377512458508507, -0.0034346972720368085, -0.004070691075982431, 0.007750343234977624, 0.005139749224134438, -0.0005269236907826861, 0.00042400816672020494, 0.009766980469422037, -0.007012211839539689, 0.005615776656683224, 0.007905617942138043, 0.0006327343374113937, -0.0021684802600875964, 0.005122527931246156, 0.008938390292306832, 0.001136909730717926, 0.005022090981484835, -0.0038212341543955954, 0.001062594147784193, 0.0066600349657388504, -0.0018003642707682945, -0.0021593479693729233, 0.002479687767448926, 0.0037442096379637505, -0.004146325308295983, -0.0006347781157040949, 0.0019018369449679098, -0.006125268724315823, -0.004037563747408237, 0.005070781537257362, 0.0031656654793021386, 0.001002651237869228, -0.000365072137551532, 0.006974690912475698, 0.0008005171702926562, -0.000485337713214971, -0.007980616895995723, 0.002035809155983977, -0.0017724061102755036, 0.0015226978644647838, -0.0004287392897991619, -0.0035986011492129687, 0.0018047711227692006, -0.00022930019254122273, 0.010487013137646505, -0.0014644137481499842, 0.001172502832619974, -0.002417738059834258, 0.0028813687852384195, -0.0025715831266870477, 0.0002883096511385242, -0.0001724105646649897, 0.0015918132932101047, -0.0072613279889803305, 0.0022760527466727017, 0.0007713977665709856, 0.00455940797355826, -0.0030897635126004887, -0.000507002224872478, -0.00516162547937447, -0.0033457679167395757, 0.0018248582646228611, 0.002120585423559746, -0.0008378272441028097, 0.0005658187502787371, 0.0011849752647405062, 0.0029408652352230346, 0.002307753832723408, 0.0070605762884486814, -0.0005261648874886608, 0.005885929983347853, -0.0018091185738852594, 0.0022062205899317485, 0.0007661684952962323, 0.003036657242301332, 0.00038751127873896203, 0.006915316775378619, -0.008038566612989581, 0.0033966101895974337, 0.0035861175220305874, 0.003040383185963705, 0.006472211983731365, 0.00522823433935114, -0.005753009783603043, 0.004452495139322347, -0.0011870775193487313, 0.0008115041196384848, 0.0017661022187783347, -0.0033412798861285273, -0.004317574689184136, 0.0006247589761107671, 0.00012315337022648888, -0.0023166043464236384, -0.00380075069296242, 2.7087709555417487e-05, -0.00032243896923977, -0.000315677913468748, 0.007282830498996079, 0.002308425282338678, 0.007027970452785184, -0.0024544117937499925, 0.0060367272732378425, -0.00016507532725074258, 0.0003492308865456039, 0.0002452034102539463, 0.002619431628423729, -0.0060601576097216005, -2.7873353939356406e-05, 0.0027006779817847493, 0.008655106524628078, 0.0017805950444181782, -0.002843535002013506, -0.005518828018102357, 0.0013256940215731095, -0.007143473164526567, 0.0008896256419181034, 0.002277603712893448, 0.0003790272419532549, -0.001020604229665195, -0.004248174776769094, -0.00019874749690967287, 0.0039316190981899465, -0.0010505740716278446, -0.0014390453388061196, 0.001600297643366326, 0.0042627121654288044, 0.003630240875274257, -0.0034676343118240573, -0.0019150157247849388, 0.0041650083918078375, 0.00392924459132884, 0.0053138434062249395, -0.002474817539083618, 0.0037507630655564087, 0.0052465587416929945, 0.002531375983963533, -0.0007578184770509124, -0.003867634614776964, 0.004269521063610154, 0.0022656651769533066, 0.005751287660225923, 0.006696464876307843, -0.0053252227102964685, -0.0016623301232930327, -0.00040209562247033796, -0.003223378492645175, -0.0032356145695760998, 0.0060273984198106895, -0.0024502736714057173, 0.001505678876511453, -0.007512119281106094, -0.00330749641827958, -0.003188336186634512, -0.0031336491961956345, -0.0004965387412591322, -0.00042079568979368263, -0.006033954959660817, -0.0018543531404059338, 0.0031296485464556863, -0.006224597375425425, 0.008254554299447391, 0.004388783383667119, -0.0019472140218331681, -0.008751363657617396, -0.008512290651758058, -0.00346768827886874, -0.0030926398010130657, -0.0037537965055208784, 0.006925244940587757, 0.0029540949011219804, 0.0036315214827170044, -0.0033700021126764662, 0.003192585752463001, -0.00029622459552403405, 0.0004535282836336989, 0.0016665091707614124, 0.011134279431641143, -0.005698396272122805, -0.0006763027560821883, -0.006617137174926742, 0.002432691658776328, 0.00045415231344272657, 0.008465278957311364, 0.0021369974854865506, -0.005819932041882481, -0.0046149225443189385, 0.006969414673919191, -0.009134266314686447, 0.003920512156510485, -0.0026122504919970043, -0.0009385599748354384, -0.00019736926642602404, -0.004904885369372515, -0.0031727974789815343, -0.0003244363291570037, 0.007661960472408886, 0.0024967862724927, -0.0031752360591249928, -7.038884781038683e-05, -0.0014148593950527655, 0.0006470895329761211, -0.004277456681710702, -0.0014936400381988261, 0.007012564184872494, -0.004958622376182149, 0.0043161652339646075, -0.0010881984819330962, 0.0026882147163861834, -0.0005168776954859391, 0.002774912465111167, 0.00013007029060696406, 0.005484536853999948, 0.004067361034632692, 0.0009541785717612866, 0.005717736543851524, 0.006201534649916776, 0.004522755817467203, 0.004820681250732142, -0.00522478339513864, 0.009799012335168483, -0.004647897031606369, -0.0006431300661273267, 0.002694648791170856, -0.00792687305728602, 0.00030427328681576204, 0.005685863917090392, 0.0009483976972370611, 0.0031397740919881204, -0.0020465523607406232, -0.003549313862053917, 0.00042481306419297116, -0.005038842258875523, -0.0012118096049041694, -0.0031251259014766, 0.0008994496048727691, -0.0020188867381055885, -0.0016827977152765864, 0.009007436572915833, -3.436043286051068e-05, 0.0011858744205911547, 0.004992134207524146, 0.0014898824537338674, 0.00551462815106126, 0.0018754372676264967, 0.0015547701592617128, -0.00021709219086259212, 0.005602732960627168, 0.001388165191228324, 6.165043738821047e-05, 0.008562949255756288, -0.008154230525086348, -0.003236174744649808, 0.0033004686551293, -0.0031225687305667096, -0.0027258148033650472, 0.002361364061311179, 5.3871869006833574e-05, 0.0029725983295652725, -0.002468082389232444, -0.0007304557792556454, -0.001943743121579953, -0.004400308079515774, -0.004077606575408599, 0.0028669268725909952, -0.009136654658356936, -0.0015280361489342811, -0.004402636134970713, 0.0012208856465904608, -0.0012344341318089236, 0.003053824641943033, 0.0017330827269680655, -0.0073511012677589735, 0.0018294827897800167, -0.0015939522431859194, 5.252598592638049e-05, -0.0009210278161018312, 0.0019308672787237298, 0.008985958842161143, -0.0004451756260308951, 0.01084815826053568, -0.002378772394473404, -0.0013669142579636542, 0.0047320083412250215, 0.0007224075195164531, 0.002810057523702608, 0.002273702350677401, 0.006658391894639205, -0.00540986351254989, -0.0038861358915149333, 0.003977424813341909, 0.011006865199457632, -0.0025183344126990547, 0.002028665775107748, 0.007487126242050144, 0.0039146947100659165, 0.010407069973073205, -0.006250803835455376, -0.004416470366217727, -0.007887675783671722, 0.0007398237905895841, 0.0010911155553453293, -0.0033703644384900197, 0.0010328098447653065, 0.0012586028226847462, -0.002797273979992842, 0.0035491278612566303, -0.0023553345328943148, -0.003296546396587237, 0.004331865784700038, 0.01130598935492755, 0.0036867877462033725, -0.0021285814769990297, 0.0020826602445079188, 0.0040237336255034995, 0.002097667415554924, 0.0009437270476570765, -0.010291174465861752, 0.0027922449128333286, 0.00010205247344214675, 0.0040274882814763015, -0.002431367917078665, -0.008774058658409387, -0.0006410635152119433, 0.004840568668824258, 0.002832062204878898, -0.000796722743720327, 0.00028672652045410327, -0.0015109786484472578, -0.007953868606792619, 0.0038194347344851264, 0.005860895497655071, 0.007187540364656995, -0.000949156529751271, 0.002690331240698642, -0.007263545164333067, -0.003674416813888673, 0.0016447608358393052, 0.0018887569712193958, -0.006063453785926045, -0.0008314451230706476, -0.0031214845236642794, 0.0025189169120948384, -0.00114262145963732, 0.0005459276987864924, 0.00434866595787306, 0.002676736462298042, -0.004013485204841683, 0.0003157365856786509, -0.004272174952626693, 0.0015335704406278345, 0.004728451154606239, 0.0028531637484006007, 0.0026194913546837674, 0.0021656328244185692, 0.003801765716723031, 0.0012178075358428462, 0.002847733337361548, 0.0007617112672775547, 0.0020866614082500077, 0.002761274460523609, 0.0039836951452379595, 0.004255617518830376, -0.0022219278624607992, -0.0039783524131322264, -0.0007339008685944939, 0.007960530157111092, 0.0027786578778501467, -0.009156306201303147, 0.002898901273206762, -0.0007834193425610847, 0.0004411899454119812, -0.005894257560728816, -0.009406339795170839, 0.006969700867926065, 0.003972342688056714, 0.007029659630577674, 0.0026452259314625097, -0.005796451938102619, 0.008227642081919641, -0.007687207167303726, -0.0004746586518061862, -0.0026143756578192213, -0.0028318293319678305, -0.008761836165025015, -0.0057969900145449825, -0.0004770545405792157, 0.005807328230539019, -0.0037533779751817535, 0.0019396867561897527, 0.004829499237487239, 0.0037263438176160318, -0.0025602331755313814, 0.004629066617818344, -0.004354715188954235, 0.0025743680910111475, -0.0015842822928690658, -0.0029670768969985322, -0.002394068253503308, -0.006086897856287203, -0.0012081365506775173, 0.0013499720512262622, 0.002366989609975355, -0.0006076731440093521, 0.003955788106498708, -0.006039577157974369, 0.0010143468870374781, 0.0030107609014328475, 0.0032967623143675363, 1.2368458884850995e-05, 0.01235719204986506, 0.0008496786614876121, -0.004907972508353076, 0.0010884545941433317, -0.006001601717609889, 0.004050703648377604, 1.5104510286892761e-05, -0.0014703658523316984, 0.0010859207060384642, -0.0004469783358133953, -0.00419135826233669, -0.008870057113376734, -0.001752854814152713, 0.0007518616200981592, 0.0022923436903713647, -0.0010645771440955854, -0.002235057691773734, 0.0005933357676000112, -0.0034245297656546247, 9.74827167784021e-05, -0.001991631650333859, -0.0013049469387283338, -0.007790823053600026, 0.007198302685390193, -0.0015167865088263385, 0.003813158435584227, -0.0008894584975016554, 7.202881537742451e-05, 