{"layer0": {"kernels": [[[[-4.681362628936768, -0.97661292552948, -0.9883455038070679, -14.985835075378418, -6.316975116729736, -1.6234039068222046, -2.927565813064575, -5.382613182067871, -0.5691999197006226, -4.181548118591309, -1.371376395225525, -3.6977384090423584, -8.636443138122559, -0.6841638088226318, -2.1510720252990723, -9.090636253356934, -2.344306468963623, -3.380340099334717, -0.4565867483615875, -0.9409242868423462, -1.1945807933807373, -1.9441851377487183, -2.023972272872925, -8.77450180053711, -8.31246280670166, -0.3499239981174469, -2.447119951248169, -6.253576278686523, -2.2341957092285156, -8.7017240524292, 0.0035563241690397263, -4.709045886993408]], [[-4.181665897369385, -1.2601910829544067, -1.1338143348693848, -14.959403038024902, -6.403639316558838, -1.3423902988433838, -2.553644895553589, -5.690236568450928, -0.7226502299308777, -3.9193270206451416, -1.375697374343872, -4.324361801147461, -6.621509552001953, -0.5465928316116333, -2.5505638122558594, -9.767304420471191, -2.9036240577697754, -3.9538681507110596, -0.6002526879310608, -0.9824780821800232, -1.3014248609542847, -2.172367572784424, -2.4049627780914307, -9.738415718078613, -7.3963775634765625, -0.30105695128440857, -2.8430230617523193, -7.311956405639648, -2.2962095737457275, -9.951812744140625, -0.04751959443092346, -5.255706787109375]], [[-2.8354365825653076, -1.2992632389068604, -1.2501616477966309, -13.535038948059082, -5.751567840576172, -0.6626746654510498, -1.5956807136535645, -4.828915119171143, -0.7005009651184082, -3.417654514312744, -1.4469084739685059, -5.014360427856445, -4.592086315155029, -0.3902692198753357, -2.722275733947754, -8.963730812072754, -3.2025227546691895, -4.342327117919922, -0.5874220132827759, -1.1485434770584106, -1.436863899230957, -1.9882943630218506, -2.5876266956329346, -9.210899353027344, -4.37664794921875, -0.3183724880218506, -3.082597255706787, -7.323625564575195, -2.4478821754455566, -9.772979736328125, 0.028643570840358734, -8.898223876953125]]], [[[-4.513692378997803, -1.0178591012954712, -1.234959602355957, -14.867319107055664, -7.112450122833252, -1.9019405841827393, -3.066152811050415, -5.815088272094727, -0.7218930721282959, -5.566087245941162, -1.550912857055664, -4.474579334259033, -10.618805885314941, -0.4693165719509125, -2.3707616329193115, -9.721246719360352, -2.8322296142578125, -3.7485311031341553, -0.5727846026420593, -1.1035306453704834, -1.1947778463363647, -1.7055083513259888, -2.3784358501434326, -9.889022827148438, -8.086544036865234, -0.376289963722229, -2.7960119247436523, -7.420811176300049, -1.7947955131530762, -9.36429214477539, -0.012670706957578659, -7.573349475860596]], [[-3.216874122619629, -1.2605174779891968, -1.3680301904678345, -15.564122200012207, -6.608186721801758, -1.2295230627059937, -2.11737322807312, -5.819846153259277, -0.7386241555213928, -5.699838638305664, -1.4326616525650024, -5.27406644821167, -9.252281188964844, -0.3003197908401489, -2.828401565551758, -9.936233520507812, -3.088369369506836, -4.469850540161133, -0.6999928951263428, -1.1825366020202637, -1.5877201557159424, -1.6783908605575562, -2.79610013961792, -10.29970932006836, -6.147729396820068, -0.40537816286087036, -3.237973213195801, -8.029428482055664, -2.7833809852600098, -10.352890968322754, -0.06334672123193741, -8.68405532836914]], [[-1.7337536811828613, -1.361644983291626, -1.3117344379425049, -14.57615852355957, -6.8653883934021, -0.5757250189781189, -1.0399680137634277, -4.729058265686035, -0.84685218334198, -5.043935775756836, -1.6751209497451782, -5.916169166564941, -7.239564895629883, -0.2648313641548157, -3.1923933029174805, -8.0848388671875, -3.7032835483551025, -5.151921272277832, -0.7312150597572327, -1.2524017095565796, -1.800160527229309, -1.6540031433105469, -3.150928258895874, -9.77822208404541, -4.521830081939697, -0.5133887529373169, -3.5800764560699463, -7.808015823364258, -3.205406904220581, -10.168341636657715, -0.07889839261770248, -10.779523849487305]]], [[[-3.301056385040283, -1.256909728050232, -1.3690896034240723, -12.925179481506348, -7.363952159881592, -2.4993693828582764, -2.8206629753112793, -5.683515548706055, -0.7288743853569031, -5.538421154022217, -1.6346478462219238, -4.931773662567139, -10.617720603942871, -0.3162604570388794, -2.7930564880371094, -9.130990982055664, -3.04058575630188, -4.2451276779174805, -0.5647575855255127, -1.2166357040405273, -1.4091684818267822, -1.0317516326904297, -2.7985026836395264, -9.579931259155273, -6.185705184936523, -0.326865553855896, -3.037083625793457, -7.089695453643799, -1.557373046875, -8.409638404846191, -0.03489018604159355, -8.191213607788086]], [[-1.5510070323944092, -1.4128637313842773, -1.5028895139694214, -14.80750846862793, -7.293344974517822, -1.5417778491973877, -1.7075694799423218, -5.67645263671875, -0.8938503861427307, -5.8829569816589355, -1.6862202882766724, -5.882699966430664, -10.288860321044922, -0.19093090295791626, -3.232530117034912, -8.493391990661621, -3.632032871246338, -5.0632452964782715, -0.717525839805603, -1.3836873769760132, -1.758623719215393, -0.9954575896263123, -3.1689252853393555, -10.126625061035156, -4.0310587882995605, -0.49360767006874084, -3.617844343185425, -7.77596378326416, -3.2270798683166504, -9.71862506866455, 0.02714967168867588, -10.295722961425781]], [[-0.7495161294937134, -1.705811619758606, -1.652254343032837, -14.15664005279541, -8.022513389587402, -0.9116334915161133, -0.7636157870292664, -4.408099174499512, -1.1391270160675049, -5.538079261779785, -1.8439120054244995, -6.7558465003967285, -8.441410064697266, -0.1482771635055542, -3.5756852626800537, -5.684817790985107, -3.939007043838501, -5.72037410736084, -0.8117901682853699, -1.4315959215164185, -1.979260802268982, -1.1144938468933105, -3.7474477291107178, -9.27005672454834, -3.643758773803711, -0.4018019437789917, -3.9680404663085938, -7.52540922164917, -3.6634020805358887, -9.702840805053711, -0.09078123420476913, -11.39321517944336]]]], "biases": [[-15.274890899658203], [-3.3549225330352783], [-2.9824891090393066], [-24.913253784179688], [-14.839688301086426], [-10.28509521484375], [-65.7435302734375], [-239.54124450683594], [-2.0883026123046875], [-115.1612319946289], [-6.33160400390625], [-11.987030982971191], [-26.817636489868164], [-16.20762062072754], [-7.86763858795166], [-141.64747619628906], [-9.039088249206543], [-11.618876457214355], [-1.7828229665756226], [-3.5454771518707275], [-4.015872001647949], [-123.88227844238281], [-6.264868259429932], [-513.8328247070312], [-36.979530334472656], [-1.9592199325561523], [-7.433813095092773], [-102.25702667236328], [-10.840563774108887], [-180.2342071533203], [-0.8723366260528564], [-19.755571365356445]]}, "layer2": {"kernels": [[[[0.09038032591342926, 0.009110958315432072, 0.10286430269479752, -0.015671011060476303, 0.061145633459091187, 0.024658864364027977, -0.007721541915088892, -0.0520159974694252, -0.13120055198669434, 0.010279132053256035, -0.0716567188501358, 0.0780135989189148, -0.056325409561395645, 0.0014916900545358658, -0.07331521064043045, -0.014909207820892334], [0.013660911470651627, -0.01384236291050911, -0.019627435132861137, 0.026882749050855637, 0.012296789325773716, -0.0022774694953113794, -0.005068033002316952, -0.0408523827791214, -0.011743972077965736, -0.005443171598017216, -0.04905190318822861, 0.02162916399538517, -0.03403310105204582, -0.0021072104573249817, 0.11499466747045517, -0.0014831582084298134], [-0.007545066997408867, -0.014576869085431099, 0.004061275627464056, 0.021083321422338486, -0.016413768753409386, -0.0025045170914381742, -0.00663373526185751, -0.031365782022476196, -0.008258511312305927, 0.019217533990740776, -0.050638992339372635, -0.010844090953469276, -0.01716397888958454, -0.01705567166209221, 0.009617455303668976, 0.008955256082117558], [0.06069980934262276, -0.039218492805957794, 0.037723518908023834, 0.15616974234580994, 0.043049156665802, 0.0175471268594265, -0.02376306615769863, -0.27028679847717285, -0.1457539051771164, 0.012342848815023899, -0.24606645107269287, 0.14133909344673157, -0.1355283111333847, -0.011140040121972561, 0.20657256245613098, -0.02101326361298561], [0.03409956395626068, -0.039179153740406036, -0.008591457270085812, 0.2072187066078186, -0.025258008390665054, 0.0008457754738628864, -0.017534106969833374, -0.2367037534713745, 0.013690151274204254, 0.02819208987057209, -0.25699087977409363, 0.07669421285390854, -0.1470191329717636, 0.006344776600599289, 0.33559340238571167, -0.005737320054322481], [0.04631078243255615, -0.03030531294643879, 0.10783639550209045, -0.007445141673088074, 0.030255034565925598, 0.016800539568066597, -0.0034345672465860844, -0.051903292536735535, -0.058712609112262726, -0.02335176430642605, -0.06554920971393585, 0.0707702785730362, -0.054808150976896286, -0.0036610011011362076, -0.05416896939277649, -0.032044753432273865], [0.5620123744010925, -0.032825056463479996, 0.9180654883384705, -0.49661731719970703, 0.20552568137645721, 0.25620129704475403, 5.3220057452563196e-05, -0.06915955990552902, -0.9235612154006958, -0.02960929274559021, -0.07483725249767303, 0.37067827582359314, -0.02348152920603752, -0.131137415766716, -1.168592929840088, -0.18957272171974182], [2.627565383911133, -0.02670694701373577, 4.11972188949585, -2.3434526920318604, 0.7316726446151733, 1.0419453382492065, 0.0046543763019144535, -0.11823934316635132, -4.338283538818359, -0.03633105754852295, -0.1491004377603531, 1.8015286922454834, -0.06811340153217316, -0.6080083250999451, -5.76781702041626, -0.5690197944641113], [0.0060417926870286465, -0.007375970017164946, 0.02241205982863903, 0.05665937811136246, 0.015445640310645103, 0.011032898910343647, -0.02996971644461155, -0.023328201845288277, 0.0009181806817650795, 0.002165001817047596, -0.0043265242129564285, -0.03150203824043274, -0.01446310430765152, 0.0077821952290833, 0.043945733457803726, -0.01986365020275116], [1.238356351852417, -0.005962111987173557, 2.061264753341675, -1.042759656906128, 0.39363574981689453, 0.5195642709732056, 0.007382743991911411, -0.11802811920642853, -2.016859531402588, -0.019860588014125824, -0.0945194661617279, 0.8300521373748779, -0.04666297510266304, -0.29920074343681335, -2.5398383140563965, -0.3022737503051758], [-0.00774754025042057, -0.030224686488509178, -0.011102022603154182, 0.07246570289134979, 0.009608683176338673, 0.007786964997649193, 0.0017563767032697797, -0.04828724265098572, -0.0017616890836507082, -0.022287067025899887, -0.06391812860965729, 0.029051415622234344, -0.042656850069761276, -0.013600606471300125, 0.11122748255729675, 0.002711140550673008], [0.0010857675224542618, 0.0028882473707199097, -0.014142947271466255, 0.13235053420066833, -0.03143668547272682, 0.009106560610234737, -0.03726865351200104, -0.1718042641878128, -0.0006523570045828819, 0.006946932524442673, -0.14250308275222778, 0.06642253696918488, -0.08023221790790558, -0.008377660997211933, 0.29156845808029175, 0.00703769875690341], [0.17529194056987762, -0.006831745617091656, 0.17296060919761658, -0.03105796128511429, 0.06988006830215454, 0.012982893735170364, 0.011890709400177002, -0.200585275888443, -0.26992011070251465, 0.0186518132686615, -0.20088952779769897, 0.16119959950447083, -0.094670869410038, -0.03131953626871109, -0.023529499769210815, -0.0002460842952132225], [0.10717524588108063, -0.009524773806333542, 0.20409861207008362, -0.0766114816069603, 0.042691923677921295, 0.07146205008029938, 0.012580851092934608, -0.012035394087433815, -0.19194330275058746, -0.01502983644604683, -0.03631715476512909, 0.050439320504665375, -0.02588452212512493, -0.008075015619397163, -0.20651935040950775, -0.04241376370191574], [-0.01462123915553093, -0.03629571944475174, -0.00968882255256176, 0.07150496542453766, 0.00834331102669239, 0.018240083009004593, -0.0014287177473306656, -0.10852251201868057, -0.000796387204900384, -0.0033324668183922768, -0.13839241862297058, 0.018686164170503616, -0.0647476464509964, -0.011181782931089401, 0.2104606032371521, 0.020810287445783615], [1.6305820941925049, -0.009442919865250587, 1.9327051639556885, -1.4617931842803955, 0.4899909496307373, 0.5512926578521729, -0.02486490271985531, -0.11276854574680328, -2.824981689453125, -0.013105648569762707, -0.1259377896785736, 1.2168461084365845, -0.07114291191101074, -0.3827996253967285, -3.684929609298706, -0.02297533117234707], [-0.0002011135220527649, -0.03795084357261658, 0.015904171392321587, 0.031218189746141434, 0.020722638815641403, -0.004170140251517296, -0.005572054535150528, -0.1394822746515274, 0.023425400257110596, 0.0033763586543500423, -0.12453078478574753, 0.0633508637547493, -0.09835751354694366, 0.004605952650308609, 0.21680769324302673, -0.011220090091228485], [0.03790419548749924, -0.022097336128354073, 0.002913430565968156, 0.12141706794500351, -0.009733724407851696, 0.006249180994927883, -0.002937327604740858, -0.14448127150535583, 0.0048733302392065525, 0.028635231778025627, -0.14598383009433746, 0.022937756031751633, -0.09030749648809433, 0.016928385943174362, 0.28082507848739624, -0.0047273095697164536], [-0.01033204048871994, -0.018724041059613228, -0.001916990615427494, 0.027529176324605942, -0.028489315882325172, -0.008840327151119709, -0.021204540506005287, -0.018784713000059128, -0.007223654072731733, -0.005049180705100298, -0.03320884332060814, 0.006547371856868267, -0.019143547862768173, -0.04421132430434227, 0.03209275007247925, 0.0065504033118486404], [0.0019080312922596931, -0.019671492278575897, 0.009961818344891071, 0.04380086064338684, -0.005330896005034447, -0.00024649244733154774, -0.01608608104288578, -0.05712702125310898, -0.024882309138774872, 0.008449189364910126, -0.07326298207044601, 0.027203230187296867, -0.042921580374240875, -0.0074043963104486465, 0.0862371101975441, -0.024419346824288368], [0.0036299126222729683, -0.02645561657845974, -0.02562241069972515, 0.022699600085616112, 0.010903754271566868, 0.020537395030260086, -0.0033463509753346443, -0.05948229506611824, 0.007541272789239883, 0.01213199645280838, -0.03341367095708847, -0.007649471051990986, -0.01579992100596428, -0.0026153114158660173, 0.0878676250576973, -0.003270404879003763], [1.1192631721496582, -0.03081272542476654, 1.9162472486495972, -0.9868943691253662, 0.3465130925178528, 0.645495593547821, -0.00975576601922512, -0.02742600627243519, -1.850024700164795, -0.021392077207565308, -0.02039017155766487, 0.770709753036499, -0.02442004904150963, -0.2553412914276123, -2.466310739517212, -0.5378420948982239], [0.004535031039267778, 0.001456569880247116, 0.01526818796992302, 0.085659921169281, -0.017231585457921028, -0.0036709739360958338, 0.010863123461604118, -0.07704570144414902, -0.005924093537032604, 0.03538709133863449, -0.07999299466609955, 0.001554582267999649, -0.05076569318771362, 0.012533064931631088, 0.16876381635665894, 0.007525164633989334], [6.129072189331055, -0.05144273862242699, 9.469258308410645, -5.526642322540283, 1.75693941116333, 2.2972967624664307, -0.009683283045887947, -0.20591527223587036, -10.113699913024902, -0.10212700814008713, -0.2037079781293869, 4.132389068603516, -0.1347368061542511, -1.3755970001220703, -13.451560020446777, -0.8699660897254944], [0.29293298721313477, -0.03133580461144447, 0.34655651450157166, -0.19966666400432587, 0.08747170865535736, 0.12726804614067078, 0.013139132410287857, -0.11836013197898865, -0.5672860145568848, 0.025072747841477394, -0.11214614659547806, 0.2867850065231323, -0.0758846253156662, -0.13180705904960632, -0.5695476531982422, -0.03310044854879379], [-0.00044284065370447934, 0.024072542786598206, 0.0048842038959264755, 0.028373345732688904, -0.02133595570921898, -0.025667157024145126, -0.008010572753846645, -0.0069488659501075745, -0.003192417323589325, -0.012368551455438137, -0.012680013664066792, 0.01985521987080574, -0.027882421389222145, -0.015252325683832169, 0.016859840601682663, 0.016895458102226257], [0.009658193215727806, 0.01970842108130455, 0.013827688060700893, 0.077215775847435, 0.018935110419988632, 0.010275620967149734, -0.02023390680551529, -0.13914750516414642, -0.009919758886098862, 0.0049412488006055355, -0.12952293455600739, 0.02561483345925808, -0.08313646912574768, -0.00658426946029067, 0.21500931680202484, -0.008121838793158531], [1.2188042402267456, -0.05265441909432411, 1.7658549547195435, -1.0198643207550049, 0.3326144218444824, 0.4236939549446106, -0.017825249582529068, -0.1334339827299118, -2.0179080963134766, -0.01138078048825264, -0.1411760002374649, 0.8379439115524292, -0.0796751007437706, -0.28441256284713745, -2.501460313796997, -0.07862677425146103], [0.1105036810040474, -0.029044844210147858, 0.15397389233112335, -0.04975881800055504, 0.014891892671585083, 0.008579451590776443, 0.022633597254753113, -0.055854275822639465, -0.1609572470188141, 0.01592213287949562, -0.04262646287679672, 0.09138644486665726, -0.05996052920818329, -0.013513035140931606, -0.09451177716255188, -0.026155859231948853], [2.073599338531494, -0.028799032792448997, 3.0048933029174805, -1.7630692720413208, 0.6319521069526672, 0.8358201384544373, -0.006243451498448849, -0.19166694581508636, -3.4596447944641113, -0.03786488622426987, -0.13330377638339996, 1.4414764642715454, -0.07406783103942871, -0.47934219241142273, -4.4247236251831055, -0.27030402421951294], [0.027446309104561806, -0.0032644416205585003, -0.007340313866734505, 0.002387786051258445, -0.013438795693218708, 0.0025982866063714027, -0.0056196944788098335, -0.027832474559545517, -0.00045950457570143044, -0.00412749731913209, -0.02537492662668228, -0.0006476058042608202, 0.02137502282857895, 0.008090767078101635, 0.010753038339316845, -0.019688181579113007], [0.07386789470911026, -0.04427415132522583, 0.07936347275972366, 0.11035960912704468, 0.006631610915064812, 0.021243253722786903, -0.022042494267225266, -0.2236834168434143, -0.10252435505390167, 0.03616669774055481, -0.2010205090045929, 0.0891212597489357, -0.1164502277970314, -0.0279309693723917, 0.23203761875629425, -0.012339935638010502]], [[0.17058604955673218, -0.0006190226413309574, 0.17322413623332977, -0.0634797066450119, 0.057220470160245895, 0.05337607115507126, 0.002094896510243416, -0.05988893285393715, -0.2517212927341461, 0.007565799169242382, -0.08141441643238068, 0.12857846915721893, -0.02844032272696495, -0.03356568142771721, -0.21697193384170532, 0.022196710109710693], [-0.009466996416449547, 0.009425702504813671, -0.01259409636259079, 0.05196597799658775, 0.0018351359758526087, 0.0017309391405433416, -0.016303103417158127, -0.05866689234972, -0.0014049457386136055, 0.008964127860963345, -0.044155169278383255, 0.05559128150343895, -0.01312214508652687, 0.0042726630344986916, 0.1241237223148346, 0.01972704939544201], [0.0017618357669562101, -0.005387409124523401, 0.0007755515980534256, 0.05530264601111412, -0.011851126328110695, -0.002712787128984928, 0.0022652195766568184, -0.055755872279405594, 0.0043761045671999454, -0.0013224314898252487, -0.05309566855430603, 0.04549705237150192, -0.02753090113401413, -0.00204335805028677, 0.07995671033859253, -0.0076201059855520725], [0.0811241939663887, -0.1010708212852478, 0.02667093276977539, 0.11682801693677902, 0.02874133735895157, 0.021275701001286507, -0.02290281280875206, -0.2834590971469879, -0.14774705469608307, 0.014148262329399586, -0.2351294755935669, 0.14126597344875336, -0.1209729015827179, 0.02440589666366577, 0.22246935963630676, 0.010469461791217327], [0.01290069054812193, -0.05885762721300125, 7.803295738995075e-05, 0.23809200525283813, -0.01826736517250538, 0.01638498157262802, 0.004282219801098108, -0.24429310858249664, -0.001811732305213809, 0.006299108732491732, -0.2649441659450531, 0.065412238240242, -0.15386946499347687, -0.006797908339649439, 0.3643834590911865, -0.023757969960570335], [0.09756975620985031, -0.047122497111558914, 0.15099786221981049, -0.019566375762224197, 0.015613703057169914, 0.012910869903862476, 0.0111159048974514, -0.0807589516043663, -0.08671200275421143, -0.005731218960136175, -0.05518592521548271, 0.07580217719078064, -0.005001300945878029, 0.022361304610967636, -0.0949934795498848, 0.018823139369487762], [0.6922880411148071, -0.031070100143551826, 1.2045942544937134, -0.5857918858528137, 0.19003437459468842, 0.2771209180355072, -0.004229465965181589, -0.0599181167781353, -1.1173371076583862, 0.03397528827190399, -0.08146835118532181, 0.43753644824028015, -0.02332264743745327, -0.13065986335277557, -1.4415922164916992, -0.2479906529188156], [2.756338119506836, -0.04883831366896629, 4.6130595207214355, -2.36629056930542, 0.8722999095916748, 1.3625065088272095, -0.001704295282252133, -0.1191084012389183, -4.4971184730529785, -0.018501941114664078, -0.11361534148454666, 1.814720869064331, -0.06541211903095245, -0.591834306716919, -5.846548080444336, -0.9538284540176392], [0.00913938507437706, 0.011048651300370693, 0.02342466451227665, 0.02511211298406124, 0.0062233502976596355, -0.016030238941311836, -0.004585342947393656, -0.029819197952747345, -0.009612777270376682, 0.028387313708662987, -0.023742802441120148, -0.00305167306214571, 0.0033193458802998066, 0.05341352894902229, 0.04850316792726517, 0.05298592522740364], [1.2319505214691162, -0.01626593805849552, 2.195197820663452, -1.0211987495422363, 0.4325765371322632, 0.6705716252326965, -0.017715388908982277, -0.10603317618370056, -2.0398142337799072, -0.018566813319921494, -0.09209124743938446, 0.8468652963638306, -0.048393648117780685, -0.31336715817451477, -2.5046586990356445, -0.6475424766540527], [0.008558643981814384, -0.028230680152773857, 0.01634867489337921, 0.060611121356487274, -0.0038868472911417484, 0.003077600384131074, -0.005641298834234476, -0.05961497128009796, 0.018806496635079384, 0.017722314223647118, -0.06423640251159668, 0.048927489668130875, -0.02681296318769455, 0.04348333179950714, 0.1290876269340515, 0.001015135901980102], [-0.001242556143552065, -0.07751689106225967, -0.0021127895452082157, 0.1425543576478958, 0.009146565571427345, 0.003983846865594387, -0.008266536518931389, -0.1625063270330429, 0.0019011106342077255, 0.02267274260520935, -0.16283978521823883, 0.0664631724357605, -0.0692385658621788, 0.017869330942630768, 0.2937658131122589, 0.008178586140275002], [0.17248301208019257, -0.04588790982961655, 0.2571617364883423, -0.03460472822189331, 0.07803536206483841, 0.07455632835626602, -0.025109626352787018, -0.21329054236412048, -0.30350422859191895, 0.016626324504613876, -0.19557863473892212, 0.18943281471729279, -0.1068136915564537, -0.03439870476722717, -0.08386081457138062, -0.02568991482257843], [0.13731497526168823, -0.0006200650241225958, 0.22370633482933044, -0.0650886744260788, 0.04071293771266937, 0.09238499402999878, -0.015325280837714672, -0.022908201441168785, -0.2054092139005661, -0.024390945211052895, -0.015534221194684505, 0.0871509462594986, 0.0041405558586120605, -0.014779111370444298, -0.26999586820602417, -0.08722257614135742], [0.029013587161898613, -0.028812963515520096, -0.015347900800406933, 0.060046616941690445, 0.020924532786011696, -0.0046816375106573105, -0.015491013415157795, -0.12209942191839218, 0.0026802606880664825, -0.007187077775597572, -0.10591071099042892, 0.05287395045161247, -0.05471792444586754, 0.016976382583379745, 0.23517443239688873, -0.026159018278121948], [1.8209408521652222, -0.025481177493929863, 2.4815316200256348, -1.491274118423462, 0.5849268436431885, 0.8720659017562866, 0.00454717967659235, -0.12097370624542236, -2.9944984912872314, -0.034029338508844376, -0.12713587284088135, 1.2326960563659668, -0.07535339146852493, -0.39029961824417114, -3.7556207180023193, -0.3431157171726227], [-0.014453518204391003, -0.03103885054588318, -0.004271334502846003, 0.06187334284186363, 0.011358533054590225, -0.015495597384870052, -0.0029402938671410084, -0.13981172442436218, 0.019849203526973724, 0.010429168120026588, -0.10508879274129868, 0.04205513373017311, -0.05531192570924759, 0.03188518434762955, 0.2293201982975006, -0.021131038665771484], [0.008242875337600708, -0.08160076290369034, 0.0012922212481498718, 0.16347366571426392, 0.011027893051505089, -0.009754844009876251, -0.017104849219322205, -0.16183747351169586, 0.015228524804115295, 0.014294421300292015, -0.13835453987121582, 0.03646418824791908, -0.08681463450193405, 0.014493533410131931, 0.2544253170490265, -0.0070444741286337376], [0.012431816197931767, -0.0014912665355950594, -0.012956859543919563, 0.0092525165528059, -0.02398775890469551, -0.0082472562789917, 0.026744723320007324, -0.03248439356684685, 0.011479683220386505, 0.0017967408057302237, -0.02831166610121727, 0.011704649776220322, -0.030889049172401428, 0.0020459366496652365, 0.062370963394641876, -0.01107577234506607], [-0.002863462083041668, -0.0152988126501441, 0.010210605338215828, 0.04887576028704643, 0.022449498996138573, 0.00736486678943038, -0.0032920874655246735, -0.03308045119047165, 0.007675185799598694, -0.02337593585252762, -0.021340016275644302, 0.05007532611489296, -0.02838035300374031, 0.006708279252052307, 0.12183329463005066, -0.0024730046279728413], [0.017119985073804855, -0.015233542770147324, -0.01494681742042303, 0.027326617389917374, 0.015414034016430378, 0.01274966076016426, 0.01165791042149067, -0.07189682126045227, 0.0021951203234493732, -0.02441793493926525, -0.061538200825452805, 0.015836620703339577, -0.010500261560082436, 0.03359994664788246, 0.0958348885178566, 0.002353203482925892], [1.156882882118225, -0.013701160438358784, 2.001737594604492, -1.0079100131988525, 0.3434012234210968, 0.6834628582000732, 0.020765721797943115, -0.03312255069613457, -1.8813154697418213, -0.020214010030031204, -0.021559370681643486, 0.7695806622505188, 0.010412568226456642, -0.25263670086860657, -2.517345905303955, -0.8045889735221863], [0.010675381869077682, -0.017847485840320587, 0.003495205892249942, 0.12769374251365662, 0.0015536593273282051, 0.006939098238945007, 0.021306373178958893, -0.09961013495922089, -0.002016036305576563, 0.03610333427786827, -0.06936579942703247, 0.04554864764213562, -0.04574155434966087, 0.021762873977422714, 0.19282296299934387, 0.012844359502196312], [6.228165626525879, -0.091738760471344, 10.264899253845215, -5.554565906524658, 2.0324172973632812, 3.312861204147339, 0.02368956059217453, -0.22297190129756927, -10.252620697021484, -0.11312542855739594, -0.18688678741455078, 4.135720252990723, -0.06098734959959984, -1.4223819971084595, -13.447563171386719, -2.7457058429718018], [0.3736773729324341, -0.029954876750707626, 0.48806309700012207, -0.22277845442295074, 0.13617374002933502, 0.15484152734279633, -0.011967075988650322, -0.09866449981927872, -0.6535685062408447, -0.001593231689184904, -0.11073888838291168, 0.32350361347198486, -0.07189613580703735, -0.09024733304977417, -0.7380719184875488, -0.009802618063986301], [-0.010380875319242477, -0.04127168655395508, 0.023377375677227974, 0.022609427571296692, -0.015462570823729038, -0.01772373542189598, 0.011787090450525284, -0.03015681728720665, 0.02273610047996044, 0.011141639202833176, -0.0026753731071949005, 0.008075397461652756, 0.00027830153703689575, 0.027684815227985382, 0.017757132649421692, 0.004642370622605085], [0.017424896359443665, -0.009007981978356838, -0.017597924917936325, 0.07272236794233322, 0.0051985736936330795, 0.00327506335452199, 0.016681086272001266, -0.15640278160572052, 8.333241567015648e-06, 0.017185017466545105, -0.1485491842031479, 0.033542707562446594, -0.08587928116321564, 0.007119293324649334, 0.25580111145973206, 0.007074207067489624], [1.2331184148788452, -0.04664286971092224, 1.8864680528640747, -1.0448493957519531, 0.41672810912132263, 0.6724398732185364, -0.011241582222282887, -0.1826915144920349, -2.0065038204193115, -0.017050938680768013, -0.10388839989900589, 0.8579527735710144, -0.05069044977426529, -0.23365043103694916, -2.529858112335205, -0.5775934457778931], [0.09551987051963806, -0.04749608039855957, 0.1523350328207016, -0.027167364954948425, 0.04792988300323486, 0.0713801458477974, -0.006766841281205416, -0.06909813731908798, -0.18607884645462036, 0.027179883792996407, -0.052665095776319504, 0.07440436631441116, -0.026356153190135956, -0.032194461673498154, -0.10300391912460327, -0.02366635948419571], [2.105050563812256, -0.07879959046840668, 3.1670281887054443, -1.740920066833496, 0.6470504999160767, 1.2422411441802979, -0.03743119165301323, -0.16762328147888184, -3.4448230266571045, -0.04250683635473251, -0.11150223761796951, 1.4513496160507202, -0.06921970099210739, -0.454416960477829, -4.449292182922363, -1.1780462265014648], [-0.0007381145260296762, -0.008614064194262028, 0.014232227578759193, 0.009600990451872349, -0.010993070900440216, -0.017732013016939163, 0.0074519505724310875, -0.00926168542355299, 0.002496658358722925, 0.024140436202287674, 0.005622574128210545, -0.01251068152487278, 0.0018042309675365686, -0.012680907733738422, 0.025422722101211548, -0.00790193397551775], [0.07293280959129333, -0.08782699704170227, 0.08218872547149658, 0.054906781762838364, 0.007779756560921669, 0.028608370572328568, -0.0018411499913781881, -0.237288698554039, -0.09104859083890915, -0.013703938573598862, -0.1848861575126648, 0.10183223336935043, -0.103690966963768, 0.01886001043021679, 0.24832254648208618, -0.031154105439782143]], [[0.16437456011772156, -0.02985752746462822, 0.20794813334941864, -0.06755281239748001, 0.0366552360355854, 0.07719410955905914, -0.0017116618109866977, -0.09455862641334534, -0.27124717831611633, -0.003026230726391077, -0.06751449406147003, 0.1323809027671814, -0.04011627659201622, -0.027877185493707657, -0.2395079880952835, -0.034271202981472015], [0.016804154962301254, -0.014719785191118717, 0.011895280331373215, 0.03403622657060623, 0.004104028455913067, 0.005450050346553326, -0.009813884273171425, -0.06562843173742294, -0.012829883955419064, 0.029116645455360413, -0.05568092316389084, 0.04450405016541481, -0.026568029075860977, 0.015407487750053406, 0.11762623488903046, -0.0009311456233263016], [0.010439694859087467, -0.019641434773802757, 0.00715518556535244, 0.02072295919060707, 0.012905368581414223, 0.011916792020201683, -0.014711758121848106, -0.03622903674840927, 0.010726823471486568, 0.03989335149526596, -0.033721208572387695, 0.010057375766336918, -0.02403062768280506, -0.00021156342700123787, 0.07104171067476273, -0.009400143288075924], [0.10208204388618469, -0.11442084610462189, 0.05419088155031204, 0.14688265323638916, 0.015595916658639908, 0.059425681829452515, -0.008700241334736347, -0.2750758230686188, -0.09357164055109024, 0.047349605709314346, -0.1573215276002884, 0.14453566074371338, -0.08180646598339081, 0.13155212998390198, 0.20616154372692108, -0.0067858584225177765], [-0.013856075704097748, -0.10744031518697739, -0.0034853857941925526, 0.21545927226543427, 0.015194563195109367, 0.022268228232860565, 0.011292049661278725, -0.3081033527851105, 0.03564900904893875, 0.053010907024145126, -0.23275715112686157, 0.08655499666929245, -0.09327787160873413, 0.09460572153329849, 0.42170682549476624, 0.011679395101964474], [0.0950736477971077, -0.02306324802339077, 0.17182019352912903, -0.0492219403386116, 0.033058326691389084, 0.008536580950021744, 0.010585881769657135, -0.0606527253985405, -0.11886567622423172, 0.011415420100092888, -0.04987597092986107, 0.10062067210674286, -0.019428584724664688, 0.026288360357284546, -0.09957408905029297, -0.003722820430994034], [0.7605609893798828, -0.023163679987192154, 1.2434910535812378, -0.6183396577835083, 0.22215788066387177, 0.37853002548217773, -0.00865557137876749, -0.09481155127286911, -1.120798110961914, -0.024835757911205292, -0.1022178903222084, 0.45227527618408203, -0.028857000172138214, -0.17267301678657532, -1.4279621839523315, -0.4287742078304291], [2.738865852355957, -0.04979443922638893, 4.706574440002441, -2.3731307983398438, 0.8617856502532959, 1.6668363809585571, 0.007883718237280846, -0.18875612318515778, -4.486946105957031, -0.004962943494319916, -0.11898981034755707, 1.823734998703003, -0.03167847543954849, -0.6149159073829651, -5.811842918395996, -2.112901210784912], [0.005891519598662853, -0.024082478135824203, 0.014186793938279152, 0.03084803745150566, 0.008141311816871166, 0.015947025269269943, -0.04406336322426796, 0.001027141697704792, 0.031732961535453796, 0.010174116119742393, -0.009978502988815308, 0.011115592904388905, 0.005092256236821413, 0.045420948415994644, 0.0206194669008255, 0.003670964390039444], [1.2057268619537354, -0.05414189398288727, 2.1644396781921387, -1.0478097200393677, 0.44781601428985596, 0.7808942198753357, -0.011319238692522049, -0.13051185011863708, -2.0546586513519287, -0.007532520219683647, -0.08365818113088608, 0.8424919247627258, -0.031933799386024475, -0.26389268040657043, -2.510499954223633, -0.929196298122406], [0.02271845191717148, -0.04551258683204651, 0.014898648485541344, 0.035411641001701355, -0.0028304902371019125, 0.010648127645254135, 0.0069403620436787605, -0.06287658959627151, 0.007588230073451996, -0.010010565631091595, -0.05618799850344658, 0.039360664784908295, -0.0025580073706805706, 0.03678826615214348, 0.0950269103050232, 0.018020784482359886], [0.05756932869553566, -0.09152591973543167, -0.014288514852523804, 0.1359931230545044, -0.005491083022207022, 0.015716563910245895, -0.03228510916233063, -0.18056300282478333, 0.025845583528280258, 0.0211467482149601, -0.1338740438222885, 0.05393574386835098, -0.05606818571686745, 0.07150989770889282, 0.2891339957714081, 0.008958176709711552], [0.17546553909778595, -0.08515875041484833, 0.2583092749118805, -0.037778615951538086, 0.10328319668769836, 0.11115418374538422, -0.015807587653398514, -0.22366099059581757, -0.3273804187774658, -0.006219398230314255, -0.14502419531345367, 0.1854216754436493, -0.06215446814894676, 0.018134545534849167, -0.08918949961662292, -0.0898222103714943], [0.1899312436580658, -0.009821956045925617, 0.28157299757003784, -0.10626490414142609, 0.03867463022470474, 0.11270713806152344, -0.0017354241572320461, 0.004785697441548109, -0.2950133979320526, 0.0009475196711719036, -0.04031229764223099, 0.12625473737716675, -0.0262360367923975, -0.03620491176843643, -0.3554287552833557, -0.09077237546443939], [-0.021717311814427376, -0.05776635557413101, 0.026279928162693977, 0.07516499608755112, 0.01887134462594986, 0.00325686763972044, 0.010678781196475029, -0.1763419806957245, 0.002126431092619896, 0.02087637595832348, -0.10329455882310867, 0.0353795625269413, -0.04249352216720581, 0.058423496782779694, 0.24009931087493896, 0.0024589360691607], [1.7994545698165894, -0.05863559991121292, 2.584442377090454, -1.5021820068359375, 0.5608087778091431, 1.1302639245986938, -0.009633268229663372, -0.1516450047492981, -2.9662156105041504, -0.017089854925870895, -0.11109864711761475, 1.2591497898101807, -0.0428549125790596, -0.37100687623023987, -3.8305931091308594, -1.3626680374145508], [0.021446004509925842, -0.07464265823364258, -0.012537913396954536, 0.08387742191553116, -0.014158379286527634, -0.016627028584480286, 0.024102915078401566, -0.11413536220788956, 0.014731265604496002, 0.024561313912272453, -0.08112340420484543, 0.02917354181408882, -0.022714268416166306, 0.10080227255821228, 0.24535198509693146, -0.03594112768769264], [-0.007691037841141224, -0.07992944121360779, -0.004430367611348629, 0.17935609817504883, 0.01605946570634842, 0.014616964384913445, -0.017118927091360092, -0.17541560530662537, 0.04474205896258354, 0.03026070073246956, -0.10428302735090256, 0.06566890329122543, -0.06638072431087494, 0.10303595662117004, 0.23451827466487885, 0.011792624369263649], [0.008776727132499218, -0.007457311265170574, -0.014749458990991116, -0.0013406816869974136, -0.02191273681819439, 0.010737432166934013, 0.01729212887585163, -0.03337094932794571, -0.006595599465072155, -0.02133764699101448, -0.01536099798977375, 0.03398638963699341, -0.033840812742710114, -0.012407767586410046, 0.04079896956682205, -0.007447294890880585], [0.008110315538942814, -0.001070084166713059, 0.021519383415579796, 0.04989539086818695, -0.007119975984096527, -0.014934591017663479, -0.01305818185210228, -0.05168074369430542, -0.0048303864896297455, -0.004314430523663759, -0.04659170284867287, 0.037439413368701935, -0.03705985099077225, 0.03947390988469124, 0.10810521990060806, -0.0020417009945958853], [0.012359470129013062, -0.028299620375037193, -0.0037366272881627083, 0.03158164396882057, -0.010351056233048439, 0.014494112692773342, -0.00883061345666647, -0.07490590959787369, 0.009875155985355377, 0.02002575993537903, -0.040731072425842285, 0.00393587164580822, -0.008530091494321823, 0.06331714987754822, 0.07040023058652878, 0.01294800452888012], [1.1374385356903076, 0.004937188699841499, 2.003312826156616, -0.9958749413490295, 0.33532005548477173, 0.7466668486595154, -0.012629996053874493, -0.02965829148888588, -1.8741893768310547, -0.017406538128852844, 0.0005181260639801621, 0.7650370001792908, -0.0027660992927849293, -0.24563831090927124, -2.5167109966278076, -0.90371173620224], [0.011203867383301258, -0.03922034800052643, 0.00201112381182611, 0.0872882604598999, -0.0006460603326559067, 0.005737723782658577, -0.014610451646149158, -0.09071802347898483, -0.0071967653930187225, 0.023946568369865417, -0.06474953144788742, 0.049699150025844574, -0.045987579971551895, 0.048039842396974564, 0.18048842251300812, 0.02576812356710434], [6.210574626922607, -0.10042981803417206, 10.306912422180176, -5.479779243469238, 2.0471413135528564, 3.7932069301605225, -0.0001278201671084389, -0.1986752450466156, -10.221719741821289, -0.05810551345348358, -0.12807735800743103, 4.1320977210998535, -0.0253448486328125, -1.3304718732833862, -13.424614906311035, -4.8394904136657715], [0.4034472405910492, -0.04683844372630119, 0.537713885307312, -0.24214257299900055, 0.10417202860116959, 0.24009129405021667, 0.011872200295329094, -0.1590263843536377, -0.6739150881767273, 0.04839630797505379, -0.10773064196109772, 0.3043793737888336, -0.07005969434976578, -0.04786479473114014, -0.6922167539596558, -0.2240520864725113], [-0.013252917677164078, -0.01156796608120203, -0.01092793233692646, 0.00020571518689393997, -0.0007921159849502146, -0.014198614284396172, 0.0033511759247630835, -0.006634432822465897, -0.006714565213769674, -0.01851717196404934, 0.012133791111409664, -0.011293945834040642, -0.01110182423144579, 0.02833985909819603, 0.02475913241505623, 0.0003529805690050125], [0.012308319099247456, -0.06307321041822433, -0.01406718697398901, 0.10125434398651123, 0.04249955713748932, 0.03481186553835869, -0.0014182543382048607, -0.16092070937156677, 0.012885484844446182, -0.005160677246749401, -0.12243959307670593, 0.035920243710279465, -0.061404693871736526, 0.015192716382443905, 0.27589884400367737, -0.027176350355148315], [1.243563175201416, -0.09960326552391052, 1.8825852870941162, -1.0512359142303467, 0.433700829744339, 0.7660939693450928, 0.0009005380561575294, -0.10711163282394409, -2.0227277278900146, -0.031014764681458473, -0.05845693498849869, 0.8524782657623291, -0.04377623274922371, -0.2137720286846161, -2.5269100666046143, -0.9467628002166748], [0.09320324659347534, -0.02616184949874878, 0.1120244562625885, -0.024208229035139084, 0.030649542808532715, 0.08752864599227905, 0.013764211907982826, -0.03730568662285805, -0.1338956654071808, 0.03810696676373482, -0.03165353089570999, 0.05194627493619919, -0.022405095398426056, 0.035839006304740906, -0.05980411916971207, -0.056525394320487976], [2.0798237323760986, -0.07706359773874283, 3.1674551963806152, -1.7643134593963623, 0.6693230271339417, 1.3517735004425049, -0.024690473452210426, -0.13665153086185455, -3.4725983142852783, 0.0005726926028728485, -0.10755104571580887, 1.4430127143859863, -0.039362505078315735, -0.43882378935813904, -4.415672302246094, -1.5915184020996094], [-0.023026486858725548, -0.0003803117433562875, -0.015483113005757332, -0.006392420269548893, 0.0006581381894648075, 0.0028508538380265236, -0.0070625655353069305, 0.0025546227116137743, 0.013117365539073944, -0.0034918785095214844, 0.019371187314391136, 0.021818028762936592, -0.006814035587012768, -0.008250034414231777, -0.02351348288357258, -0.0013657198287546635], [0.05247765779495239, -0.10099204629659653, 0.05484701693058014, 0.08852013945579529, 0.04486258327960968, 0.033060673624277115, -0.01425975002348423, -0.2416044920682907, -0.012676991522312164, -0.004154179245233536, -0.15416745841503143, 0.09046126902103424, -0.07681506127119064, 0.08065739274024963, 0.26902666687965393, -0.03377343714237213]]], [[[0.11024177819490433, -0.02939782291650772, 0.11999376118183136, -0.0529044046998024, 0.048291705548763275, 0.041316986083984375, -0.008981491439044476, -0.07403157651424408, -0.21465642750263214, -0.0005430085584521294, -0.07575805485248566, 0.09833736717700958, -0.03414648771286011, -0.03743527829647064, -0.20273873209953308, -0.02660953439772129], [0.020402897149324417, -0.007661891635507345, -0.012135460041463375, 0.06011035293340683, -0.019476570188999176, -0.0015994141576811671, -0.012041741982102394, -0.07595578581094742, 0.006070723757147789, 0.03268945962190628, -0.06987132132053375, 0.009510071948170662, -0.028075125068426132, 0.0023672152310609818, 0.10390007495880127, -0.006059788167476654], [0.03310446813702583, 0.00041536567732691765, -0.004502014257013798, 0.039192453026771545, -0.011379544623196125, -0.009623430669307709, -0.015767037868499756, -0.07281862199306488, 0.0131617970764637, 0.0024418882094323635, -0.05937556177377701, 0.002301217056810856, -0.03239263594150543, -0.010247629135847092, 0.05216381326317787, -0.003580270567908883], [0.13557730615139008, -0.0754903182387352, 0.1828424632549286, 0.09871235489845276, 0.036772388964891434, 0.011793803423643112, -0.006043391302227974, -0.2879229784011841, -0.1415419578552246, 0.013338783755898476, -0.28539541363716125, 0.16771993041038513, -0.15328454971313477, -0.016302097588777542, 0.1830378919839859, 0.020604601129889488], [0.013480639085173607, -0.01584170199930668, -0.02138890139758587, 0.24485692381858826, -0.004098604898899794, 0.0027760553639382124, -0.017676180228590965, -0.23236572742462158, 0.02755974978208542, 0.007075803354382515, -0.28195828199386597, 0.09235937148332596, -0.1433136761188507, -0.0007773956749588251, 0.3132558763027191, -0.018064063042402267], [0.06160135939717293, -0.011495916172862053, 0.10077185928821564, 0.011111469939351082, 0.008026786148548126, 0.010006928816437721, 0.013718654401600361, -0.1075366735458374, -0.03953136131167412, -0.010282794013619423, -0.05145528167486191, 0.04097437113523483, -0.012848527170717716, -0.03799285367131233, 0.0338967889547348, -0.013117357157170773], [0.6679401397705078, -0.033322773873806, 1.0714925527572632, -0.49845439195632935, 0.16603530943393707, 0.2513609826564789, -0.013921593315899372, -0.035790715366601944, -0.9446718096733093, 0.006249773316085339, -0.06559857726097107, 0.3891517221927643, -0.037566594779491425, -0.14444157481193542, -1.2768468856811523, -0.18245112895965576], [2.778805732727051, -0.026807118207216263, 5.262413501739502, -2.3870670795440674, 0.8670095205307007, 0.9135584235191345, -0.002534688450396061, -0.13846330344676971, -4.372369766235352, -0.011739164590835571, -0.151870995759964, 1.8311145305633545, -0.07545533031225204, -0.6147644519805908, -5.882876873016357, -0.5604538321495056], [-0.031211940571665764, -0.01944124884903431, -0.009619339369237423, 0.029852746054530144, 0.0069624134339392185, -0.018210023641586304, 0.013778029941022396, -0.004702320322394371, -0.0010056090541183949, 0.02174343727529049, -0.020459361374378204, 0.04011620581150055, 0.008449959568679333, -0.021623659878969193, 0.05937134101986885, 0.01561939250677824], [1.28672194480896, -0.017001373693346977, 2.475309133529663, -1.051989197731018, 0.40900760889053345, 0.4204596281051636, -0.014568032696843147, -0.1367572546005249, -2.009934663772583, 0.001711629331111908, -0.17676950991153717, 0.7980202436447144, -0.07175903767347336, -0.297833114862442, -2.6025707721710205, -0.29561132192611694], [0.023618338629603386, -0.05520497262477875, 0.014928044751286507, 0.05233912914991379, -0.015262304805219173, -0.003195718862116337, 0.015483147464692593, -0.10815633833408356, 0.026483658701181412, -0.0013063551159575582, -0.0878133550286293, 0.02459927648305893, -0.008539080619812012, 0.0049983058124780655, 0.0858544185757637, -0.01924057863652706], [0.02369655855000019, -0.05160021036863327, 0.008458678610622883, 0.12106209248304367, 0.0009938364382833242, -0.015610940754413605, -0.0255973469465971, -0.1985863894224167, 0.013406412675976753, 0.029824696481227875, -0.1888030767440796, 0.037289876490831375, -0.08308664709329605, 0.013772206380963326, 0.27262160181999207, -0.008887767791748047], [0.26154834032058716, -0.027249645441770554, 0.2864065170288086, -0.015333041548728943, 0.03228798508644104, 0.018460530787706375, -0.016946732997894287, -0.23957405984401703, -0.2764940857887268, 0.0017860578373074532, -0.2659526467323303, 0.17082414031028748, -0.10823740065097809, -0.053201090544462204, -0.11549478769302368, 0.0031403519678860903], [0.1326638162136078, 0.017784595489501953, 0.23435743153095245, -0.09406206756830215, 0.03382773697376251, 0.09153804928064346, 0.013379121199250221, 0.004759527742862701, -0.23910868167877197, 0.0049253199249506, -0.024388041347265244, 0.09189201891422272, -0.00807187333703041, -0.023744184523820877, -0.2922990620136261, -0.0427221804857254], [0.018680160865187645, -0.00411378126591444, -0.0224835816770792, 0.09030454605817795, -0.011104213073849678, 0.006674755830317736, -0.008195251226425171, -0.1480810046195984, -0.014087604358792305, 0.004925280809402466, -0.17175491154193878, 0.032002419233322144, -0.024452362209558487, 0.0036779248621314764, 0.16252996027469635, -0.022979337722063065], [1.82014799118042, -0.02412807010114193, 3.298582077026367, -1.5213916301727295, 0.5310907363891602, 0.5031102299690247, 0.012474281713366508, -0.10315245389938354, -2.9504055976867676, -0.016326311975717545, -0.11434978991746902, 1.2550537586212158, -0.07213117927312851, -0.37938106060028076, -3.805281639099121, -0.003073718398809433], [0.08080336451530457, -0.03262365609407425, -0.0014156484976410866, 0.07197871804237366, 0.01485053077340126, -0.024049414321780205, -0.019827887415885925, -0.17213934659957886, 0.03487352654337883, -0.018538273870944977, -0.17810149490833282, 0.02775532193481922, -0.06600680947303772, 0.0021152696572244167, 0.21873246133327484, -0.02368488721549511], [0.036980338394641876, -0.04432697966694832, 0.010547609999775887, 0.15769439935684204, 0.0027906675823032856, 0.0026584197767078876, -0.007311706896871328, -0.18274380266666412, 0.027953341603279114, 0.04668322205543518, -0.18286260962486267, 0.0505821593105793, -0.09287935495376587, -0.007406669668853283, 0.28480637073516846, 0.020817739889025688], [0.01565086469054222, -0.027746371924877167, -0.036449581384658813, 0.0010096095502376556, -0.0029948230367153883, 0.017161842435598373, -0.013940625824034214, -0.024721890687942505, 0.019875558093190193, 0.0052505554631352425, -0.03448522090911865, -0.01977558247745037, -0.029178109019994736, 0.006352005060762167, 0.012855815701186657, 0.0017985173035413027], [0.020999850705266, 0.004914914257824421, -0.004685284569859505, 0.029520465061068535, 0.029326682910323143, -0.02006404846906662, -0.009612835012376308, -0.06707383692264557, 0.0029709136579185724, 0.01968175731599331, -0.08872225135564804, 0.007979393005371094, -0.03193797543644905, 0.008356751874089241, 0.04214289411902428, -0.005517022684216499], [-0.011007361114025116, -0.04458550736308098, 0.004443950951099396, 0.056153688579797745, 0.0061126165091991425, -0.02100398764014244, -0.02289465069770813, -0.07838235795497894, -0.019008241593837738, 0.02145947329699993, -0.06593887507915497, -0.007624691352248192, -0.036064449697732925, -0.008372928015887737, 0.07348862290382385, -0.02197432331740856], [1.2025614976882935, -0.017154378816485405, 2.201951503753662, -1.0503544807434082, 0.37041300535202026, 0.6206293702125549, -0.004253433085978031, -0.039333026856184006, -1.991682529449463, -0.010148990899324417, -0.01628877967596054, 0.8350172638893127, -0.005571859423071146, -0.2940198481082916, -2.6169722080230713, -0.5387455821037292], [0.02255227416753769, -0.029463276267051697, -0.0022026849910616875, 0.10294541716575623, -0.024532347917556763, -0.008767785504460335, -0.024316105991601944, -0.08472251147031784, -0.01112291868776083, 0.02734418213367462, -0.08510784804821014, 0.023862995207309723, -0.06792134046554565, 0.0036318590864539146, 0.1655980348587036, 0.019774509593844414], [6.462798118591309, -0.06369052827358246, 12.337332725524902, -5.5188679695129395, 2.004438877105713, 1.937822937965393, -0.03428235277533531, -0.26442718505859375, -10.161689758300781, -0.09315762668848038, -0.2628706097602844, 4.117307186126709, -0.09780694544315338, -1.3884450197219849, -13.516490936279297, -0.8061540722846985], [0.38510915637016296, -0.01019243709743023, 0.6188524961471558, -0.21898648142814636, 0.08801095932722092, 0.10430698841810226, -0.02624264732003212, -0.14364123344421387, -0.5882139205932617, 0.006653651129454374, -0.14507412910461426, 0.2975855767726898, -0.05272427201271057, -0.09844885766506195, -0.6711500883102417, -0.010949250310659409], [0.004257414489984512, -0.002201877534389496, 0.01845552958548069, 0.008564535528421402, -0.008646725676953793, -0.019068466499447823, 0.01678060181438923, -0.034775666892528534, -0.023176206275820732, 0.020275386050343513, -0.035755306482315063, 0.01753862015902996, -0.0005515962839126587, 0.0056619481183588505, 0.028135962784290314, 0.0053677037358284], [0.0490218810737133, -0.012019344605505466, 0.039878539741039276, 0.09964141249656677, -0.03275996819138527, -0.03135741502046585, -0.01600085385143757, -0.17901892960071564, -0.002353853778913617, 0.008436357602477074, -0.17321516573429108, 0.04354196786880493, -0.07419898360967636, 0.010726838372647762, 0.08012310415506363, -0.013792969286441803], [1.3127877712249756, -0.061633411794900894, 2.4979138374328613, -1.0208740234375, 0.41909950971603394, 0.34060394763946533, -0.028069525957107544, -0.17422202229499817, -2.0668561458587646, -0.0024931635707616806, -0.17070433497428894, 0.8355123996734619, -0.06604726612567902, -0.27559924125671387, -2.55507230758667, -0.03963271528482437], [0.11746950447559357, 0.005014276597648859, 0.19165277481079102, -0.025293447077274323, 0.0391048938035965, 0.03660646826028824, 0.004961250349879265, -0.07274958491325378, -0.17759166657924652, 0.008908497169613838, -0.07464376837015152, 0.07041332125663757, -0.03155339136719704, -0.027524858713150024, -0.13092602789402008, -0.0016763977473601699], [2.191141128540039, -0.06285921484231949, 4.175589561462402, -1.8141930103302002, 0.6865392923355103, 0.7660919427871704, 0.02532375417649746, -0.19574284553527832, -3.4747133255004883, -0.03219940513372421, -0.18737533688545227, 1.4378933906555176, -0.08921720832586288, -0.4873266816139221, -4.435060024261475, -0.2732291519641876], [0.008166385814547539, -0.0008360513602383435, -0.006411006674170494, 0.0028741350397467613, 0.02513347566127777, -0.011358643881976604, 0.011095426976680756, -0.0161314494907856, -0.00634921295568347, 0.00043900508899241686, 0.0033087150659412146, 0.022762587293982506, -0.0013060844503343105, -0.012322131544351578, 0.012211557477712631, -0.005373109597712755], [0.16681548953056335, -0.06655879318714142, 0.10480301827192307, 0.09767721593379974, 0.03997476398944855, 0.0074592651799321175, 0.010607928037643433, -0.30401796102523804, -0.083841972053051, 0.022607721388339996, -0.2990621030330658, 0.09468922019004822, -0.1133902445435524, -0.02902994677424431, 0.1869828850030899, -0.014131011441349983]], [[0.1680207997560501, -0.03869946673512459, 0.2374628186225891, -0.10333099961280823, 0.05158598721027374, 0.03714798763394356, -0.030524373054504395, -0.04843293875455856, -0.2971614897251129, 0.010282413102686405, -0.06372445821762085, 0.16403749585151672, -0.012580247595906258, -0.03970200568437576, -0.2937608063220978, -0.015892595052719116], [0.02977345511317253, -0.03525470197200775, -0.025056134909391403, 0.0549752339720726, -0.006927764043211937, 0.009431514889001846, -0.0028047533705830574, -0.07813899964094162, -0.0351601280272007, -0.011888482607901096, -0.07497938722372055, -0.0012172721326351166, -0.043892573565244675, -0.0163411907851696, 0.1099538505077362, 0.0018391015473753214], [0.009427659213542938, 0.013836446218192577, 0.026049630716443062, 0.05102911591529846, -0.025409642606973648, -0.015699109062552452, -0.0015796748921275139, -0.07246208190917969, -0.007279000245034695, 0.017409201711416245, -0.06705292314291, 0.03458629548549652, -0.04035895690321922, 0.020601173862814903, 0.056244559586048126, 0.022236935794353485], [0.14895093441009521, -0.12918712198734283, 0.1808420866727829, 0.08030260354280472, 0.0428459569811821, 0.05056430771946907, -0.014875547029078007, -0.32103487849235535, -0.11582697927951813, 0.0019193021580576897, -0.2851926386356354, 0.15528148412704468, -0.1407538801431656, 0.01700967364013195, 0.20775726437568665, -0.0025399834848940372], [0.035335082560777664, -0.06645651161670685, 0.006593355443328619, 0.21200212836265564, 0.009091484360396862, 0.010776734910905361, -0.034569673240184784, -0.2824772298336029, 0.016836179420351982, 0.027978748083114624, -0.2962673008441925, 0.0784074068069458, -0.12630893290042877, -0.0062253703363239765, 0.3582565486431122, 0.029125504195690155], [0.12087357044219971, -0.04549321532249451, 0.16725610196590424, -0.029268257319927216, 0.03692192956805229, 0.009565720334649086, -0.0015573902055621147, -0.06731905043125153, -0.06551127135753632, -0.013779312372207642, -0.03333093225955963, 0.06267017126083374, -0.027543602511286736, 0.013096535578370094, -0.013003475964069366, -0.028486361727118492], [0.7415536046028137, -0.2940576672554016, 1.3263229131698608, -0.6197750568389893, 0.2151416540145874, 0.23640558123588562, 0.17363613843917847, 0.2321987748146057, -1.1297839879989624, -0.010774267837405205, 0.2524457573890686, 0.4650682508945465, -0.13971945643424988, -0.17146337032318115, -1.468590497970581, -0.24396559596061707], [2.8351171016693115, -0.8061764240264893, 5.472677230834961, -2.376059055328369, 0.9139779210090637, 1.2515296936035156, 0.45464006066322327, 0.6405746340751648, -4.471867561340332, -0.0509134903550148, 0.7443761825561523, 1.8100266456604004, -0.3533526659011841, -0.6205101609230042, -5.873488903045654, -1.0134536027908325], [0.019200842827558517, -0.04441867023706436, -0.0087283281609416, 0.03674672544002533, -0.016675196588039398, 0.007067179307341576, -0.01936722919344902, -0.01714208349585533, -0.030918434262275696, -0.01354453805834055, -0.03004993125796318, 0.00017993059009313583, -0.0070791118778288364, 0.006472299806773663, 0.05915303900837898, -0.011961334384977818], [1.3062554597854614, -0.38349565863609314, 2.5218780040740967, -1.066143274307251, 0.40500408411026, 0.6150161027908325, 0.23204128444194794, 0.2610624432563782, -2.0577125549316406, -0.0021397247910499573, 0.27166301012039185, 0.8367934226989746, -0.16577497124671936, -0.277256041765213, -2.5837771892547607, -0.6178359389305115], [0.053971219807863235, -0.026897072792053223, 0.036367785185575485, 0.03443331643939018, -0.01631907746195793, 0.005258601624518633, 0.021155711263418198, -0.10526827722787857, 0.005415239371359348, -0.0108036482706666, -0.06881168484687805, -0.012921464629471302, -0.05523405224084854, 0.023082654923200607, 0.0920504480600357, -0.005225429777055979], [0.042371589690446854, -0.06343621760606766, 0.0057473815977573395, 0.1088750883936882, -0.004346024245023727, 0.015766872093081474, -0.0156288743019104, -0.2299264818429947, 0.02402503415942192, 0.013505905866622925, -0.1646071970462799, 0.055480558425188065, -0.09517038613557816, 0.022587982937693596, 0.30031123757362366, 0.0006104520289227366], [0.2848960757255554, -0.06361620128154755, 0.4126589894294739, -0.0429842472076416, 0.07134804129600525, 0.022614970803260803, -0.028374414891004562, -0.26874586939811707, -0.3146170973777771, 0.021290108561515808, -0.2630692422389984, 0.1638171225786209, -0.0921892374753952, -0.03945600241422653, -0.1055493950843811, 0.00909344106912613], [0.20038774609565735, -0.09592338651418686, 0.24261802434921265, -0.12372291088104248, 0.030003927648067474, 0.06675412505865097, 0.02689502388238907, 0.06354030966758728, -0.2742636799812317, 0.008811241015791893, 0.09180384129285812, 0.1253713071346283, -0.030088569968938828, -0.036200039088726044, -0.3726397752761841, -0.056379761546850204], [0.05353041738271713, -0.027179548516869545, 0.028870563954114914, 0.0630192682147026, -0.004728622268885374, -0.001133044483140111, 0.0013108355924487114, -0.16624069213867188, -0.01401231437921524, 0.013826007954776287, -0.15798820555210114, 0.03753262758255005, -0.06092856824398041, -0.026010312139987946, 0.18958449363708496, 0.008499988354742527], [1.8890550136566162, -0.04343893751502037, 3.5326173305511475, -1.5847713947296143, 0.573021411895752, 0.783811092376709, -0.0023846758995205164, -0.1332317739725113, -3.0745186805725098, -0.03775794431567192, -0.13280124962329865, 1.2847816944122314, -0.07175911962985992, -0.4022936224937439, -3.887803316116333, -0.49270370602607727], [0.0807964876294136, -0.06340080499649048, 0.022724658250808716, 0.08599229902029037, 0.008389316499233246, 0.005646027158945799, -0.019409703090786934, -0.19985441863536835, 0.025018464773893356, 0.005076779052615166, -0.1935293823480606, -0.005515633150935173, -0.059410519897937775, 0.003041100688278675, 0.21933630108833313, 0.01805635541677475], [0.018963279202580452, -0.09094815701246262, 0.0009307474829256535, 0.12376557290554047, -0.005294959060847759, 0.021059414371848106, 0.01163840014487505, -0.2162933498620987, 0.015177739784121513, -0.007077919784933329, -0.20548655092716217, 0.05481080338358879, -0.07388737797737122, 0.05072546377778053, 0.24949876964092255, 0.021677672863006592], [0.042630236595869064, -0.001200806349515915, 0.014726177789270878, 0.030338216572999954, 0.031193936243653297, 0.0066927759908139706, -0.00584894884377718, -0.0497855506837368, 0.004602807108312845, 0.017473891377449036, -0.03659364581108093, -0.01094830222427845, -0.01269665826112032, 0.0002564741298556328, 0.03233680874109268, -0.024104557931423187], [0.03517603129148483, 0.001061597722582519, 0.015442326664924622, 0.0353742279112339, -0.02414732798933983, -0.006573662161827087, 0.010647234506905079, -0.08653061091899872, -0.03394579142332077, -0.02274920791387558, -0.07950054109096527, 0.02097497321665287, -0.0162428617477417, 0.00047556887147948146, 0.06162860617041588, -0.011495466344058514], [0.043793726712465286, -0.028845978900790215, 0.01991577446460724, 0.05204819515347481, 0.00258978852070868, -0.0013964142417535186, 0.024739068001508713, -0.07567006349563599, 0.0035388676915317774, 0.007842374965548515, -0.06670161336660385, -0.019052905961871147, -0.008590958081185818, 0.05090286210179329, 0.08023249357938766, 0.02374223619699478], [1.2151885032653809, -0.7896044850349426, 2.2783355712890625, -1.0825583934783936, 0.4079686999320984, 0.692512035369873, 0.45557576417922974, 0.7888644337654114, -1.9979832172393799, -0.0255696140229702, 0.843722939491272, 0.7949312329292297, -0.2856282889842987, -0.2614646553993225, -2.6520144939422607, -0.8457951545715332], [0.0006368453614413738, -0.030868101865053177, -0.002295702463015914, 0.07928489148616791, -0.036936238408088684, 0.0039251637645065784, 0.0016879173927009106, -0.09763287007808685, 0.017851389944553375, 0.015668397769331932, -0.05705162137746811, 0.03972986340522766, -0.07743492722511292, -0.02103867568075657, 0.13677962124347687, 0.0004313733079470694], [6.448888778686523, -1.0888431072235107, 12.557049751281738, -5.552748203277588, 2.069450616836548, 3.2127633094787598, 0.5960836410522461, 0.7498230934143066, -10.26305103302002, -0.09948711842298508, 0.8394694328308105, 4.116015434265137, -0.4525572657585144, -1.4314948320388794, -13.471858978271484, -2.8705928325653076], [0.40745359659194946, -0.016777485609054565, 0.7687883377075195, -0.27603408694267273, 0.10716430097818375, 0.145970419049263, -0.0032292238902300596, -0.14956414699554443, -0.6801308393478394, 0.035369180142879486, -0.13276459276676178, 0.3210393190383911, -0.07969201356172562, -0.10377391427755356, -0.7288598418235779, 0.010012061335146427], [0.01819315366446972, -0.02334674634039402, 0.029033713042736053, 0.01187949813902378, 0.028373001143336296, -0.006601834669709206, -0.015993919223546982, -0.014124767854809761, 0.02009936235845089, 0.015680458396673203, -0.005892336368560791, -0.011217258870601654, -0.00807252898812294, -0.016425471752882004, 0.01716841757297516, -0.00030828756280243397], [0.09983020275831223, -0.03277047723531723, 0.018347550183534622, 0.08484459668397903, 0.019499965012073517, -0.016770003363490105, -0.0025582173839211464, -0.1921773999929428, 0.006802129093557596, -0.004594858735799789, -0.20062418282032013, 0.044198453426361084, -0.09082919359207153, -0.013039004057645798, 0.1859530359506607, -0.018298093229532242], [1.2958810329437256, -0.06216602399945259, 2.5637831687927246, -1.050236463546753, 0.4227859079837799, 0.6514575481414795, -0.004618445876985788, -0.20267702639102936, -2.071671962738037, -0.00627862848341465, -0.14896155893802643, 0.8652241826057434, -0.07203799486160278, -0.24750854074954987, -2.541243553161621, -0.6034217476844788], [0.09662511944770813, -0.00507570942863822, 0.16415226459503174, -0.027483433485031128, 0.056374963372945786, 0.08561359345912933, -0.005896144546568394, -0.07322052121162415, -0.15225963294506073, -0.0053586396388709545, -0.05315706506371498, 0.0848526880145073, -0.04161874204874039, -0.015280799940228462, -0.13717836141586304, -0.04725959897041321], [2.1754419803619385, -0.37359994649887085, 4.25637149810791, -1.8293720483779907, 0.7076659798622131, 1.2060822248458862, 0.11773484200239182, 0.06143288314342499, -3.4965996742248535, -0.00974733754992485, 0.16205130517482758, 1.480661392211914, -0.15978077054023743, -0.4562305808067322, -4.474178791046143, -1.2621126174926758], [-0.00919799692928791, -0.009853093884885311, -0.00567792821675539, 0.002467949641868472, 0.00044923205859959126, 0.008096960373222828, 0.0017401089426130056, -0.005890454165637493, -0.0064102583564817905, -0.004130843561142683, -0.008273285813629627, 0.007990713231265545, 0.012136128731071949, 0.019862690940499306, -0.009776799008250237, 0.00717528210952878], [0.13957414031028748, -0.09034871309995651, 0.1739272177219391, 0.08714066445827484, 0.0507478192448616, 0.0031476151198148727, -0.025472240522503853, -0.2969018518924713, -0.06579237431287766, 0.0021425706800073385, -0.29633641242980957, 0.08181898295879364, -0.11147209256887436, 0.03765232861042023, 0.2204573005437851, -0.01723366416990757]], [[0.1803097128868103, -0.0400971844792366, 0.3007422983646393, -0.11482304334640503, 0.057180169969797134, 0.0896051898598671, -0.0034226991701871157, -0.0973549485206604, -0.2892819344997406, -0.0039435443468391895, -0.0787372887134552, 0.12905657291412354, -0.029688674956560135, 0.0045316219329833984, -0.3012940287590027, -0.0725582093000412], [0.03499837964773178, -0.024320440366864204, -0.016331451013684273, 0.009563639760017395, 0.02022111788392067, 0.004271593876183033, 0.009848713874816895, -0.06052814796566963, -0.004062198102474213, -0.0033987415954470634, -0.06033066660165787, 0.0037895608693361282, -0.014275111258029938, -0.0038272282108664513, 0.10218522697687149, -0.0019976110197603703], [0.005425656214356422, -0.048221565783023834, 0.012611148878932, 0.02261323109269142, 0.02111692726612091, -0.002243573544546962, -0.009317795746028423, -0.08273303508758545, 0.027772117406129837, -0.008056610822677612, -0.05241524055600166, 0.034448277205228806, -0.005564944818615913, 0.0322042778134346, 0.12530171871185303, 0.02365742065012455], [0.16736871004104614, -0.13929447531700134, 0.22047138214111328, 0.048452578485012054, 0.030123824253678322, 0.05977687984704971, -0.010037984699010849, -0.3006571829319, -0.1347430795431137, -0.024400144815444946, -0.22972272336483002, 0.14084304869174957, -0.09791907668113708, 0.080655038356781, 0.1963053047657013, -0.06243501231074333], [0.023968758061528206, -0.11103358119726181, 0.014885972253978252, 0.14084675908088684, 0.005553459282964468, -0.009823447093367577, 0.006658034399151802, -0.34248223900794983, 0.06299547106027603, -0.01551514770835638, -0.23812182247638702, 0.07898687571287155, -0.08437640964984894, 0.04504019021987915, 0.42760807275772095, -0.0025450992397964], [0.1065017431974411, -0.05403749272227287, 0.1824832707643509, -0.012327522039413452, 0.04523231089115143, 0.019073082134127617, -0.003998995758593082, -0.048019878566265106, -0.09365139156579971, -0.013523896224796772, -0.03118288889527321, 0.07442706823348999, -0.019834309816360474, 0.005573500879108906, -0.060755014419555664, -0.013060133904218674], [0.766870379447937, -0.325829416513443, 1.3654106855392456, -0.6042149066925049, 0.2092822641134262, 0.39597105979919434, 0.15166780352592468, 0.21859589219093323, -1.1591942310333252, 0.0038426746614277363, 0.23459360003471375, 0.47366511821746826, -0.1441187858581543, -0.14441324770450592, -1.4799052476882935, -0.45070353150367737], [2.8035409450531006, -0.8456029295921326, 5.463725566864014, -2.4032232761383057, 0.9075711965560913, 1.654712200164795, 0.49302616715431213, 0.6281627416610718, -4.491430282592773, -0.015380204655230045, 0.7317689061164856, 1.7988512516021729, -0.3172903060913086, -0.6108905076980591, -5.834112167358398, -2.117218494415283], [0.010701052844524384, 0.000936802476644516, -0.006918436847627163, 0.006482383236289024, -0.004596441052854061, 0.012730943970382214, -0.03163767606019974, -0.02228827215731144, 0.0028577777557075024, -0.004627346061170101, 0.022322051227092743, 0.013328693807125092, -0.010494081303477287, -0.0020709745585918427, 0.020387163385748863, -0.01745816506445408], [1.2955379486083984, -0.4288019835948944, 2.5371906757354736, -1.025254487991333, 0.4060443341732025, 0.7454147338867188, 0.21308845281600952, 0.2539220154285431, -2.033970832824707, -0.017774634063243866, 0.27769041061401367, 0.8262790441513062, -0.17983803153038025, -0.28391754627227783, -2.5404555797576904, -0.9386205077171326], [0.017194565385580063, -0.03972690552473068, 0.0480729416012764, 0.04748137295246124, 0.0073816487565636635, -0.021344704553484917, -0.02326943725347519, -0.07821673899888992, -0.010290964506566525, -0.0016865882789716125, -0.0668434128165245, 0.022592205554246902, -0.05436701327562332, 0.03688012808561325, 0.06493182480335236, -0.00100093858782202], [0.052976854145526886, -0.11724847555160522, 0.03785993903875351, 0.1464458554983139, 0.0013268869370222092, 0.01601938158273697, 0.010335436090826988, -0.21543549001216888, 0.022511037066578865, -0.007488359697163105, -0.13679318130016327, 0.060682546347379684, -0.06439188122749329, 0.05162477493286133, 0.26903295516967773, 0.031261950731277466], [0.2738605737686157, -0.06272663176059723, 0.4629209339618683, -0.04265914857387543, 0.0950210839509964, 0.12197411805391312, -0.01943758688867092, -0.25781726837158203, -0.30847445130348206, -0.013289809226989746, -0.24775616824626923, 0.1900511384010315, -0.08014371991157532, 0.0023608803749084473, -0.11107712984085083, -0.10639215260744095], [0.18731887638568878, -0.08724339306354523, 0.28796231746673584, -0.15493188798427582, 0.04115702211856842, 0.06562958657741547, 0.033753037452697754, 0.056941550225019455, -0.34250736236572266, -8.730310946702957e-05, 0.08274973928928375, 0.1394755244255066, -0.023418771103024483, -0.05817962810397148, -0.4131835699081421, -0.085651695728302], [0.01277673989534378, -0.06126561760902405, 0.008944381959736347, 0.07743936777114868, -0.0010515358299016953, 0.030362818390130997, 0.010102011263370514, -0.18869507312774658, 0.01243862695991993, -0.003357545007020235, -0.11943545937538147, 0.003621302545070648, -0.03493199869990349, -0.006439711898565292, 0.23109343647956848, 0.032174382358789444], [1.8784515857696533, -0.06042855232954025, 3.577284336090088, -1.5995919704437256, 0.6013422608375549, 1.0922654867172241, -0.012940051034092903, -0.1836991310119629, -3.0341928005218506, -0.002339821308851242, -0.08232712745666504, 1.2438768148422241, -0.03144889697432518, -0.4047117531299591, -3.89231014251709, -1.449205756187439], [0.05460372194647789, -0.03557314723730087, 0.05075275897979736, 0.07905561476945877, -0.006772201508283615, 0.007486783899366856, -0.0015250735450536013, -0.14098094403743744, 0.021921657025814056, -0.008450467139482498, -0.17389391362667084, 0.01797996461391449, -0.04729140177369118, 0.06377414613962173, 0.2900788486003876, 0.04293700307607651], [0.040895868092775345, -0.06433133780956268, 0.014049497433006763, 0.10941465198993683, -0.02008400857448578, -0.016601502895355225, -0.015285135246813297, -0.19470326602458954, 0.03240137919783592, -0.008456192910671234, -0.17319215834140778, 0.04528035968542099, -0.07769549638032913, 0.052047356963157654, 0.2514437139034271, -0.014658451080322266], [0.015858950093388557, -0.01597682014107704, 0.02666889876127243, 0.01212376169860363, -0.0006389068439602852, 0.008988935500383377, 0.007305418141186237, -0.06415016949176788, -0.003245860105380416, -0.013560380786657333, -0.039808448404073715, -0.007477757055312395, -0.006947247311472893, -0.010321421548724174, 0.03825550526380539, -0.0071554044261574745], [0.0434914231300354, -0.01611362211406231, 0.020456038415431976, 0.028148571029305458, -0.0021591135300695896, 0.0018935881089419127, 0.008053344674408436, -0.08961261063814163, 0.01654098741710186, 0.01962466537952423, -0.10349148511886597, 0.023096930235624313, -0.016100624576210976, 0.018215268850326538, 0.11859497427940369, -0.012850399129092693], [0.003638150170445442, -0.015522845089435577, 0.0048205675557255745, 0.03417576849460602, 0.008085248991847038, -0.0075728073716163635, -0.024564918130636215, -0.0720968022942543, -0.006905654910951853, 0.007454367354512215, -0.07727333158254623, 0.00038235820829868317, -0.016482850536704063, 0.05378562957048416, 0.0996638685464859, -0.012520205229520798], [1.2487562894821167, -0.8017364144325256, 2.236389636993408, -1.0425938367843628, 0.3841683566570282, 0.7817093133926392, 0.481797993183136, 0.79195237159729, -1.966265082359314, 0.0012245755642652512, 0.8503347039222717, 0.8005558252334595, -0.2842867076396942, -0.269363135099411, -2.618605852127075, -0.9511802196502686], [-0.00927323941141367, -0.05257546156644821, -0.017447693273425102, 0.0220656618475914, -0.009259238839149475, 0.008043457753956318, -0.006360051222145557, -0.09328026324510574, 0.021629543974995613, -0.00961383432149887, -0.0657477080821991, 0.016445476561784744, -0.020179929211735725, 0.014881683513522148, 0.13086731731891632, 0.000404988182708621], [6.414730548858643, -1.1316249370574951, 12.601829528808594, -5.525676250457764, 2.0799825191497803, 3.8029284477233887, 0.6103020310401917, 0.776779294013977, -10.26640796661377, -0.059193264693021774, 0.9103211164474487, 4.126426696777344, -0.3867168724536896, -1.3284589052200317, -13.421892166137695, -4.852727890014648], [0.41556060314178467, -0.03887315094470978, 0.7991024255752563, -0.29278576374053955, 0.14260953664779663, 0.23909085988998413, -0.016544722020626068, -0.16997171938419342, -0.6468315124511719, -0.025292161852121353, -0.10928987711668015, 0.3090861737728119, -0.05411698296666145, -0.05684070289134979, -0.692036509513855, -0.2828652560710907], [-0.021272219717502594, 0.01302457693964243, 0.0371146984398365, 0.01758083701133728, 0.002337407786399126, 0.029041795060038567, 0.013232319615781307, -0.012837627902626991, 0.00015524262562394142, -0.0027895725797861814, 0.005872989073395729, 0.02041894942522049, -0.025457119569182396, 0.03191124275326729, 0.03271638974547386, -0.019049884751439095], [0.0790950134396553, -0.07858631014823914, 0.04546188563108444, 0.052099213004112244, -0.00018599163740873337, -0.006666320841759443, -0.01382229384034872, -0.21716627478599548, 0.022467682138085365, -0.004475006368011236, -0.20609050989151, 0.024723339825868607, -0.061462659388780594, 0.036524057388305664, 0.2881578803062439, 0.020688708871603012], [1.28983736038208, -0.08100839704275131, 2.565432071685791, -1.0040645599365234, 0.4107184112071991, 0.7788729071617126, -0.015850668773055077, -0.14558275043964386, -2.070183753967285, -0.02270560897886753, -0.13503414392471313, 0.8787956237792969, -0.031224438920617104, -0.1989455372095108, -2.545760154724121, -0.9536283612251282], [0.09369908273220062, -0.0022342936135828495, 0.15763741731643677, -0.04869205132126808, 0.0056923627853393555, 0.05985620990395546, -0.026593424379825592, -0.0407354012131691, -0.12704455852508545, -0.013205431401729584, -0.02677971124649048, 0.06520616263151169, -0.019791673868894577, 0.01207316666841507, -0.08537036925554276, -0.07300985604524612], [2.1130645275115967, -0.35178911685943604, 4.274587154388428, -1.848321795463562, 0.6717474460601807, 1.2874261140823364, 0.1676080971956253, 0.13655613362789154, -3.4830405712127686, -0.041528671979904175, 0.2372882068157196, 1.4516652822494507, -0.13486573100090027, -0.38296037912368774, -4.44944953918457, -1.6582896709442139], [-0.02245953679084778, 0.010193031281232834, 0.00013216049410402775, 0.01467625517398119, -0.0009012689115479589, 0.004301557783037424, 0.031071266159415245, 0.01942034810781479, -0.005099279806017876, 0.005892360117286444, 0.006036658771336079, 0.011787829920649529, 0.0007273080991581082, -0.006074036471545696, 0.0009278605575673282, -0.006362299434840679], [0.1495560258626938, -0.09538402408361435, 0.18493309617042542, 0.12213616073131561, 0.03091457299888134, 0.04645957052707672, 0.010802250355482101, -0.2620314657688141, -0.04579751938581467, 0.010646795853972435, -0.2543010115623474, 0.10206946730613708, -0.06901433318853378, 0.0628347247838974, 0.219106525182724, -0.03361574187874794]]], [[[0.1586596518754959, -0.008876454085111618, 0.2631499767303467, -0.09428243339061737, 0.0286727175116539, -0.0062532443553209305, -0.03179628401994705, -0.06378483772277832, -0.26885735988616943, -0.006698036100715399, -0.12670443952083588, 0.11859048902988434, -0.046913594007492065, -0.041561685502529144, -0.2788572907447815, -0.012670877389609814], [0.04672284796833992, 0.0001674983650445938, 0.012656918726861477, 0.06486208736896515, -0.01097180601209402, 0.01685759425163269, 0.011607987806200981, -0.08493173122406006, -0.015709858387708664, 0.0062017906457185745, -0.09098561108112335, 0.02166847139596939, -0.05017632991075516, -0.02207656018435955, 0.07080239057540894, 0.00018203040235675871], [0.019632115960121155, 0.00813286006450653, -0.014207154512405396, 0.0506751723587513, -0.008754688315093517, -0.01000748760998249, -0.01782933995127678, -0.0522155836224556, -0.02698761597275734, -0.0006646583788096905, -0.0698796808719635, 0.031752731651067734, -0.02480081468820572, 0.010261391289532185, 0.03050890937447548, -0.015338634140789509], [0.3261479437351227, -0.07644590735435486, 0.24553567171096802, 0.10640587657690048, 0.06636390835046768, -0.017209403216838837, 0.0014035108033567667, -0.3726100027561188, -0.13452181220054626, 0.020704055204987526, -0.30828842520713806, 0.13138091564178467, -0.1648283749818802, 7.80150294303894e-05, 0.1426713764667511, -0.008107414469122887], [0.13128089904785156, -0.03948939964175224, 0.03679606691002846, 0.14499840140342712, -0.011406400240957737, 0.0019326435867697, -0.034194592386484146, -0.2939986288547516, -0.021496903151273727, 0.054397474974393845, -0.29460251331329346, 0.0731072947382927, -0.12288107722997665, -0.01968328468501568, 0.21124203503131866, -0.0013267302419990301], [0.05039273202419281, -0.007579002063721418, 0.08466336131095886, 0.014397501945495605, 0.01939968392252922, 0.002320394851267338, -0.007722091395407915, -0.0558185800909996, -0.02739752270281315, 0.03161744028329849, -0.08408083021640778, 0.028060775250196457, -0.03247051686048508, -0.024644743651151657, 0.004955492913722992, -0.006572575308382511], [0.6803157329559326, 0.003960814327001572, 1.1697934865951538, -0.48955366015434265, 0.18387851119041443, 0.19749997556209564, -0.04908079281449318, -0.05809576064348221, -0.9567885398864746, -0.016110267490148544, -0.05487523600459099, 0.4455917179584503, -0.0278168935328722, -0.13175152242183685, -1.3602429628372192, -0.18473736941814423], [2.888958692550659, -0.014518305659294128, 5.376453399658203, -2.385965347290039, 0.8956466317176819, 0.5854037404060364, -0.013081887736916542, -0.15306366980075836, -4.344390392303467, -0.03645908832550049, -0.13554075360298157, 1.793964147567749, -0.05570913851261139, -0.645330548286438, -5.908591270446777, -0.5350286364555359], [-0.003140753600746393, -0.02932088077068329, -0.002779679838567972, 0.04887162148952484, 0.005923404823988676, 0.027651213109493256, -0.0048404172994196415, -0.04324159398674965, -0.014915197156369686, 0.015109196305274963, -0.044402796775102615, 0.01308250892907381, -0.007718759123235941, 0.022118860855698586, 0.05040530487895012, 0.02464267425239086], [1.375873327255249, -0.014554692432284355, 2.54044246673584, -0.9922991991043091, 0.41604122519493103, 0.3002171814441681, -0.016062263399362564, -0.14676396548748016, -1.9702814817428589, 0.0062070079147815704, -0.15576694905757904, 0.8062941431999207, -0.03757982701063156, -0.2813575863838196, -2.555880069732666, -0.30228668451309204], [0.10403207689523697, -0.026400787755846977, 0.02372773177921772, 0.08043818920850754, -0.013456507585942745, 0.009846356697380543, 0.0008393908501602709, -0.08171142637729645, 0.027537502348423004, 0.02780591882765293, -0.0796009972691536, 0.030140206217765808, -0.038066282868385315, -0.001791017479263246, 0.13802266120910645, -0.021227046847343445], [0.11822113394737244, -0.05114087089896202, 0.054975274950265884, 0.11601544171571732, 0.034785084426403046, -0.01681494154036045, -0.019553206861019135, -0.20635558664798737, 0.018884247168898582, -0.02207980677485466, -0.20760832726955414, 0.055384792387485504, -0.08818751573562622, -0.007577760145068169, 0.23091892898082733, -0.005855540279299021], [0.4003481864929199, -0.04035763069987297, 0.38420581817626953, 0.026603803038597107, 0.09365422278642654, -0.004903135355561972, -0.025350229814648628, -0.2501750886440277, -0.21336489915847778, 0.049347974359989166, -0.2507324516773224, 0.1451045572757721, -0.11617561429738998, -0.060101598501205444, -0.1267162263393402, -0.020751379430294037], [0.15018773078918457, -0.006130353081971407, 0.25881367921829224, -0.14314483106136322, 0.02723897062242031, 0.06059933081269264, 0.007914633490145206, -0.02557769976556301, -0.26791325211524963, 0.04785005748271942, -0.02117517963051796, 0.119828000664711, -0.011942860670387745, -0.029630295932292938, -0.3957957923412323, -0.07571237534284592], [0.1593034565448761, -0.004534454084932804, 0.0268010925501585, 0.07338152080774307, -0.0030047865584492683, -0.022209275513887405, -0.00758977048099041, -0.14972013235092163, -0.00903055164963007, 0.03531481325626373, -0.1566813886165619, 0.021731974557042122, -0.0554983951151371, -0.027284612879157066, 0.10284116119146347, 0.01749749667942524], [1.920143485069275, -0.02738257311284542, 3.582427740097046, -1.6008765697479248, 0.5699077248573303, 0.1404406726360321, 0.008727817796170712, -0.18342170119285583, -2.9645159244537354, -0.027114827185869217, -0.18831376731395721, 1.2545886039733887, -0.05696767941117287, -0.42401760816574097, -3.920293092727661, 0.014352235943078995], [0.2089284062385559, -0.026757199317216873, 0.05850735679268837, 0.15239249169826508, 0.0020296722650527954, 0.01563897356390953, -0.00852970127016306, -0.1644614189863205, 0.0169485192745924, 0.010235804133117199, -0.20211060345172882, 0.04677499830722809, -0.048281170427799225, -0.020265167579054832, 0.1306934356689453, -0.013876160606741905], [0.15969647467136383, -0.057898588478565216, 0.028131870552897453, 0.1160033643245697, 0.032449331134557724, 0.01102493517100811, -0.016627678647637367, -0.20453797280788422, 0.005250351969152689, 0.008933978155255318, -0.20516318082809448, 0.05862126499414444, -0.10897250473499298, 6.113504059612751e-05, 0.21900439262390137, 0.005368893500417471], [0.01631227321922779, 0.0029530138708651066, 0.010376838967204094, 0.008820227347314358, 0.03535764291882515, 0.004621454048901796, -0.007254769094288349, -0.03392774984240532, 0.016646863892674446, 0.0053710006177425385, 0.0071105267852544785, -0.005020839627832174, -0.027259375900030136, -0.0001623476855456829, 0.015341663733124733, -0.031200947239995003], [0.08397810906171799, -0.011875463649630547, 0.011822576634585857, 0.030513636767864227, -0.017666084691882133, 0.0024113666731864214, -0.01453194860368967, -0.0760229304432869, -0.011790534481406212, -0.001269302680157125, -0.07775820046663284, 0.02157880738377571, -0.04046572744846344, -0.007500381208956242, 0.015666412189602852, -0.04994916915893555], [0.066363625228405, -0.0015017930418252945, 0.023076102137565613, 0.04133859649300575, 0.014078544452786446, -0.01773786172270775, -0.0032381273340433836, -0.09254392236471176, -0.005900617688894272, 0.014083229005336761, -0.03532560542225838, 0.04071039333939552, -0.01747562550008297, 0.01536698080599308, 0.10629178583621979, -0.009460208006203175], [1.2543973922729492, -0.029563216492533684, 2.423840284347534, -1.078887939453125, 0.38264232873916626, 0.6116202473640442, 0.007845555432140827, -0.037713125348091125, -2.013267755508423, -0.02020072378218174, -0.05428049713373184, 0.8133853077888489, -0.038379836827516556, -0.2734619677066803, -2.657925844192505, -0.5437455773353577], [0.014534787274897099, -0.014828500337898731, 0.04522184282541275, 0.05053916573524475, 0.005465078633278608, 0.017060156911611557, 0.003158935345709324, -0.11830540746450424, -0.012676913291215897, -0.011785517446696758, -0.12303104251623154, 0.023672498762607574, -0.0584837906062603, 0.00385361909866333, 0.11287766695022583, 0.007312965579330921], [6.661303520202637, -0.060781147330999374, 12.567154884338379, -5.486557483673096, 2.095820426940918, 1.0289994478225708, -0.03177795186638832, -0.2962035536766052, -10.120308876037598, -0.062297411262989044, -0.2611026167869568, 4.106053829193115, -0.11294618248939514, -1.3989522457122803, -13.530494689941406, -0.7872475385665894], [0.42317667603492737, 0.001973841106519103, 0.7700971364974976, -0.29693615436553955, 0.1313796043395996, 0.045002516359090805, -0.02179131843149662, -0.13985133171081543, -0.675403356552124, 0.021883875131607056, -0.13936974108219147, 0.28282418847084045, -0.06582730263471603, -0.09126998484134674, -0.7507296204566956, -0.008385993540287018], [-0.0018749609589576721, 0.0188215970993042, 0.005582316312938929, 0.018561027944087982, -0.010156532749533653, -0.012818166054785252, 0.006928720511496067, -0.020304998382925987, 0.016849927604198456, 0.017185822129249573, -0.024078749120235443, 0.0022648670710623264, 0.006751479115337133, -0.007603484205901623, 0.05400543659925461, 0.005564907565712929], [0.18404492735862732, -0.006494464352726936, 0.014175460673868656, 0.08452832698822021, 0.03066502884030342, 0.015492443926632404, -0.03174203634262085, -0.17131181061267853, 0.006841579452157021, -0.0031379349529743195, -0.17492151260375977, 0.026219239458441734, -0.09359923005104065, 0.023250697180628777, 0.07921312004327774, -0.01887769065797329], [1.4189348220825195, -0.048300035297870636, 2.583064556121826, -1.0275611877441406, 0.4322814345359802, 0.12504799664020538, -0.02454126626253128, -0.18784545361995697, -2.0392589569091797, -0.01130605861544609, -0.2024553120136261, 0.8433103561401367, -0.08090637624263763, -0.27712082862854004, -2.558779239654541, -0.030505236238241196], [0.13982298970222473, -0.004527117591351271, 0.22504158318042755, -0.05584115907549858, 0.029841886833310127, 0.00520685501396656, -0.013614717870950699, -0.07770226895809174, -0.16990213096141815, -0.005277933087199926, -0.09860479831695557, 0.06761463731527328, -0.024617725983262062, -0.02403273433446884, -0.10399036109447479, -0.010291467420756817], [2.2880306243896484, -0.08125539124011993, 4.390559673309326, -1.8182768821716309, 0.7197955250740051, 0.45036080479621887, -0.02076842077076435, -0.248725026845932, -3.4860146045684814, -0.03460833057761192, -0.21743738651275635, 1.447894811630249, -0.0804392620921135, -0.4769158959388733, -4.475320816040039, -0.26456111669540405], [0.022033032029867172, 0.01706903986632824, -0.01678265444934368, 0.008877139538526535, -0.009724541567265987, -0.010695822536945343, -0.00037036099820397794, 0.02444729395210743, 0.016273852437734604, 0.008976357989013195, -0.018415290862321854, 0.03841570392251015, 0.01220754161477089, -0.03451278805732727, 0.008970873430371284, -0.007194160018116236], [0.35793372988700867, -0.06470269709825516, 0.18917210400104523, 0.1765872836112976, 0.05637158453464508, 0.007794739678502083, 0.005391497164964676, -0.303409606218338, -0.09560851752758026, 0.04300396144390106, -0.2801714837551117, 0.06097455322742462, -0.08559456467628479, -0.00832290481775999, 0.18223918974399567, 0.007519124541431665]], [[0.19297906756401062, -0.036743998527526855, 0.31181851029396057, -0.1436779499053955, 0.03405214101076126, 0.011769510805606842, 0.011653643101453781, -0.1019926443696022, -0.30526942014694214, 0.014084494672715664, -0.09353084117174149, 0.13385987281799316, -0.06432770192623138, -0.04659301042556763, -0.3159119188785553, -0.017110474407672882], [0.07135317474603653, -0.03259878233075142, 0.06040450930595398, 0.04288605600595474, -0.012226351536810398, 0.025896208360791206, -0.012818004935979843, -0.08760512620210648, -0.012339797802269459, 0.00034930557012557983, -0.09747522324323654, 0.038458336144685745, -0.04669787362217903, -0.007636585272848606, 0.08121991902589798, -0.021149585023522377], [0.040826279670000076, -0.010483229532837868, 0.020583339035511017, 0.056489165872335434, 0.014169370755553246, 0.009206772781908512, -0.0067823161371052265, -0.08197866380214691, -0.030834700912237167, -0.010053237900137901, -0.0683060884475708, -0.012350364588201046, -0.028837531805038452, -0.005600406788289547, 0.04499135911464691, -0.006812271196395159], [0.3395078480243683, -0.11303877085447311, 0.27348262071609497, 0.12165302783250809, 0.07554971426725388, 0.006943888496607542, -0.01416491437703371, -0.4024305045604706, -0.13811232149600983, 0.028943978250026703, -0.3417924642562866, 0.11244871467351913, -0.13298851251602173, 0.019759759306907654, 0.21761490404605865, -0.0003407866461202502], [0.16735795140266418, -0.07710099220275879, 0.04770495370030403, 0.13268078863620758, 0.0543048121035099, -0.021674644201993942, -0.012941142544150352, -0.3629348576068878, -0.005250258836895227, 0.0016537498449906707, -0.3109600245952606, 0.06680680811405182, -0.15195494890213013, 0.019124506041407585, 0.3412209153175354, -0.008367592468857765], [0.0971074253320694, -0.06436082720756531, 0.13489902019500732, -0.008320033550262451, 0.01911999098956585, 0.006020835600793362, 0.02508247271180153, -0.08755623549222946, -0.05322934687137604, -0.020908024162054062, -0.028917666524648666, 0.056157562881708145, -0.05217771604657173, 0.014609373174607754, 0.039749711751937866, -0.04335643723607063], [0.7707987427711487, -0.28122031688690186, 1.396815299987793, -0.5788987278938293, 0.2335282415151596, 0.2509092390537262, 0.1768275946378708, 0.21315383911132812, -1.0983703136444092, -0.02784384787082672, 0.26058268547058105, 0.4677208960056305, -0.11633659899234772, -0.1331898272037506, -1.4907469749450684, -0.25045308470726013], [2.9634151458740234, -0.8152384757995605, 5.520199298858643, -2.409508466720581, 0.9171308875083923, 1.0498472452163696, 0.44654154777526855, 0.6521807312965393, -4.483718395233154, -0.044127773493528366, 0.7488356828689575, 1.797753095626831, -0.30917370319366455, -0.6232098340988159, -5.849886894226074, -0.9668511748313904], [0.012359497137367725, 0.0005728602409362793, 0.016193334013223648, 0.03717585280537605, -0.02481551468372345, 0.01745225489139557, 0.0005946551100350916, -0.023135371506214142, 0.017249515280127525, -0.03344716504216194, -0.0420532301068306, -0.0035046120174229145, -0.005550803616642952, -0.020924730226397514, 0.029197050258517265, 0.016267530620098114], [1.4150264263153076, -0.42785021662712097, 2.588367462158203, -0.9817670583724976, 0.3966566324234009, 0.5374701023101807, 0.2144036889076233, 0.24996617436408997, -2.001286745071411, 0.017902635037899017, 0.2769886255264282, 0.7899691462516785, -0.17096556723117828, -0.2957378923892975, -2.5316855907440186, -0.558633029460907], [0.12065353244543076, -0.029131559655070305, 0.05293983966112137, 0.07517408579587936, 0.00559992203488946, 0.020832758396863937, 0.007036192808300257, -0.09201586991548538, 0.018878750503063202, -0.0024832729250192642, -0.07706928998231888, 0.020502844825387, -0.038329191505908966, 0.02781301736831665, 0.10934402793645859, 0.027074018493294716], [0.13963554799556732, -0.06267818063497543, 0.01916208490729332, 0.12615425884723663, 0.020277079194784164, -0.0055646407417953014, -0.007357341703027487, -0.25401991605758667, 0.032882194966077805, -0.007082413882017136, -0.20814375579357147, 0.0486353375017643, -0.08280356228351593, 0.0015538623556494713, 0.2980371117591858, -9.98110044747591e-05], [0.41745656728744507, -0.055567722767591476, 0.5170827507972717, 0.016714736819267273, 0.10026860237121582, 0.014841807074844837, -0.01766194775700569, -0.30062493681907654, -0.30450528860092163, 0.018125806003808975, -0.2843885123729706, 0.17039886116981506, -0.11644688248634338, -0.043465908616781235, -0.1247035562992096, -0.01733432523906231], [0.18906401097774506, -0.09871028363704681, 0.2790277898311615, -0.19903919100761414, 0.0368378572165966, 0.0721735954284668, 0.027548477053642273, 0.061539698392152786, -0.3101252019405365, -0.017006568610668182, 0.06674744188785553, 0.12030273675918579, -0.03252701088786125, -0.034685034304857254, -0.41142868995666504, -0.03347612917423248], [0.1954006850719452, -0.030479559674859047, 0.052400171756744385, 0.08648180216550827, -0.012492029927670956, -0.003131228731945157, -0.03235954791307449, -0.16549615561962128, -0.010268403217196465, 0.0008855229243636131, -0.19497431814670563, 0.0546037033200264, -0.055491797626018524, -0.008304416202008724, 0.17142163217067719, 0.020889000967144966], [1.9362119436264038, -0.04179112985730171, 3.6988229751586914, -1.6089701652526855, 0.5770974159240723, 0.5970100164413452, 0.007088485639542341, -0.20853343605995178, -3.088599443435669, -0.05291695520281792, -0.17685148119926453, 1.2495665550231934, -0.04818246513605118, -0.4192354679107666, -3.901183605194092, -0.44842690229415894], [0.18577086925506592, -0.0454658679664135, 0.11229417473077774, 0.15761882066726685, 0.017258716747164726, 0.009918197989463806, 0.005317319184541702, -0.17874307930469513, -0.0005205105990171432, 0.004531411454081535, -0.2200571745634079, 0.003719508647918701, -0.05110539495944977, 0.029652949422597885, 0.18654702603816986, 0.008023800328373909], [0.16538162529468536, -0.09002473205327988, 0.07798994332551956, 0.15401965379714966, -0.0033043045550584793, 0.0037412410601973534, -0.00823565199971199, -0.22196663916110992, -0.010893232189118862, 0.0019152052700519562, -0.19405892491340637, 0.02840154618024826, -0.04963104426860809, 0.00029398873448371887, 0.262161523103714, 0.010188286192715168], [0.055736757814884186, 0.006594485603272915, 0.0005739540793001652, 0.03457912802696228, -0.004914617165923119, -0.009588192217051983, 0.004065593704581261, -0.0077045150101184845, -0.0036619158927351236, -0.009541468694806099, -0.020738938823342323, -0.0167391300201416, 0.014494211412966251, -0.013385223224759102, 0.03162592276930809, 0.013827400282025337], [0.10849911719560623, -0.012281451374292374, 0.04627921059727669, 0.023360425606369972, -0.007282809820026159, 0.0047930884175002575, 0.0067206621170043945, -0.09932034462690353, 0.005604836158454418, 0.009509604424238205, -0.05874265357851982, 0.005549114663153887, -0.03660975396633148, -0.012443264946341515, 0.05843405798077583, 0.00596719840541482], [0.06402180343866348, -0.0163422878831625, 0.02202610671520233, 0.08505138754844666, 0.01828082650899887, 0.004411398898810148, -0.018778467550873756, -0.070444755256176, 0.005232169292867184, 0.013434797525405884, -0.07840732485055923, -0.004329962655901909, -0.010439826175570488, 0.01819787174463272, 0.09552155435085297, 0.019739579409360886], [1.2316503524780273, -0.8304873704910278, 2.4599924087524414, -1.0844918489456177, 0.3891177177429199, 0.681358814239502, 0.4532458186149597, 0.7562218308448792, -2.049713134765625, -0.019054658710956573, 0.8680000305175781, 0.7943116426467896, -0.2695142328739166, -0.29253438115119934, -2.667590856552124, -0.8519554138183594], [0.03508951887488365, -0.05343194678425789, -0.0014082547277212143, 0.049207672476768494, 0.025841616094112396, -0.02685905247926712, 0.005951756611466408, -0.13203604519367218, -0.006253287196159363, 0.0011765798553824425, -0.13547538220882416, 0.016406089067459106, -0.06116555631160736, -0.01173052005469799, 0.11353497952222824, 0.002939482219517231], [6.658814907073975, -1.087224006652832, 12.68708610534668, -5.433943748474121, 2.1038742065429688, 2.9344964027404785, 0.5873903036117554, 0.7590157389640808, -10.254375457763672, -0.09584884345531464, 0.854715883731842, 4.116461753845215, -0.43083709478378296, -1.402481198310852, -13.47911262512207, -2.762667417526245], [0.4776134490966797, -0.0361676961183548, 0.8690074682235718, -0.2986282706260681, 0.12507407367229462, 0.07336407154798508, -0.01549474336206913, -0.1922040581703186, -0.7082545161247253, -0.010345883667469025, -0.1711229532957077, 0.30998116731643677, -0.04279353842139244, -0.10342688113451004, -0.7184038162231445, 0.004092038609087467], [0.022443925961852074, -0.00993319321423769, 0.029566429555416107, 0.009232318960130215, -0.003445021342486143, -0.00767858698964119, 0.002721372526139021, -0.019444115459918976, 0.00198510498739779, 0.02211807109415531, -0.021946728229522705, 0.018064945936203003, -0.010112951509654522, -0.016432635486125946, 0.012174658477306366, -0.00448400666937232], [0.2138899564743042, -0.020875416696071625, 0.056382760405540466, 0.13192118704319, 0.026971308514475822, -0.007268806919455528, 0.001594233326613903, -0.19326332211494446, 0.018912050873041153, 0.010517829097807407, -0.18438296020030975, -0.0026093367487192154, -0.06803560256958008, 0.008287414908409119, 0.18095561861991882, -0.003105528885498643], [1.427281379699707, -0.074459969997406, 2.6267571449279785, -1.0095514059066772, 0.4461516737937927, 0.5753395557403564, -0.018767094239592552, -0.20281466841697693, -2.0214920043945312, -0.02187160961329937, -0.15638527274131775, 0.8439092040061951, -0.05319177731871605, -0.255372554063797, -2.5666847229003906, -0.5812185406684875], [0.14104673266410828, -0.002236437052488327, 0.2253805547952652, -0.05331534519791603, 0.048023924231529236, 0.06382256746292114, 0.015642831102013588, -0.05315959081053734, -0.13894963264465332, -0.007446246687322855, -0.07943245023488998, 0.10596973448991776, -0.04159119725227356, -0.023958871141076088, -0.11408219486474991, -0.02970406785607338], [2.2844831943511963, -0.38718050718307495, 4.43200159072876, -1.8128801584243774, 0.6931444406509399, 1.1059424877166748, 0.16629166901111603, 0.03556177020072937, -3.4737157821655273, -0.030532231554389, 0.11093688011169434, 1.4278045892715454, -0.1524103581905365, -0.4649979770183563, -4.472995758056641, -1.2250785827636719], [-0.0030998135916888714, -0.0033859582617878914, -0.003004164434969425, 0.005232572555541992, -0.024233145639300346, 0.0072868564166128635, 0.024739986285567284, 0.014803845435380936, -0.012983313761651516, 0.01548678893595934, 0.03223874792456627, -0.0028693925123661757, 0.01012836117297411, 0.03423575311899185, 0.017588479444384575, 0.022892136126756668], [0.3340759873390198, -0.09364054352045059, 0.29038113355636597, 0.1870219111442566, 0.06337404251098633, 0.026245053857564926, -0.03536178544163704, -0.29350024461746216, -0.06333079934120178, -0.0033029350452125072, -0.2831156551837921, 0.08999162912368774, -0.09801967442035675, 0.023336125537753105, 0.22903457283973694, -0.005192631855607033]], [[0.19581136107444763, -0.0577789731323719, 0.34904715418815613, -0.15224379301071167, 0.06429048627614975, 0.06725619733333588, -0.01676858216524124, -0.11982801556587219, -0.28076261281967163, 0.004127689637243748, -0.08234182000160217, 0.1352376937866211, -0.03273974359035492, -0.06498941779136658, -0.26614755392074585, -0.05665285885334015], [0.037858474999666214, -0.03551093861460686, 0.08423401415348053, 0.04009322077035904, -0.007848123088479042, 0.008630575612187386, -0.013200351968407631, -0.08718160539865494, -0.0046203890815377235, 0.024556227028369904, -0.08687681704759598, 0.01347952801734209, -0.03686847910284996, -0.0013068271800875664, 0.0849306583404541, -0.01705586165189743], [0.0648055374622345, -0.013737513683736324, 0.030067995190620422, 0.06270255148410797, 0.02584409900009632, 0.009849952533841133, -0.008333071134984493, -0.07982480525970459, 0.016613591462373734, -0.0042762551456689835, -0.08034190535545349, 0.031199302524328232, -0.0023247990757226944, 0.0032239346764981747, 0.10549639165401459, 0.012261411175131798], [0.27981433272361755, -0.13314545154571533, 0.45646733045578003, 0.12533730268478394, 0.05713798105716705, 0.08212653547525406, -0.013124492950737476, -0.3609176278114319, -0.1415139138698578, -0.011948784813284874, -0.32956209778785706, 0.17529448866844177, -0.08236484229564667, 0.08002330362796783, 0.18435612320899963, -0.07237914204597473], [0.17630335688591003, -0.12770727276802063, 0.08768415451049805, 0.1960277259349823, 0.042979925870895386, 0.007600485812872648, 0.0014137477846816182, -0.41073450446128845, 0.0310335922986269, -0.003136593848466873, -0.30218783020973206, 0.09198010712862015, -0.08550231158733368, 0.05625145509839058, 0.48006683588027954, -0.02012147568166256], [0.08191331475973129, -0.0638013482093811, 0.22173306345939636, -0.011140268296003342, 0.04374292492866516, -0.0253146942704916, -0.020672788843512535, -0.039758920669555664, -0.03280078247189522, -0.005828771740198135, -0.03906864672899246, 0.04977001994848251, -0.01048622652888298, 0.04434514790773392, -0.02188732475042343, -0.02332197315990925], [0.8100272417068481, -0.2908257842063904, 1.410291314125061, -0.5857943892478943, 0.2350635677576065, 0.34814420342445374, 0.15515640377998352, 0.19077864289283752, -1.1263117790222168, -0.023012947291135788, 0.24384711682796478, 0.463859885931015, -0.1162249743938446, -0.1618393510580063, -1.428231120109558, -0.46686211228370667], [2.9329774379730225, -0.8572160005569458, 5.583221912384033, -2.3762590885162354, 0.9329460263252258, 1.6227563619613647, 0.4742547273635864, 0.6300485134124756, -4.461272716522217, -0.02329430729150772, 0.741664469242096, 1.7846940755844116, -0.31614768505096436, -0.5992524027824402, -5.827729225158691, -2.129727602005005], [-0.009712173603475094, -0.014282265678048134, 0.011675612069666386, -0.013386370614171028, 0.0031757191754877567, 0.008373276330530643, 0.0020121438428759575, -0.013201276771724224, 0.007534080184996128, -0.016391649842262268, 0.00023576989769935608, -0.0023397966288030148, 0.016294799745082855, 0.0021430738270282745, 0.040407050400972366, 0.0057997433468699455], [1.4032838344573975, -0.45754680037498474, 2.674187183380127, -0.9849249124526978, 0.4183097183704376, 0.7424045205116272, 0.2359742373228073, 0.27689194679260254, -1.9767621755599976, -0.034338075667619705, 0.3093993365764618, 0.8011732697486877, -0.13903769850730896, -0.2607889175415039, -2.5003316402435303, -0.9200479984283447], [0.07929901778697968, -0.019517580047249794, 0.1314435601234436, 0.06575284153223038, 0.00527985068038106, 0.018031936138868332, -0.011490106582641602, -0.09312089532613754, -0.011043003760278225, -0.0063516199588775635, -0.08138255029916763, 0.03580175340175629, -0.022894294932484627, 0.06053641438484192, 0.0456794872879982, 0.05113151669502258], [0.08721959590911865, -0.09126711636781693, 0.09899792075157166, 0.13021378219127655, 0.02960582822561264, 