{"layer0": {"kernels": [[[[0.15649498999118805, 0.03775141015648842, 0.08991590142250061, 0.1825314313173294, 0.14950358867645264, -0.09048265963792801, 0.0845395028591156, -0.001209097565151751]], [[-0.012440052814781666, 0.042790498584508896, 0.01573924347758293, 0.13008157908916473, 0.06482311338186264, 0.019983623176813126, 0.03835303708910942, 0.04036804288625717]], [[0.1313096284866333, -0.009972131811082363, 0.028837762773036957, -0.06359952688217163, -0.2260153740644455, 0.07307925820350647, 0.08090014010667801, -0.05790973827242851]], [[0.20604632794857025, -0.12380214780569077, 0.002886079950258136, -0.0081960279494524, 0.13124069571495056, 0.12970726191997528, 0.012773345224559307, 0.03730224072933197]]], [[[-0.0780642107129097, -0.16844356060028076, -0.03071889653801918, 0.018917646259069443, 0.1084524393081665, 0.11132781952619553, -0.03776438161730766, -0.013338200747966766]], [[-0.09208285808563232, -0.11557745933532715, -0.15080766379833221, 0.18613503873348236, -0.038118671625852585, -0.0240995604544878, -0.11473751813173294, 0.08380313217639923]], [[-0.14042705297470093, -0.009434998035430908, -0.07875905185937881, 0.045624684542417526, -0.03737799450755119, -0.09681222587823868, -0.008350308053195477, 0.04314231872558594]], [[0.010314983315765858, 0.029865432530641556, -0.054504912346601486, -0.03051135316491127, -0.05663061887025833, -0.036742184311151505, -0.07277556508779526, -0.14973248541355133]]], [[[0.013314025476574898, -0.020696399733424187, -0.143639475107193, 0.05079246312379837, -0.07645931094884872, 0.01895197108387947, 0.06374923139810562, 0.03593664988875389]], [[0.10152602195739746, -0.09794461727142334, 0.036060743033885956, -0.051669709384441376, -0.06917106360197067, -0.03309081494808197, -0.03082304261624813, 0.01842476613819599]], [[-0.10416092723608017, 0.08737915754318237, 0.042432770133018494, -0.13387732207775116, 0.1381082534790039, 0.17329610884189606, 0.1018279567360878, -0.01378619484603405]], [[-0.09157361835241318, 0.09655791521072388, -0.034121982753276825, 0.10329362004995346, 0.021118873730301857, 0.0799144059419632, 0.02722954750061035, 0.0649418756365776]]], [[[0.0017267103539779782, 0.17185412347316742, 0.011269226670265198, 0.047559283673763275, 0.17750172317028046, -0.09909497201442719, -0.11545509099960327, 0.0916733667254448]], [[-0.1034843772649765, 0.1800559014081955, -0.03494269773364067, -0.06275179237127304, 0.1782311350107193, 0.1404092013835907, 0.1618880331516266, 0.08154012262821198]], [[-0.07661237567663193, 0.1722993552684784, -0.023582763969898224, 0.06829407066106796, 0.0857621282339096, -0.01777007058262825, 0.056020088493824005, 0.07926671206951141]], [[0.03242979943752289, -0.0915534570813179, 0.026448601856827736, 0.11644555628299713, -0.059440117329359055, -0.018904246389865875, -0.036464180797338486, 0.16036126017570496]]]], "biases": [[0.015905054286122322], [0.015836451202630997], [0.006471699103713036], [0.0044022537767887115], [-0.011246548034250736], [-0.0031024229247123003], [-0.006484596058726311], [0.00842768419533968]]}, "layer1": {"kernels": [[[[0.04483317211270332, 0.015798239037394524, -0.05239405483007431], [0.03879319131374359, -0.05659288167953491, 0.0022735167294740677], [-0.043087296187877655, 0.04026617482304573, 0.039316918700933456], [-0.023486251011490822, 0.009731537662446499, -0.07031065225601196], [-0.10177511721849442, 0.010443317703902721, 0.02737765945494175], [0.044397443532943726, 0.16214381158351898, 0.07554727047681808], [-0.06314153969287872, 0.07059264928102493, -0.08027178049087524], [-0.029381131753325462, -0.00963230524212122, 0.12155328691005707]], [[-0.05379324033856392, -0.06722187250852585, 0.004598383326083422], [-0.0400819405913353, 0.06356099992990494, -0.07605760544538498], [-0.07874483615159988, -0.03284847363829613, -0.03355773165822029], [0.1190081313252449, 0.07148345559835434, 0.006911803502589464], [-0.08755595237016678, 0.051859550178050995, -0.06274256110191345], [-0.09911687672138214, 0.07059546560049057, 0.017762931063771248], [0.06225001811981201, 0.012832668609917164, 0.056669287383556366], [-0.04336985573172569, -0.07078724354505539, 0.04556084796786308]], [[-0.057243820279836655, -0.051466409116983414, -0.024639807641506195], [0.006254962179809809, -0.027220649644732475, -0.09552577883005142], [-0.04499190300703049, -0.15184250473976135, 0.04150569438934326], [-0.11809930205345154, -0.06419610232114792, 0.006687152199447155], [-0.05190485343337059, 0.10608228296041489, -0.09979578852653503], [0.018995152786374092, -0.008696365170180798, -0.08301279693841934], [0.03644443675875664, -0.01632828451693058, 0.05194554850459099], [0.05605857074260712, 0.14818626642227173, 0.08363619446754456]]], [[[-0.025354430079460144, -0.01538525614887476, 0.0674707442522049], [0.050373319536447525, 0.022674039006233215, -0.11255505681037903], [-0.00238387705758214, -0.050240736454725266, 0.017865633592009544], [-0.01804135926067829, 0.06279890239238739, 0.0368262380361557], [0.04772581532597542, -0.048653457313776016, -0.058218248188495636], [-0.025280168280005455, -0.006029365584254265, 0.019010907039046288], [0.15251947939395905, -0.009107262827455997, -0.07211875170469284], [-0.024523450061678886, -0.04313546419143677, 0.038378506898880005]], [[-0.1082012802362442, 0.007806091569364071, 0.008399254642426968], [0.014929589815437794, -0.05579497665166855, -0.0167100727558136], [-0.09877821803092957, -0.034004174172878265, -0.038934748619794846], [0.023019632324576378, -0.0723736360669136, 0.07040493935346603], [0.09642204642295837, -0.15099146962165833, 0.0314999483525753], [0.04680732637643814, -0.046746958047151566, -0.028273381292819977], [-0.011064519174396992, -0.024851277470588684, -0.026153942570090294], [-0.11294485628604889, 0.06957091391086578, 0.07532443851232529]], [[-0.05578833818435669, -0.09866449236869812, 0.03964243456721306], [-0.044777777045965195, 0.006980139296501875, -0.02460256963968277], [0.04669995233416557, 0.04718102514743805, -0.051144082099199295], [-0.09066464751958847, -0.10817492008209229, 0.04790518060326576], [-0.08568482100963593, -0.04152650386095047, -0.034910306334495544], [-0.004961696453392506, -0.1298559010028839, 0.010020297020673752], [0.03588876128196716, 0.002889542141929269, -0.026689233258366585], [0.01059967651963234, 0.015536881983280182, -0.19123250246047974]]], [[[0.13517916202545166, 0.029816316440701485, -0.035964515060186386], [-0.02452128939330578, 0.015787720680236816, -0.013705821707844734], [-0.13860367238521576, 0.14064645767211914, -0.009856165386736393], [0.05596768483519554, -0.04335968941450119, 0.1271955370903015], [0.016569707542657852, 0.019344938918948174, -0.07727412134408951], [0.08595138043165207, 0.036174990236759186, 0.09028533101081848], [-0.044159937649965286, -0.04064234718680382, 0.15953466296195984], [-0.07432062923908234, -0.023745393380522728, 0.07863125950098038]], [[0.007183524314314127, 0.04353854060173035, -0.02347947470843792], [0.022565357387065887, -0.09205778688192368, 0.10929510742425919], [-0.0076491269282996655, -0.04662865772843361, 0.0477825291454792], [-0.0319664441049099, -0.08427603542804718, -0.0728280320763588], [0.04241789132356644, -0.018183790147304535, -0.0012521938188001513], [0.07417333126068115, -0.08334575593471527, -0.050597481429576874], [-0.029623690992593765, 0.0015394947258755565, 0.007664752658456564], [-0.022366279736161232, -0.015692727640271187, -0.007966026663780212]], [[-0.04906967282295227, -0.05180734023451805, 0.024373136460781097], [-0.06549886614084244, -0.07867208123207092, -0.01872919499874115], [-0.009352263994514942, 0.15351872146129608, -0.03955121710896492], [0.06645029038190842, 0.045272257179021835, -0.07179044932126999], [0.049508191645145416, -0.08319900184869766, -0.1666419357061386], [0.04217309132218361, -0.11974611133337021, 0.028685588389635086], [-0.04656379297375679, 0.11087633669376373, 0.07964220643043518], [-0.03309597074985504, -0.05345965549349785, -0.08303285390138626]]]], "biases": [[0.0257063377648592], [-0.13868406414985657], [-0.0075675370171666145]]}, "layer2": {"weights": [[-0.0026517536025494337, -0.0016860782634466887, -0.0021932912059128284, 0.0009424274321645498, 0.0034792388323694468, 0.0021028381306678057, -0.00459560239687562, -0.008646991103887558, 0.00820641778409481, -0.004146489780396223, -0.0039229257963597775, -0.003134327009320259, -0.01108464878052473, -0.002874708501622081, -0.0028844112530350685, 0.0037307243328541517, 0.004198734182864428, 2.3210091967484914e-05, 0.005602827295660973, 0.002040029037743807, -9.558152669342235e-05, 0.0009617522009648383, -0.0011509412433952093, -0.0023782923817634583, -0.0016186744906008244, -0.006787159945815802, 0.0016804904444143176, -0.00597580848261714, 0.0050581032410264015, -0.0015031425282359123, 0.00029631881625391543, 0.002968883840367198, 0.0038665258325636387, -0.009445752017199993, -0.001244697137735784, 0.0052932025864720345, -0.010212519206106663, 0.0023291276302188635, -0.013565107248723507, -0.0061494288966059685, 0.0002323521621292457, -0.0099636260420084, -0.005926819983869791, -0.00885150209069252, 0.009912047535181046, 0.0009882384911179543, 0.003412881400436163, -0.0013391791144385934, -0.0021262525115162134, -0.009720247238874435, -0.0017555521335452795, -0.0045847478322684765, 0.005150615703314543, 0.006861482281237841, 0.008818208239972591, 0.0051031517796218395, -0.0036026814486831427, -0.006707893684506416, 0.004595907870680094, 0.002135368762537837, -0.010636277496814728, 0.0021321959793567657, 0.004888694733381271, 0.00034473207779228687, -0.0011131552746519446, -0.004866228438913822, -0.008704736828804016, 0.004811723250895739, -0.0018628847319632769, -0.0014046679716557264, 0.01041994709521532, 0.0041160620748996735, 0.0022302090656012297, 0.0008543787407688797, 0.009141415357589722, 0.0103420689702034, 0.005590653512626886, 0.003501614322885871, -0.012596772983670235, 0.0007453301222994924, -0.0007818830781616271, 0.00056568713625893, 0.00567559665068984, -0.016475601121783257, -0.0034272894263267517, 0.0016314625972881913, -0.00280287628993392, -0.0085234884172678, 0.005258885212242603, 0.001656010514125228, -0.005842792801558971, 0.0019136600894853473, 0.004889603704214096, 2.7818723538075574e-05, 0.004812380764633417, 0.0004438605101313442, -0.0023723638150840998, -0.006976430770009756, -0.0005302951321937144, 0.0011670822277665138, 0.005269583780318499, -0.0007088229176588356, 0.002744496800005436, -0.005800277926027775, -0.004715924616903067, -0.0006654761964455247, -0.006342626642435789, 0.004929868504405022, 0.0027847778983414173, 0.0016776671400293708, 0.0020378106273710728, 0.012153375893831253, -0.002821696223691106, -0.013239721767604351, 0.001197768491692841, -0.00030643356149084866, -0.0031125883106142282, -0.0058843763545155525, -0.0026403353549540043, 0.0010920377681031823, -0.003027083585038781, 0.014527841471135616, -0.005776907317340374, -0.004770802333950996, -0.013767015188932419, 0.001515637501142919, -0.012124717235565186, -0.0032492256723344326, -0.0016510904533788562, -0.004267891403287649, 0.010450649075210094, 0.0059805503115057945, 0.007931445725262165, -0.0053207059390842915, 0.006792464759200811, 0.002986322622746229, 0.004626116249710321, 0.006193716078996658, -0.005470503121614456, -0.0025530499406158924, 0.005159416701644659, -0.01597551256418228, 0.009100808762013912, 0.0033166934736073017, -0.00027538533322513103, 0.001325395074672997, -0.006194971036165953, -0.0021055261604487896, 0.006614723242819309, 0.007802621461451054, 0.016217274591326714, -0.0004464175144676119, -0.003965460695326328, -0.003095532301813364, -0.0061204759404063225, -0.0004738869902212173, 0.0022977886255830526, -0.0002083756698993966, 0.0066126445308327675, -0.001409687683917582, -0.0020853427704423666, -0.00350199150852859, -0.009818987920880318, -0.009429904632270336, -0.007096494548022747, 0.00781401339918375, 0.00537429703399539, 0.008260215632617474, -0.008013240993022919, -0.011858809739351273, -0.003970624413341284, 0.0010579049121588469, 0.003000687574967742, 0.006245381198823452, 0.0017062010010704398, 0.01047000102698803, -0.0013541611842811108, -0.005494626238942146, -0.010117728263139725, -0.005349455866962671, 0.00145639106631279, -0.005344977602362633, 0.005633264314383268, 0.008495939895510674, -0.014250693842768669, 0.005194246768951416, -0.013461957685649395, 0.002415706170722842, 0.007362503092736006, 0.00038918975042179227, -0.007697884924709797, -0.00352410227060318, -0.0015737049980089068, -0.0010935640893876553, -0.0012147141387686133, -0.0006597685278393328, 0.0012899346183985472, -0.0072670732624828815, -0.001457862090319395, 0.009127852506935596, -0.0023136448580771685, -0.002668025903403759, 0.006457868963479996, -0.015396413393318653, 0.00710544316098094, -0.0037996352184563875, 0.0008982248255051672, 0.0005820586811751127, 0.005649524740874767, -0.0016196856740862131, -0.004079246427863836, 0.007786792702972889, -0.014219825156033039, 0.00011994990927632898, -0.008110699243843555, -0.004581502638757229, 0.012096845544874668, -0.000268228497589007, 0.0011732883285731077, -0.010713206604123116, -0.004384007770568132, 0.0011847176356241107, 0.002138720126822591, 0.0037187235429883003, 6.356683297781274e-05, 0.0031707240268588066, 0.0027543744072318077, -0.010994494892656803, 0.00021799968089908361, 0.00464676832780242, 0.0035558000672608614, -0.0021888823248445988, -0.004835514351725578, -0.006720522418618202, -0.0007833767449483275, 0.006805077660828829, -0.011736770160496235, -0.003962556831538677, -0.006853543221950531, 0.004654353018850088, -0.0033347359858453274, -0.0028422849718481302, -0.001308554783463478, 0.0026809393893927336, -0.0023784227669239044, -0.01831776835024357, 0.003262647893279791, 0.0026354785077273846, -0.0013233863282948732, -0.00652120728045702, 0.002112332032993436, 0.0022785495966672897, -0.0028267167508602142, -0.0013032725546509027, -0.005593615584075451, -0.0010747701162472367, -0.009323498234152794, 0.0025135374162346125, -0.005680052097886801, 0.0014391056029126048, -0.008441115729510784, -0.003554499940946698, -0.0006510998937301338, -0.009968295693397522, 0.0006782421842217445, -0.002272973768413067, -0.010471625253558159, -0.007839768193662167, 0.0036430659238249063, 0.005364587530493736, -0.0007904329104349017, 0.002438394818454981, 0.0013350427616387606, 0.001985353184863925, 0.007747551891952753, -0.00906787347048521, 0.004062498454004526, -0.002314457669854164, -0.0013440778711810708, -0.0018189388792961836, -0.002250495832413435, -0.007376889232546091, 0.0010988174472004175, 0.01004059612751007, -0.00034321704879403114, -9.650369975133799e-06, -0.004138628952205181, -0.0007079829811118543, 0.002803915413096547, -0.0022263589780777693, -0.0027288782875984907, 0.002425228012725711, -0.005519696976989508, 0.0015200030757114291, 0.004927467554807663, 0.008179676719009876, -0.0005377217894420028, 0.008210558444261551, 0.006219199858605862, -0.0059839519672095776, -0.007328986190259457, -0.0018307914724573493, 0.006174622569233179, -0.00043605276732705534, -0.003604789962992072, 0.00929600652307272, 0.0017281663604080677, -0.013954449445009232, 0.001904039760120213, 0.003127150470390916, 0.0013540841173380613, 0.0027040981221944094, -0.00040787828038446605, -0.007932732813060284, -0.002239963272586465, -0.0056923734955489635, -0.005602013319730759, -0.007613809313625097, 0.0027183652855455875, 0.0005752803408540785, -0.0026995630469173193, -0.00390516291372478, -0.00014773190196137875, 0.006490442901849747, -0.012052789330482483, 0.002267355564981699, -0.0032815507147461176, -0.011334467679262161, -0.011700541712343693, -0.005488417111337185, 0.0013145656557753682, 0.0023662231396883726, -0.005649354308843613, 0.006104449275881052, 0.008551426231861115, 0.002368238987401128, -0.0035622348077595234, 0.006751244887709618, 0.004531608894467354, 0.005213475786149502, -0.003953846637159586, -0.017047978937625885, 0.012724478729069233, -0.00968905072659254, -0.0002181879972340539, 0.014313461259007454, 0.0019740634597837925, 0.00569742638617754, -0.009037166833877563, -0.010687173344194889, -0.003238419536501169, 0.006556305568665266, -0.0020971123594790697, -0.004791394807398319, 0.001191668794490397, 0.006493484601378441, -0.00868908129632473, -0.007279616314917803, -0.004745707381516695, 0.00658380938693881, 0.0014126980677247047, 0.012823601253330708, 0.00563280563801527, -0.00021018607367295772, 0.007610588800162077, 0.0012734972406178713, -0.004240584094077349, 0.004091103095561266, -0.004192451946437359, -0.0017498270608484745, 0.007970222271978855, -0.0006306559662334621, -0.0048334598541259766, -0.00282588810659945, 0.006125216372311115, -0.0033229654654860497, -0.0023536256048828363, -0.003078232752159238, 0.0011075888760387897, -0.0023344880901277065, -0.009658338502049446, -0.00533558614552021, -0.005618326365947723, 0.007427380420267582, 0.004886052571237087, 0.0035079792141914368, -0.0030603089835494757, -0.004904359113425016, -0.003074976382777095, -0.006326889153569937, 0.01502115000039339, -0.013505857437849045, 0.003393291961401701, -0.0077243647538125515, -0.0006274792249314487, -0.0059414091520011425, -0.007082367315888405, -0.00685720844194293, 0.010554780252277851, -0.0007998353103175759, -0.004605014342814684, 0.003343475516885519, 6.250185833778232e-05, 0.004330853000283241, -0.010973939672112465, 0.0018266219412907958, 0.004649487789720297, -0.010008560493588448, 0.002699411939829588, 0.010207226499915123, -0.00011881485261255875, 0.0049485107883811, 0.004048062954097986, -0.004285738337785006, 0.00024350121384486556, -0.009429797530174255, -0.0027427347376942635, 0.0016056678723543882, 0.004357061814516783, 0.00013812276301905513, 0.0043328446336090565, -0.006654734723269939, -0.00060968630714342, 0.00012081633030902594, 0.011131679639220238, -0.0012859611306339502, -0.0029996242374181747, 0.00013191314064897597, -0.005526010878384113, 0.0011602016165852547, -0.0021939873695373535, -0.010772516950964928], [-0.0003523053601384163, -0.001909733284264803, -0.009817550890147686, -0.00040380246355198324, 0.008957098238170147, 0.0031351903453469276, 0.0036798876244574785, -0.00806802324950695, 0.0028676309157162905, 0.0008921441622078419, 0.0031808135099709034, 0.0025394782423973083, -0.008179716765880585, -0.0002494732616469264, -0.00456206826493144, -0.0003051896346732974, -0.005396215245127678, 0.007890726439654827, -0.005179211497306824, -0.005396966822445393, 0.0004486443940550089, -0.00649938452988863, -0.002540305955335498, -0.0049873413518071175, 0.008447681553661823, 0.004739940166473389, -0.00033849835745058954, -0.0023801238276064396, 0.005659891292452812, 0.002445596968755126, 0.0029793863650411367, -0.00016028883692342788, -0.010153052397072315, -0.0006776696536689997, -0.0032043533865362406, 0.003878620220348239, 0.00608549639582634, -0.003956945147365332, 0.0028171984013170004, 0.010439964942634106, -0.004014585632830858, 0.010116237215697765, -0.00512785604223609, 0.00014309787366073579, -6.596226012334228e-05, 6.633155862800777e-05, -0.005024284590035677, -0.0035571034532040358, -0.004023740999400616, 0.001993943005800247, 0.0019750979263335466, 0.013376967050135136, 0.008257601410150528, -0.00307538197375834, 0.0019543771632015705, 0.005993715021759272, 0.00019307667389512062, -0.0004038702172692865, 0.00032210611971095204, 0.005260180681943893, -0.005098306108266115, -0.0019377126591280103, 0.0028823446482419968, 0.0018490816000849009, 0.0014586016768589616, -0.0021938085556030273, 0.005822237115353346, 0.012843269854784012, 0.0024341291282325983, -0.0011709810933098197, 0.00454621110111475, -0.00324941985309124, -0.004507392644882202, 0.00019852920377161354, -0.015531634911894798, -0.0069360132329165936, -0.002083214232698083, -0.008135893382132053, -0.006204691715538502, -0.0026008246932178736, -0.00987213384360075, -0.0024391550105065107, -0.0031744539737701416, 0.0001696569233899936, 0.006932332646101713, 0.0010812846012413502, 0.00013745352043770254, 0.0005862048710696399, 0.0014090314507484436, -0.0061523872427642345, -0.0007001127814874053, 0.001894284738227725, -0.008280518464744091, 0.005193499382585287, 0.006539628840982914, -0.0037741675041615963, -0.0014561200514435768, -0.005244837142527103, 0.004249319899827242, -0.006391438655555248, -0.001309012877754867, -0.005176059901714325, 0.00028626990388147533, -0.01077823806554079, 0.007919609546661377, -0.005813760217279196, 0.000358068646164611, -0.0013262390857562423, -0.0045770155265927315, -0.005331110674887896, 0.005637496709823608, -0.0031500793993473053, 0.0016539557836949825, -0.0048064193688333035, -0.003886136459186673, 0.002870999276638031, 0.005634259432554245, -0.001057943794876337, -0.00853381585329771, 0.012069997377693653, -0.0051575335673987865, -0.009265374392271042, 0.015612958930432796, -0.002431201981380582, -0.008780435658991337, -0.0041276561096310616, 0.0022160199005156755, 0.0011883333791047335, -0.005135379731655121, 0.010956531390547752, -0.0030766420532017946, -0.00711373845115304, 0.0057676383294165134, 0.008047182112932205, -0.004852951969951391, -0.008422200568020344, 0.006228399462997913, -0.012273101136088371, -0.007370137609541416, 0.005841451231390238, -0.000340240600053221, -0.0015964603517204523, 0.002124575199559331, -0.000960652541834861, -0.00780524592846632, 0.007681547198444605, 0.007977494969964027, 0.0012382518034428358, 0.0002819891960825771, 0.014101781882345676, -0.0016639793757349253, -0.0015476687112823129, 0.0022463263012468815, 0.008836253546178341, 0.009577064774930477, -0.0015037085395306349, 0.0018474629614502192, -0.00830326322466135, -0.001845100661739707, -0.005050640553236008, -0.006071198731660843, 0.010119962505996227, -0.004765469115227461, -0.00319490535184741, 0.002233196049928665, 0.007787598296999931, 0.0029103339184075594, 0.0166634488850832, -0.00045839781523682177, 0.0015592442359775305, 0.0017337522003799677, 0.00864432379603386, 0.003065248252823949, -0.0006880189757794142, -0.005688233766704798, 0.0014848513528704643, 0.008372568525373936, -0.0024815278593450785, 0.0031815676484256983, 0.0014096058439463377, 0.005194268189370632, -0.004837398882955313, 0.014118585735559464, -0.00769801065325737, -0.0021931149531155825, 0.005658532492816448, 0.0017853882163763046, 0.005007910542190075, -0.002951469039544463, -0.0004351589595898986, 0.00010588410077616572, 0.009449576959013939, 0.004178215283900499, 0.0048475107178092, -0.0039711007848382, 0.005822039674967527, 0.0013952507870271802, 0.008336387574672699, 0.012106171809136868, -0.0018471662187948823, -0.0023414341267198324, -0.005198758561164141, -0.0008449225570075214, -0.0023126243613660336, 0.0021701836958527565, -0.000879803963471204, -0.0022069206461310387, 0.006431869231164455, -0.00564161129295826, 0.0025933533906936646, -0.002429771702736616, 0.004361142870038748, 0.008260250091552734, -0.0018331349128857255, 0.002634988399222493, 0.0009996985318139195, -0.004809275735169649, 0.0014487504959106445, 0.0017390954308211803, 0.002458886243402958, -0.0011914863716810942, 0.0005709084216505289, -0.006914762780070305, -0.0021520908921957016, 0.0033564374316483736, 0.00539196003228426, -0.002523861126974225, 0.0006229756399989128, 0.0013801403110846877, 0.0012242288794368505, 0.003259889781475067, -0.010939983651041985, -0.0003159262705594301, 0.0016013853019103408, -0.005996032152324915, 0.010127877816557884, 0.0011117880931124091, 0.00941513106226921, -0.004703958984464407, -0.0055129509419202805, 0.0013513623271137476, -0.010143289342522621, 0.001350006670691073, 0.000611421070061624, 0.0060786292888224125, 0.004241976886987686, -0.0024951158557087183, -0.006622915156185627, 0.010243093594908714, -0.004773264285176992, -0.006325323134660721, -0.006583737675100565, 0.006717130541801453, -0.0031201085075736046, -0.004534413106739521, 0.0007958545465953648, -0.0012458250857889652, -0.004085422493517399, 0.004519813694059849, 0.0063982452265918255, 0.005878925323486328, 0.004615383688360453, 0.002406268147751689, -0.01079692505300045, 0.010016847401857376, 0.0017761673079803586, 0.0035484314430505037, 0.0067056892439723015, 0.008599493652582169, 0.002465351950377226, 0.002636538352817297, -0.0035796810407191515, 0.00012387636525090784, -0.005135617218911648, -0.00433661974966526, -0.005386841017752886, -0.0009309191373176873, 0.006311657372862101, 0.019127285107970238, 0.0011507717426866293, -0.008080926723778248, 0.007627444341778755, -0.0017979786498472095, -0.004005844239145517, 0.001248008105903864, -0.007471571676433086, 0.0012891776859760284, -0.0005664575146511197, 0.0005890235188417137, 0.0022965273819863796, 0.00040633976459503174, 7.594205817440525e-05, 0.0017116813687607646, 0.002487616380676627, -0.00620842631906271, -0.008601292036473751, -0.0003974114079028368, -0.008613084442913532, 0.0005279352189972997, 0.0055928402580320835, 0.0036470473278313875, -0.006313659250736237, -0.005241156555712223, 0.0019868093077093363, -0.0024271535221487284, -0.002003673231229186, 0.003607511753216386, -0.005934210494160652, -0.002487635239958763, -0.004788869060575962, -0.006271448917686939, -0.005105108954012394, 0.004083934240043163, 0.0003794695367105305, -0.005230461712926626, -0.0013871112605556846, -0.009836437180638313, -0.004370391834527254, 0.01292366348206997, -0.0005721705383621156, 0.004391462076455355, -0.0004051034920848906, 0.00205708434805274, 0.00395170459523797, -0.006642804015427828, -0.00018130404350813478, 0.00950042437762022, -0.004791161976754665, -0.0034009695518761873, -0.001871610525995493, 0.0016101958462968469, 0.0031522500794380903, 0.0075973207131028175, 0.0029982582200318575, -0.00038478264468722045, 0.007585205137729645, 0.004237230401486158, -0.008970075286924839, 0.01516692154109478, 0.01065178494900465, -0.0009803790599107742, 0.0022113369777798653, 0.007974576205015182, -0.0010262413416057825, 0.004395273979753256, 0.006661426741629839, -0.006090203300118446, -0.003526517655700445, 0.0055467658676207066, 0.002819651737809181, 0.005656837020069361, -0.0007977468776516616, -0.001700204680673778, -0.0120149627327919, -0.006904308218508959, 0.0002795577165670693, 0.004910824354737997, 0.0031801050063222647, -0.000793604995124042, -0.0016744600143283606, 0.0013085645623505116, 0.0004731173685286194, 0.008453842252492905, 0.0008828062564134598, -0.008900182321667671, -0.007666238117963076, 0.009137163870036602, -0.0070327711291611195, 0.0045371209271252155, -0.0016100414795801044, -0.001032210304401815, -0.000867496884893626, 0.007340983487665653, -0.001205483335070312, -0.00022137875203043222, -0.009210682474076748, 0.001167743350379169, 0.003207639791071415, 0.0014279134338721633, 0.008323056623339653, 0.00038994645001366735, 0.0017922446131706238, 0.009901097044348717, -0.009237260557711124, -0.002747543854638934, 0.008604451082646847, 0.0056523485109210014, 0.004074683412909508, 0.0050313835963606834, 0.0019507560646161437, 0.009803102351725101, 0.00225608772598207, 0.0014080466935411096, 0.000948001048527658, 0.0011343284277245402, -0.0069749061949551105, 0.004635203164070845, -0.0007850468391552567, 0.010960103012621403, -0.0004517883062362671, 0.0025324265006929636, 0.001496155047789216, -0.0037479917518794537, 0.005972926039248705, 0.011476035229861736, -6.115148426033556e-05, -0.0017981553683057427, -0.0021015468519181013, -0.011351698078215122, -0.0010606648866087198, 0.0015817286912351847, 0.006365812849253416, 0.005794104188680649, -0.0024078579153865576, -0.001658062101341784, 0.00679454579949379, -0.0009586034575477242, -0.003068870399147272, 0.008418722078204155, 0.00629126513376832, 0.0001089108336600475, -0.003546555759385228, -0.012083407491445541, 0.0035429445561021566, -0.005394846200942993, -0.011804748326539993, 0.009528824128210545, 0.0038772013504058123, -0.006851080805063248, -0.00730420695617795, 0.005221515893936157, -0.005280776880681515], [0.007795179262757301, 0.003707457799464464, 0.0032272047828882933, 0.0024338902439922094, 0.0011514894431456923, 0.005295598413795233, -0.002730824053287506, 0.0005170379299670458, 0.00452200835570693, 0.003386156866326928, -0.007186918519437313, -0.003011781955137849, 0.0015206367243081331, -0.002452251734212041, 0.010666741989552975, -0.0023625693283975124, -0.0009710324229672551, 0.004627215210348368, 0.0019941814243793488, -0.0008547765901312232, -0.004541190341114998, 0.0018230536952614784, 0.0062765455804765224, 0.0029064042028039694, -0.004663698375225067, 0.010468513704836369, -0.008670530281960964, -0.009509554132819176, 0.005786831025034189, 0.0013764100149273872, -0.00330588361248374, -0.0066053904592990875, 0.013962026685476303, 0.0006979497848078609, 0.0032118726521730423, 0.0019078558543697, 0.00261505413800478, 0.003248279681429267, 0.004404781851917505, -0.002256714506074786, -0.0017542539862915874, -0.010470514185726643, -0.004693841096013784, 0.0016274595400318503, 0.006284076254814863, 0.0035988797899335623, -0.0020580103155225515, -0.007599227130413055, -0.0167094673961401, 0.006912015378475189, -0.0035474204923957586, -0.0026953646447509527, 0.0007923223893158138, -0.008445806801319122, -0.002101777121424675, 0.012196292169392109, 0.003080877708271146, 0.0021612399723380804, -0.009488715790212154, 0.013595705851912498, -0.008570041507482529, 0.01159022469073534, -0.012634878046810627, 0.008448703214526176, 0.009737929329276085, -0.00487925810739398, 0.002542370231822133, 0.0033004614524543285, -0.004884307272732258, -0.008727316744625568, -0.007920387201011181, 0.00323887774720788, -0.0005118872504681349, -0.003393689403310418, 0.005814286880195141, 0.003054757136851549, -0.004541783593595028, -0.007225050125271082, 0.0031432376708835363, -0.0032324870117008686, 0.0005916335503570735, 0.009474324062466621, 0.0030191896948963404, -0.005207057110965252, 0.0009583014179952443, -0.005740547087043524, 0.009619485586881638, -0.003390249563381076, 0.001211529946886003, 0.0018017914844676852, 0.0009485489572398365, -0.011802845634520054, -0.008640569634735584, -0.0027317602653056383, 0.0019344276515766978, -0.0007330987136811018, -0.005785306915640831, -0.00808769278228283, -0.0023909020237624645, -0.0028410409577190876, 0.0030942847952246666, -0.0020732665434479713, 0.003620816394686699, -0.0035909763537347317, -0.001639411086216569, -0.002104144776239991, -0.004715605638921261, 0.003696292173117399, -0.004889610689133406, -0.0031309258192777634, -0.0004368065274320543, -0.007796213962137699, -0.001938207889907062, -0.004272609483450651, -0.002326575806364417, -0.00033512088702991605, -0.004804251249879599, -0.0013258926337584853, 0.007891790941357613, -0.00015507242642343044, 0.006873980164527893, 0.0020878459326922894, 0.004641656298190355, -0.004661086946725845, 0.0006357572274282575, 0.0007780237938277423, -0.0036924409214407206, -0.004905587062239647, -0.008899558335542679, 0.00898193009197712, -0.0058056265115737915, 0.008220911957323551, -0.002833857201039791, -0.005160100758075714, 0.003670605132356286, -0.0038126579020172358, 0.0033986419439315796, -0.0021384137216955423, 0.002903285901993513, -0.005875563248991966, 0.0049435789696872234, 0.0029525242280215025, -0.005564419087022543, 0.01590608060359955, 0.0032524929847568274, 0.013780098408460617, 0.009630847722291946, -0.0011288824025541544, -0.002471652813255787, -0.002404669998213649, -0.011003823019564152, -0.004176539834588766, 0.0015259630745276809, 0.009161504916846752, -0.004646702669560909, 0.005369864404201508, -0.007536624558269978, -0.0035391778219491243, -0.002692930167540908, 0.002236564876511693, 0.0027520467992872, 0.005877661053091288, 0.004625285044312477, 0.0014916659565642476, 0.002542638685554266, 0.009532340802252293, -0.0030450322665274143, 0.0047087050043046474, -0.010887767188251019, 0.002472060965374112, -0.002998620504513383, 1.5392184650409035e-05, 0.006212782580405474, 0.000847698247525841, 0.005341492127627134, 0.008808626793324947, 0.002337530953809619, 0.007067906204611063, -0.001991523429751396, 2.2001211618771777e-05, -0.003142106346786022, 0.006274389568716288, 0.0024941295851022005, -0.0030474690720438957, 0.000933017348870635, 0.006272990256547928, -0.0002518464461900294, -0.005702304188162088, 0.000808614888228476, -0.011926040053367615, 0.004624044056981802, -0.002480119466781616, -0.0028152759186923504, 0.005274035502225161, -0.008122541010379791, 0.011701833456754684, -0.002864757552742958, -0.0030222462955862284, 0.0061295307241380215, 0.004319644998759031, 0.014769895933568478, -0.0012797261588275433, -0.0006784708821214736, -0.008950842544436455, -0.0019981118384748697, -0.004343213979154825, -0.0027944755274802446, -0.010486778803169727, 0.009952365420758724, -0.008604002185165882, -0.016841482371091843, -0.007169863674789667, -0.0035729962401092052, -0.00689788069576025, 0.006613275967538357, -0.0007372057880274951, 0.00015115825226530433, 0.003671240294352174, 0.001719165127724409, 0.005882922559976578, -0.006672580260783434, -0.0033007152378559113, 0.003980334382504225, -0.015256757847964764, -0.008302527479827404, 0.0030075612012296915, -0.0029413560405373573, 0.0055984812788665295, 0.004867427051067352, -0.007268165238201618, 0.002497405745089054, 0.0072263735346496105, 0.000886721711140126, -0.00586607726290822, 0.005286818370223045, 0.0038698387797921896, 0.00318684009835124, 0.004304767120629549, -0.018002334982156754, 0.005235873628407717, 0.010888553224503994, 0.002592890290543437, 0.0011129917111247778, 0.004194001667201519, 0.002012423239648342, 0.003892965381965041, 1.4326982636703178e-05, -0.004602785687893629, -0.00592871755361557, -0.005992857273668051, -0.008222338743507862, -0.006329941097646952, 0.010592589154839516, 0.004534485749900341, -0.0037609594874083996, -0.002341841347515583, 0.000672378228046, -0.003962928894907236, 0.0004072628216817975, 0.0046538920141756535, -0.000318509410135448, 0.0020280075259506702, 0.005273294635117054, -0.0017892599571496248, 0.0017153683584183455, -0.0019183580297976732, -0.0002454904606565833, -0.001945354277268052, -0.003199178958311677, 0.000941733829677105, 0.0033972910605371, 0.0008583145681768656, 0.0028825942426919937, -0.004421553108841181, -0.007271797861903906, 0.0024640103802084923, 0.004172683227807283, 0.0003295617352705449, 0.008017363958060741, 0.005465834401547909, 0.016128994524478912, -0.0011301544727757573, -0.006000378634780645, -0.004413201007992029, -0.0032382342033088207, 0.0028628429863601923, -0.01291841920465231, 0.007993359118700027, -0.0014388508861884475, -0.001485832268372178, -0.006491802632808685, -0.0006749846506863832, 7.503858796553686e-05, -0.0007366074132733047, 0.002059181919321418, -0.0035397643223404884, -0.005414334125816822, 0.0033115861006081104, 0.0006018581916578114, 0.0011428690049797297, 0.00636665103957057, -0.00616151699796319, -0.005179871805012226, 0.0075581735000014305, -0.008953514508903027, -0.007908410392701626, 0.004920074716210365, 0.0014060018584132195, 0.0005791074363514781, -0.0005248601664789021, 0.00021558911248575896, -0.0006021829321980476, 0.008166247047483921, -0.0023714464623481035, -0.0008548276382498443, 0.010808711871504784, 0.00016989500727504492, 0.013703348115086555, -0.0006266739801503718, 0.008323626592755318, -0.00985541008412838, 0.0009207457187585533, -0.009466010145843029, 0.005098754074424505, -0.007295317482203245, 0.0017051189206540585, -0.0016988191055133939, -0.006963896099478006, -0.009742767550051212, -0.003060180228203535, 0.010472021996974945, -0.0017603831365704536, 0.005562453530728817, -0.00033747043926268816, 0.005306364968419075, -0.01090069767087698, -0.0024246559478342533, 0.0057678064331412315, -0.0009116202127188444, -0.0005282489000819623, -0.0025293079670518637, 0.006931571755558252, 0.001783348387107253, 0.00030719771166332066, 0.00391173642128706, 0.0035370043478906155, 0.0012728272704407573, 0.009518014267086983, -0.0003628462727647275, 0.0016744335880503058, -0.0035992981866002083, 0.0009030060609802604, 0.009665229357779026, -0.003780975239351392, -0.00682293763384223, 0.006098840851336718, -0.0008706609369255602, 0.0005718983011320233, -0.00023283656628336757, 0.00046037774882279336, 0.005114381667226553, -0.005046343896538019, -0.006087201181799173, 0.0005091629573144019, -0.009661666117608547, -0.008245299570262432, 0.011218618601560593, 0.004556799773126841, -7.282129899977008e-06, 0.00743216834962368, -0.0062464093789458275, -0.0018226377433165908, 0.003724419279024005, 0.005349219776690006, 0.0031599977519363165, -0.015306475572288036, -0.005847127642482519, 0.002950550988316536, -0.0021685136016458273, 0.0152091383934021, 0.005679442081600428, 0.003344431985169649, -0.006710995454341173, -0.00014623362221755087, 0.0014405670808628201, 0.006885285954922438, 0.005293199326843023, 0.0062042223289608955, -0.005462517496198416, 0.008456737734377384, -0.008309478871524334, -0.0031903733033686876, 0.0025622823741286993, -0.0009053844842128456, -0.00604795990511775, -0.004950235597789288, -0.009311222471296787, 0.0031998504418879747, 0.007580887526273727, -0.0006029261276125908, -0.0024061021395027637, -0.008854747749865055, 0.00549592450261116, 0.01330034714192152, -0.010807673446834087, -0.006393078248947859, -0.0040914881974458694, -0.00339740002527833, 0.0013651258777827024, 0.009692839346826077, 0.006052819546312094, 0.003160524647682905, -0.004359150305390358, -0.006767090875655413, -0.0048088678158819675, 0.00933137908577919, -0.00043187124538235366, -0.0027032725047320127, -0.0010658946121111512, 0.004894668236374855, -0.007907272316515446, 0.00850597582757473, 0.0008905933354981244, -0.0013107646955177188, 0.002651410410180688, 0.0012836920795962214, -0.0020755594596266747, -0.0015388543251901865, -0.005234984215348959, 0.003946023993194103, -0.0032082165125757456, -0.005753294099122286], [0.0009974263375625014, 0.007993551902472973, -0.0002907356829382479, -0.003657327266409993, 0.0024290350265800953, 0.011647401377558708, -0.008732284419238567, 0.002298548584803939, 0.001233199262060225, 0.006985037121921778, 0.005958879366517067, -0.001122543471865356, -0.010131179355084896, 0.004848584998399019, -0.005022188648581505, -0.00569417467340827, 0.00690123625099659, -0.0054773008450865746, 0.008433730341494083, 0.0020115424413233995, 0.0019151367014274001, 0.0018401676788926125, -0.00986024271696806, -0.010693454183638096, 0.0012843861477449536, 0.003407848533242941, 0.0004825834766961634, -0.004950101487338543, 0.00011085608275607228, -0.0005024715792387724, -0.005760869011282921, 0.006097529083490372, -0.010408309288322926, 0.003539114026352763, 0.0023110643960535526, 0.006072599906474352, -0.0060460492968559265, 0.0006097864243201911, 0.013057026080787182, 0.003980334848165512, 0.0006024298490956426, 0.0032411087304353714, 0.0005154333775863051, 0.01316121593117714, 0.0059144687838852406, -0.0005184710025787354, 0.0014899647794663906, -0.0023530733305960894, 0.007273322436958551, -0.008498698472976685, -0.009653035551309586, 0.008771052584052086, 0.012896927073597908, 0.002809851197525859, 0.0006749400054104626, 0.00391780398786068, -0.003907287959009409, 0.0010191212641075253, 0.00020336653687991202, 0.003719532396644354, -0.009381793439388275, -0.003069164464250207, 0.005030170548707247, -0.004065894987434149, -0.005984771531075239, 0.01225043274462223, 0.0002294020523549989, -0.003483934560790658, -0.010186782106757164, 0.004386864602565765, 0.004205483477562666, -0.0017990183550864458, -0.006629666313529015, -0.00014831409498583525, -0.00502792140468955, -0.005669986363500357, -0.0006275828927755356, -0.006327254232019186, 0.0014727194793522358, 0.0036355352494865656, -0.00506140710785985, -0.008238655515015125, 0.00935398694127798, -0.005683538503944874, -0.00397041579708457, 0.0012557413429021835, 0.003540670033544302, -0.0015449072234332561, 0.0027670003473758698, -0.0024818708188831806, -0.0058424328453838825, 0.008570481091737747, 0.014891584403812885, 0.010195715352892876, 0.0008382332162000239, 0.010925290174782276, 0.002133108675479889, -0.0028981519863009453, 0.002712678862735629, -0.0005612013628706336, -0.00593666173517704, -0.005451481323689222, 0.0048423465341329575, -0.011110263876616955, 0.0036162766627967358, -0.00979799497872591, -0.012756001204252243, -0.01105558779090643, 0.01182812824845314, -0.0011789660202339292, 0.0005208242801018059, 0.008535911329090595, 0.005623683333396912, -0.008371032774448395, 0.005229116417467594, 0.001114441896788776, -0.0020678150467574596, 0.0001571161119500175, 0.007707522250711918, -0.005346579942852259, 0.0024192393757402897, -3.643952004495077e-05, -0.010802550241351128, -0.004820290021598339, 0.001180911553092301, 0.007892734371125698, 0.006024226080626249, 0.003593049943447113, -0.00487174978479743, 0.01083618775010109, 0.001252762391231954, -0.006050565745681524, -0.0010970691218972206, 0.005338991526514292, 1.592317858012393e-05, 0.005344127770513296, 0.006591935642063618, 0.002408277941867709, -0.0051387581042945385, 0.0007843762869015336, 0.0003189339186064899, 0.011199970729649067, -0.009785984642803669, -0.0007760132430121303, -0.00351119926199317, 0.0020176139660179615, -0.014658753760159016, 0.006711715366691351, 8.433774928562343e-05, -0.011091424152255058, -0.002160143805667758, 0.003664383664727211, -0.009566097520291805, 3.389463381608948e-05, -0.006355779245495796, -0.0033153474796563387, 0.0001615407527424395, 0.0011090424377471209, -0.002715514972805977, 0.0016368107171729207, 0.004932033829391003, -0.0015698614297434688, 0.008604863658547401, 0.008803017437458038, -0.0025608143769204617, -0.0038382012862712145, -0.010022024624049664, -0.0007798527367413044, -0.002191148931160569, 0.0046702236868441105, -0.009113620966672897, -0.0016776748234406114, 0.005802731029689312, -0.004392767325043678, -0.004577147774398327, -0.008716903626918793, 0.015843434259295464, -0.004479635506868362, -0.00781379546970129, -0.00480293994769454, -0.004655422177165747, -0.0016196210635825992, 0.004965642467141151, -0.0017843568930402398, -0.00555042177438736, -0.008726680651307106, 0.00014370252029038966, 0.0002579797001089901, 0.009211770258843899, 0.000549362797755748, -0.0006052041426301003, -0.006289670243859291, -0.0018535209819674492, -0.0026564367581158876, -0.002150006825104356, -0.005774236284196377, 0.003262418555095792, -0.0008808723068796098, -0.0012108639348298311, -0.010317547246813774, 0.002873709425330162, 0.0029269540682435036, -0.005072688218206167, 0.005889961961656809, -0.00821854081004858, -0.0001364097697660327, -0.0016756484983488917, -0.007934859953820705, 0.001128931064158678, 0.010289758443832397, 0.00039846988511271775, -0.0027661232743412256, 0.0027205406222492456, 0.0006430902285501361, 0.00017744478827808052, -0.0025257961824536324, 0.008553681895136833, 0.00274517759680748, -0.0031784928869456053, -0.0006324450951069593, -0.004453227389603853, -0.0036587531212717295, -0.003844702849164605, -0.006815584376454353, 0.004678645636886358, -0.00175968196708709, 0.0033416387159377337, -0.004015887156128883, -0.00037175664328970015, -0.004255624487996101, 0.0043143630027771, -0.0015018342528492212, -0.00438271788880229, -0.009953848086297512, 0.0016548230778425932, -0.00430053798481822, -0.0001966098352568224, -0.0029603030998259783, 0.005712307523936033, 0.003185583744198084, 0.0026818762999027967, -0.0037165037356317043, 0.0028231129981577396, 0.010304475203156471, -0.004982443526387215, 0.0010671243071556091, -0.009929909370839596, 0.008464465849101543, -0.0023907143622636795, 0.004706957843154669, -0.010350651107728481, 0.010838600806891918, -0.00214545801281929, 0.003281682962551713, 0.0009079446317628026, -0.0015220303321257234, 0.01014329306781292, -0.009907444939017296, 0.0017985483864322305, 0.005486615467816591, -0.000164546916494146, -0.0007170239114202559, -0.0008388434071093798, -0.007351533509790897, 0.00022836629068478942, 0.0031141166109591722, 0.0004308916977606714, -0.0016370837111026049, -0.002953180344775319, -0.001709914649836719, 0.007585258223116398, -0.012563547119498253, 0.00020866109116468579, -0.0019718946423381567, 0.008742399513721466, 0.0003401813155505806, 0.008938015438616276, -0.01277574710547924, 0.0028362292796373367, 0.001680934801697731, 0.008425816893577576, -0.00987533014267683, -0.0009448351338505745, 0.0004263709706719965, -0.002992574591189623, 0.007312166970223188, -0.0020186014007776976, 0.012242390774190426, 0.006336846388876438, 0.005716020241379738, 0.0033624782226979733, -0.0063940477557480335, -0.0025940341874957085, 0.003449444891884923, 0.004071496892720461, 0.007862057536840439, -0.002809172263368964, -0.00518414843827486, 0.005163267720490694, -0.00487317331135273, 0.005244070664048195, 0.007210434880107641, 0.002739475341513753, -0.00214196415618062, 0.00024126788775902241, 0.0035552310291677713, 6.593691796297207e-05, 0.013218908570706844, -0.005950890481472015, -0.006037407089024782, -0.005893468391150236, -0.003496628487482667, -0.013102274388074875, -0.0037709102034568787, -0.0039075459353625774, 0.00046446738997474313, 0.0025389594957232475, -0.007502282503992319, 0.00540164764970541, 0.010843832045793533, -0.0012662778608500957, 0.00946009811013937, 0.0012153967982158065, 0.011942913755774498, 0.006714208517223597, -0.009407424367964268, 0.00010580274101812392, 0.006329434458166361, 0.0001715107646305114, -0.00022484273358713835, 0.007625764235854149, -0.004275879357010126, 0.00010348315117880702, 0.0019383190665394068, -0.0020097859669476748, -0.00016035253065638244, 0.004661455750465393, 0.002576536266133189, -0.004908001981675625, -0.006632083561271429, -0.004766753874719143, -2.2760492356610484e-05, -0.0009723479161038995, -0.005023305304348469, -0.003592543303966522, -0.00914568267762661, 0.0024783688131719828, -0.0002496297238394618, -0.007582815829664469, 0.00017724939971230924, 0.007999427616596222, -0.004461385775357485, 0.007874654605984688, -0.001974456012248993, 0.0011827349662780762, 0.0005710830446332693, 0.008403821848332882, 0.000946856162045151, -0.0068721347488462925, -0.007895903661847115, -0.009220150299370289, -0.010296838358044624, 0.00027327664429321885, -0.005767956376075745, -0.0004943300154991448, -0.004257054068148136, -0.004645883571356535, -0.0029184790328145027, 0.004213983193039894, 0.0055756401270627975, 0.0021914606913924217, -0.00596518162637949, 0.0038731282111257315, 0.004095315933227539, 0.0016191332833841443, -0.0036255705635994673, 0.0042225029319524765, 0.0025286199524998665, -0.018740076571702957, 0.003859852673485875, -0.011524827219545841, 0.0039913831278681755, -0.0009175554732792079, 0.007124158088117838, -0.000594074372202158, -0.005350966472178698, -0.0009062863537110388, 0.006370430812239647, 0.00011516103404574096, -0.0007186201983131468, 0.004468549508601427, 0.001241818186827004, -4.550758239929564e-05, 0.008214152418076992, 0.009338879957795143, 0.003687111893668771, -0.0017197964480146766, 0.009001463651657104, 0.00711476244032383, 0.004324637353420258, -0.007313553709536791, 0.0008391648298129439, -0.004469906911253929, -0.0009572239359840751, 0.0014260050375014544, 0.0006128069362603128, -0.0028612299356609583, 0.007631097920238972, -0.010194901376962662, 0.004396654665470123, -0.011191325262188911, 0.0023165694437921047, -0.0053322408348321915, 0.00527594331651926, 0.0005313567235134542, 0.0015248440904542804, -0.006143992766737938, -0.0039309486746788025, 0.0012451253132894635, 0.00352681428194046, 0.01762338913977146, 0.001321969204582274, 0.005874897353351116, -0.009360859170556068, -0.008015905506908894, -0.0021379159297794104, -0.00720033748075366, 0.008921926841139793, -0.0024658837355673313, 0.008312947116792202, 0.008936691097915173, 0.000257702951785177], [0.0030177165754139423, -0.0003373906947672367, 0.0032381585333496332, 0.002906328532844782, -0.0007436414598487318, 0.0030368282459676266, 0.01036522164940834, 0.00428737560287118, 0.0019587366841733456, 0.0007496046018786728, -0.006092925556004047, -0.006180616095662117, 0.001943988841958344, -0.008240501396358013, -0.00461172079667449, 0.0077119492925703526, 0.01150469295680523, -0.010012047365307808, 0.00981927290558815, -0.001273086410947144, -5.790583963971585e-05, -0.0006197302718646824, 0.006505132187157869, -0.009621105156838894, 0.0027914901729673147, -0.0056756059639155865, 0.0034751645289361477, 0.009313070215284824, 7.718859933447675e-07, 0.002277946099638939, 0.0024812635965645313, -0.004806865938007832, 0.009102853946387768, 0.01027075294405222, 0.0042219324968755245, 0.00044531599269248545, -0.0027783613186329603, -0.003767866874113679, 0.010288276709616184, 0.008503095246851444, -0.0003853876260109246, -0.009504103101789951, -0.017039062455296516, -0.0065281274728477, -0.000792855687905103, 0.008407271467149258, -0.0039565968327224255, 0.003017768729478121, 0.007817449048161507, 0.000710521184373647, -0.0008903341367840767, -0.00788111798465252, -0.007283623330295086, 0.002451314590871334, -0.001211632858030498, 0.0007255853852257133, -0.00031019552261568606, 0.004012307617813349, -0.004699497018009424, -0.0019660769030451775, 0.01141807995736599, -0.0047767627984285355, -0.001630881684832275, -0.0035289668012410402, 0.00269589526578784, 0.00619814358651638, -0.002980470424517989, -0.002590839983895421, -0.001645637326873839, 0.0032046916894614697, -0.004446128383278847, -0.0022448645904660225, -0.014267989434301853, -0.008310585282742977, -0.0006793885841034353, 0.005386467557400465, 0.0017621000297367573, -0.006616925820708275, -0.00844610296189785, 0.0010103379609063268, -0.009964563883841038, 0.006385002750903368, 0.00033007265301421285, -0.009737455286085606, -0.005808823276311159, -0.004388965666294098, -0.004805717617273331, -0.008939146995544434, -0.005244852509349585, -0.004301226232200861, -0.004247430711984634, 0.0068293302319943905, 0.0005917606176808476, -0.005935230292379856, -0.0019615881610661745, -0.005117032676935196, -0.0017772529972717166, 0.00532549200579524, 0.0017444526311010122, 0.013736863620579243, 0.00231120060198009, -0.0053446595557034016, 0.004868127405643463, 0.006537799723446369, 0.006641249172389507, -0.0065644108690321445, -0.0008728799293749034, 0.006848773919045925, -0.01013838592916727, -0.0030126464553177357, -0.008588522672653198, -0.0056328559294342995, -0.0061203548684716225, 0.007498130202293396, -0.001437593251466751, -0.005252400413155556, -0.006292283535003662, 0.0008463223348371685, -0.00014337906031869352, 0.00793573260307312, 0.0030173202976584435, -0.008687615394592285, -0.003952404949814081, 0.006442494224756956, -0.0038112851325422525, 0.010359683074057102, -0.006587722338736057, 0.0033901261631399393, -0.005153518170118332, -0.0030558675061911345, 0.006620552856475115, -0.00061912985984236, 0.004897787235677242, 0.002943444764241576, 0.004675837699323893, -0.005366332363337278, -0.0012227327097207308, 0.0024981519673019648, -0.005136518273502588, 0.009879686869680882, -0.004749654792249203, -0.0018111902754753828, -0.00602852925658226, -0.012882811948657036, 0.01079908199608326, -0.0012379710096865892, -0.0027041009161621332, -0.0012084387708455324, 0.008520379662513733, -0.005841131787747145, 0.0040851496160030365, -0.0025793034583330154, -0.0036740542855113745, 0.0034299639519304037, 0.005904224701225758, -0.003247055923566222, -0.004605997819453478, -0.00707582663744688, 0.006427784916013479, -0.0034400594886392355, -0.011170483194291592, 0.008272374980151653, -0.00821230374276638, 0.004661785904318094, 0.0010175758507102728, 0.0017363268416374922, -0.0034922310151159763, 0.0023491252213716507, -0.01002105325460434, 0.0036539901047945023, 0.009491822682321072, 0.0053061870858073235, -0.012052434496581554, -0.0060021583922207355, -0.00114301813300699, 0.002952375914901495, -0.0007125832489691675, -0.0029736903961747885, 0.0035966304130852222, 0.00698457844555378, -0.0013997680507600307, 0.004379849415272474, -0.015517155639827251, -0.005645436700433493, -0.0019408059306442738, -0.002953903516754508, 0.002001291373744607, 0.006076426710933447, 0.003026580670848489, -0.0037272197660058737, -0.009178690612316132, 0.003307473612949252, -0.011045780032873154, 0.0039060760755091906, -0.0012506203493103385, -0.007031319197267294, 0.001682319212704897, -8.701941260369495e-05, -0.00022587906278204173, -0.0005013125482946634, 0.002515337662771344, 0.005540165584534407, 0.0029861333314329386, 0.006491498555988073, -0.00025692954659461975, 0.009838194586336613, 0.0035580245312303305, -0.0032778882887214422, -0.0065435683354735374, 0.001102995011024177, -0.007867824286222458, -0.005886952392756939, 0.0013597863726317883, -0.003665647003799677, -0.005610203370451927, -0.0002467202430125326, 0.00043526440276764333, -0.001239278237335384, -0.002273269696161151, 0.00512523902580142, 0.0020518924575299025, -0.0013480884954333305, 0.0148090785369277, 0.0011434778571128845, 0.006805917713791132, -0.0033737996127456427, -0.008227218873798847, -0.0047938465140759945, -0.001597592025063932, -0.003026185091584921, 0.00797521322965622, -0.0006785619771108031, 0.002760542556643486, -0.00027679651975631714, -0.00265864678658545, 0.00022873074340168387, 0.010379602201282978, -0.004627843387424946, 0.004593194928020239, -0.005679186899214983, -0.0027623185887932777, 0.00015762583643663675, 0.001811862806789577, 0.008904463611543179, -0.0003369079786352813, -0.005270786117762327, 0.0038927870336920023, -0.0022583219688385725, 0.0013526056427508593, -0.0007220552652142942, -0.011707889847457409, 0.00299653853289783, 0.003503724467009306, 0.005572047084569931, 0.010826141573488712, -0.007212919183075428, 0.003100121393799782, 0.0024552238173782825, -0.0025420384481549263, 0.0023669572547078133, 0.002983770100399852, -0.007325494196265936, 0.0014373064041137695, -0.005595474038273096, -0.0038637006655335426, -0.010694600641727448, -0.0029189083725214005, -0.0012228172272443771, 0.00333035783842206, 6.155457958811894e-05, -0.009309251792728901, 0.00517760356888175, -0.00044873953447677195, 0.0029483214020729065, 0.005901118274778128, 0.008577186614274979, 0.01179269328713417, -0.0003917935537174344, 0.001625467324629426, -0.006491245701909065, 0.006260281428694725, -0.007251735311001539, -0.010882080532610416, 0.004907848779112101, -0.0032362749334424734, 0.0046312096528708935, 0.0024079573340713978, -0.009880484081804752, -0.016368936747312546, -0.0065968031994998455, 9.445680916542187e-05, -0.007385931443423033, -0.00393599784001708, -0.008789368905127048, 0.0010071921860799193, 0.0005220972234383225, -0.0029280150774866343, 0.008434001356363297, 0.008986607193946838, 0.0033322216477245092, -0.010782609693706036, -0.006653791293501854, 0.0024248664267361164, -0.0038004741072654724, -0.0029611443169414997, 0.0055296472273766994, 0.0030699758790433407, 0.007891787216067314, -0.0025498284958302975, 0.008269141428172588, -0.003221080871298909, 0.00878884643316269, 0.0006439209682866931, -0.005300607997924089, -0.00994647853076458, -0.0018242918886244297, -0.0016835497226566076, 0.005049023311585188, -0.0006999418837949634, -0.002706489758566022, 0.006344893015921116, -0.0013976347399875522, -0.003524330910295248, 0.003335716435685754, -0.0029637119732797146, 0.003957207780331373, -0.003599958261474967, -0.0013667972525581717, 0.0008907768642529845, -0.0023101363331079483, -7.943066884763539e-05, 0.0048484886065125465, 0.002367702079936862, 0.002926512621343136, -0.003882055636495352, 0.005040337797254324, 0.004042591899633408, 0.006001191213726997, -0.004460308700799942, -0.0010220936965197325, 0.003784226020798087, -0.0037761908024549484, -0.001341933966614306, 0.011635774746537209, 0.011471903882920742, 0.007476297672837973, 0.005612833425402641, -0.006277790758758783, 0.0031010142993181944, -0.0022856220602989197, -0.006444594357162714, -0.003067822428420186, 0.0005827755085192621, -0.003423696383833885, -0.0033469926565885544, 0.00465440284460783, 0.0007042927900329232, 0.0013663993449881673, 0.0005986044416204095, -0.004174113739281893, -0.008244934491813183, 0.0018637533066794276, -0.0030574952252209187, -0.012089946307241917, -0.002370676724240184, -0.0066423495300114155, 0.004233065992593765, 0.0031341202557086945, 0.002862169174477458, -0.003938988316804171, 0.004470277111977339, 0.0018075796542689204, -0.0024119268637150526, -0.0025550047867000103, 0.005290045868605375, -0.0027949409559369087, 0.0020330217666924, 0.006141209043562412, 0.011513814330101013, 0.010203700512647629, 0.005419470369815826, -0.00903545692563057, -0.004136087838560343, -0.003196997568011284, 0.009959064424037933, -0.004226171877235174, 0.0023597681429237127, 0.0006007434567436576, -0.005688710603863001, 0.0022415427956730127, 0.00237934454344213, -0.007648212369531393, 0.007290536537766457, -0.012564796954393387, -0.003625190118327737, 0.005807780660688877, -0.007176470942795277, 0.0021038271952420473, -0.007797645404934883, -0.0005617324495688081, -0.013921323232352734, -0.0050731562077999115, -0.009291265159845352, -0.002438943600282073, -0.0024665340315550566, -0.004074126482009888, 0.0047365217469632626, -0.005212646909058094, 0.003792272647842765, 0.009691398590803146, 0.0010042168432846665, -0.005166054703295231, -0.007582901977002621, -0.004090788774192333, 0.00424274243414402, 0.000913753523491323, 0.0057981666177511215, 0.0046464260667562485, 0.000908608315512538, 0.0029233903624117374, 0.011162449605762959, 0.008566438220441341, -0.001808021916076541, 0.005951358005404472, 0.0035023409873247147, 0.006831779610365629, 0.004037258215248585, -0.005907860584557056, -0.009743877686560154, 0.003442727029323578, 0.011404940858483315, -0.004665752872824669], [-0.0011312544811517, -0.006229070946574211, 0.007083540316671133, -0.013863449916243553, -0.013613823801279068, 0.002255256287753582, -0.0004957116325385869, -0.0028845483902841806, -0.0018109871307387948, 0.003228068584576249, -0.002489853650331497, -0.006596243940293789, -0.0055793034844100475, 0.005336833652108908, -0.0031566102989017963, -0.008335721679031849, 0.0006057315622456372, 0.003029840299859643, 0.007984339259564877, 0.0012967565562576056, -0.003981364890933037, 0.002832596655935049, 0.0043602860532701015, -0.00025914469733834267, -0.0002865823043975979, 0.0015528022777289152, -0.0004402395279612392, 0.0014972666976973414, -0.0061513022519648075, -0.006936181802302599, -0.005031617358326912, 0.0038600165862590075, 0.001544168102554977, 0.006255594082176685, -0.0011231560492888093, -0.0068800561130046844, 0.006883460562676191, -0.00011285491927992553, 0.007718455977737904, 0.0035947891883552074, 0.013160920701920986, -0.001321998774074018, 0.0054137976840138435, 0.005353876855224371, -0.0033395837526768446, -0.0010438001481816173, -0.00880488846451044, -0.009316296316683292, 0.0007541256491094828, 0.004730596207082272, 0.003819247242063284, 0.002034279052168131, 0.005137014668434858, -0.0035861479118466377, -0.0016524750972166657, 0.004379130434244871, 0.0025382039602845907, -0.0012796504888683558, 0.007899101823568344, -0.007834551855921745, -0.003132682293653488, -0.0017169591737911105, 0.004826711490750313, -2.1056101218164258e-07, -0.007592272944748402, 0.003025956219062209, 0.006534127984195948, 0.0044409725815057755, 0.003706541145220399, -0.011272268369793892, -0.005413572303950787, 0.0028967061080038548, -0.00033000833354890347, 0.0031428243964910507, -0.007615978363901377, -0.000371473201084882, -0.008357316255569458, -0.011751793324947357, 0.0017701636534184217, 0.005066536832600832, 0.0014677280560135841, -0.00020649482030421495, -0.009394635446369648, 0.006015050690621138, -0.00027997922734357417, 0.011778601445257664, 0.005568421445786953, -0.012066745199263096, 0.0045278025791049, -0.008519705384969711, -0.004577167797833681, -0.0015330429887399077, -0.0007318536518141627, 0.002387000946328044, -0.006175306160002947, -0.0070436145178973675, 0.0036285098176449537, -0.0001017061949823983, 0.0009695428889244795, -0.013172736391425133, -0.001084393123164773, -0.00537870405241847, -0.005526036024093628, 0.00553798396140337, -0.006593040190637112, -0.006570048630237579, -0.001991384197026491, 0.002714812522754073, -0.005311476998031139, 0.007433914579451084, 0.008724027313292027, -0.005296492017805576, -0.0014538309769704938, -0.004676308948546648, -0.010131963528692722, 0.0018475770484656096, 0.004421714693307877, 0.012100836262106895, -0.00537618063390255, 0.008037545718252659, 0.008078419603407383, 0.0012156617594882846, 0.0036374086048454046, 0.005251588299870491, 0.011903725564479828, 0.002890611533075571, -0.0003554171707946807, -0.005197128746658564, 0.001822490943595767, 0.0061670346185564995, 0.0014517128001898527, -0.004709105938673019, 0.0005445679998956621, -0.0008199062431231141, 0.0016384880291298032, -0.009974042885005474, 0.0032951238099485636, 0.00367560307495296, 0.0026865662075579166, -2.5130430003628135e-05, -0.010811449028551579, -0.00011223232286283746, 0.006377358455210924, -0.005153450649231672, -0.011959643103182316, -0.009261787869036198, 0.001899497234262526, 0.002248902339488268, 0.005337344948202372, -0.00029945725691504776, -0.009017538279294968, -0.004920100327581167, 0.004988266155123711, 0.0008471099426969886, 0.003902871161699295, 0.002728053368628025, -0.001236821641214192, -0.0010544514516368508, 0.011399262584745884, 0.0024908045306801796, -0.0007720635621808469, 0.0029676626436412334, 0.0013347280910238624, -0.012973357923328876, 0.003969564568251371, 0.010951357893645763, -0.004705083090811968, 0.008782612159848213, -0.0015480390284210443, 0.0017465301789343357, 0.006445541977882385, -0.004334105644375086, 0.007454895414412022, -0.007227715570479631, -0.005263895727694035, -0.0035707931965589523, 0.004024360328912735, -0.002049053320661187, -0.009142176248133183, -0.0012796091614291072, -0.004715112037956715, 0.004400508012622595, -0.002060495549812913, 0.0004303721943870187, -0.002436141949146986, 0.002618713304400444, -0.0010930470889434218, 0.001967498566955328, -0.015584544278681278, 0.0005864303675480187, 0.0025024551432579756, -0.0011407100828364491, 0.004016655497252941, 0.004458282142877579, 0.007977497763931751, 0.0006257425993680954, -0.011478511616587639, -0.013719435781240463, -0.009645260870456696, -0.00023295680875889957, -0.0009770452743396163, 0.0016576333437114954, -0.003771862480789423, -0.004494879860430956, 0.0033313720487058163, 0.003934190608561039, -0.001579762902110815, -0.0002405088598607108, 0.00243000197224319, 0.0030707090627402067, -0.006885072682052851, -0.004325416404753923, -0.007376964204013348, -0.003048194106668234, 0.004881954751908779, 0.003308716230094433, -0.0066031040623784065, 0.0030814982019364834, 0.000518040731549263, -0.0029613282531499863, -0.008455165661871433, -0.0010467094834893942, 0.004097127355635166, -0.012997516430914402, -0.0023616391699761152, 0.013551303185522556, 0.004068106412887573, 0.0016326011391356587, -0.0044448054395616055, -0.00404691556468606, -0.0004653401847463101, 0.009621857665479183, 0.0028133580926805735, -0.00529145635664463, 0.007086905185133219, -0.0017889387672767043, 0.010073879733681679, -0.003402569331228733, -0.006046646274626255, 0.0009193712030537426, 0.005901510827243328, 0.0062386710196733475, 0.0009919765871018171, -0.005946600344032049, -0.0030274337623268366, -0.01205852348357439, -0.005495814606547356, -0.0010685946326702833, 0.00235245143994689, -0.002045676112174988, -0.00033730213181115687, -0.0023673903197050095, 0.004517153836786747, -0.0054068611934781075, 0.005038173869252205, 0.011797581799328327, 0.0028476936277002096, -0.003163493238389492, -0.0032320248428732157, 0.007286165375262499, -0.006744779646396637, -0.005745408590883017, -0.00698044104501605, -0.007621981669217348, -0.006298108026385307, 0.004781251773238182, 0.006637584883719683, -0.00419458094984293, 0.0012447304325178266, 0.004471697378903627, 0.0006286152056418359, -0.005746162496507168, -0.008906928822398186, 0.006080011837184429, 0.002981978002935648, 0.003501101164147258, -0.006665508728474379, 0.0014108374016359448, 0.003968965727835894, 0.001882710843347013, -0.004444228019565344, 0.006134196650236845, -0.009196377359330654, 0.005593210458755493, 0.006482411175966263, 0.00944186095148325, -0.002058655023574829, -0.006019497290253639, 0.004772178363054991, -0.004205102100968361, 0.00026413070736452937, -0.0019169108709320426, -0.005425299983471632, 0.0019331499934196472, -0.00838621985167265, 0.0035575286019593477, -0.005820774007588625, -0.010433563962578773, -0.0003186474204994738, 0.002577216364443302, 0.0034589972347021103, 0.004902619868516922, -0.01417140569537878, -0.00602643471211195, 0.0006308424635790288, 0.009027061983942986, 0.004724660888314247, 0.011417069472372532, -0.003181284759193659, 0.001649438519962132, -0.006626327056437731, -0.0022423670161515474, -0.004427656065672636, -0.003773947712033987, -0.002314623212441802, -2.71103499471792e-06, 0.0001554393529659137, 0.0031873565167188644, 0.0008233649423345923, -0.002086989115923643, -0.0031986257527023554, -0.0018646253738552332, -0.00270590977743268, 0.002893442288041115, 0.00520056439563632, 0.007661032024770975, -0.004799744579941034, 0.0028141806833446026, -0.00839198101311922, 0.0022366116754710674, 0.00649437727406621, -0.0009084934717975557, 0.0064019570127129555, -0.006864762399345636, -0.005370995029807091, -0.0009264441323466599, 0.006145259365439415, -0.002566371578723192, -0.0028709794860333204, -0.005946156103163958, 0.0011626166524365544, 0.007347748149186373, 0.0042143636383116245, 0.004109814763069153, -0.0012542245676741004, -0.003390414407476783, 0.004042933229357004, -0.00017225570627488196, -0.0010520453797653317, 0.005395958665758371, -0.0012890269281342626, -0.0050497883930802345, 0.005419409368187189, 0.0003793808282352984, -0.0062554688192903996, -0.006730352994054556, 0.00048320231144316494, 0.014038198627531528, -0.002387756947427988, -0.0020787492394447327, 0.009163464419543743, -0.00034522058558650315, -0.008713354356586933, -0.00946063082665205, 0.007373671978712082, 0.0039967442862689495, 0.004963841289281845, -0.0003563933714758605, -0.004390565212816, -0.001307456404902041, 0.0008052395423874259, -0.00510631687939167, 0.0034066149964928627, -0.007612557616084814, -0.0020764314103871584, -0.0012060879962518811, -0.004170040600001812, -0.013318197801709175, 0.0027118008583784103, -0.004550549667328596, 0.008055184967815876, -0.002055756514891982, -0.00323061877861619, 0.0005587075720541179, 0.0063343350775539875, -0.0034265725407749414, 0.0060690040700137615, 0.008655593730509281, 0.0058895740658044815, 0.009730265475809574, 0.007763877045363188, 0.00905163586139679, 0.009608415886759758, 0.001244970946572721, -0.0026164744049310684, -0.013622219674289227, -0.007954968139529228, -0.00269648851826787, -0.002295691752806306, -0.0009175639133900404, -0.006019649561494589, -0.009597604162991047, -0.0007792846881784499, -0.0011431678431108594, -0.004858988802880049, -0.004450120963156223, -0.005667718593031168, -0.0023880410008132458, -0.005110934842377901, 0.007602688390761614, 0.0014465611893683672, -0.0058230566792190075, -0.0016638124361634254, -0.007028955966234207, 0.006111279129981995, 0.008372807875275612, 0.007646238896995783, -0.006877755280584097, -0.0005250722751952708, -0.002357499673962593, 0.0033872248604893684, -0.006065350491553545, -0.004026918672025204, -0.002482548588886857, 0.000893033342435956, 0.004189225845038891, -0.0019762679003179073, 0.003962337039411068, 0.0049467855133116245, -0.0012825392186641693, -0.007506254129111767, -0.007043854799121618], [0.0035586743615567684, -0.0028640630189329386, -0.010299937799572945, 0.0036862636916339397, 0.0007791403913870454, -0.00845570582896471, 0.007092671003192663, 0.005031480919569731, 0.0008338218322023749, -0.007664469536393881, -0.00843374989926815, -0.0018485765904188156, -0.010309478268027306, 0.0024363806005567312, -0.008489100262522697, 0.000989720574580133, -0.0017328188987448812, 0.004276466555893421, -0.005637871567159891, 0.0016466709785163403, -0.008386673405766487, 0.004792686086148024, -0.0006900990847498178, 0.0029862055089324713, -0.007945389486849308, 0.0030034000519663095, 0.0018385752337053418, 0.002172512700781226, 0.0018796698423102498, -0.001171151059679687, 0.007450956851243973, -0.0009395467350259423, -0.0044539025984704494, -0.00035873576416634023, -0.005718298722058535, -0.002794792177155614, -0.0010659791296347976, -0.002282732864841819, 0.0011993037769570947, 0.01170208491384983, 0.003434025449678302, 0.006448816508054733, -0.003030129475519061, -0.003529287874698639, -0.0022749241907149553, 0.005126127507537603, -0.01291660312563181, -0.006215131375938654, 0.0006063923938199878, -0.0013423790223896503, 0.011828716844320297, 0.002677963813766837, -0.003980238921940327, -0.009493696503341198, -0.002053513890132308, -0.007838230580091476, 0.0028079848270863295, 0.0009949157247319818, 0.001925896154716611, 0.01251985877752304, -0.005426644813269377, -0.001154678058810532, -0.00727884192019701, -0.000484082120237872, 0.009583229199051857, 0.0034162297379225492, -0.0007134776678867638, 0.001510324887931347, -0.007300954777747393, -0.00238235667347908, 0.0005103226867504418, 0.0005813767202198505, -0.009205121546983719, 0.001970605691894889, 0.0016794299008324742, -0.0022667080629616976, 2.6754440114018507e-05, -0.008920464664697647, -0.00889699999243021, 0.0008167707128450274, -0.004012462217360735, -7.060887583065778e-05, 0.005061953328549862, -0.001038188929669559, -0.016903841868042946, -0.0008836238994263113, -0.0028741727583110332, -0.0014086716109886765, 0.005492047872394323, -0.009493742138147354, 0.0014660295564681292, 0.009548320434987545, -0.003782603656873107, 0.0028462368063628674, 0.005858561489731073, 0.0012763473205268383, -0.004101624246686697, -0.004259818233549595, 0.004518308211117983, 0.003564567072317004, -0.004734296351671219, -0.00707534234970808, -0.0077196271158754826, 0.009982079267501831, -0.00045642248005606234, 0.014170306734740734, 0.0033330002333968878, 0.0025876148138195276, 0.0018424448790028691, 0.00600934075191617, -0.005809248890727758, 0.012992262840270996, -0.0006013827514834702, -0.004227382130920887, 0.0018206782406195998, 0.00657337810844183, -0.0060487547889351845, 0.00341423274949193, -0.004302145913243294, -0.0030262882355600595, -0.002929503796622157, 0.004618204664438963, -0.006664309184998274, 0.0011494694044813514, -0.0020515734795480967, -0.0050727068446576595, -0.007297012023627758, -0.007238838355988264, -0.009816414676606655, 0.005393364001065493, -0.0014550655614584684, 0.0009359273826703429, 0.007092255167663097, -0.007322193589061499, -0.0056146541610360146, 0.0015501551097258925, -0.010953170247375965, -0.003434375859797001, -0.005556030198931694, 0.001984630711376667, -0.0025845200289040804, 0.012060667388141155, 0.005629139486700296, -0.005196073092520237, -0.002329462207853794, -0.0020900790113955736, 0.01988636516034603, -0.009082998149096966, 0.0012249534483999014, -0.012533552944660187, -4.256605097907595e-05, 0.01148916408419609, -0.002448365790769458, 0.006654198281466961, -0.0003909445076715201, -0.0025375320110470057, -0.0015223457012325525, -0.0035266769118607044, -0.003793322481215, -0.008000949397683144, 0.009034835733473301, -0.0024659987539052963, 0.001773092895746231, -0.005291223991662264, 0.006551260594278574, -0.0016402528854086995, -0.0005477035301737487, -0.010998332872986794, 0.0023831140715628862, 0.010955555364489555, -0.005145174451172352, -0.002743768272921443, -0.00681579252704978, 0.0008723378996364772, 0.0003953127015847713, 0.004264963325113058, 0.003284974955022335, -0.004899472463876009, 0.0013463525101542473, -0.0020578939002007246, -0.006562076508998871, -0.0007628533057868481, 0.02286359667778015, 0.01391578745096922, 0.0008415147312916815, 0.010460417717695236, -0.0002707857347559184, -0.00031617528293281794, -0.011715101078152657, -0.005769981071352959, -0.004699646029621363, 0.0006228729616850615, 8.48247655085288e-05, -0.0034765347372740507, -0.0036566592752933502, -0.0009832974756136537, -0.008329044096171856, -0.003880404867231846, -0.0022826422937214375, -0.007558630313724279, -0.0020059056114405394, -0.0050186594016849995, 0.007431820500642061, -0.0013272695941850543, -0.0011389519786462188, 0.002612743526697159, 0.0035515925846993923, -0.010436846874654293, -0.0022093772422522306, -0.005389953497797251, -0.0008754016598686576, -0.0031859674490988255, 0.0008712620474398136, -0.005908971652388573, -0.003424227237701416, -0.003655432490631938, 0.006509592290967703, 0.002213098807260394, 0.002217268105596304, -0.0017449334263801575, -0.002315147779881954, 0.003374496242031455, 0.004662294872105122, 9.334253263659775e-05, 0.006872093304991722, 0.0076669263653457165, -0.009985219687223434, 0.0025401690509170294, -0.00024423847207799554, 0.0023501820396631956, 0.0065612997859716415, -0.00551904272288084, -0.009788181632757187, 0.006636768579483032, -0.005995165091007948, -0.004142056684941053, 0.0013536125188693404, -0.004123157821595669, -0.009561268612742424, 0.000417056173318997, -0.004706867504864931, 0.003622444113716483, -0.002932234900072217, -0.004147745668888092, -0.0012086759088560939, 0.0063048843294382095, 0.005445913411676884, -0.00657849432900548, 0.016679540276527405, -0.0019742564763873816, -0.006965143606066704, 0.005238517187535763, -0.00217734114266932, 0.012952412478625774, 0.005094424821436405, -0.0012265831464901567, 0.009470214135944843, 0.005100228823721409, -0.007404631935060024, 0.005340965464711189, -0.003122433088719845, -0.0004950884613208473, 0.0007936164038255811, -0.00537141552194953, -0.008007344789803028, 0.002196219051256776, -0.008433031849563122, -0.01548346970230341, -0.005041864234954119, 0.00203656405210495, -0.0016101745422929525, 0.007655589375644922, 0.001217197859659791, -0.004615091253072023, -0.0026066687423735857, -0.008585241623222828, 0.006514990236610174, -0.008271322585642338, -0.005513984709978104, -0.0009699480724520981, 2.2401634851121344e-05, -0.009157039225101471, -0.005451427772641182, 0.001541888457722962, 0.00661651324480772, 0.002090256894007325, -0.00022266920132096857, -0.009443160146474838, -0.0037150229327380657, 0.0031363023445010185, 0.006499384064227343, 0.0053250752389431, 0.0008261342882178724, 0.007232791744172573, 0.01732548326253891, -0.0035805951338261366, -0.004608617629855871, 0.009143495932221413, 0.0014114821096882224, 0.0006506282952614129, 0.0023714336566627026, -0.003935773856937885, -0.0062166801653802395, -0.004660442937165499, 0.007499216124415398, -0.008598738349974155, 0.003004929283633828, -0.003329108702018857, -0.0020713224075734615, 0.0044629271142184734, 0.00510386610403657, 0.0021222943905740976, -0.011266112327575684, 0.009464924223721027, 0.00779474712908268, 0.0005501211271621287, 3.3566178899491206e-05, 0.010639186017215252, 0.005694800987839699, -0.00025765300961211324, -0.00182651961222291, -0.001164718414656818, 0.0070159961469471455, 0.0062370868399739265, -0.009703663177788258, 0.0027948024217039347, 0.005197209771722555, -0.009070434607565403, -2.2641130271949805e-05, -0.010712841525673866, 0.0007796278805471957, -0.01254628412425518, -0.004131011664867401, -0.003668462857604027, -0.004284692928195, 0.008722168393433094, 0.0032298711594194174, -0.0024112623650580645, -0.005606150254607201, -0.0014181667938828468, -0.006176777649670839, 0.005867602303624153, 0.012016178108751774, 0.006358274258673191, 0.001991198631003499, -0.0009888694621622562, -0.0024150803219527006, 0.010423178784549236, -0.003459251020103693, 0.00940761435776949, -0.006950725801289082, -0.00177917315158993, -0.01036355085670948, 0.0008942413260228932, -0.0075987400487065315, 0.009937895461916924, 0.002455263864248991, 0.0032327957451343536, 0.001676147454418242, -0.006569544784724712, 0.0007473896257579327, 0.011047850362956524, 5.390514706959948e-05, -0.006114115007221699, -0.011140214279294014, -0.004323619417846203, -0.010592009872198105, 0.004982920363545418, 0.004602773580700159, -0.005256706848740578, 0.003670085920020938, -0.0035329745151102543, -0.00025916536105796695, 0.0022404079791158438, -0.0027206633239984512, 0.002527674427255988, -0.010115235112607479, 0.0006482640164904296, -0.0002045387664111331, -0.012287091463804245, -0.010931354947388172, -0.011178283952176571, 0.002497483044862747, 0.0007045493111945689, 0.001651955652050674, -0.008021621964871883, 0.006825779099017382, 0.00591416098177433, -0.004665077663958073, 0.007059108465909958, -0.0015085795894265175, -0.01070491038262844, -0.00981956161558628, 0.0044130440801382065, -0.0006313772173598409, 0.005300312303006649, -0.0005314337322488427, 0.0016083981608971953, 0.012772010639309883, 0.008401889353990555, -0.002603956265375018, 0.0022573862224817276, 0.00297909090295434, 0.0045835645869374275, 0.000429369043558836, -0.002950970781967044, -5.263204911898356e-06, -0.00287191616371274, 0.010153098963201046, 0.007498799357563257, -0.0011859391815960407, 0.0025973040610551834, -0.0009559853933751583, 0.007250083144754171, 0.006324429530650377, 0.0034310680348426104, 0.005318018142133951, 0.003982526250183582, 0.007080745883285999, 0.0032329591922461987, 0.0009154287399724126, -0.0034801005385816097, -0.009436151944100857, -0.00016638735542073846, -0.004464359022676945, 0.0003727544972207397, 0.006859168875962496, 0.0010376895079389215, -0.0024921675212681293, -0.005130609031766653, -0.008600740693509579, 0.008016607724130154], [-0.0106851477175951, -0.005621850024908781, -0.013911747373640537, -0.001901429845020175, -0.0020586084574460983, -0.002431678818538785, -0.00038015228346921504, -0.004939171485602856, -0.005495247896760702, 0.010931071825325489, -0.0020092399790883064, 0.005458427127450705, -0.00503617525100708, 0.009696557186543941, 0.009103946387767792, 0.0013774614781141281, -0.0066200606524944305, 0.0005089901969768107, 0.000250254845013842, 0.0014251039829105139, -0.005909288767725229, -0.009200824424624443, 0.0009551831753924489, -0.0001136117716669105, -4.494061795412563e-05, 0.006150655448436737, -0.00891843717545271, 0.00602989224717021, -0.004478510934859514, -0.002418362768366933, -0.004983375780284405, 0.0005370267317630351, -0.011478209868073463, -0.0034180826041847467, -0.003101457841694355, 0.007599070202559233, 0.0009065103367902339, 0.004182925447821617, 3.565120277926326e-05, -0.006308006588369608, 0.0054553719237446785, -0.005084244534373283, -0.003164628753438592, 0.0010939461644738913, 0.0056873830035328865, -0.0012127215741202235, 0.009082140401005745, -0.0034346282482147217, 0.003997709136456251, 1.6629010133328848e-05, 0.009300973266363144, 0.0012765895808115602, -0.011291446164250374, 0.00652924133464694, -0.0005108251352794468, -0.0033256958704441786, 0.007293420843780041, -0.0020121471025049686, 0.003583574201911688, -0.0047296020202338696, -0.005035777110606432, 0.01085962075740099, -0.004871855489909649, -0.0035288070794194937, -0.010287519544363022, 0.009683691896498203, 0.0023892223834991455, 0.0014238698640838265, 0.005820425692945719, -0.007987168617546558, -0.003254794515669346, -0.0005520210252143443, -0.009312411770224571, 0.00788690336048603, -0.00011024490959243849, -0.001942105358466506, 0.0014229785883799195, -0.00452515808865428, 0.0002735610178206116, 0.02062198519706726, 0.0036372619215399027, 0.01003446988761425, -0.0021224473603069782, -0.004519877955317497, 0.001858917181380093, -0.008044919930398464, -0.01387046929448843, 0.004390181042253971, 0.003901499090716243, 0.005021101329475641, 0.00014740803453605622, 0.011922991834580898, -0.0005421120440587401, -0.003344028489664197, -0.018088987097144127, -0.000392465473851189, 0.005009997636079788, 3.178918404955766e-06, 0.006611320190131664, 0.013837574981153011, -0.001084511517547071, 0.007364040706306696, -0.009506911970674992, 0.006187967956066132, 0.0004139076918363571, -0.0013086323160678148, -0.0009811832569539547, -0.000895623757969588, -0.001852120622061193, 0.0012033811071887612, -0.001043569529429078, -0.006936512887477875, 0.0025325326714664698, -0.0036452729254961014, 0.006325182039290667, -0.0001624908036319539, 0.0007863923092372715, -0.01229998841881752, -0.00751030957326293, 0.005699248053133488, -0.0043995496816933155, -0.003144793678075075, -0.0015691439621150494, 0.008188632316887379, 0.002304514404386282, 0.008038557134568691, -0.001616693683899939, 0.001309168292209506, -0.007146554067730904, 0.0070913792587816715, 0.0006373630603775382, 0.0002107441978296265, 0.002050967887043953, 0.008662530221045017, -0.0013294668169692159, 0.010042252019047737, -0.0051474738866090775, 0.0026913692709058523, 0.012133531272411346, -0.0029312092810869217, 0.0016615450149402022, 0.005303697660565376, -0.000806909054517746, -0.008943027816712856, -0.006344431545585394, 0.0035008040722459555, 0.0053716497495770454, 0.004732086788862944, 0.0069087897427380085, 0.0004667309985961765, 0.0012740455567836761, -0.009114683605730534, 0.0019818395376205444, 0.0037052070256322622, -0.003477368038147688, 0.003995250910520554, -0.010927521623671055, 0.004546739626675844, 0.001977260923013091, 0.01267505344003439, 0.008503898978233337, 0.009229730814695358, 0.004905701149255037, 0.003886519931256771, -0.007081438321620226, -0.0019893625285476446, 0.010993915610015392, -0.008822664618492126, -0.0026968063320964575, -0.008522868156433105, 0.008685769513249397, -0.0033897152170538902, 0.009296213276684284, -0.002256350126117468, -0.003016187809407711, 0.007758384570479393, 0.005824051331728697, -0.01633070595562458, 0.002767042024061084, 0.0036423748824745417, 0.0012642433866858482, -0.003952434286475182, 0.0001769356895238161, -0.0023886756971478462, 0.001277967356145382, -0.001195829827338457, -0.0037235168274492025, 0.0010094820754602551, 0.004877305589616299, 0.001743875676766038, -0.0032787551172077656, 0.002095565665513277, 0.006420448888093233, 0.009640896692872047, 0.007320992648601532, 0.003206686582416296, -0.006036196835339069, -0.008227219805121422, -0.001205815700814128, -0.008494907990098, -0.004738721065223217, -0.0009948189835995436, -0.002893629251047969, -0.0021529579535126686, -0.0079871891066432, 0.001361327013000846, 0.0061469352804124355, -0.0032948812004178762, 0.004424251616001129, 0.01627831906080246, -0.00055671640438959, 0.004033258184790611, 0.001227160799317062, 0.0058252159506082535, -0.010291901417076588, -0.006375180557370186, 0.0008637446444481611, 0.005335585214197636, 0.0007867562817409635, -0.010010943748056889, -0.00494726886972785, -0.004770456347614527, 0.0023407298140227795, -0.0045608039945364, -0.004060330800712109, 0.006514855194836855, 0.008080810308456421, -0.0024306182749569416, 0.0025546904653310776, -0.011257125064730644, 0.0011952256318181753, 0.007125976961106062, 0.003186188405379653, 0.0005699790199287236, -0.0023047588765621185, -0.003923031035810709, -0.0011058758245781064, -0.009318705648183823, 0.009688213467597961, 0.0032462771050632, -0.0006158144678920507, -0.003781742649152875, -0.00017592677613720298, 0.004798637703061104, 0.006215694826096296, -0.0053269704803824425, -0.00586463138461113, 0.012582303956151009, 0.006781880743801594, 0.00425304751843214, -0.0008261455222964287, 0.005508581176400185, -0.0076568713411688805, 0.009212796576321125, -0.00021460028074216098, 0.00475251255556941, 0.003890512278303504, -0.0007875394658185542, -0.0010636737570166588, 0.0073594702407717705, 0.0061927554197609425, -0.010656113736331463, -0.010146087035536766, -0.005654669366776943, -0.005374567583203316, -0.006685232277959585, 0.0016620154492557049, -0.0027865043375641108, 0.007256971672177315, 0.00878461729735136, -0.00013493458391167223, 0.010155861265957355, 4.900263229501434e-05, -0.0026233536191284657, 0.000350315822288394, 0.005717957857996225, -0.009713828563690186, -0.0012510591186583042, 0.0019872768316417933, 0.002183149103075266, -0.002119220793247223, 0.002936315955594182, 0.0017502368427813053, -0.0035504791885614395, 0.013017800636589527, 0.0026417740155011415, -0.002013215096667409, -0.0034723335411399603, 0.00619158148765564, 0.0006135450094006956, 0.01532517559826374, -0.002618468599393964, -0.007470591925084591, -0.00016647025768179446, 0.001046780962496996, -0.012740413658320904, -0.00186726578976959, -0.0022176122292876244, -0.0022219340316951275, -0.0037830425426363945, -0.00808390136808157, 0.004563814029097557, -0.003455038648098707, -0.006122703664004803, -0.004549756180495024, -0.0028056700248271227, 0.0006688779685646296, 0.004039844963699579, -0.00574936019256711, -0.0028898650780320168, -0.008183352649211884, -0.020219018682837486, 0.0009368443861603737, 0.009198468178510666, 0.0031858969014137983, -0.0030466988682746887, 0.000624501088168472, -0.007195047102868557, -0.0007366366917267442, -0.0026105567812919617, -0.0051962509751319885, 0.0024432456120848656, 0.01560040470212698, 0.01001698337495327, -0.0004329643561504781, 0.005316099151968956, 0.005188618320971727, -0.003885568818077445, 0.003875329624861479, -0.008662230335175991, -0.004830499179661274, 0.001443045912310481, -0.002511719474568963, 0.01055955421179533, 0.0038806914817541838, -0.0023698131553828716, -0.002822982845827937, 0.001064829993993044, -0.00641260389238596, 0.0036076372489333153, -0.00832127034664154, 0.0036699988413602114, -0.0009770634351298213, 0.0024184328503906727, -0.0060361227951943874, 0.001488907728344202, 0.014521102420985699, -0.0027394325006753206, 0.001912531559355557, 0.00914175994694233, 0.004447676241397858, 0.0025996698532253504, -0.006117408629506826, -0.00773378973826766, 0.0003260882222093642, -0.002845744602382183, -0.00010179913078900427, 0.0012430483475327492, -0.004086358472704887, 0.0029921007808297873, 0.011177213862538338, -0.006070867646485567, -0.0028249958995729685, -0.00029772642301395535, 0.006857524160295725, -0.007133085280656815, -0.00640964787453413, -0.013012217357754707, -0.002628591377288103, 0.004075540229678154, 0.0064007979817688465, 0.0021562064066529274, -0.00360928475856781, 0.004237663466483355, 0.0011736269807443023, -0.011544269509613514, -0.007410048972815275, 0.009062292985618114, 0.0019423967460170388, -0.008322607725858688, 0.004990692716091871, 0.006393461022526026, -0.0025830657687038183, 0.004015796352177858, -0.022487685084342957, 0.005831753369420767, 0.007127627730369568, -0.006758655421435833, 0.0016457114834338427, -0.0019896486774086952, -0.0006122099584899843, -0.0025679420214146376, -0.0079915476962924, 0.011372317560017109, -0.00185764383058995, 0.0006378212128765881, -0.006070480216294527, -0.006235430482774973, 0.0024813262280076742, 0.003168146824464202, 0.005281886551529169, 0.006638707593083382, -0.0012507839128375053, -0.00266089616343379, 0.004503906704485416, -0.0038022801745682955, 0.0052746995352208614, 0.0022763931192457676, 0.0069884019903838634, 0.0040925475768744946, -0.006267050746828318, -0.005178048741072416, 0.004442531615495682, 0.011622785590589046, -0.007938689552247524, 0.0001679177803453058, 0.0018590327817946672, -0.009169244207441807, 0.0029002372175455093, -0.0004378252197057009, -0.012604033574461937, 0.009777134284377098, -0.005132595542818308, -0.007709837518632412, 0.0025543542578816414, 0.0033745623659342527, 0.004430579487234354, -0.0023038440849632025, -6.009789649397135e-05, -0.004394444637000561, -0.007871138863265514, 0.00649112556129694], [-0.0006180809577926993, -0.001096460735425353, -0.012023725546896458, -0.0010729078203439713, -0.005066818092018366, -0.00105022091884166, -0.001319185015745461, -0.0026852425653487444, 0.00564578315243125, 0.002687470056116581, 0.006778148468583822, -0.007969030179083347, -0.003905093763023615, -0.00024335728085134178, -0.0024488491471856833, -0.00047966171405278146, -0.007110798265784979, -0.004311008844524622, -0.009873089380562305, -0.005356036126613617, 0.00417441176250577, -0.00128829141613096, 0.009049423038959503, -0.0035825888626277447, 0.0007050461135804653, -0.007299342192709446, 0.01562873087823391, -0.0010873103747144341, 0.004985534120351076, 0.002473385538905859, -0.0035205483436584473, -0.008006195537745953, 0.0009303733240813017, -0.0033528930507600307, -0.0009364270372316241, 0.003912570420652628, 0.00047059220378287137, 0.0022680512629449368, 0.0009022211888805032, -0.008824583142995834, 0.00839532446116209, 0.007071457803249359, -0.006834608502686024, 0.0030355961062014103, -0.003982073627412319, -0.004496265668421984, -3.780855695367791e-05, 0.010508248582482338, 0.006353084463626146, 0.0036201458424329758, -0.006926806177943945, 0.015349316410720348, 0.0052274735644459724, -0.01413813792169094, 0.002395419403910637, -0.0029588467441499233, 0.002448301762342453, 0.002423501806333661, -0.005535000003874302, 0.010962940752506256, 0.0012143991189077497, 0.005652155261486769, 0.008109630085527897, -0.004445807542651892, -0.0054872902110219, 0.00672776997089386, 0.008360641077160835, -0.008285040967166424, 0.012076220475137234, -0.0014272696571424603, 0.004158422350883484, 0.003380320267751813, -0.00584179675206542, -0.005196532234549522, -0.012531020678579807, -0.006924500223249197, -0.008916165679693222, 0.000240844048676081, 0.0082312673330307, -0.0001629876351216808, 0.0020333968568593264, 0.004670436959713697, 0.004089267924427986, -0.002336568897590041, -0.008806495927274227, -0.0025740349665284157, 0.0003325176949147135, -0.005244661588221788, 0.0022209782619029284, -0.0018568141385912895, 0.003738388419151306, -0.004783996846526861, -0.00565989688038826, 0.010674319230020046, 0.00018132514378521591, 0.0032498855143785477, -0.00657937815412879, -0.0022804331965744495, 0.004086637403815985, 0.009434503503143787, -0.004372489172965288, -0.00485078152269125, -0.0001389796962030232, -0.00918214675039053, -0.00023095514916349202, -0.0004033887817058712, 0.004349643364548683, 0.008458535186946392, 0.0034293276257812977, 0.004463888704776764, 0.0003160561027470976, -0.0021592541597783566, -0.011996747925877571, -0.0053263395093381405, 0.0013117090566083789, -0.009882374666631222, 0.0014669668162241578, -0.0024012383073568344, -0.006122017279267311, -0.0028214561752974987, 0.0043946485966444016, 0.0053630406036973, -0.011644489131867886, -0.0008981688297353685, 0.005525333806872368, -0.001509220921434462, 0.0006634137243963778, -0.008983397856354713, -0.0028811355587095022, 0.0110094603151083, -0.004759947303682566, -0.008662719279527664, 0.000912083953153342, 0.004725464154034853, 0.007234777323901653, -0.003088537836447358, 0.0013309078058227897, 0.003356469329446554, 0.00392268318682909, -0.0033033944200724363, 0.010324321687221527, -0.004137514159083366, 0.004242027644068003, -0.00016058309120126069, -0.0035287649370729923, -0.0038637991528958082, -0.0035210030619055033, -0.0026839955244213343, -0.006123150698840618, 0.004212423227727413, -0.004224761389195919, -0.0036920015700161457, 0.0029788461979478598, -0.0006360709667205811, -0.008543283678591251, -0.005565859843045473, -0.0011880703968927264, -0.0034551844000816345, 0.004613473080098629, -0.0046010310761630535, -0.005832694936543703, -0.006012170109897852, 0.002452848944813013, 0.002881751861423254, -0.010111129842698574, 0.003749708877876401, 0.00517295440658927, -0.010154584422707558, -0.00415017269551754, 0.008631367236375809, 0.006120983045548201, 0.0001569215237395838, 0.0030378131195902824, 0.012835281901061535, 0.003033043583855033, -0.007324515841901302, 0.008253914304077625, -0.005244427360594273, 0.0059746503829956055, 0.003905355231836438, 0.0053509920835494995, 0.009269180707633495, -0.008812680840492249, -0.00042046894668601453, 0.011706859804689884, 0.005883840378373861, 0.001073470339179039, -0.006144105456769466, 0.000666741922032088, -0.005483854562044144, -0.00881428923457861, 0.003479090053588152, 0.0003841269644908607, -0.0046455455012619495, 0.002354271477088332, -0.003021156881004572, 0.010682051070034504, -0.0002866326831281185, 0.009494718164205551, -0.004923222120851278, 0.0036286290269345045, 0.011101208627223969, 0.0016285079764202237, 0.00693731103092432, -0.010458576492965221, 0.004293591715395451, 0.0003571047564037144, 0.004597400780767202, 0.005266920197755098, -0.013393298722803593, -0.002673177048563957, -0.003974867518991232, 0.0008966595632955432, -0.011679407209157944, -0.006552691571414471, 0.00596287427470088, 0.0010639078682288527, -0.006542811635881662, -0.0015221538487821817, 0.006592850666493177, -0.011061219498515129, -0.001266617444343865, -0.0013845372013747692, 0.001137466519139707, 0.003041291143745184, 0.011481133289635181, 0.003362734103575349, -0.0035564277786761522, 0.0075659677386283875, -0.005143065005540848, 0.0025087743997573853, 0.009463858790695667, 0.006447649095207453, 0.0047798119485378265, -0.01340100634843111, -0.000633547140751034, -0.003518174635246396, 0.00797508005052805, 0.005067397840321064, 0.001726412563584745, 0.004768637008965015, -0.003866932587698102, 0.0040555126033723354, 0.0005620810552500188, -0.010033774189651012, 0.0021104449406266212, 0.004238178487867117, 0.007210555486381054, 0.0030767926946282387, 0.006042002234607935, -0.01042772177606821, -0.002322111278772354, -0.0008590664947405457, -0.0019829082302749157, -0.0005363330128602684, -0.0034908310044556856, 0.004427585285156965, -0.00595985958352685, 0.0007383580086752772, 0.0004480764036998153, 0.0008696111617609859, -0.005700770765542984, 0.008441648446023464, -0.0013971326407045126, -0.008643124252557755, 0.004827446769922972, -9.744395356392488e-05, -0.0005717592430301011, -0.0005867492873221636, 0.002379655372351408, -0.0002878333325497806, -0.004640148486942053, -0.008445782586932182, 0.0018216142198070884, -0.009102076292037964, 0.0069013978354632854, -0.0057446216233074665, -0.005061348434537649, -0.005756796337664127, -0.008210082538425922, -0.004573387559503317, -0.0017954588402062654, -0.014011291787028313, -0.014723416417837143, -0.00442197360098362, 0.005297972355037928, -0.007850131951272488, -0.0005337880575098097, 0.008598675020039082, -0.00795963779091835, -0.002638785867020488, -0.004488952923566103, 0.005357338581234217, 0.002780119189992547, 0.0037014286499470472, 0.015001115389168262, 0.009784596972167492, -0.0005948811885900795, -0.0012200751807540655, -0.008732509799301624, -0.010299594141542912, -0.00029821350472047925, -0.007820959202945232, 0.003791108028963208, -0.004759841598570347, -0.003465792164206505, -0.00933187734335661, 0.01271306723356247, 0.004661756567656994, -0.004278654232621193, 0.0009312467300333083, 0.008156453259289265, -0.005592613480985165, 0.011524776928126812, -0.006234938744455576, -0.0010796963470056653, -0.009929158724844456, -0.01540767028927803, 0.006062094122171402, 0.0004551426973193884, -0.010558497160673141, -0.009875263087451458, 0.00683712400496006, -0.0009623582009226084, 0.008604205213487148, 0.003826308064162731, -0.0004040218482259661, 0.00018084648763760924, -0.0033502147998660803, 0.0005525165470317006, -0.00037777976831421256, 0.0049969968385994434, -0.001048335456289351, 0.004953945055603981, 0.005481673404574394, 0.0010307676857337356, -0.007877128198742867, -0.001000996446236968, -0.0115022212266922, -0.007229104172438383, 0.004380490630865097, 0.0029758934397250414, -1.91992203326663e-05, -0.0018176328158006072, -0.004364157561212778, -0.0030845922883599997, 0.005833066999912262, 0.0028418025467544794, -0.008250216953456402, 0.0012224279344081879, 0.0006823449512012303, 0.009907021187245846, -0.01062246598303318, -0.004894432611763477, 0.005845860578119755, -0.006757340859621763, 0.014245714992284775, -0.007095600478351116, 0.00012678367784246802, 0.003340714145451784, 0.005297956056892872, 0.004299031104892492, -0.0027814439963549376, 0.0054902005940675735, -0.0045456355437636375, -0.0032550999894738197, 0.0027476265095174313, 0.009050399996340275, -0.0014800161588937044, -0.005341585725545883, 0.007233676500618458, -0.007730837445706129, 0.011080863885581493, -0.005942930933088064, 0.0037606563419103622, 0.0055954852141439915, 0.004724227823317051, 0.0013449251418933272, 0.0003050232771784067, -0.009914773516356945, -0.00471515953540802, 0.004365996923297644, 0.004033145494759083, -0.006346497684717178, 0.0020884335972368717, 0.0014730102848261595, 0.010406806133687496, -0.0025158990174531937, -0.0032134477514773607, -0.005617293529212475, -0.006011391524225473, 0.0021788226440548897, -0.004252277780324221, 0.006461582146584988, -0.0037986005190759897, 0.009220253676176071, 0.002512293867766857, 0.001552653033286333, -0.006918565835803747, 0.0019818092696368694, 0.0002724480291362852, 0.003799143945798278, -0.003060373244807124, -0.008739959448575974, 0.0016461048508062959, 0.0008703658822923899, 0.0014832076849415898, 0.006050347816199064, -0.005611208267509937, -0.01428751740604639, 0.002913478994742036, 0.002473515458405018, -0.0028001393657177687, 0.001132781384512782, -0.0062789604999125, -0.012616533786058426, -0.010095503181219101, 0.0002699481265153736, 0.008357549086213112, -0.0022919203620404005, 0.004901037085801363, -0.003620430128648877, -0.00029335435829125345, 0.00479432987049222, 0.0007536268676631153, -0.003238202538341284, -0.005203209351748228, -0.0005779073107987642, 0.0071176872588694096, -0.009445400908589363, 0.005161743611097336, 0.0017077036900445819], [-0.005828277673572302, -0.00011049313616240397, -0.0012270662700757384, -0.0056997318752110004, -0.0032441667281091213, -0.0075553590431809425, -0.012458202429115772, 0.0009093491826206446, 0.006281482055783272, 0.009823313914239407, -0.006684727966785431, 0.012913589365780354, 0.009179290384054184, 0.008559796027839184, -0.004726298153400421, -0.0033804827835410833, -0.011658748611807823, 0.0011503156274557114, -0.0023668219801038504, 0.0009807312162593007, -0.005015024449676275, 0.004047080874443054, 0.002079024212434888, -0.006869106087833643, -0.0002740256313700229, 0.00172431580722332, 0.012099488638341427, 0.000579468032810837, -0.00565247843042016, -0.0018819881370291114, -0.00018391765479464084, -0.0008026791037991643, -0.011066192761063576, -0.0019885688088834286, -0.004169159568846226, -0.0015624152729287744, 0.012755606323480606, -0.0050054132007062435, 0.008648116141557693, 0.006979906465858221, 0.004111492540687323, 1.9094464732916094e-05, 0.003934857435524464, -0.002701754914596677, -0.0032866932451725006, -0.004499107599258423, 0.0016574846813455224, -0.001264667953364551, -0.0014444311382248998, 0.008561740629374981, -0.0042469617910683155, 0.004423575475811958, -0.0031234100461006165, -0.009585583582520485, -0.008570468984544277, -0.0029409793205559254, 0.003795727388933301, 0.003864377737045288, -0.0014216200215741992, 0.003770604729652405, 0.0004594807105604559, -0.0015450473874807358, 0.005205920431762934, 0.007142026908695698, 0.006133638322353363, -0.0018095825798809528, 0.0034165910910815, -0.012797712348401546, 0.0011863773688673973, 0.0021850471384823322, 0.000916413264349103, -0.0013227311428636312, 0.007847923785448074, -0.0005598091520369053, -0.0008385359542444348, -0.0014473152114078403, 0.006223933305591345, -0.001757061923854053, -0.005013451911509037, -0.0006443460006266832, 0.010275484062731266, -0.001803480088710785, 0.0037181491497904062, -0.0016626112628728151, -0.001664361567236483, -0.00336670083925128, -0.0072969794273376465, -0.0006580540211871266, 0.00431190337985754, 0.009494274854660034, 0.002659848891198635, -0.0049100290052592754, 0.004537541884928942, 0.0027259511407464743, 0.008440685458481312, 0.01268791127949953, 0.007289948407560587, -0.0023087169975042343, -0.0008590759243816137, 0.0069456216879189014, -0.0030026528984308243, -0.000798835651949048, 0.0038089375011622906, 0.00647787656635046, 0.0013649883912876248, -0.01738423854112625, 0.0020559034310281277, -0.0018422617577016354, -0.005869622342288494, 0.00014369621931109577, 0.006738286931067705, -0.00679824547842145, 0.009556058794260025, 0.005886813160032034, 0.005611414089798927, -0.004909091629087925, -0.001508135232143104, -0.002310198498889804, -1.3319298886926845e-05, -0.00038065010448917747, -0.001912507344968617, -0.00109524664003402, -0.0013104398967698216, 0.0016112682642415166, -0.009953801520168781, 0.00288173696026206, 0.01020576898008585, 0.006466285791248083, -0.005619975738227367, 0.006269808392971754, 0.013833976350724697, -0.0013390958774834871, 0.004321277607232332, 0.013900933787226677, 0.0062752338126301765, 0.009306424297392368, 