{"layer0": {"kernels": [[[[0.8267186880111694, 0.5647891163825989, 0.22679723799228668]], [[1.112214207649231, 1.0036736726760864, -0.06867723166942596]], [[0.8616636395454407, 0.6486031413078308, 0.03596249595284462]], [[0.40072453022003174, 0.37369585037231445, 0.2723870277404785]]], [[[0.886814534664154, 0.7466161251068115, 0.13575468957424164]], [[0.9091421961784363, 1.0354100465774536, 0.017272885888814926]], [[0.7766088247299194, 0.5857282280921936, -0.333328515291214]], [[0.5319917798042297, 0.5988147854804993, -0.048141445964574814]]], [[[1.154786467552185, 0.6105531454086304, 0.07653714716434479]], [[0.7368090748786926, 1.0359920263290405, 0.27502068877220154]], [[0.6138122081756592, 0.697281002998352, -0.0873265489935875]], [[0.1091579794883728, 0.44866394996643066, 0.1074022427201271]]], [[[1.0037047863006592, 1.069735050201416, 0.02723468840122223]], [[0.6516964435577393, 0.6053445339202881, -0.10892479121685028]], [[0.22534026205539703, 0.8439236283302307, 0.04539293050765991]], [[0.2027425467967987, 0.23349478840827942, 0.2807488739490509]]]], "biases": [[0.5089179277420044], [0.5190863609313965], [0.1154932752251625]]}, "layer1": {"kernels": [[[[-0.35140112042427063, -0.200368270277977, 0.7175386548042297], [-0.15395255386829376, -0.22018851339817047, 0.8686364889144897], [-0.005314035806804895, 0.051386572420597076, 0.046343229711055756]], [[-0.24632596969604492, -0.2793756127357483, 1.0836920738220215], [-0.3759790062904358, -0.2299407422542572, 1.060400128364563], [-0.22133034467697144, 0.003353236708790064, 0.022471074014902115]], [[-0.46022337675094604, -0.14652054011821747, 0.8630461096763611], [-0.2645925283432007, -0.05637025460600853, 0.896545946598053], [0.10938955843448639, -0.12559939920902252, 0.09394047409296036]]], [[[-0.1296343058347702, -0.29542112350463867, 0.9306572079658508], [-0.08656161278486252, -0.1263492852449417, 0.9244168400764465], [0.09831097722053528, 0.05398907512426376, -0.16723515093326569]], [[0.02533932775259018, 0.02170192264020443, 1.2181659936904907], [-0.10144133865833282, -0.22657477855682373, 1.1495665311813354], [-0.06275760382413864, 0.11780232936143875, 0.0816899836063385]], [[0.009440322406589985, -0.009572560898959637, 0.8844470977783203], [-0.04265733063220978, 0.23600606620311737, 0.7157041430473328], [0.026286723092198372, 0.2177087515592575, -0.11467724293470383]]], [[[-0.008417540229856968, 0.10075423121452332, 0.9511253237724304], [0.42581143975257874, 0.058885958045721054, 0.9731777906417847], [0.24182118475437164, 0.13368158042430878, 0.26186567544937134]], [[0.2453928291797638, 0.023165304213762283, 1.2268176078796387], [0.1844131499528885, 0.3280082046985626, 1.0145812034606934], [-0.02543058432638645, 0.05907518044114113, 0.1754484474658966]], [[0.24123439192771912, 0.1713588684797287, 0.7281026840209961], [0.4076957404613495, 0.33559897541999817, 0.5882260203361511], [-0.06483414024114609, 0.2580580711364746, 0.10586854815483093]]]], "biases": [[0.34337273240089417], [0.2973121404647827], [0.3694615960121155]]}, "layer2": {"weights": [[0.002450483152642846, -0.0046303896233439445, 0.0032430433202534914, -0.004055909812450409, 0.0001910882565425709, -0.0038245010655373335, 0.004065892659127712, 0.0034661153331398964, -0.0012553196866065264, 0.0023735985159873962, -0.006580496206879616, -0.008979248814284801, 0.002627813722938299, 0.0009885228937491775, 0.003796542529016733, 0.014328321442008018, 0.005669209640473127, -0.0055056000128388405, 0.006732274778187275, -0.007914042100310326, -0.0027720232028514147, -0.00039438038947992027, 0.010307560674846172, -0.004471735563129187, -0.0049568540416657925, -0.0005901295808143914, -0.003983146045356989, 0.006782464683055878, -0.006493261083960533, -0.006897087208926678, -0.002631308976560831, -0.002994546201080084, 0.011605396866798401, 0.005710438825190067, 0.0005266991211101413, -0.007369504310190678, 0.005076165311038494, -0.0060173035599291325, -0.009292303584516048, 0.007135474588721991, 0.0018985827919095755, 0.00552908843383193, 0.0018860278651118279, 0.005133064463734627, -0.003944487776607275, -0.006287658121436834, 0.00405270466580987, -0.004906204529106617, -0.004245691932737827, -0.0028217993676662445, -2.965927342302166e-05, -0.002181790769100189, -0.008340410888195038, -0.003972338046878576, -0.013345228508114815, 0.0037454667035490274, -0.009643156081438065, -0.006595423445105553, 0.0003214928728993982, -0.004427212756127119, 0.009326471015810966, -0.007767444010823965, 0.0016309503698721528, -0.0002124138263752684, -0.007019067648798227, 0.003159974003210664, -0.0010260393610224128, 0.00464431568980217, 0.004955395590513945, 0.013011740520596504, 0.008038591593503952, -0.0022191647440195084, -0.0014467332512140274, 0.006606742739677429, 0.003934269770979881, 0.0038089542649686337, -0.009753466583788395, -0.0001829458778956905, -0.004560919478535652, 0.0016069285338744521, -0.0007008730317465961, 0.005262468010187149, 0.0017648728098720312, 0.004518672823905945, -0.0030554013792425394, -0.0058949957601726055, -0.0027710178401321173, -0.00024013541406020522, 0.0020956487860530615, 0.013375213369727135, -0.0002698591852094978, -0.00580169353634119, -0.002140098949894309, -0.002766764024272561, 0.0029023862443864346, -0.009274625219404697, 0.00043676156201399863, 0.0009527694201096892, 0.0014199101133272052, -0.0035499469377100468, -0.001418614061549306, -0.00854617077857256, -0.002956523559987545, -0.0032597670797258615, 0.002507426543161273, -0.006950625218451023, 0.004699577111750841, 0.008989226073026657, -0.012463284656405449, 0.0025528515689074993, 0.004058972932398319, -0.003913951572030783, -0.002444470301270485, -0.0008699069730937481, -0.002011731266975403, -0.0019958792254328728, -0.010275761596858501, 0.00660328334197402, 0.006279565393924713, -0.005194673780351877, -0.009185914881527424, 0.0028369082137942314, -0.0038724024780094624, 0.0004950718721374869, -0.0022086009848862886, 0.003721914254128933, 0.0038705712649971247, -0.004537912551313639, -0.008625331334769726, -0.009690780192613602, 0.0035871053114533424, -0.007293865084648132, -0.003042485797777772, -0.0035988115705549717, -0.00032245187321677804, -0.011608322151005268, 0.0011466419091448188, 0.0031657773070037365, 0.0005413723411038518, -0.0018638498149812222, 0.000589859439060092, 0.002401873469352722, -0.016673494130373, 0.011763821355998516, 0.0023293746635317802, -0.003938024397939444, -0.0023659388534724712, 0.002889163326472044, -0.0007570206071250141, -0.012284436263144016, 0.012232886627316475, -0.0007907863473519683, 0.0059768445789813995, -0.0043639629147946835, 0.009085612371563911, 0.001546202809549868, 0.0034305998124182224, -0.006506965961307287, 0.007005045656114817, 0.003787189954891801, 0.0074945674277842045, -0.004236776847392321, -0.0032376039307564497, 0.013557208701968193, -0.006736425682902336, -0.0009872820228338242, 0.006689530797302723, 0.0004457247559912503, 0.003486383007839322, -0.002417635638266802, 0.00220739864744246, -0.00784060638397932, 0.009980727918446064, -0.0007048325496725738, -0.004084962885826826, 0.0040110149420797825, -0.002769351936876774, -0.008022944442927837, -0.008098849095404148, 0.004172674845904112, -0.0009646445978432894, -0.0008112927316688001, 0.006477136630564928, -0.006801260635256767, -0.004421706311404705, -0.002337273908779025, 0.0005257513257674873, -0.0002937975514214486, -0.0017597003607079387, -0.0003666822740342468, -0.0006538028246723115, -0.004329226911067963, -0.004922573454678059, 0.0015902708983048797, -0.005466267932206392, -0.007157163694500923, -0.0021236338652670383, -0.0012909475481137633, 0.013386303558945656, -0.004512003157287836, 0.005375167820602655, 0.00434468686580658, -0.007286486215889454, 0.004479005467146635, -0.007207916583865881, -0.01603035256266594, 0.0035735778510570526, -0.010567652061581612, 0.002707235747948289, -0.004120947327464819, 0.009979312308132648, 0.006424162536859512, -0.002730191918089986, -0.004135879687964916, -0.00730270566418767, -0.002652591560035944, -0.0016864362405613065, -0.002194189466536045, 0.0009419504785910249, 0.003477181540802121, 0.0020999310072511435, -0.004597739782184362, -0.008642863482236862, 0.008210401982069016, -0.004143102560192347, -0.003898812457919121, -0.0031081917695701122, -0.011072708293795586, -0.0029124931897968054, -0.0029247284401208162, 0.003631507745012641, 0.004055124241858721, -0.00019907350360881537, 0.005316902417689562, 0.0018149000825360417, -0.00035210588248446584, 0.0005858968361280859, -0.001420297659933567, -0.0025703986175358295, -0.0019153973553329706, -0.006941136438399553, 0.0015975207788869739, -0.006093683652579784, 0.005014632362872362, -0.001528890454210341, 0.00026124445139430463, 0.0029492590110749006, 0.003853774396702647, -0.009464269503951073, -0.0012519522570073605, 0.005285963881760836, -0.01022059004753828, 0.0023289364762604237, -0.013565334491431713, -0.0061495923437178135, 0.000232188162044622, -0.009962568990886211, -0.005926801823079586, -0.008850092999637127, 0.009920178912580013, 0.0009884918108582497, 0.0034093214198946953, -0.0013363150646910071, -0.0021396668162196875, -0.009762952104210854, -0.001822309335693717, -0.004662895109504461, 0.005020930897444487, 0.006674541626125574, 0.00857625063508749, 0.00474740844219923, -0.003911446779966354, -0.007206712383776903, 0.004241826478391886, 0.0018601571209728718, -0.011037226766347885, 0.0019400519086048007, 0.00475416611880064, 0.00018084429029840976, -0.0011946673039346933, -0.0049193003214895725, -0.008767246268689632, 0.004767979960888624, -0.0018935902044177055, -0.0014438776997849345, 0.010397209785878658, 0.004098814912140369, 0.0022081839852035046, 0.0008540711714886129, 0.009140956215560436, 0.010341550223529339, 0.005589251406490803, 0.003502093954011798, -0.012597447261214256, 0.0007432212005369365, -0.0007783261826261878, 0.0005638052243739367, 0.005676116794347763, -0.016473229974508286, -0.0034280293621122837, 0.0016677990788593888, -0.0028317333199083805, -0.008510150946676731, 0.005138094536960125, 0.0015483940951526165, -0.006013320293277502, 0.001532431342639029, 0.004643494263291359, -0.0004108787979930639, 0.004451172426342964, 0.000159316579811275, -0.0027968306094408035, -0.0071550169959664345, -0.00068091438151896, 0.0009755899664014578, 0.00519672641530633, -0.000753309577703476, 0.0026832150761038065, -0.0058457874692976475, -0.004740688018500805, -0.0007058886112645268, -0.00636548874899745, 0.004914787132292986, 0.0027644848451018333, 0.0016779940342530608, 0.002037733793258667, 0.012154274620115757, -0.0028218445368111134, -0.013240252621471882, 0.0011969883926212788, -0.00030658996547572315, -0.0031079843174666166, -0.005888664163649082, -0.002622376661747694, 0.0011147689074277878, -0.0030115898698568344, 0.014582726173102856, -0.005737593397498131, -0.0047281356528401375, -0.013782198540866375, 0.0014443525578826666, -0.01220878679305315, -0.003485248889774084, -0.0018838425166904926, -0.0045828139409422874, 0.010140792466700077, 0.005704343784600496, 0.0075460197404026985, -0.005482190754264593, 0.006635389756411314, 0.0027717112097889185, 0.0045889876782894135, 0.006146330386400223, -0.005521520972251892, -0.0025732817593961954, 0.005170376971364021, -0.015991853550076485, 0.009093251079320908, 0.003319797571748495, -0.0002819827350322157, 0.0013256203383207321, -0.006194802466779947, -0.0021051589865237474, 0.006615190766751766, 0.007804539520293474, 0.016213474795222282, -0.0004430607077665627, -0.003957637120038271, -0.003090893616899848, -0.0060986969619989395, -0.0004454927984625101, 0.0023218148853629827, -0.0001336185960099101, 0.006625760812312365, -0.0013617989607155323, -0.0020474353805184364, -0.0035257949493825436, -0.009836168959736824, -0.009570745751261711, -0.0072376602329313755, 0.007624100893735886, 0.005094309337437153, 0.00805533304810524, -0.008349289186298847, -0.01199457235634327, -0.0041015311144292355, 0.0008737333118915558, 0.0029610281344503164, 0.006267301272600889, 0.0016639799578115344, 0.010470381006598473, -0.00134762073867023, -0.00550210801884532, -0.01011307816952467, -0.005348150618374348, 0.0014541015261784196, -0.005344946403056383, 0.005633199121803045, 0.008493744768202305, -0.014251511543989182, 0.005195237696170807, -0.013469689525663853, 0.002412892412394285, 0.007368830032646656, 0.00038769576349295676, -0.007691004313528538, -0.0034961046185344458, -0.0015690471045672894, -0.001057736575603485, -0.0011715734144672751, -0.0006326512084342539, 0.0013000965118408203, -0.00726153003051877, -0.0014656772837042809, 0.008990165777504444, -0.0024098840076476336, -0.0028303475119173527, 0.006285559851676226, -0.015527019277215004, 0.006914922501891851, -0.0038781147450208664, 0.0009192129364237189, 0.0004933503223583102, 0.005649080965667963, -0.0016271595377475023, -0.004101624712347984, 0.007799385115504265, -0.01422327570617199, 0.00011591141810640693, -0.008107400499284267, -0.004580918233841658, 0.01209497731178999], [-0.00029818856273777783, 0.0011445862473919988, -0.010769783519208431, -0.004523805808275938, 0.001061433576978743, 0.001833201851695776, 0.00348982447758317, -0.00012107378279324621, 0.0025933925062417984, 0.0026323942001909018, -0.011051878333091736, -0.0002764542296063155, 0.0044627077877521515, 0.0034289543982595205, -0.0028079997282475233, -0.005719553679227829, -0.007529049646109343, -0.0029588693287223577, 0.005625077057629824, -0.012838738970458508, -0.007788213435560465, -0.006709327455610037, 0.004739666357636452, -0.0051406086422502995, -0.0013998050708323717, -0.00023202337615657598, 0.004501074552536011, -0.0010921121574938297, -0.017327584326267242, 0.005752372555434704, 0.0034838055726140738, -0.0006759470561519265, -0.0046812924556434155, 0.0025190154556185007, 0.002581589389592409, -0.001958484761416912, -0.0015754933701828122, -0.0058488063514232635, -0.0016269383486360312, -0.010327599011361599, 0.0016508495900779963, -0.0078734727576375, -0.000292585784336552, -0.009781138971447945, -0.007281697355210781, -0.0023116529919207096, -0.011048194020986557, -0.002198509406298399, -0.003428475232794881, -0.011172834783792496, -0.0086605753749609, 0.00323612242937088, 0.004876943305134773, -0.0015023639425635338, 0.004467532504349947, 0.0025346539914608, 0.0016100633656606078, 0.012442067265510559, -0.005585369188338518, 0.008005947805941105, 0.0015119765885174274, 0.0015585393412038684, 0.003959633409976959, -0.0007779154111631215, -0.006275228224694729, 0.003729306859895587, 0.011295638047158718, 0.0006542159244418144, 0.0017946107545867562, -0.002923025982454419, 0.00028038377058692276, 0.004586278460919857, -0.0032340576872229576, -0.0036636372096836567, 0.0003138917381875217, -0.008546538650989532, -0.001031546271406114, -0.0013632792979478836, 0.003455202095210552, -0.004124215804040432, -7.018093310762197e-05, 0.0020352620631456375, -0.008864783681929111, -0.011529260315001011, -0.002565002301707864, 0.005712122190743685, 0.0025180696975439787, 0.000611962634138763, 0.012416688725352287, 0.010992730967700481, -0.006073903292417526, 0.008434389717876911, 0.017640285193920135, 0.009546277113258839, 0.009580814279615879, 0.015706151723861694, -0.0036499586421996355, 0.001114484271965921, 0.002575257094576955, -0.004669045098125935, -0.006963795516639948, 0.0016784177860245109, 0.0023854942992329597, -0.0012178895995020866, -0.004557728301733732, 0.0024677268229424953, 0.008687940426170826, -0.009214705787599087, 0.0004923988017253578, -0.004914247430860996, -0.015214893966913223, -0.015724215656518936, -0.008836706168949604, -0.006832957733422518, -0.002339616185054183, -0.009188261814415455, -0.0005677323788404465, 0.0067450543865561485, 0.001087430166080594, -0.0040903217159211636, 0.010976801626384258, 0.00760580413043499, 0.010028396733105183, 0.0008976919343695045, -0.01313766185194254, 0.016079140827059746, -0.010378750041127205, 4.071385774295777e-05, 0.01144785713404417, 0.0001413739228155464, 0.004483766853809357, -0.012001292780041695, -0.011677153408527374, -0.004269961733371019, 0.0022674547508358955, -0.0031121796928346157, -0.005849740467965603, -0.0061133792623877525, 0.007488807663321495, -0.00787142850458622, -0.010351325385272503, -0.0022900046315044165, 0.008725345134735107, 0.004686719737946987, 0.011362324468791485, 0.004252609796822071, -0.0038519809022545815, 0.00614840118214488, 0.00013194140046834946, -0.007173231802880764, 0.005292878020554781, -0.0031724758446216583, 0.0015833124052733183, 0.014522980898618698, 0.0041549308225512505, 0.000995511538349092, 0.0080628776922822, 0.01415245234966278, 0.0019861378241330385, 0.00017930399917531759, -0.0016341458540409803, -0.0053429617546498775, -0.011876857839524746, -0.01782754436135292, -0.02833320014178753, -0.013090686872601509, 0.0005196081474423409, -0.012648370116949081, 0.001285544945858419, -0.005671008490025997, -0.013190090656280518, -0.004467671737074852, -0.008093425072729588, 0.008471507579088211, -0.013874330557882786, 0.0028137334156781435, -0.011537139303982258, 6.65796542307362e-05, -0.005335106048732996, -0.0064851222559809685, -0.007245228625833988, 0.01021033525466919, -0.002192945685237646, -0.002916096244007349, 0.005049996543675661, 0.003763522021472454, 0.010841818526387215, -0.005632977932691574, 0.01149667613208294, 0.017943764105439186, 0.00015141403127927333, 0.011706173419952393, 0.026862937957048416, 0.012766589410603046, 0.017331620678305626, 0.010045378468930721, -8.552087092539296e-05, 0.0053466917015612125, -0.012333584018051624, -0.005831670016050339, -0.006117276847362518, 0.006620153784751892, 0.000962601974606514, 0.003982816357165575, -0.0028547137044370174, 0.0018098701257258654, 0.003683004528284073, 0.011930846609175205, -0.0013081991346552968, -0.002926499117165804, 0.00015236326726153493, -0.005963671021163464, -0.001356336404569447, -0.0023213871754705906, -0.010976601392030716, -0.0026891641318798065, -0.001967445481568575, -0.009798092767596245, -0.0005852439207956195, 0.010749660432338715, 0.004890477750450373, 0.007340272888541222, -0.0017756270244717598, 0.007992150261998177, 0.007916299626231194, 0.015971237793564796, 0.01237413939088583, 0.0011293295538052917, 0.014453908428549767, 0.006413130089640617, 0.015978924930095673, -0.0012541695032268763, 0.010191261768341064, 0.0005267158267088234, -0.0060786111280322075, -0.0008474312489852309, -0.013517436571419239, 0.0035858924966305494, -0.0004401240439619869, 0.011518855579197407, 0.008918036706745625, 0.0026694254484027624, 0.0007810278329998255, 0.006104054395109415, 0.0022724061273038387, 0.0014531894121319056, -7.629996252944693e-05, -0.010427032597362995, -0.003729916177690029, -0.0034913411363959312, 0.003539836499840021, 0.002984885359182954, -0.00428479490801692, 0.002510239602997899, 0.009503306820988655, -0.0031506214290857315, 0.010907700285315514, -0.0045946743339300156, 0.004375721327960491, 0.003306299913674593, 0.0035532107576727867, 0.0027081065345555544, 0.0022909236140549183, 0.002039821818470955, 0.008645162917673588, 0.0063478462398052216, 0.022478636354207993, 0.006963313091546297, -0.005350807216018438, -0.0015779519453644753, 0.004273628816008568, -0.0015290662413462996, -0.010729799047112465, 0.004573750775307417, 0.008446956053376198, -0.002149809617549181, 0.0005983311566524208, 0.004330381751060486, 0.0026123563293367624, 0.0017280111787840724, -0.002482715994119644, 0.0023154255468398333, 0.01274846214801073, 0.00215669977478683, -0.004924783483147621, 0.004153293091803789, -0.003645740682259202, -0.007075696252286434, -0.00026348064420744777, -0.015977777540683746, -0.008152641355991364, -0.0018176304874941707, -0.007860297337174416, -0.006528238300234079, -0.00010323792230337858, -0.007842082530260086, -0.0004153106710873544, 0.0006189699051901698, 0.0030790017917752266, 0.0093226982280612, 0.004658953286707401, 0.0023751184344291687, 0.0052624838426709175, 0.00322863832116127, -0.005503213964402676, -0.0008950653718784451, 0.00445770425722003, -0.006431381683796644, 0.00397099694237113, 0.011486553587019444, -0.0003000514698214829, 0.004119398538023233, -0.001440703053958714, 0.006753826979547739, -0.004141136538237333, 0.000745349854696542, -0.0036362658720463514, 0.0003377573739271611, -0.010060036554932594, 0.008544055745005608, -0.006098943296819925, 0.0003221209335606545, -0.0013500419445335865, -0.0048592775128781796, -0.005843354854732752, 0.005178193561732769, -0.003934635780751705, 0.0005412132013589144, -0.005746008828282356, -0.006031175144016743, 0.002269805409014225, 0.005094065330922604, -0.004410474095493555, -0.0070722936652600765, 0.013235729187726974, -0.00693178828805685, -0.0046984353102743626, 0.019110478460788727, 0.0001603453274583444, -0.0034433098044246435, -6.764318095520139e-05, 0.004234468098729849, 0.0039740935899317265, -0.0029640565626323223, 0.011114307679235935, -0.00121828552801162, -0.005888723768293858, 0.0051499358378350735, 0.01089512463659048, -0.002691213507205248, -0.009576549753546715, 0.008969062939286232, -0.009850560687482357, -0.004540374036878347, 0.00732629606500268, 0.0010110761504620314, 0.0028269225731492043, 0.0024923854507505894, -0.0006023981841281056, -0.005943048279732466, 0.007271713577210903, 0.007573314476758242, 0.0006446574116125703, -0.0013595368945971131, 0.012566172517836094, -0.0050720470026135445, -0.004024163819849491, 0.0001446645037503913, 0.002705248538404703, 0.008729434572160244, -0.0019212148617953062, -0.0012783969286829233, -0.0063257706351578236, 0.00033629790414124727, -0.004426610190421343, -0.004844076931476593, 0.011602434329688549, -0.005367115139961243, -0.005735401529818773, 0.00033983870525844395, 0.003673316678032279, 0.0009977442678064108, 0.014899462461471558, -0.005397892091423273, 0.0033927287440747023, 0.0031820975709706545, 0.008132170885801315, 0.0060432846657931805, 0.001993827521800995, 0.0007350195082835853, 0.0032310648821294308, 0.010030250065028667, 0.0043058511801064014, 0.0036505742464214563, 0.0019020315958186984, 0.007526591420173645, -0.004964272491633892, 0.013974159024655819, -0.00795689132064581, -0.0027809692546725273, 0.005037221126258373, 0.0005287979147396982, 0.003954350017011166, -0.003914178814738989, -0.0022249019239097834, -0.0001548075961181894, 0.009426946751773357, 0.004577459301799536, 0.005859974771738052, -0.0027001143898814917, 0.008584790863096714, 0.0012836743844673038, 0.008513330481946468, 0.013978703878819942, -0.003990964498370886, -0.004265730269253254, -0.00578740518540144, -0.001535263261757791, -0.0029414056334644556, 0.002144358353689313, 0.0011468165321275592, -0.0003897271235473454, 0.010048930533230305, -0.0032940597739070654, 0.00475574005395174, 0.0042700027115643024, 0.005531093571335077, 0.009428581222891808, 0.003035936038941145, 0.0029312223196029663, 0.0013361292658373713, -0.0034019991289824247], [0.0014284576755017042, 0.0017186582554131746, 0.0024427645839750767, -0.001312130130827427, 0.0004598184605129063, -0.0071432990953326225, -0.002551402198150754, 0.003003880614414811, 0.004651066847145557, -0.0034714248031377792, -0.00017202315211761743, -0.00030630649416707456, -2.9404365704976954e-05, 0.0021783288102597, -0.013755864463746548, -0.0007957718917168677, 0.0009451074292883277, -0.008526228368282318, 0.010674222372472286, 0.0012950304662808776, 0.00831499695777893, -0.0040400088764727116, -0.005098958965390921, 0.0002274417638545856, -0.009845124557614326, 0.0013303292216733098, -0.0012548326049000025, 0.0062627666629850864, 0.00428371224552393, -0.003712426871061325, -0.006417786702513695, 0.010433805175125599, -0.004918977152556181, -0.006253215484321117, -0.006499128416180611, 0.006769015919417143, -0.003139565698802471, -0.004553393926471472, 0.0007661830168217421, -0.001308320090174675, -0.004119354300200939, 0.0044027939438819885, 0.006167362444102764, 0.005752322264015675, 0.004454100038856268, 0.0020124216098338366, -0.010940932668745518, 0.00977697316557169, 0.0023718790616840124, 0.0043791113421320915, 0.008688753470778465, 0.00991465151309967, 0.0039680115878582, 0.00872968789190054, -0.004470509942620993, -0.00016464806685689837, -0.002127004088833928, -0.006391455885022879, -0.006859984714537859, -0.00553866708651185, 0.006543698254972696, 0.019257226958870888, -0.0037567622493952513, -0.005694303195923567, 0.009650043211877346, -0.001153351622633636, -0.0018708573188632727, 0.0030044191516935825, -0.003558047581464052, 0.0015668702544644475, -0.0003515547141432762, 0.0019683223217725754, 0.002476703841239214, 0.0005685935029760003, 0.000370166206266731, 0.002193633234128356, 0.002967824460938573, -0.005097754765301943, -0.007739473599940538, 0.0004253476217854768, -0.006129570305347443, 0.0025502024218440056, 0.00759142218157649, 0.009235875681042671, -0.0028091922868043184, -0.0014656463172286749, 0.015586205758154392, -0.003018999472260475, -0.0016133941244333982, 0.01679678075015545, -0.013983434066176414, -0.008696800097823143, -0.010995899327099323, -0.012712196446955204, -0.010290630161762238, -0.01193191483616829, 0.0009088076185435057, -0.004943387117236853, -0.008285108022391796, -0.006354868412017822, -0.001454146928153932, 0.015718713402748108, 0.001660452107898891, 0.006350256036967039, 0.006891884375363588, 0.0011051347246393561, 0.0032006455585360527, -0.005316588096320629, 0.00029220536816865206, 0.009887385182082653, -0.004181911237537861, -0.002660239115357399, -0.0013079153141006827, 0.0025021396577358246, 0.004323568660765886, 0.00830367673188448, 0.004293130245059729, 0.0030326801352202892, 0.01028472650796175, 0.010657411068677902, -0.0035327584482729435, 0.02012483775615692, 0.027716049924492836, -0.00021992828988004476, 0.0026425246614962816, 0.020737862214446068, -0.005700703244656324, 0.00012957317812833935, 0.0006936792633496225, -0.006424319464713335, -0.0035640192218124866, 0.002682324033230543, 0.006521021481603384, 0.00855086836963892, 0.004992345348000526, 0.0004158889641985297, -0.010429564863443375, -0.004846250172704458, 0.0007239834521897137, 0.005223975982517004, 0.006195981055498123, -0.0028073175344616175, -0.003384930081665516, -0.0005807850393466651, 0.0007152517791837454, 0.008612118661403656, 0.0007275063544511795, -0.009640716016292572, -0.008480938151478767, 0.006218064110726118, -0.008691549301147461, 0.002727620769292116, -0.007122459821403027, -0.0004937577759847045, -0.0005183253088034689, 0.005260291043668985, 0.0023095905780792236, 0.0034056149888783693, -0.0028538748156279325, 0.001281366334296763, 0.0040785884484648705, 0.005416281521320343, 0.005378303583711386, -0.000941217178478837, -0.003090224927291274, 0.011937512084841728, -0.0061970059759914875, 0.003532447386533022, 0.011410373263061047, 0.008072802796959877, 0.010965748690068722, 0.006019269581884146, 0.0024205083027482033, 0.005738559644669294, 0.003987565170973539, 0.00254436326213181, 0.00036101427394896746, 0.001069582998752594, -0.007216555532068014, 0.003527349326759577, -0.001159565756097436, 0.010532675310969353, -0.001860742806456983, 0.00047499910579063, -0.0006158775649964809, -0.009459340944886208, 0.0030314577743411064, 0.00821766909211874, -0.008860643021762371, -0.0031141433864831924, -0.003321985714137554, -0.019801171496510506, -0.0033731081057339907, 0.0009194370941258967, 0.000507726042997092, -0.004095199517905712, -0.009364183992147446, -0.015241368673741817, -0.005451238248497248, -0.010182819329202175, -0.024498075246810913, 0.002679314697161317, 0.0026515971403568983, -0.008415903896093369, -0.006137432064861059, -0.014178315177559853, -0.0036494049709290266, -0.00498698465526104, -0.011661441065371037, 0.00035111577017232776, 0.007376480847597122, -0.00410161167383194, -0.006112414877861738, 0.007214649580419064, -0.003706245217472315, 0.011290973983705044, 0.003151961835101247, 0.0026105018332600594, 0.0006468823994509876, 0.0001713003875920549, 0.004019982647150755, -0.0074670398607850075, 0.0009459243156015873, 0.004029745701700449, -0.0027708145789802074, -0.005388474557548761, -0.0016270627966150641, -0.004217247478663921, -0.0038171985652297735, 0.01013931818306446, -0.006357703823596239, -0.00756790628656745, -0.0010352871613577008, -0.007406825665384531, -0.006463313475251198, -0.009629552252590656, -0.009094839915633202, 0.004568742122501135, 0.0015999175375327468, -0.0063836341723799706, 0.010309270583093166, -0.008731295354664326, -0.012599288485944271, 0.007055219728499651, 0.002553437603637576, -0.008955027908086777, -0.0034980804193764925, 0.01651673950254917, 0.002372873481363058, 0.005403614602982998, 0.0037208138965070248, 0.0068651046603918076, 0.0024797781370580196, 0.0036329973954707384, -0.00452182162553072, -0.0023275441490113735, -0.011236282996833324, -0.010092584416270256, 0.0037336649838835, 0.007727072574198246, -0.0019795841071754694, 0.00299224816262722, -0.003206164576113224, -0.015704967081546783, 0.01284791436046362, 0.0015597513411194086, 0.007407252676784992, 0.006026677321642637, -0.004737847484648228, 0.008466794155538082, 0.015530727803707123, 0.004881744273006916, 0.005681990180164576, -0.007740232162177563, 0.014781342819333076, -0.008879371918737888, 0.012197574600577354, -0.011790535412728786, 0.0064245727844536304, 0.008948379196226597, -0.00533773610368371, -0.0037427579518407583, 0.004055579658597708, -0.004339820239692926, -0.010857250541448593, -0.006451081484556198, 0.004428087268024683, 0.0014979169936850667, -0.004472352098673582, 0.0047575379721820354, 5.67155220778659e-05, -0.006229367107152939, -0.008827542886137962, -0.004583653528243303, -0.003675591666251421, 0.00022582840756513178, 0.000262093439232558, 0.005765906535089016, -0.0023509312886744738, 0.0008591297664679587, 0.00019251382036600262, 0.015300309285521507, 0.011357219889760017, 0.006022502668201923, 0.005546215455979109, 0.015094934031367302, -0.0114255016669631, -0.009106341749429703, -0.007365141063928604, 5.499248072737828e-05, -0.0024524906184524298, -0.018215984106063843, -0.011559929698705673, -0.005118681117892265, -0.01224609650671482, -0.0010730131762102246, -0.005578735377639532, -0.006800641771405935, -0.0046297041699290276, -0.0026874493341892958, -0.0072882575914263725, -0.003955613821744919, 0.004302492830902338, -0.004727849271148443, -0.004023851826786995, -0.0012890486977994442, -0.010025333613157272, -0.0033149656374007463, -0.00537466024979949, -0.006907025817781687, -0.0009435967658646405, -0.004979084711521864, -0.005611252970993519, 0.009558742865920067, 0.0019348133355379105, 0.008411366492509842, 0.006309468764811754, 0.008980908431112766, 0.00830368883907795, 0.004149473737925291, 0.0038330412935465574, 0.007836106233298779, -0.0035433340817689896, -0.007909505628049374, 0.005742163397371769, -0.006005845498293638, 0.008086523972451687, -0.009009523317217827, -0.008446517400443554, 0.0009568138630129397, -0.009252557530999184, -0.00030921315192244947, -0.005466302391141653, -0.004299588035792112, -0.006892823148518801, 0.0038594778161495924, -0.0010468090185895562, -0.005288940388709307, 0.016039475798606873, 0.0027808987069875, 0.013304494321346283, 0.009183996357023716, -0.0021520887967199087, -0.0030723372474312782, -0.002794022671878338, -0.011661854572594166, -0.004261596128344536, 0.001876527676358819, 0.011419057846069336, -0.004049570299685001, 0.006712941452860832, -0.0027101135347038507, -0.0017204779433086514, -4.6948593080742285e-05, 0.01188142690807581, 0.0061478884890675545, 0.009748425334692001, 0.017502257600426674, 0.006449395325034857, 0.007298952899873257, 0.020948708057403564, 9.22715844353661e-05, 0.007711272686719894, -0.002786928554996848, 0.0007234929944388568, -0.004305175039917231, 0.0007587741129100323, 0.003273847745731473, -0.0016319050919264555, 0.0015097770374268293, 0.00754228001460433, 0.0011266227811574936, 0.00417944835498929, -0.0021739082876592875, -0.00025375274708494544, -0.003866910934448242, 0.006071833893656731, 0.0022754587698727846, -0.003550100140273571, 0.0003733172488864511, 0.005754897370934486, -0.001208572881296277, -0.006674981210380793, -6.588192627532408e-05, -0.013216426596045494, 0.002823391929268837, -0.004084587097167969, -0.006116894539445639, 0.002787322038784623, -0.010182696394622326, 0.007159043103456497, -0.003603049786761403, -0.003376732114702463, 0.006164394784718752, 0.006740624085068703, 0.017312008887529373, 0.005618574563413858, 0.0010426570661365986, -0.007206935901194811, 0.004127709660679102, -0.006064421962946653, -0.004180154297500849, -0.011120096780359745, 0.0074316710233688354, -0.010775404050946236, -0.020564690232276917, -0.008421646431088448, -0.004784616641700268, -0.0093879085034132, 0.006315999664366245, -0.0010949777206405997, -0.0005256201256997883], [0.0036363007966428995, 0.0016871420666575432, 0.005826943553984165, -0.006823545787483454, -0.0034254693891853094, 0.003724643960595131, -0.015504911541938782, -0.008484910242259502, 0.002451746491715312, -0.003215610282495618, 0.0053682043217122555, 0.004001228138804436, -0.007871855050325394, 0.0019231409532949328, 0.0053853136487305164, -2.8033829948981293e-05, -0.006573070771992207, 0.0026115982327610254, 0.0037509393878281116, 0.003260586876422167, 0.0028511122800409794, -0.016088012605905533, 0.006981170270591974, 0.012778623960912228, 0.006199415773153305, 0.004232733976095915, 0.009918119758367538, 0.0054167392663657665, 0.006792989559471607, 0.006483405362814665, -0.002490408020094037, -0.00432560546323657, -0.001567765255458653, -0.007447061128914356, -0.005802900064736605, 0.01240280456840992, 0.004313602577894926, -0.0039702653884887695, -0.002808160614222288, -4.2616997234290466e-05, -0.004559283144772053, -0.0011687070364132524, 0.00370050803758204, -0.0009329091408289969, 8.668624650454149e-05, 0.0039542620070278645, -0.0025351382791996002, -0.00016179928206838667, -0.005322385113686323, -0.0025154894683510065, -0.006868445780128241, -0.009722704999148846, -0.003488651942461729, -0.005018583498895168, -0.0066663529723882675, -0.002048394177109003, -0.011645936407148838, -0.011607836000621319, 0.0002597933344077319, 0.002427547238767147, 0.000712158449459821, 0.00971054844558239, 0.00985053088515997, 0.019524501636624336, 0.0024598839227110147, 0.0020525839645415545, -0.00032225041650235653, 0.0002639951999299228, 0.011903046630322933, -0.010586785152554512, 0.009860462509095669, 0.004046350717544556, -0.001938831526786089, -0.0069478279910981655, -0.0018240960780531168, -0.0011013655457645655, -0.0017598298145458102, -0.0008821160881780088, -0.004304955247789621, -0.005804407875984907, 0.002339548198506236, 0.00014389831630978733, 0.0011468216544017196, 0.007835215888917446, -0.009697469882667065, -0.0077017140574753284, 0.0033927378244698048, -0.0192770604044199, -0.016076233237981796, -0.008804500102996826, -0.015027475543320179, -0.012032690457999706, -0.020826900377869606, -0.014736243523657322, -0.011251934804022312, -0.009772625751793385, -0.01038018986582756, -0.006016803905367851, 0.0005080386181361973, -0.000654670235235244, 0.01397046260535717, -0.0017341990023851395, 0.011991601437330246, -0.006276296451687813, 0.008901680819690228, -0.006319237407296896, 0.007827789522707462, 9.074113768292591e-05, 0.0013912253780290484, -0.0020949519239366055, -0.008370742201805115, -0.009840884245932102, -0.00330920796841383, 0.00796201080083847, 0.0014487740118056536, 0.00816364586353302, 0.0028290925547480583, 0.012704788707196712, -0.00504975626245141, 0.007056968752294779, 0.012510265223681927, 0.0038800842594355345, 0.005040882620960474, -0.003665242111310363, 0.004501671064645052, -0.00661766342818737, -0.010343773290514946, -0.005506242159754038, -0.020714180544018745, -0.01133185625076294, -0.0009417379042133689, -0.02385210059583187, -0.008328750729560852, -0.011948389932513237, -0.017354795709252357, 0.004227702505886555, -0.007704421877861023, -0.016996486112475395, 0.006203231401741505, -0.00013607087021227926, 0.0020936308428645134, 0.0013991836458444595, 0.002035395009443164, 0.00904097780585289, -0.004767535720020533, -0.005932973697781563, -0.00017912696057464927, -0.007133346050977707, -0.00608159089460969, 0.012391580268740654, 0.013384627178311348, 0.007733985781669617, 0.019162027165293694, 0.008361590094864368, 0.010581724345684052, 0.02572491392493248, 0.019648989662528038, 0.014772134833037853, 0.005129815544933081, 0.00019439651805441827, 0.007579861208796501, 0.0023949274327605963, 0.013681450858712196, 0.0048953159712255, -0.007386545650660992, -0.008136688731610775, -0.001579406438395381, -0.004140302538871765, 0.0025590297300368547, 0.0005923154531046748, -0.004589517135173082, -0.01101621799170971, 0.003699872875586152, -0.018169885501265526, -0.00507254246622324, 0.001443775836378336, -0.0022815309930592775, -0.00605199858546257, -0.00482514500617981, -0.009559176862239838, 0.0038369407411664724, 0.008163155056536198, -0.00016704712470527738, 0.0015557456063106656, -0.004993293434381485, 0.011361667886376381, 0.02334154024720192, -0.0013050124980509281, 0.01231016032397747, 0.00892967265099287, 0.008159258402884007, 0.025714071467518806, 0.019373584538698196, 0.01422356441617012, 0.019192438572645187, -0.0017283956985920668, -0.004340413957834244, -0.004768777638673782, 0.01334786880761385, 0.003574577858671546, -0.004127626772969961, 0.009304874576628208, 0.012696752324700356, 0.0039222766645252705, 0.01259822491556406, 0.0028547996189445257, -0.0007544287946075201, 0.0019634878262877464, 0.0004449708212632686, -0.001624352764338255, -0.0012152433628216386, -0.0047025298699736595, 0.007778757717460394, -0.0030470381025224924, -0.005557321943342686, 0.0005507945897988975, 0.008098462596535683, -0.00014906711294315755, -0.0036195877473801374, 0.0046676392666995525, 0.014237928204238415, -0.003983537666499615, 0.008152060210704803, 0.007382595911622047, 0.021239565685391426, 0.012369007803499699, 0.004279974848031998, 0.0018470220966264606, 0.009499365463852882, -0.0023988611064851284, -0.006708141881972551, 0.01311796810477972, -0.0014916069339960814, 0.0037700755055993795, 0.016646243631839752, 0.01343445759266615, 0.012233867309987545, 0.00576116144657135, 0.001211129012517631, 0.018989432603120804, 0.008736016228795052, 0.004538252949714661, -8.884436829248443e-05, 0.0015589289832860231, 0.0010548003483563662, 0.0006511882529594004, 0.007563774939626455, -0.008803080767393112, 0.0081895487383008, 0.0024934581015259027, 0.006286437623202801, -0.007488627918064594, -0.0005442968686111271, 0.011993316002190113, 0.0016894483705982566, -0.0012593939900398254, 0.0022468094248324633, -0.001662521157413721, 0.01231327373534441, 0.006467354949563742, 0.003587236162275076, 0.002624602522701025, -0.0014895189087837934, 0.00883406400680542, -0.002038744045421481, -0.005663369782269001, 0.00395651999861002, 0.027576813474297523, 0.014188356697559357, 0.008897914551198483, 0.020901041105389595, 0.009472093544900417, 0.021754499524831772, 0.007983599789440632, 0.009615868330001831, -0.0003871606313623488, -0.003919756505638361, 0.004817646462470293, -0.005032058339565992, -0.006776424124836922, 0.012164591811597347, 0.0003283545665908605, -0.003571472130715847, -0.010028875432908535, 0.0015002838335931301, 0.003704369068145752, -0.0022463530767709017, -0.010549772530794144, -0.0024172246921807528, -0.00716244475916028, -0.009945963509380817, -0.00646416749805212, -0.010936745442450047, -0.007452334277331829, -0.0035314972046762705, -0.009846332482993603, -0.014726116321980953, 0.005340210162103176, -0.008269119076430798, -0.010497970506548882, 0.005797820631414652, 0.00750531442463398, -0.005412637256085873, 0.015221979469060898, 0.008014900609850883, 0.0066802408546209335, 0.018637128174304962, 0.022963780909776688, 0.024006076157093048, 0.0021548443473875523, 0.011998176574707031, 0.0024958637077361345, -0.005133036524057388, 0.0014293007552623749, -0.002360593993216753, -0.00746643403545022, -0.006316543091088533, 0.0015021207509562373, -0.012209195643663406, 0.0027349242009222507, -0.015077909454703331, -0.013467094860970974, -0.011715899221599102, 0.008801724761724472, -0.0034092413261532784, -0.0016095138853415847, 0.004529586527496576, -0.0010854634456336498, -0.014021189883351326, -0.005469196476042271, -0.008733563125133514, -0.009367329068481922, -0.01225648820400238, -0.0007335117552429438, -0.010846814140677452, -0.008271317929029465, -0.00253292010165751, -0.011502452194690704, -0.010397602804005146, 0.004545712377876043, 0.011638195253908634, 0.010813931934535503, 0.007717061787843704, -0.0007437069434672594, 0.01832601986825466, 0.00392027385532856, -0.0031212882604449987, 0.005722460336983204, 0.006875884253531694, 0.0018649185076355934, 0.011431315913796425, 0.006719151046127081, 0.0026682978495955467, -0.004270609468221664, 0.00024308625143021345, -0.00021317516802810133, 0.009656636044383049, -0.010179124772548676, -0.001167844282463193, -0.004504515789449215, 0.0007883370271883905, -0.015922414138913155, 0.004557470325380564, -0.004215749446302652, -0.015045292675495148, -0.009190715849399567, -0.003996106795966625, -0.015698734670877457, -0.010320739820599556, -0.015391361899673939, -0.009565075859427452, -0.009732736274600029, -0.00700359744951129, -0.007735319901257753, -0.007053352426737547, 0.00025674307835288346, -0.003930534701794386, 0.005368799436837435, 0.00896682683378458, -0.001333556487224996, 0.0023388403933495283, -0.006624600850045681, 0.002733721164986491, 0.009644398465752602, 0.007473180536180735, -0.006454964634031057, 0.007574703544378281, 0.006662285421043634, -0.0036202322226017714, -0.0009415234671905637, -0.00880891177803278, 0.01566518098115921, -0.0043049282394349575, -0.007992303930222988, -0.004990655928850174, -0.005122059024870396, -0.0019628903828561306, 0.004571668803691864, -0.002477973001077771, -0.0067801945842802525, -0.010110260918736458, -0.002386112231761217, -0.0020116425585001707, 0.006702706217765808, -0.004124245140701532, -0.0034871913958340883, -0.00950605422258377, -0.00794416293501854, -0.005926161073148251, -0.00577447609975934, -0.013618803583085537, 0.0010709686903283, -0.003212731797248125, -0.007140656933188438, -0.009505207650363445, 0.003483706619590521, 0.00407718401402235, -0.002859353320673108, 0.007837491109967232, -0.003950584214180708, 0.0011203213362023234, -0.0005262739141471684, -0.005379919428378344, 0.0013908367836847901, 0.01046024914830923, 0.0011337915202602744, -0.0028746663592755795, 0.002596978098154068, 0.00020954203500878066, 9.97742754407227e-05, -0.002623769221827388, 0.008240234106779099], [0.0027432269416749477, -0.0031807206105440855, -0.0006543392082676291, -0.004466026555746794, -0.0036683117505162954, -0.0038830088451504707, -0.006880124099552631, 0.004618633072823286, -0.001900714123621583, 0.0031984231900423765, -0.004152603447437286, -0.000745377445127815, -0.0044018873013556, 0.004214856307953596, -0.0019251941703259945, -0.0043816412799060345, -0.009863044135272503, 0.0016668388852849603, -0.0040502361953258514, 8.036680810619146e-05, -0.00208428967744112, 0.006056179292500019, 0.003523205639794469, 0.0041421083733439445, -0.0034106362145394087, 0.0030344664119184017, 0.011594362556934357, -0.004822626709938049, 0.001166634843684733, -0.009143328294157982, 0.008435546420514584, -0.0023854246828705072, 0.004935616161674261, -0.010394527576863766, 0.010785873048007488, -0.0021800256799906492, 0.003267951076850295, 0.0008946160087361932, -0.0015719912480562925, 0.01009740587323904, -0.009949292987585068, 0.0016645538853481412, 0.005351400468498468, -0.00031230400782078505, -0.0011575710959732533, -0.001095329411327839, -0.00765604991465807, -0.0007645764853805304, 0.0028254089411348104, 0.00010339564323658124, -0.002912248717620969, -0.0030974997207522392, -0.001864459365606308, 0.006914498284459114, -0.012521844357252121, 0.00027350476011633873, -0.0008873003534972668, 0.009024066850543022, 0.000585253699682653, 0.011569986119866371, -0.012380944564938545, 0.0031185487750917673, 0.00478764483705163, 0.008629556745290756, -0.009674626402556896, 0.0015329645248129964, 0.00041541538666933775, -0.0030166292563080788, 0.008317660540342331, -0.002106816042214632, 0.012168037705123425, 0.006332470569759607, 0.005659284070134163, 0.0033120405860245228, -0.0065170940943062305, -0.002770791295915842, 0.00328426668420434, 0.003620504168793559, 0.007521974854171276, -0.003152477089315653, -0.006373053882271051, 0.004824022296816111, -0.005266967229545116, 0.0032209737692028284, 0.006996798794716597, 0.0025078575126826763, -0.004387856461107731, 1.7872045646072365e-05, 0.003419519867748022, -0.001408256939612329, 0.01303758006542921, -0.0060239857994019985, -0.005904580932110548, -0.0057899621315300465, -0.0033469670452177525, -0.011122703552246094, -0.0035749308299273252, -0.0036879524122923613, 0.0034764092415571213, 0.002591259777545929, -0.007436918560415506, 0.008004384115338326, 0.010732391849160194, -0.0013752194354310632, 0.01072748377919197, 0.0010807098587974906, 0.011858172714710236, 0.006766715086996555, -0.0095487916842103, -8.22321635496337e-06, 0.006068945862352848, -0.00030132962274365127, -0.0006304982234723866, 0.006510050967335701, -0.005076627247035503, -0.0005301573546603322, -0.000419268588302657, -0.0027213413268327713, -0.0005338774644769728, 0.002036147518083453, 0.0019476604647934437, -0.005088356323540211, -0.008077993988990784, -0.005679559428244829, -0.0005032083718106151, -0.0013751523802056909, -0.006056633312255144, -0.004219540394842625, -0.009761701337993145, 0.0016864108620211482, -0.0006335721118375659, -0.007734276819974184, -0.0002384965482633561, 0.007840649224817753, -0.004201420117169619, 0.007727899122983217, -0.002149796113371849, 0.0010435419389978051, 0.000326804380165413, 0.008238241076469421, 0.0006233986932784319, -0.006995511241257191, -0.007970567792654037, -0.009662671014666557, -0.010501707904040813, 7.662628922844306e-05, -0.006242591887712479, -0.0011602077865973115, -0.004842106252908707, -0.0064763035625219345, -0.0037863128818571568, 0.0035508524160832167, 0.0027643642388284206, 0.001648529781959951, -0.006210607476532459, 0.0024308732245117426, 0.003726022783666849, 0.0014438480138778687, -0.0028136917389929295, 0.0035672145895659924, 0.0018971632234752178, -0.01814231649041176, 0.002758899936452508, -0.012557629495859146, 0.0017767077079042792, -0.002010093769058585, 0.006308823358267546, -0.0037530737463384867, -0.005813098978251219, -0.0012191219720989466, 0.004389144014567137, -0.00016100573702715337, -0.0009023433085530996, 0.0028784412425011396, 0.0008029420278035104, -0.00037164962850511074, 0.006674927193671465, 0.009160162881016731, 0.0035417142789810896, -0.002604134613648057, 0.00883258692920208, 0.006928177084773779, 0.0037833447568118572, -0.007804522290825844, 0.0003778360260184854, -0.006192986853420734, -0.0013876035809516907, 0.0011988451005890965, -0.0007768698851577938, -0.002808920107781887, 0.007906036451458931, -0.00878877192735672, 0.004519169684499502, -0.01102359313517809, 0.004945595283061266, -0.0054507446475327015, 0.004929748363792896, 0.0008225227356888354, 0.0011032788315787911, -0.006801302079111338, -0.007171367295086384, 0.0007886335370130837, 0.0031229581218212843, 0.014329234138131142, 0.0009679532377049327, 0.0057906112633645535, -0.009631914086639881, -0.008455006405711174, -0.0024294068571180105, -0.006696808617562056, 0.008356466889381409, -0.002930879592895508, 0.0075848097912967205, 0.008671501651406288, 3.237427517888136e-05, 0.002448949497193098, -0.0003882598248310387, 0.0031746402382850647, 0.0027322955429553986, -0.0009302978869527578, 0.0028776689432561398, 0.009955109097063541, 0.004164894111454487, 0.002015196019783616, 0.001804727828130126, -0.005942283198237419, -0.005868678446859121, 0.005519720260053873, -0.00800319667905569, -0.004419849254190922, 0.010303398594260216, 0.011831861920654774, -0.010030675679445267, 0.009062525816261768, -0.0009472710080444813, -2.9869006539229304e-05, -0.0027846989687532187, 0.006466120947152376, -0.009489407762885094, 0.0023489100858569145, -0.006103000603616238, 0.003293616697192192, 0.010964169166982174, -0.0006719387602061033, 0.0017469845479354262, 0.003592897206544876, -0.005411666817963123, 0.008593856357038021, 0.01004495657980442, 0.003984922543168068, 0.00023089081514626741, -0.0029865019023418427, -0.0037358650006353855, 0.010345489718019962, 0.008832725696265697, -0.000396528048440814, -0.009447861462831497, -0.015874018892645836, -0.006759071722626686, -0.0009044753387570381, 0.010675206780433655, -0.004285151604562998, 0.0027301935479044914, 0.009797315113246441, 0.000634036841802299, -0.0011091791093349457, -0.008660031482577324, -0.007015739101916552, 0.002486278535798192, -0.00371029251255095, 0.0011157486587762833, 2.2341386284097098e-05, 0.002959833713248372, -0.004834109917283058, -0.001907509402371943, 0.011993693187832832, -0.005448173265904188, -0.002174059161916375, -0.003640484996140003, 0.0018765178974717855, 0.005475396290421486, -0.0037796427495777607, -0.003090578829869628, -0.002112927846610546, 0.00290563958697021, -0.0045808106660842896, -0.002390435431152582, -0.014199969358742237, -0.008279278874397278, -0.0005971359787508845, 0.005902661010622978, 0.0017633892130106688, -0.006507826503366232, -0.0063932291232049465, 0.0006894317921251059, -0.0102238105610013, 0.008715002797544003, -0.00013832801778335124, -0.01023312471807003, -0.006558882538229227, -0.004560305271297693, -0.004971351474523544, -0.012080945074558258, -0.005050026811659336, -0.004010578617453575, -0.0063613117672502995, 0.006847534328699112, 0.0008064528810791671, -0.006076285615563393, -0.002565491944551468, -0.005581738892942667, -0.002184322103857994, 0.004577484913170338, 0.0009085876517929137, 0.011692904867231846, 0.001750974915921688, -0.005982555914670229, 0.0035238342825323343, 0.006259984336793423, 0.006349637173116207, -0.006493079010397196, -0.0009327198495157063, 0.006762231700122356, -0.009935567155480385, -0.0030107907950878143, -0.008559329435229301, -0.0053238701075315475, -0.006207949947565794, 0.007474497426301241, 5.2705752750625834e-05, -0.005506716202944517, -0.006517238914966583, 0.0027108562644571066, -0.0003305556019768119, 0.007776602637022734, 0.003059605835005641, -0.008591815829277039, -0.003813364077359438, 0.0059052398428320885, -0.0035585807636380196, 0.010587924160063267, -0.0059000360779464245, 0.0032288390211760998, -0.0052678268402814865, -0.002327230293303728, 0.005965210497379303, -0.0012249787105247378, 0.003777025267481804, 0.0024019323755055666, 0.004101015627384186, -0.00723293935880065, -0.0014751993585377932, 0.00236779497936368, -0.0057172635570168495, 0.009757248684763908, -0.004729726817458868, -0.001655460218898952, -0.006059498991817236, -0.012897344306111336, 0.010837330482900143, -0.0012482453603297472, -0.00271481741219759, -0.0012044240720570087, 0.008418690413236618, -0.005940333940088749, 0.00421975227072835, -0.002724496880546212, -0.0037956545129418373, 0.004025090951472521, 0.0058792829513549805, -0.0031987957190722227, -0.0034337907563894987, -0.006951312068849802, 0.006635385099798441, -0.0019364316249266267, -0.011004681698977947, 0.0085034454241395, -0.006955928634852171, 0.0044438340701162815, 0.0009089731029234827, 0.001664562150835991, -0.004059622064232826, 0.001789612346328795, -0.011592480354011059, 0.0032235891558229923, 0.009129295125603676, 0.003933046478778124, -0.012168371118605137, -0.005948284175246954, -0.001577836344949901, 0.0029333371203392744, -0.000640548940282315, -0.0031029870733618736, 0.003581313183531165, 0.007001994177699089, -0.0014720504404976964, 0.004375568125396967, -0.015523129142820835, -0.00570921553298831, -0.001980731962248683, -0.0029895338229835033, 0.0016717052785679698, 0.006036287639290094, 0.0029991259798407555, -0.004106950480490923, -0.009153609164059162, 0.0033712168224155903, -0.010981536470353603, 0.003978442866355181, -0.001060100388713181, -0.006914131809026003, 0.0016915429150685668, 1.0515133226363105e-06, -0.0005582950543612242, -0.0008911198819987476, 0.002280176617205143, 0.0044197156094014645, 0.00241381605155766, 0.005686580669134855, -0.001957851927727461, 0.009393980726599693, 0.00320031912997365, -0.004564604721963406, -0.006628409028053284, 0.001199421938508749, -0.008376996964216232, -0.00585338706150651, 0.0014381161890923977, -0.003809603862464428, -0.005612178239971399, -0.00020661961752921343, 0.00040520826587453485], [-0.0012462164741009474, -0.0022791989613324404, 0.005131464917212725, 0.002040322171524167, -0.0013504204107448459, 0.014847430400550365, 0.0013064586091786623, 0.006988078355789185, -0.002884638262912631, -0.007538461126387119, -0.0040437388233840466, 5.467459777719341e-05, -0.0018345226999372244, 0.009278761222958565, 0.002220367779955268, 0.0037248681765049696, 0.0007119850488379598, 6.567256787093356e-05, 0.00033896657987497747, 0.010351372882723808, -0.004867229610681534, 0.004521312657743692, -0.006374990567564964, -0.005344254896044731, 0.0006168870604597032, 0.0024651193525642157, 0.007795552723109722, 0.00021697950433008373, -0.004490013234317303, 0.004457073751837015, -0.002312879543751478, 0.001471937750466168, -0.00037381297443062067, -0.011939363554120064, 0.002899874933063984, 0.0033746410626918077, 0.005516126286238432, 0.010773689486086369, -0.007242625113576651, 0.0027048164047300816, 0.0021266785915941, -0.0030690347775816917, 0.0015495893312618136, 0.0024564580526202917, -0.008336751721799374, 0.0005044585559517145, -0.005840612109750509, -0.004282808862626553, -0.01212206669151783, -0.0033605198841542006, -0.0009315863135270774, 0.0014639194123446941, -0.0011909588938578963, -0.010662632994353771, 0.0046753957867622375, -0.001398107036948204, -0.002011810429394245, 0.006445021368563175, 0.008863967843353748, 0.005740945227444172, -0.0008355507743544877, 0.0017829742282629013, -0.009544100612401962, 0.0038019258063286543, -0.008923199027776718, -0.012358046136796474, 0.0012273939792066813, -0.006067614071071148, 0.0009417179389856756, 5.653776679537259e-05, -0.011668339371681213, -0.019892433658242226, -0.006498158909380436, 0.00015414600784424692, -0.007161763962358236, -0.004095637705177069, -0.009022168815135956, 0.0003252294263802469, 0.00034003108157776296, -0.0030975928530097008, 0.006959828082472086, 0.009170738980174065, 0.0036476259119808674, -0.010823875665664673, -0.006351614836603403, 0.0025245766155421734, -0.0030193382408469915, 0.0009692874737083912, 0.007919025607407093, 0.005232517141848803, 0.017376719042658806, 0.004513359162956476, 0.01685032993555069, 0.003227145178243518, 0.014415985904633999, 0.010233616456389427, -0.00627104751765728, -0.01045540627092123, 0.002467400161549449, -0.007277794647961855, 0.00025917388848029077, -0.0015675548929721117, -0.009834771044552326, 0.0002703037753235549, -0.009678412228822708, -0.008286789990961552, -0.0005722862551920116, -0.011505995877087116, 0.004769808612763882, -0.002955990843474865, 7.343703327933326e-05, 0.0030146439094096422, -0.00079366221325472, 0.0020381053909659386, 0.009764638729393482, 0.005936696659773588, 0.006380627863109112, 0.003485734574496746, 0.01030941866338253, 0.009982474148273468, 0.014514697715640068, 0.0011517361272126436, 0.003962922375649214, 0.017405547201633453, 0.0062835924327373505, 0.008351455442607403, 0.02684796042740345, 0.02399842068552971, 0.027225973084568977, 0.012824580073356628, -0.00014104002912063152, 0.014797467738389969, 6.689070141874254e-05, -0.004995644558221102, 0.0021753069013357162, 0.002397694159299135, -0.0027759219519793987, 0.002917730947956443, 0.0034024177584797144, -0.0009979825699701905, 7.908174302428961e-05, -0.0024039759300649166, -0.0068810549564659595, -0.015542241744697094, 0.0033149472437798977, -0.0017268273513764143, -0.008873059414327145, 0.0018853979418054223, -0.003002237994223833, 0.011017058975994587, 0.011083504185080528, 0.009618391282856464, 0.005887402221560478, 0.011243977583944798, 0.007469315081834793, 0.0064810034818947315, -0.000841669098008424, 0.0066343736834824085, -0.002809191355481744, 0.004738571587949991, 0.00919115636497736, 0.011541229672729969, 0.01249304786324501, 0.008582189679145813, -0.003229189198464155, -0.004178152885288, -0.0030188336968421936, 0.006075493060052395, 0.0024155997671186924, 0.007569756358861923, 0.004731748718768358, 0.0068243504501879215, 0.01231748890131712, 0.022259030491113663, 0.000807295844424516, 0.013877774588763714, 0.003911019302904606, -0.0021433348301798105, 0.0067880041897296906, -0.005271087400615215, 0.0031448681838810444, -0.0067198192700743675, 0.0025903047062456608, -0.010819903574883938, -0.002127637155354023, -0.0023148974869400263, 0.0015439360868185759, 0.0013597256038337946, 0.004097428638488054, 0.0020797871984541416, -0.007218574173748493, 0.005209681577980518, -0.0015479479916393757, -0.00872023031115532, -0.01942751370370388, -0.017458314076066017, -0.011651364155113697, -0.011510588228702545, -0.0038672364316880703, 0.002725345315411687, 0.0034109612461179495, 0.00020213845709804446, 0.002305689500644803, 0.010151323862373829, 0.014743817038834095, 0.003595226677134633, 0.009905795566737652, 0.015925683081150055, 0.01754612661898136, 0.023520026355981827, 0.004534803330898285, -0.0009311899193562567, 0.02500295639038086, 0.014720146544277668, -0.0018968993099406362, 0.0060542188584804535, -0.006175653077661991, 0.007225452456623316, -0.013146021403372288, -0.013572211377322674, 0.0025660106912255287, 0.0006975152646191418, -0.003755945945158601, -0.0019875781144946814, 0.0035651931539177895, -0.006529027130454779, -0.009687596932053566, -0.006809702608734369, -0.0031281306874006987, -0.010478107258677483, -0.016572166234254837, -0.009056334383785725, -0.00435699662193656, -0.0051400805823504925, -0.0051918234676122665, -0.008510452695190907, -0.0016838453011587262, 0.001262811478227377, -0.0025728782638907433, -0.003517765551805496, 0.0013710730709135532, -0.00022570195142179728, -0.003533032024279237, -0.0012292414903640747, -0.002695386065170169, -0.0008857909706421196, 0.009412459097802639, 0.0062657794915139675, 0.014837590977549553, 0.0005549008492380381, -0.0053707389160990715, 0.009419972077012062, -0.0010019853943958879, 0.006932671647518873, 0.001985256327316165, 0.010382345877587795, -0.003523933934047818, 0.0006452758680097759, 0.003218624275177717, -0.00460930448025465, -0.004435805603861809, -0.005031253211200237, -0.005560812074691057, 0.01114156749099493, 0.009972445666790009, 0.008043077774345875, 0.018346773460507393, 0.0022633306216448545, -0.006101100239902735, -0.0037790352944284678, -0.002938705962151289, -0.003611915744841099, -0.014754509553313255, 0.003783003892749548, -0.01139902789145708, -0.012013692408800125, -0.0016081652138382196, 0.004918529186397791, -0.0011788590345531702, -0.005196746904402971, 0.004859197419136763, 0.007618282455950975, 0.005473964381963015, 0.004498451482504606, -0.013428090140223503, -0.00594286248087883, 0.00248383404687047, -0.003636816283687949, 0.0017836258048191667, -0.008876423351466656, -0.0030572377145290375, -0.012280312366783619, -0.015025276690721512, -0.005633183754980564, 0.001962883397936821, -0.00048546469770371914, -0.0059348405338823795, -0.004550758749246597, 0.011051069013774395, 0.0087953582406044, 0.02153101935982704, 0.013851328752934933, 0.0044590625911951065, 0.009219995699822903, -0.005494349170476198, -0.0025574935134500265, -0.0014631189405918121, -0.0018020147690549493, -0.007190731819719076, -0.005445446353405714, -0.006647571921348572, -0.0019719519186764956, 0.002077409764751792, 0.0032222431618720293, -0.008647046983242035, -0.0006975626456551254, -0.004775217268615961, -0.003710411489009857, 0.0034996734466403723, -0.008215360343456268, -0.012430374510586262, -0.003587696235626936, 0.0013703710865229368, -0.010062601417303085, 0.006242224480956793, 0.007620964199304581, -0.007680567912757397, -0.004757078364491463, -0.007299864664673805, -0.015271596610546112, -0.0024662301875650883, 0.001578523893840611, 0.007595311384648085, -0.00681868614628911, 0.007782938424497843, 0.007191406562924385, 0.005264465697109699, 0.0071922363713383675, 0.009207304567098618, 0.018928464502096176, 0.008046888746321201, 0.006494713947176933, -0.00035277524148114026, 0.005294628441333771, 0.007411392871290445, 0.0013041800120845437, -0.004509027116000652, -0.005217916332185268, -0.003885011887177825, -0.0003797576646320522, -0.014156246557831764, -0.0005788072012364864, 0.0006329239113256335, -0.003026910126209259, -0.003084803931415081, -0.01339525356888771, -0.007332301698625088, 0.005108337849378586, -0.0062535712495446205, -0.01540719997137785, -0.009814188815653324, 0.001339566893875599, 0.0010274337837472558, 0.004062188323587179, -0.0014085478615015745, -0.010292167775332928, -0.006774325855076313, 0.0035543087869882584, 0.0016112892189994454, 0.001994138117879629, 0.001394364982843399, -0.001389003125950694, -0.0004220167174935341, 0.012125394307076931, 0.003095881547778845, 0.002913527190685272, 0.006058357190340757, 0.006601604633033276, -0.011115007102489471, 0.005630414001643658, 0.012422585859894753, -0.007458912208676338, 0.006465920712798834, -0.00726226856932044, -0.0025819749571383, 0.0026535436045378447, -0.01264581736177206, 0.004316044505685568, -0.010126753710210323, -0.013530655764043331, -0.005082421936094761, 0.002620146842673421, -0.0071076625026762486, -0.009612004272639751, -0.001716517610475421, -0.006341743748635054, 0.004337559919804335, -0.0021465218160301447, 0.0001872473512776196, -0.002242760034278035, 0.002775517525151372, -0.0005164496251381934, 0.003218639874830842, -0.014542674645781517, 0.004106490407139063, 0.00517737353220582, 0.0008732783026061952, 0.00927114300429821, 0.008670330978929996, 0.011076723225414753, 0.006026377901434898, -0.0062026940286159515, -0.009612802416086197, -0.0035301088355481625, 0.004113443661481142, 0.002460976131260395, 0.007588223088532686, -0.0014379780041053891, -0.002654917538166046, 0.008884497918188572, 0.004792363382875919, -0.0009925109334290028, 0.002093969378620386, 0.0026271394453942776, 0.003111179918050766, -0.007693296764045954, -0.0042987968772649765, -0.007409515790641308, -0.0038670131471008062, 0.004846761003136635, 0.0032459271606057882, -0.006981972139328718], [0.0030798858497291803, 0.0005152520607225597, -0.002970219822600484, -0.008482640609145164, -0.0010749793145805597, 0.004040397237986326, -0.013175013475120068, -0.0025426852516829967, 0.013161198236048222, 0.0035199769772589207, 0.0010740734869614244, -0.005873029585927725, -0.004906461574137211, -0.0012392456410452724, 0.007000960875302553, 0.002012606943026185, -0.005942799616605043, 0.004134172108024359, -0.0026549811009317636, 0.009429515339434147, -0.006166889797896147, -0.007482252083718777, -0.00011985936725977808, 0.0032058602664619684, 0.004655343946069479, -0.0003627421101555228, -0.00860172975808382, -0.0041055153124034405, -0.013053227216005325, -0.007744884118437767, -0.0015270080184563994, 0.0019575071055442095, -0.0035059545189142227, -0.0004482054791878909, -0.002459469251334667, 0.0038971875328570604, -0.0054158736020326614, 0.005027614999562502, 0.011776617728173733, 0.0027386152651160955, -0.0032746214419603348, -0.0034994862508028746, 0.006819507572799921, -0.007217066362500191, -0.007030779030174017, -0.00813237763941288, -0.00875928159803152, -0.009747594594955444, 0.00279909186065197, 0.00480223773047328, -0.010357427410781384, -0.0015104926424100995, 0.001977409701794386, -0.008042549714446068, -0.009815329685807228, -0.012648164294660091, -0.005076176021248102, -0.002350411843508482, -0.0013227567542344332, -0.019402887672185898, -0.0027955875266343355, -8.969820191850886e-05, -0.00980831403285265, -0.006514187436550856, 0.0041376203298568726, -0.018247364088892937, 0.005345421377569437, 0.0062767197377979755, 0.004275735002011061, -0.0014704558998346329, -0.005484381224960089, 0.0036501362919807434, -0.00424842769280076, 0.00021871787612326443, -0.002007340779528022, -0.0057598319835960865, 0.0016005071811378002, -0.009250720031559467, 0.002440354088321328, -0.006864885799586773, -0.013324611820280552, -0.003163466230034828, -2.4970193408080377e-05, -0.003262285143136978, -0.0006056668353267014, -0.01919003389775753, -0.019316893070936203, -0.005643265787512064, 0.003233434399589896, -0.013320689089596272, 0.006728282198309898, -0.008021081797778606, -0.014682222157716751, -0.009258183650672436, -0.0053719705902040005, -0.01565275900065899, -0.003071018261834979, -0.002347424393519759, -0.005319482181221247, 0.00316811166703701, 0.005433846730738878, -0.001799123827368021, 0.0023588964249938726, 0.00048741078353486955, -0.0006585285882465541, 0.0013694067019969225, 0.006345929577946663, 0.010602721013128757, 0.0075581674464046955, -0.004909811541438103, 0.0025782142765820026, -0.009067556820809841, 0.0015659115742892027, 0.004645307082682848, -0.002959492150694132, 0.004477027337998152, -0.012381263077259064, -0.010190194472670555, -0.0054542990401387215, -0.006142652127891779, -0.009516329504549503, -0.009442558512091637, -0.02643856219947338, -0.0010701291030272841, 0.004897352773696184, -0.010384025052189827, 0.009792032651603222, 0.002874606056138873, 0.002200018847361207, 0.012298253364861012, 0.006686598993837833, 0.01689358986914158, 0.013419751077890396, 0.005715756211429834, 0.015068232081830502, 0.012690986506640911, 0.00673234649002552, 0.010416887700557709, 0.0007093747844919562, 0.007120660971850157, 0.030487138777971268, 0.0037307413294911385, 0.003297954797744751, 0.025519315153360367, -0.0004560810630209744, -0.008843852207064629, -0.009746270254254341, 0.006643793545663357, 0.0032377690076828003, 0.0026124618016183376, -0.0022739265114068985, -0.006330644246190786, -0.0075269476510584354, -0.002443651668727398, -0.008471207693219185, -0.0075220586732029915, -0.00967182032763958, -0.004358957055956125, -0.012523679994046688, 0.0012615611776709557, -0.008537051267921925, 0.009121856652200222, 0.006939984392374754, 0.018070606514811516, 0.025170855224132538, 0.004323246888816357, 0.007546571083366871, 0.03196905553340912, -0.0009079545852728188, 0.008629403077065945, 0.024777129292488098, 0.006834648083895445, 0.010835005901753902, 0.017663531005382538, 0.011319458484649658, 0.011957835406064987, 0.012247077189385891, 0.00035334774293005466, -0.010792532935738564, 0.004879478365182877, -0.0027508013881742954, -0.00237102247774601, -0.0010404713684692979, -0.006574931554496288, -0.010190702974796295, -0.0025397990830242634, -0.0022228662855923176, -0.005947695579379797, -0.007974264211952686, -0.005657270085066557, -0.002522476017475128, -0.006456725765019655, 0.010058064945042133, 0.003617416601628065, -0.0019492915598675609, 0.004546614829450846, -0.0014163661981001496, 0.01881210133433342, 0.014874657616019249, 0.013205188326537609, 0.007793353870511055, -0.0008323665824718773, -0.0028082903008908033, 0.005789920222014189, -0.010844442062079906, -0.00849868357181549, -0.00956430658698082, -0.0038375952281057835, -0.0002126943290932104, -0.012880398891866207, 0.001693697297014296, 0.002931823953986168, -0.007321957033127546, -0.007642508018761873, -0.00711027579382062, 0.004263270180672407, -0.002807804848998785, -0.010255376808345318, 0.0038658236153423786, 0.0007406965596601367, -0.008579552173614502, 0.006998233962804079, 0.004492294043302536, 0.00019585341215133667, -0.00867152027785778, -0.009187876246869564, -0.0025180017109960318, -0.010782674886286259, 0.0022951646242290735, -0.008632463403046131, 0.0005319270421750844, 0.0009458033018745482, 0.006523871328681707, -0.005213942378759384, 0.005436707753688097, -0.005581617821007967, 0.006259674672037363, -0.0018954152474179864, 0.0013953609159216285, -0.01204606518149376, -0.0012045135954394937, -0.0022918262984603643, -0.0077411821112036705, -0.002287057228386402, -0.005135726649314165, -0.006403331179171801, -0.0033371560275554657, -0.00667465990409255, -0.009777682833373547, -0.006440349388867617, -0.0034358822740614414, -0.004292319528758526, -0.001980651868507266, 0.0014908958692103624, 0.012426536530256271, 0.005120126064866781, 0.007910427637398243, 0.0012658786727115512, -0.001315645407885313, -0.0007261704304255545, 0.01085203979164362, -0.013438552618026733, -0.007267271168529987, -0.0011517452076077461, -0.0026915965136140585, 0.010291398502886295, -0.004049142822623253, -5.55499573238194e-05, -0.006064747925847769, 0.00016415235586464405, -0.0016494515584781766, 0.007932391948997974, 0.011644762940704823, 0.002148838248103857, 0.01246052049100399, -0.0028483623173087835, -0.004410159308463335, -0.010370212607085705, -0.007082862313836813, 0.006233342923223972, 0.00030176679138094187, -0.0112615916877985, -0.0006433611852116883, -0.009228424169123173, -0.010321731679141521, -0.0003417647385504097, -0.00014657188148703426, -0.012697883881628513, 0.002295655431225896, 0.002024117624387145, -0.0014068217715248466, 0.0026081479154527187, -0.006469220854341984, -0.002010090509429574, 0.006481608841568232, 0.0008429410518147051, 0.014084628783166409, 0.010617782361805439, 0.003321188036352396, -0.005002581048756838, 0.005016850773245096, 0.0022262483835220337, 0.011440904811024666, 0.014415165409445763, -0.0011884737759828568, 0.024898242205381393, 0.01568421721458435, 0.0014927758602425456, 0.021989641711115837, 0.004129377659410238, -0.0004975760239176452, -0.005902691278606653, -0.008360743522644043, 0.0007095010951161385, -0.006574746686965227, -0.007787694688886404, -0.009887507185339928, -0.017622383311390877, 0.008092708885669708, -0.0021310013253241777, 0.006987828761339188, 0.0025528050027787685, 0.001941602909937501, -0.001396214822307229, 0.006094987969845533, -0.005734287668019533, 0.013105781748890877, 0.0006381513085216284, -0.003069694386795163, 0.00400946568697691, 0.010906703770160675, -0.002244772156700492, 0.011059114709496498, 0.002421033103018999, 0.0029414661694318056, 0.010052867233753204, 0.011045522056519985, -0.000432437052950263, 0.018689848482608795, 0.0018310968298465014, -0.0011935691582038999, 0.009036791510879993, -0.007838839665055275, -0.010784239508211613, 0.006119882222265005, -0.005672148894518614, -0.003213173011317849, -0.007149998564273119, -0.011040322482585907, -0.009142414666712284, -0.010974612087011337, -0.013020257465541363, -0.005422735121101141, -0.013603844679892063, 0.0009095472632907331, -0.003571199020370841, 0.007421259302645922, 0.005249723792076111, -0.005496365018188953, -0.004105623811483383, -0.002062043873593211, 0.019883569329977036, -0.00919609796255827, 0.001387614058330655, -0.012462230399250984, -0.001297152484767139, 0.012347991578280926, -0.0017728798557072878, 0.003640026319772005, 0.0006830988568253815, -0.0015955225098878145, -0.004913351498544216, -0.004892945289611816, -0.004970055539160967, -0.013074040412902832, 0.004608646500855684, -0.006565251387655735, -0.009181598201394081, -0.010065584443509579, 0.001959641696885228, -0.01781846024096012, -0.0039612287655472755, -0.014394870027899742, -0.011406555771827698, 0.0090855173766613, -0.007002230267971754, -0.009901116602122784, -0.0076600974425673485, -2.5536181055940688e-05, -0.00332940137013793, 0.003906972706317902, 0.0029873682651668787, -0.00655233534052968, 0.0012603596551343799, -0.002064716536551714, -0.007051643915474415, -0.000702800985891372, 0.02293243445456028, 0.014074140228331089, 0.0009924659971147776, 0.010565992444753647, -0.00030550226802006364, -0.00037680630339309573, -0.011866203509271145, -0.007675862871110439, -0.0057946061715483665, -0.0004974682815372944, -0.0047478643245995045, -0.006424228195101023, -0.006467737723141909, -0.008896167390048504, -0.012226911261677742, -0.0074698650278151035, -0.012459445744752884, -0.01030558068305254, -0.004683276172727346, -0.013619068078696728, 0.006220507901161909, -0.002666317392140627, -0.005257802549749613, 0.0021639461629092693, 0.002934778807684779, -0.011669025756418705, -0.0024124470073729753, -0.0056177242659032345, -0.0014722089981660247, -0.0032732118852436543, 0.0008958146790973842, -0.006117691285908222, -0.0034218847285956144, -0.0035628408659249544, 0.006474409718066454], [0.002228271448984742, 0.0022330365609377623, -0.001699230051599443, -0.002254081191495061, 0.0034233257174491882, 0.004763569217175245, 0.00015253100718837231, 0.006896507926285267, 0.0077455188147723675, -0.009999360889196396, 0.002539172535762191, -0.00015371180779766291, 0.0024461213033646345, 0.006643417291343212, -0.005017133429646492, -0.009557115845382214, 0.006579582113772631, -0.005403269547969103, -0.0041570416651666164, 0.00108366459608078, -0.00393252307549119, -0.010516580194234848, -0.0006689309957437217, -0.005442212801426649, 0.001219212426804006, -0.005158568266779184, -0.007568871136754751, -0.0037878104485571384, 0.004113970324397087, 0.0006503651384264231, -0.007957725785672665, 0.015660416334867477, -0.005120156332850456, -0.007316789589822292, 0.005035139620304108, -0.0032241572625935078, 0.013061282224953175, 0.005198860075324774, -0.0010122470557689667, 0.009942770935595036, 0.005494838580489159, -0.006622669752687216, 0.006338540464639664, -0.0023703777696937323, 0.0008898946107365191, 0.002836292376741767, -0.0038739307783544064, -0.005358790047466755, 0.0063886879943311214, -0.005520321894437075, -0.00978927779942751, 0.001337771536782384, 0.0064803422428667545, 0.006614875979721546, 0.014794440008699894, 0.006401231046766043, 0.004767943639308214, 0.002701780991628766, -0.005040021613240242, 0.01383193489164114, -0.006906792521476746, -0.00550829479470849, -0.001332152634859085, -0.0009042040328495204, -0.010657522827386856, -0.011304430663585663, 0.0008441685931757092, 0.005830751731991768, -0.002451782114803791, -0.00035664389724843204, -0.00960519164800644, -0.00526856305077672, 0.0033000456169247627, 0.006672434043139219, 0.005669536534696817, 0.0016417751321569085, 0.007950966246426105, 0.018792277202010155, -0.0019499585032463074, -0.0033565498888492584, 0.011130042374134064, 0.004739017225801945, 0.003035360248759389, 0.005526396445930004, 0.002441700082272291, -0.0016209869645535946, 0.0019619730301201344, 0.01615414023399353, -0.0018927998607978225, 0.012598301284015179, 0.006690850015729666, 0.005969556979835033, 0.017682882025837898, 0.015911448746919632, 0.010156293399631977, 0.003182395128533244, 0.01859331503510475, 0.013997063972055912, 0.009389218874275684, 0.005934692453593016, 0.014501640573143959, 0.008250385522842407, 0.00298112235032022, 0.00035928303259424865, 0.00015075854025781155, 0.008266888558864594, 0.007159123197197914, -0.008509109728038311, 0.0026496401987969875, 0.0051350160501897335, -0.009144199080765247, -0.00011511910270201042, -0.010615482926368713, 0.0014754042495042086, -0.013183104805648327, -0.004507346078753471, -0.003444139612838626, -0.005169409327208996, 0.007903446443378925, 0.002079951809719205, -0.002349416259676218, -0.0055749621242284775, -0.0038848803378641605, -0.006312186364084482, 0.006356600672006607, 0.008988858200609684, 0.006656280718743801, 0.0029734584968537092, 0.00040392993832938373, 0.002948722569271922, 0.01525916624814272, 0.006020424887537956, 0.01967010833323002, 0.0014301047194749117, 0.01311720535159111, -0.0009673095191828907, 0.00818050466477871, 0.0042497823014855385, 0.015681376680731773, 0.006910163443535566, 0.011273926123976707, 0.003974057734012604, -0.004678380209952593, 0.005634709261357784, 0.010406894609332085, -0.0004924419336020947, -0.007233194075524807, -0.0127897122874856, -0.005646014120429754, -0.012533966451883316, 0.0017340178601443768, 0.0017438895301893353, -0.009013978764414787, 0.0007332852110266685, -0.006525164470076561, -0.006775648333132267, 0.002603919245302677, -0.0028753753285855055, -0.0043807802721858025, -0.009474051184952259, 0.0006863341550342739, -0.0051644728519022465, -0.014725570566952229, -0.013576539233326912, -0.016916075721383095, 0.0028264650609344244, 0.0011113061336800456, 0.0009460069704800844, -0.002084230538457632, 0.012219013646245003, 0.017278995364904404, 0.0015436811372637749, 0.012180576100945473, 0.007822959683835506, -0.006911285687237978, -0.006884263828396797, 0.009205310605466366, 0.0009922502795234323, 0.0066655902191996574, 0.0034022617619484663, 0.000996004557237029, 0.012181883677840233, 0.006913988385349512, -0.004230741411447525, 0.0006430791690945625, -0.0003107533557340503, 0.0024192328564822674, -0.002125003607943654, -0.008187338709831238, 0.001002745470032096, -0.0028222580440342426, 0.005856995936483145, 0.014783388003706932, 0.004756982438266277, 0.0075372192077338696, 0.00598188815638423, 0.01236669160425663, 0.01698184572160244, 0.0015673559391871095, 0.0028544750530272722, 0.00047989911399781704, 0.0032110163010656834, 0.0002311416028533131, -0.008098719641566277, -0.0029035592451691628, -0.008521826937794685, 0.002595718251541257, -0.0030675872694700956, 0.0013575785560533404, 0.00635481346398592, 0.0017027119174599648, -0.0023195291869342327, -0.007990477606654167, -0.008198058232665062, 0.0082710525020957, -0.010119649581611156, -0.005530633497983217, -0.01386524923145771, -0.002010572701692581, -0.0015853794757276773, -0.0023944571148604155, -0.0005705217481590807, -0.0034233124461025, -0.005197967402637005, 0.009930131956934929, 0.0015944336773827672, 0.008072230033576488, -0.0041554211638867855, 0.01547309197485447, 0.014596511609852314, 0.011241121217608452, -0.005057060159742832, 0.0020100113470107317, 0.010084126144647598, -0.005358242429792881, -0.01164703443646431, -0.016516180709004402, -0.003385689342394471, -0.0034991924185305834, -0.007965884171426296, 0.007176253013312817, -0.00832725316286087, 0.006794261280447245, -0.0033485533203929663, -0.00197292841039598, -0.00899277813732624, 0.000904233253095299, -0.011604266241192818, -0.006384199019521475, -0.0028590946458280087, 0.00769358454272151, 0.0015735230408608913, 0.0052358186803758144, 0.0010322360321879387, -0.004238177556544542, 0.009069481864571571, -0.0022750715725123882, 0.0024903088342398405, 0.006723403465002775, 0.009439928457140923, 0.004193571396172047, 0.012391558848321438, -0.001207023742608726, 0.005057122558355331, -0.002342711901292205, 0.007666594814509153, -0.0006314744241535664, -0.020033476874232292, -0.0005890000611543655, -0.009616360999643803, -0.012011002749204636, 0.0004836367443203926, -0.013968875631690025, 0.003980127163231373, -0.0043138302862644196, -0.00455703679472208, 0.015328529290854931, -0.0017054391792044044, -0.0019499051850289106, -0.0073469518683850765, 0.011719956062734127, 0.000659330515190959, 0.0030698212794959545, 0.007000865414738655, -0.005668569356203079, -0.0026131628546863794, -2.2802219973527826e-05, -0.0068696592934429646, 0.009555070661008358, 0.0015071904053911567, 0.0014557935064658523, 0.007139692548662424, 0.00034932393464259803, 0.010434442199766636, 0.029379243031144142, 0.010224933736026287, 0.0220254585146904, 0.002820804249495268, -0.001388216856867075, 0.006685332860797644, -0.0123756043612957, -0.018006883561611176, -0.0011643058387562633, -0.00712542375549674, -0.004116971977055073, -0.014234339818358421, 0.004893927834928036, -0.005922690033912659, -0.011328908614814281, -0.015639763325452805, 0.001469203270971775, 0.008395920507609844, 0.0050367992371320724, 0.010236901231110096, 0.01306146290153265, 0.002858975902199745, 0.01030577439814806, -0.008543413132429123, 0.008593452163040638, 0.002351583680137992, 0.0037531850393861532, -0.0002522195572964847, -0.00028925557853654027, 0.00038671225775033236, 0.0026383432559669018, 0.00035270079388283193, -0.004163646604865789, 0.007556396070867777, 0.0007031105342321098, 0.014710023067891598, 0.008490558713674545, 0.007394952699542046, -0.0015775752253830433, 0.0004978854558430612, 0.010979370214045048, 0.0023467852734029293, -0.0002561330620665103, -0.000505100644659251, 0.008914303034543991, 0.00083326076855883, 0.005914874840527773, -0.0052874647080898285, 0.0011756933527067304, -0.008008685894310474, 0.005850916262716055, 0.004508964251726866, 0.0024860980920493603, 0.001930166850797832, 0.013517164625227451, 0.0020599516574293375, 0.008048647083342075, -0.001395538100041449, 0.005530206486582756, 0.014650119468569756, -0.0010606586001813412, 0.0031004445627331734, 0.009247086942195892, -0.000366288615623489, -0.008610831573605537, -0.0051803793758153915, 0.00417514331638813, 0.006048393901437521, 0.005898449569940567, 0.009306511841714382, 0.00259770336560905, 0.004049122333526611, -0.003979566041380167, 0.005910955369472504, 0.007022948004305363, 0.004650755785405636, 0.009647886268794537, -0.0061913528479635715, 0.014860669150948524, 0.009107342921197414, 0.021891476586461067, 0.01833241805434227, 0.016170425340533257, 0.01636088266968727, 0.010903237387537956, -0.002141151577234268, 0.0053158970549702644, 0.015512901358306408, -0.005585114937275648, -0.001947765122167766, -0.005425760988146067, 0.011184478178620338, -0.003957858309149742, 0.011151389218866825, -0.000859459862112999, -0.001190157956443727, 0.008442103862762451, 0.0063343052752316, -0.014478749595582485, 0.0028998958878219128, 0.0037785477470606565, 0.001851615495979786, -0.00382931693457067, 0.0003106356307398528, -0.00213604629971087, 0.0015490383375436068, -0.0008753394358791411, -0.0037663986440747976, 0.0015678005293011665, 0.005603115539997816, 0.0010683888103812933, -0.0015127521473914385, 0.0041514174081385136, 0.007771969772875309, 0.013580947183072567, 0.011480841785669327, 0.010098354890942574, -0.0015522242756560445, -0.0037052584812045097, 0.008448322303593159, -0.006218384951353073, -0.002514087362214923, 0.0042147464118897915, -0.002712288172915578, -0.001713890815153718, -0.00838074553757906, 0.0012668323470279574, 0.005956192500889301, -0.004490020219236612, 0.004394759424030781, 0.01608448289334774, -0.00043214947800152004, 0.003970021847635508, 0.0012541490141302347, 0.006361415144056082, -0.010296017862856388, -0.006316425744444132, 0.0011482182890176773], [0.005333794746547937, 0.000784378033131361, -0.010011625476181507, -0.004957148339599371, -0.004782946314662695, 0.002333805663511157, -0.004596443381160498, -0.004105974454432726, 0.006499163806438446, 0.007999779656529427, -0.0025099748745560646, 0.0024747480638325214, -0.011372828856110573, 0.0011536177480593324, 0.007004870567470789, 0.0030748574063181877, 0.0005430580931715667, -0.002569978591054678, -0.004011635202914476, -0.0011678618611767888, -0.009716817177832127, 0.00953911617398262, 0.0032882103696465492, -0.0011696771252900362, -0.003895973553881049, -0.0005325914826244116, 0.0041598123498260975, 0.005942734889686108, -0.005519302096217871, -0.006390118971467018, 0.01242764014750719, 0.006796837784349918, 0.003975131083279848, -0.0008499105460941792, 0.005551042966544628, -0.007736704312264919, 0.009205416776239872, -0.0002223901974502951, 0.004744375590234995, 0.003850399749353528, -0.0008229346130974591, -0.0011271332623437047, 0.007251294329762459, 0.006101922132074833, -0.01087112259119749, -0.010325969196856022, -0.005781125742942095, -0.005766340531408787, -0.006893282290548086, 0.0015482368180528283, -0.003386247670277953, 0.007168273441493511, 0.008696770295500755, -0.0010280116694048047, 0.01028313860297203, 0.0002740048512350768, -0.0034296070225536823, 0.0006765332072973251, 0.005908830091357231, -0.009942270815372467, -0.0011524575529620051, 0.0019168683793395758, 0.002209812169894576, -0.002283564070239663, 0.0029214804526418447, 0.0014203251339495182, -0.00364657468162477, 0.01306883618235588, 0.0020745720248669386, -0.002017492661252618, -0.0034480008762329817, 0.005995935760438442, 0.0005830228328704834, 0.015295050106942654, -0.0026758916210383177, -0.007596735842525959, -0.0002651589456945658, 0.0007687114411965013, -0.012982310727238655, -0.0020161340944468975, -0.0028893707785755396, -0.0024438865948468447, -0.0038899541832506657, -0.008954621851444244, 0.004558028187602758, -0.0034496933221817017, -0.007106404285877943, -0.00408683018758893, -0.0024729305878281593, -0.000107627893157769, 0.004905481357127428, -0.005069445353001356, -0.002217379864305258, -0.007427623495459557, -0.019852209836244583, 0.003768160240724683, 0.009152802638709545, 0.003315866691991687, 0.0003507730725686997, 0.00034829883952625096, -0.007191283628344536, 0.000847296672873199, -0.002731660846620798, -0.005257837940007448, 0.0020414935424923897, 0.015609127469360828, 0.009990117512643337, -0.0006240202346816659, 0.005246587097644806, 0.005137171596288681, -0.004014044534415007, 0.0036637920420616865, -0.008790773339569569, -0.005330636631697416, 0.0011258210288360715, -0.002603623317554593, 0.009740306064486504, 0.003666344564408064, -0.002243463648483157, -0.0033500788267701864, 0.0011236940044909716, -0.006095190066844225, 0.0035434472374618053, -0.008074138313531876, 0.004166530445218086, -0.0007021341007202864, 0.002791324397549033, -0.005640958435833454, 0.002909128786996007, 0.01452566683292389, -0.002541852882131934, 0.004922910593450069, 0.00835649948567152, 0.004348423331975937, 0.0059081269428133965, -0.006746327970176935, -0.008078736253082752, 0.0018859012052416801, -0.0030297660268843174, -0.00031540595227852464, 0.000907624140381813, -0.004085376393049955, 0.0029376514721661806, 0.011262250132858753, -0.00614974508062005, -0.002888329792767763, -0.0004114398325327784, 0.006693383678793907, -0.0072316331788897514, -0.0066221063025295734, -0.013219463638961315, -0.0026793440338224173, 0.0043277619406580925, 0.006092696916311979, 0.0021001703571528196, -0.002215503016486764, 0.0036786694545298815, 0.0009404132142663002, -0.01014906819909811, -0.007877018302679062, 0.008786571212112904, 0.001712785684503615, -0.008529750630259514, 0.004708297085016966, 0.005716980900615454, -0.00311673479154706, 0.0036546378396451473, -0.02275284007191658, 0.004883544985204935, 0.006611522287130356, -0.006515454966574907, 0.0010769945802167058, -0.002432349370792508, -0.00037010342930443585, -0.002740659983828664, -0.008179325610399246, 0.01135119330137968, -0.001888371305540204, 0.0006052286480553448, -0.005727751646190882, -0.006288982927799225, 0.0024322469253093004, 0.0031388956122100353, 0.005172459874302149, 0.006579364649951458, -0.0010358216241002083, -0.0028902629856020212, 0.004469338804483414, -0.0024698651395738125, 0.004710761830210686, 0.0019913495052605867, 0.00981151033192873, 0.003420130582526326, -0.006848002318292856, -0.0037010866217315197, 0.004181386437267065, 0.011193114332854748, -0.009118265472352505, 0.0002370511501794681, 0.0016791053349152207, -0.009959674440324306, 0.0026532504707574844, -0.000664617691654712, -0.012524919584393501, 0.00900223758071661, -0.005559635814279318, -0.006958623882383108, 0.002036537742242217, 0.003020377131178975, 0.005232315976172686, -0.0024796947836875916, -0.0001856907329056412, -0.004119140561670065, -0.007909809239208698, 0.006469621788710356, -0.0004937322810292244, -0.0011527481256052852, -0.012075704522430897, -0.0011274295393377542, -0.005277063697576523, -0.001189369591884315, -0.001329641556367278, -0.003156693186610937, 0.005439959932118654, 0.0036771108862012625, 0.0061455387622118, -0.008327184244990349, -0.001175172976218164, -0.0005925903096795082, -0.002764237578958273, 0.0016321687726303935, -0.006994559895247221, -0.004270280711352825, -0.008803595788776875, -0.0053326706402003765, 0.0042653763666749, 0.0005563019658438861, 0.008380968123674393, -0.0038436162285506725, 0.002388591645285487, -0.00825768243521452, 0.015095922164618969, 2.625829210955999e-06, 0.0044091506861150265, 0.002100563608109951, -0.0034964613150805235, -0.008209767751395702, 0.0008021145476959646, -0.003927614074200392, -0.0009864880703389645, 0.0038839909248054028, 0.0001599270908627659, 0.0022056845482438803, 0.0008289420511573553, -0.009027935564517975, 0.008122947067022324, 0.006828892510384321, -0.007619970012456179, 0.002531719859689474, -0.004327910486608744, -0.005064856726676226, -0.0004786125209648162, 0.01023707166314125, 0.007646709680557251, 0.0034759065601974726, -0.007010199595242739, 0.01809653639793396, 0.005112635903060436, -0.014164434745907784, 0.005431493278592825, -0.0035717030987143517, 0.0022402480244636536, 0.004563516937196255, -0.006518058478832245, 0.01045228447765112, 0.0016471178969368339, 0.004850704688578844, 0.007590966764837503, -0.005615571979433298, -0.005928189493715763, 0.0064159478060901165, 0.006497118156403303, -0.00844169408082962, 0.011976266279816628, -0.0027906284667551517, 0.004120853263884783, 0.0033684673253446817, -0.006364547181874514, -0.005235192831605673, -0.012590724043548107, -0.0072073666378855705, -0.009075785055756569, 4.657610770664178e-05, 0.007035122253000736, -0.00041856334428302944, 0.0017930710455402732, 0.003012821776792407, 0.003938227891921997, -0.0024362311232835054, -0.009296954609453678, -0.0026283913757652044, 0.0003560515760909766, -0.004065786022692919, 0.0019233961356803775, -0.0018462087027728558, 0.005286992061883211, -0.005470324773341417, -0.005836911965161562, 0.011200875043869019, -0.0004710953508038074, 0.0029366586823016405, -0.007164733484387398, -0.0026884968392550945, 0.003796258242800832, 0.007733373437076807, -0.004546241834759712, -0.004989901091903448, -0.0017955370713025331, -0.009233107790350914, -0.00023088262241799384, -0.0014373083831742406, 0.004344316199421883, 0.008497840724885464, 0.0030597273726016283, 0.004448244348168373, 0.0002864255220629275, -0.0023981123231351376, -0.012041536159813404, -0.0053967805579304695, 0.0003310162283014506, -0.009939605370163918, 0.0014104938600212336, -0.0038552554324269295, -0.006158160977065563, -0.0028133681043982506, 0.003471271600574255, 0.005273229908198118, -0.011617898009717464, -0.001099605462513864, 0.00518675334751606, -0.0016469490947201848, 0.0005134838866069913, -0.009496106766164303, -0.0031076890882104635, 0.010880237445235252, -0.005084158852696419, -0.00884300097823143, 0.0008992990478873253, 0.004579565953463316, 0.007072555832564831, -0.0034558987244963646, 0.001257305033504963, 0.003214670345187187, 0.0034280959516763687, -0.003321040654554963, 0.010276857763528824, -0.004517590627074242, 0.00425312016159296, -0.00013581009989138693, -0.0036328588612377644, -0.0038671076763421297, -0.0035335803404450417, -0.0028109943959861994, -0.006127104163169861, 0.004188785795122385, -0.004729392472654581, -0.00367884524166584, 0.00296774972230196, -0.0012170833069831133, -0.008511757478117943, -0.005557339638471603, -0.0010685794986784458, -0.003493415890261531, 0.004547188524156809, -0.003999178297817707, -0.006016355007886887, -0.006129371467977762, 0.0027411412447690964, 0.0026764729991555214, -0.01013086549937725, 0.004025341011583805, 0.005130448844283819, -0.010162417776882648, -0.003486263332888484, 0.008648905903100967, 0.006099807098507881, 0.0007924106321297586, 0.0030303546227514744, 0.01270525436848402, 0.0032345294021070004, -0.007347933016717434, 0.008200207725167274, -0.005265634972602129, 0.005978180095553398, 0.003946547396481037, 0.005362433381378651, 0.009267328307032585, -0.008816387504339218, -0.0004501048242673278, 0.011703494936227798, 0.0058767604641616344, 0.0009573365096002817, -0.0061574368737638, 0.0006621591164730489, -0.005424325354397297, -0.008854039944708347, 0.0034914533607661724, 0.0011052503250539303, -0.00472349813207984, 0.0023760418407619, -0.001832003821618855, 0.01056345459073782, -0.00021943915635347366, 0.010443665087223053, -0.004983014427125454, 0.0036587491631507874, 0.011796409264206886, 0.001690167235210538, 0.006898744497448206, -0.009610174223780632, 0.0044194371439516544, 0.0003130352415610105, 0.005456521641463041, 0.005326703656464815, -0.013490996323525906, -0.002259016502648592, -0.004007985349744558, 0.0009301108657382429, -0.011590525507926941, -0.006556530017405748, 0.006027011200785637, 0.001091470941901207], [-0.006577706895768642, -0.001556955510750413, 0.006552005186676979, -0.01131086889654398, -0.0014908229932188988, -0.0017955898074433208, 0.0002880650572478771, 0.0023508488666266203, 0.010160141624510288, 0.0013778607826679945, -0.005044979974627495, 0.004673018120229244, -0.008648891933262348, -1.31458336909418e-05, 0.004227318800985813, 0.0016933465376496315, 0.0012723979307338595, -0.020943639799952507, -0.005918125621974468, -0.007618627976626158, -0.001225867192260921, 0.0005468698218464851, -0.0019830113742500544, -0.004671741276979446, -0.006362567190080881, 0.0018478098791092634, -0.006143550854176283, -0.01062497217208147, 0.0016858509043231606, 0.0017830018186941743, 0.0075226230546832085, 0.0034572065342217684, 0.006360761355608702, -0.01021717581897974, -0.0020857981871813536, -0.0004007721727248281, -0.0020988292526453733, -0.0006335516809485853, -0.003564892802387476, 0.0037430205848068, -0.0064807976596057415, 0.00021370037575252354, -0.001620803726837039, -0.0005928690079599619, -0.0069323694333434105, 0.003895160974934697, -0.004448844585567713, -0.011058895848691463, -0.0027805310674011707, -0.005266777239739895, -0.004556623287498951, -0.01097633596509695, -0.005222401116043329, -0.006589252036064863, -0.01587824337184429, -0.01718302071094513, -0.00888810958713293, -0.017327414825558662, 0.0001601585536263883, -0.019185181707143784, -0.008766241371631622, -0.008983816020190716, -0.018883811309933662, -0.004927386064082384, -0.0019547268748283386, -0.017901023849844933, -0.01369027141481638, -0.003481389256194234, 0.007315004710108042, -0.007647261023521423, -0.0002875269274227321, 0.00958330649882555, -0.008108198642730713, -0.002770368941128254, -0.004411136731505394, 0.004151482135057449, 0.0018545319326221943, 0.0033809749875217676, 0.011962825432419777, 0.0075827548280358315, -0.0005091755301691592, -0.006209495011717081, -0.012415814213454723, -0.009266478009521961, -0.005766525398939848, -0.01214511413127184, 0.007002842612564564, -0.00978004839271307, -0.007992474362254143, -0.005416703410446644, 0.009131099097430706, 0.0015398625982925296, -0.002731356304138899, 0.0020935048814862967, 0.0090723792091012, -0.002260688692331314, 0.015049738809466362, -0.003572880057618022, 0.001195585005916655, -0.0073614767752587795, -0.013622705824673176, 0.006380632985383272, 0.0015722119715064764, -0.009835760109126568, -0.006745135877281427, 0.006038215011358261, -0.0016174032352864742, 0.007960118353366852, 0.00411263620480895, -0.0002687193627934903, 0.0006628659903071821, -0.003545071231201291, 1.5079661352501716e-05, -0.0013160004746168852, 0.0050029694102704525, -0.0020853036548942327, 0.00250302255153656, 0.00944374967366457, 0.0022023001220077276, -0.008898829109966755, 0.011231249198317528, -0.0041337283328175545, 0.0006816877285018563, 0.01968945562839508, 0.013273254036903381, 0.013457848690450191, 0.011387201026082039, 0.006058039143681526, 0.010008072480559349, 0.022000715136528015, 0.01663747802376747, 0.015055757947266102, 0.01621759682893753, 0.012529474683105946, 0.027832865715026855, -0.0027242691721767187, 0.0004600395041052252, 0.010622321628034115, -0.0047418042086064816, 0.015027868561446667, -0.00505751371383667, -0.0013929491396993399, 0.0018790867179632187, 0.001328122802078724, 0.005401419475674629, -0.0018861287971958518, 0.00711817666888237, -0.0017634632531553507, -0.0012845309684053063, 0.004330052994191647, 0.015440920367836952, 0.002493749838322401, -0.004945697262883186, 0.021069416776299477, 0.0017450061859562993, 0.015037301927804947, 0.01320519670844078, 0.018840854987502098, 0.021999327465891838, 0.013706336729228497, 0.009956017136573792, 0.011867576278746128, -0.009178698994219303, -0.0010311072692275047, 0.00574271846562624, 0.01431396882981062, 0.004384255968034267, 0.020611263811588287, 0.01680534891784191, 0.022550253197550774, 0.01280429307371378, 0.007516554556787014, 0.0018645578529685736, 0.0006553151179105043, 0.0076309749856591225, -0.0010316745610907674, 0.011778579093515873, -0.0035367750097066164, 0.009035981260240078, -0.0004460413765627891, 0.002910144627094269, -0.0055908327922225, 0.004697680007666349, 0.005585233680903912, 0.008471257984638214, 0.005231319926679134, 0.0031982404179871082, 0.010776196606457233, 0.014371167868375778, 0.018411681056022644, 0.019256897270679474, 0.010842925868928432, -0.006317094434052706, 0.01036708615720272, 0.018476756289601326, -0.01892540231347084, -0.01042944099754095, -0.018708640709519386, -0.03175988048315048, -0.023428214713931084, -0.024226916953921318, 0.011187959462404251, 0.001230372698046267, 0.011670326814055443, 0.009271502494812012, 0.009860080666840076, 0.017029764130711555, 0.012607007287442684, 0.005822087172418833, 0.008411852642893791, 0.00818447582423687, 0.013444713316857815, 0.004436517599970102, 0.007550078444182873, 0.003394814906641841, -0.0035535222850739956, 0.00047788184019736946, -0.0004970795125700533, -0.004268609918653965, 0.0019207895966246724, -0.002678869990631938, -0.0028265409637242556, 0.015005866065621376, 0.017781315371394157, 0.030442900955677032, 0.010285412892699242, 0.02648785337805748, 0.03119761496782303, 0.009751846082508564, -0.004183724522590637, 0.00322528975084424, -0.030889475718140602, -0.015166332945227623, -0.030497416853904724, -0.01006966270506382, -0.013723577372729778, -0.019596200436353683, 0.012364483438432217, 0.001826710533350706, 0.014373633079230785, 0.013893276453018188, 0.022643156349658966, 0.020432889461517334, 0.002818038687109947, 0.005322413053363562, 0.017673257738351822, 0.005200610961765051, -0.006452132016420364, 0.010706009343266487, -0.002708877669647336, -0.0004306088958401233, 0.01459675282239914, -0.00605346355587244, 0.007836660370230675, 0.004825938958674669, 0.004982390441000462, 0.001227073254995048, 0.005149518139660358, 0.005247774999588728, 0.0037221484817564487, 0.0076649063266813755, 0.012445958331227303, 0.007933910936117172, 0.01635533571243286, 0.010305685922503471, -0.0032970751635730267, 0.010027547366917133, -0.006899311672896147, -0.013389486819505692, -0.019846921786665916, 0.004026904236525297, 0.009023166261613369, 0.007448111195117235, 0.010069522075355053, 0.013511596247553825, 0.020534778013825417, 0.0011147016193717718, 0.008405550383031368, 0.020496921613812447, 0.004037719685584307, -0.00311925052665174, 0.007192082237452269, -0.014866877347230911, -0.0006838661502115428, -0.0010898581240326166, -0.0005036643706262112, -0.002573705045506358, 0.0032081850804388523, -0.0030036603566259146, -0.003000636352226138, -0.006125135812908411, 0.001317997695878148, -0.005746686365455389, -0.01413873303681612, -0.005107476841658354, 0.006781233008950949, -0.011145238764584064, 0.0004959072102792561, -0.0037860297597944736, -0.007511837407946587, -0.005719263106584549, -0.008825286291539669, -0.003519452875480056, 0.008192507550120354, 0.012274795211851597, 0.003018941031768918, 0.004015435464680195, 0.011179949156939983, 0.00810416229069233, 0.008423242717981339, 0.012527289800345898, 0.004541053902357817, -0.012946618720889091, -0.009291490539908409, -0.004497148562222719, -0.01477065123617649, -0.010483344085514545, -0.013021430931985378, -0.0008687178487889469, -0.004906938411295414, -0.032509695738554, -0.0005991056095808744, -0.00417572446167469, -0.01266188733279705, -0.002328339032828808, 0.004497951362282038, -0.010972472839057446, 0.0029680426232516766, 0.00027990079252049327, -0.00503307580947876, -0.014732246287167072, -0.009790345095098019, -0.019768012687563896, -0.00935756042599678, -0.007995616644620895, -0.02027061954140663, -0.004888593684881926, -0.00427964935079217, -0.008661482483148575, -0.006835361942648888, 0.00512226577848196, 0.005141811911016703, 0.008397071622312069, -0.004391858354210854, -0.0022541694343090057, 0.006021695211529732, -0.007928510196506977, -0.011000147089362144, 0.0005986166652292013, -0.004902028478682041, -0.01003191526979208, -0.01745295338332653, -0.007848232984542847, -0.016122590750455856, -0.0022200793027877808, -0.00011992763029411435, -0.010255547240376472, -0.009550276212394238, 0.004964292515069246, -0.001322857802733779, -0.008364563807845116, 0.0033365061972290277, 0.001190842129290104, -0.00020058070367667824, -0.004667972214519978, 0.005888354033231735, -0.0016632478218525648, -0.00878453440964222, -0.013269886374473572, -0.00910571962594986, 