{"layer0": {"kernels": [[[[0.291567325592041, 0.10832466930150986, 0.04669581726193428, 0.3537508249282837, 0.23712940514087677, -0.04606064036488533, 0.07445401698350906, -0.8507997393608093, -0.007282331120222807, -0.001964397029951215, -0.1264483779668808, 0.43711912631988525, -0.055459678173065186, 0.0174129456281662, 0.20757588744163513, 0.1478046327829361, 0.3895060122013092, -0.17638826370239258, 0.01793239824473858, -0.030896706506609917, -0.3391570448875427, 0.05819060280919075, 0.26301610469818115, 0.019792279228568077, 0.34545835852622986, -0.06414920836687088, 0.018435684964060783, -0.28856563568115234, 0.19049745798110962, 0.11814519762992859, -0.012570817023515701, 0.0226009301841259]], [[0.46869808435440063, 0.3151438236236572, -0.01515273842960596, 1.140344262123108, 0.7511876821517944, 0.04659939929842949, 0.028442880138754845, 0.2391849160194397, -0.04693465679883957, -0.0999847948551178, 0.3203634023666382, 0.7405280470848083, -0.12856954336166382, -0.03377905115485191, 0.14011014997959137, 0.31001049280166626, 0.9657784700393677, 0.8328931927680969, -0.03934122249484062, 0.01428057812154293, -0.10191527754068375, -0.019660549238324165, 0.41952553391456604, 0.8089320063591003, 0.25269657373428345, 0.014082281850278378, 0.008472176268696785, 1.04034423828125, 0.36323028802871704, 0.3508647084236145, -0.10280362516641617, 0.47543865442276]], [[0.3272235095500946, 0.3450492322444916, -0.07288319617509842, 0.7571272253990173, 0.1987960934638977, -0.0030806686263531446, 0.08520140498876572, 0.3826567232608795, 0.05020271986722946, -0.08173639327287674, 0.17381443083286285, 0.5131121873855591, -0.018125714734196663, -0.034206315875053406, 0.17335382103919983, 0.31221815943717957, 0.1437041163444519, 0.8209376335144043, 0.018517741933465004, -0.07185197621583939, 0.16060662269592285, 0.1133093610405922, 0.4753974974155426, 0.05103585869073868, 0.16534870862960815, 0.047465283423662186, 0.050321731716394424, 0.7952154874801636, -0.06557805091142654, 0.3868750035762787, -0.030713319778442383, 0.45621258020401]], [[-0.2166154980659485, 0.1844824254512787, 0.0048172734677791595, -0.6817976832389832, -0.8387492895126343, -0.06033439561724663, -0.00475708581507206, -0.6057701110839844, -0.05196499079465866, 0.10715115815401077, -0.7377021312713623, 0.22960953414440155, 0.24983635544776917, 0.0651005357503891, 0.2793169617652893, 0.2871140241622925, -1.553186058998108, 0.029806170612573624, -0.014396515674889088, 0.03228294849395752, 0.15917962789535522, 0.023781467229127884, 0.32578045129776, -1.5518070459365845, 0.19950643181800842, -0.04827193543314934, 0.09081027656793594, -1.0734206438064575, -0.8426696062088013, 0.10766284912824631, 0.0024461401626467705, -0.13859429955482483]]], [[[0.6270803213119507, 0.3206132650375366, -0.0339493490755558, 1.4416248798370361, 1.078222632408142, -0.003097832901403308, -0.031766265630722046, 0.5916092395782471, 0.025297895073890686, -0.041732799261808395, 0.6819697618484497, 0.38358208537101746, -0.20489169657230377, 0.04202320799231529, 0.01644657552242279, 0.11022733896970749, 1.8647468090057373, 0.8525933623313904, -0.040443677455186844, 0.05974481999874115, -0.22791138291358948, -0.021646104753017426, 0.16498124599456787, 1.6280540227890015, 0.0827580988407135, -0.03634435310959816, -0.019328007474541664, 1.4735424518585205, 0.8294384479522705, 0.18812377750873566, -0.023139841854572296, 0.6663581728935242]], [[0.7748132348060608, 0.6171448826789856, 0.0402352400124073, 2.0955424308776855, 1.4739466905593872, 0.0286529753357172, -0.037833232432603836, 1.6545706987380981, 0.053001582622528076, -0.03349292650818825, 1.1616742610931396, 0.5846296548843384, -0.07799055427312851, -0.03173299506306648, -0.039938364177942276, 0.19561508297920227, 2.2577898502349854, 1.649648904800415, -0.020415212959051132, 0.001828342443332076, 0.026577014476060867, -0.058887869119644165, 0.24271643161773682, 2.069201946258545, 0.10559339076280594, -0.07077383249998093, -0.046803612262010574, 2.6579368114471436, 0.9606934189796448, 0.5367936491966248, -0.07030357420444489, 1.150744915008545]], [[0.5308259129524231, 0.3690590560436249, 0.021842578426003456, 1.4466516971588135, 0.9926321506500244, 0.029338881373405457, 0.12111180275678635, 1.7017674446105957, -0.016108637675642967, -0.03735119104385376, 0.8239302039146423, 0.4308643043041229, 0.07445797324180603, -0.050373878329992294, 0.01109009888023138, 0.1398780345916748, 1.3173012733459473, 1.363721251487732, 0.0378030426800251, 0.011729537509381771, 0.27425095438957214, -0.020728319883346558, 0.19728143513202667, 1.2286897897720337, 0.05516359582543373, 0.01678553968667984, 0.1403965801000595, 2.0229837894439697, 0.41496631503105164, 0.3646041750907898, 0.0003754504141397774, 0.872738778591156]], [[0.045075833797454834, 0.19368880987167358, 0.005682155955582857, 0.25170159339904785, -0.14677879214286804, -0.013048890046775341, -0.024157775565981865, 0.3364179730415344, -0.024294592440128326, 0.05366909131407738, -0.20552100241184235, 0.25571852922439575, 0.26032546162605286, -0.04600801691412926, 0.1008482575416565, 0.1730082631111145, -0.3418275713920593, 0.514388918876648, -0.00918120052665472, -0.014527094550430775, 0.22494466602802277, -0.07012657076120377, 0.22071070969104767, -0.39608320593833923, 0.041932880878448486, -0.06478498876094818, 0.0821160152554512, 0.18731001019477844, -0.28276491165161133, 0.16235609352588654, 0.089758962392807, 0.2949245572090149]]], [[[0.28469550609588623, 0.0459328293800354, -0.07012970745563507, 0.8399614691734314, 0.6603744029998779, -0.02727007307112217, -0.05257648974657059, 0.761978805065155, -0.08514613658189774, -0.011135797947645187, 0.5417421460151672, 0.08137720078229904, -0.10770870745182037, 0.05953812971711159, -0.07543281465768814, -0.2320358157157898, 1.2408685684204102, 0.44885021448135376, -0.02928309328854084, -0.004483041353523731, -0.07870080322027206, -0.01108956802636385, -0.18692360818386078, 1.2601429224014282, -0.05346999317407608, 0.045710235834121704, -0.0629899650812149, 1.084333896636963, 0.5675932168960571, 0.08599039167165756, 0.04475339129567146, 0.4572785496711731]], [[0.42568910121917725, 0.27905136346817017, -0.028771087527275085, 1.120229959487915, 1.0287389755249023, -0.05506983399391174, -0.01959613338112831, 1.703935146331787, 0.005097687244415283, 0.007194606587290764, 0.7923281192779541, 0.14236989617347717, -0.09988358616828918, 0.10920196771621704, -0.09349755942821503, -0.09395642578601837, 1.4433507919311523, 0.9252632260322571, -0.05898639187216759, -0.05825405940413475, 0.09151286631822586, -0.012133895419538021, -0.05269678682088852, 1.5674118995666504, -0.1285656839609146, -0.03227720037102699, -0.03752649948000908, 1.7173185348510742, 0.6716700196266174, 0.17819134891033173, 0.06561752408742905, 0.6543097496032715]], [[0.17285306751728058, 0.09813614934682846, 0.011405077762901783, 0.5896731019020081, 0.45226410031318665, -0.01943003572523594, 0.007748160045593977, 1.4322309494018555, -0.030546007677912712, 0.05808210000395775, 0.5144494771957397, -0.014500540681183338, 0.14422227442264557, -0.0008528740727342665, -0.1750129908323288, -0.007319693453609943, 0.630932092666626, 0.6171285510063171, -0.03067021444439888, 0.07264602929353714, 0.2546234428882599, -0.024420561268925667, -0.05956701934337616, 0.7275664806365967, -0.08589004725217819, -0.01242049504071474, 0.006272783502936363, 1.0691766738891602, 0.3128986656665802, 0.13376668095588684, 0.06366294622421265, 0.33146750926971436]], [[0.10550075769424438, 0.012760255485773087, -0.029643980786204338, 0.07452447712421417, -0.13998310267925262, -0.022240720689296722, 0.008266659453511238, 0.3120122253894806, 0.02905667945742607, 0.07600551098585129, -0.02785116247832775, 0.049216531217098236, 0.19666337966918945, 0.0797630250453949, 0.010751069523394108, -0.01043082494288683, -0.11245949566364288, 0.13272570073604584, 0.010491630993783474, -0.04299977421760559, 0.22157801687717438, -0.009676250629127026, -0.005362579599022865, -0.17627683281898499, 0.01566682755947113, -0.06941647082567215, 0.034085240215063095, 0.12788152694702148, -0.21948379278182983, 0.049878403544425964, 0.015932468697428703, 0.061268530786037445]]], [[[-0.38592177629470825, -0.4081107974052429, -0.04322250187397003, -1.0419291257858276, -0.5445268154144287, 0.0022727407049387693, -0.0010387764777988195, -0.4615308940410614, -0.01554216630756855, -0.04376896098256111, -0.3761744797229767, -0.45905107259750366, 0.05881786718964577, 0.1669647991657257, -0.046767815947532654, -0.22524011135101318, -0.8408663868904114, -1.0042957067489624, 0.03351818025112152, 0.025342628359794617, -0.18971632421016693, 0.012590637430548668, -0.29740774631500244, -0.6350190043449402, -0.13345828652381897, -0.035377901047468185, -0.0979628786444664, -1.1302961111068726, -0.30383074283599854, -0.36647874116897583, 0.2895348072052002, -0.5409607291221619]], [[-0.2818576395511627, -0.2496858686208725, 0.06680995970964432, -0.6369158625602722, -0.3771689236164093, 0.01745688170194626, -0.0997653380036354, 0.03714727982878685, -0.005185991059988737, 0.054665032774209976, -0.15159425139427185, -0.4624146819114685, 0.036491356790065765, 0.11750875413417816, -0.12389088422060013, -0.279714435338974, -0.5107448697090149, -0.6261707544326782, -0.042746514081954956, 0.014912404119968414, 0.001187879010103643, -0.005048222374171019, -0.2382354587316513, -0.35452306270599365, -0.1500055491924286, -0.051244962960481644, -0.025153232738375664, -0.7136844992637634, -0.13597773015499115, -0.25653910636901855, 0.21689724922180176, -0.42089390754699707]], [[-0.30459868907928467, -0.217898890376091, -0.046749990433454514, -0.6363186240196228, -0.40116655826568604, 0.007300436031073332, 0.03454231843352318, -0.13223569095134735, -0.02099359966814518, -0.005057143978774548, -0.24598270654678345, -0.26467618346214294, 0.1403023600578308, 0.06338620185852051, -0.08537880331277847, -0.138762429356575, -0.6046827435493469, -0.5058502554893494, -0.04249162971973419, -0.03465932235121727, -0.06187555566430092, 0.006423805840313435, -0.2696327269077301, -0.5191183090209961, -0.10458913445472717, -0.03135020658373833, 0.09369784593582153, -0.725878119468689, -0.18073317408561707, -0.24327489733695984, 0.2316845804452896, -0.3511379063129425]], [[-0.13019229471683502, -0.08364154398441315, -0.040145859122276306, -0.47617030143737793, -0.35080686211586, -0.11770769208669662, 0.0979946181178093, -0.6269208192825317, -0.006373493932187557, 0.13713712990283966, -0.3620169758796692, -0.09860014170408249, 0.2320871502161026, 0.15767225623130798, 0.11268585920333862, -0.05137547850608826, -0.5314680933952332, -0.46792739629745483, -0.045315127819776535, -0.000675594958011061, 0.022686030715703964, -0.0020017456263303757, -0.037409357726573944, -0.6067689657211304, -0.03783952072262764, -0.02567010186612606, -0.03315110504627228, -0.8124702572822571, -0.3159642815589905, -0.08362129330635071, 0.18467330932617188, -0.22097276151180267]]]], "biases": [-7.781839599374507e-07, 3.998911051894538e-05, 1.6498079276061617e-06, 2.1633929918607464e-06, -9.241262159775943e-05, -1.6232174857577775e-06, 1.6654264527460327e-06, -5.092492210678756e-05, -1.5138166418182664e-06, 4.934530079481192e-05, -4.094146788702346e-06, 0.0001182426858576946, 7.433444261550903e-05, 3.629997081588954e-05, 3.8245525502134115e-05, 3.165189264109358e-05, -8.698143938090652e-05, 3.0512173907482065e-06, 7.3407650234003086e-06, -2.204209259559775e-08, -1.853481279567859e-07, 1.284784320887411e-05, 3.9989554352359846e-05, -0.00018053871463052928, 2.8787877454306e-05, -1.0044913345552686e-08, 8.294953659060411e-06, -0.00011557620018720627, -8.763951336732134e-05, 1.841484845499508e-05, 5.6763074098853394e-05, 2.0275733731978107e-06]}, "layer2": {"kernels": [[[[-0.03176743537187576, -0.10358383506536484, -0.009866937063634396, -0.0036105832550674677, -0.030834045261144638, 0.17191697657108307, -0.1857173889875412, 0.0058888401836156845, -0.01582389511168003, 0.013272282667458057, -0.038164038211107254, -0.017023157328367233, -0.11742227524518967, -0.015937747433781624, 0.014333043247461319, -0.03368100896477699], [-0.0450238436460495, 0.0028852743562310934, -0.03337879106402397, 0.0002497087698429823, 0.0032760524190962315, 0.15393635630607605, -0.15273916721343994, -0.018764281645417213, -0.020358700305223465, 0.04769238457083702, -0.01828216388821602, -0.012029329314827919, -0.08730637282133102, -0.022568229585886, -0.011447135359048843, -0.004520629066973925], [-0.00692946370691061, -0.00978041347116232, 0.015900658443570137, -0.03826906159520149, 0.017339862883090973, -0.009563007391989231, 0.0007007202366366982, 0.0017734753200784326, 0.013723117299377918, -0.004697959870100021, -0.009912272915244102, 0.018871227279305458, -0.035010967403650284, 0.00040291331242769957, -0.01943167857825756, -0.011506054550409317], [0.0071763331070542336, -0.011090708896517754, 0.0019614535849541426, -0.0436553992331028, -0.11570809036493301, 0.39278683066368103, -0.31695663928985596, -0.042455561459064484, -0.01606982946395874, 0.16354577243328094, -0.03567729517817497, -0.05157396197319031, -0.1363045871257782, 0.0028992940206080675, -0.0016917861066758633, -0.12408790737390518], [-0.012665039859712124, 0.011173315346240997, -0.0025086328387260437, 0.006334367673844099, -0.11343151330947876, 0.19041317701339722, -0.16240665316581726, -0.028999002650380135, -0.009166895411908627, 0.10430992394685745, -0.02837958186864853, -0.01070350967347622, -0.01033815834671259, -0.05056484416127205, 0.0069787707179784775, -0.07793539762496948], [-0.003422809299081564, -0.016023587435483932, 0.005163254681974649, 0.004998414311558008, -0.006964537780731916, -0.002979462966322899, -0.011772125959396362, -0.002840584609657526, -0.021501591429114342, 0.007790813222527504, -0.012917092069983482, 0.0035417634062469006, -0.020969467237591743, -0.008711088448762894, -0.0018207954708486795, -0.023968880996108055], [-0.0019015504512935877, -0.00818580761551857, -0.025989597663283348, -0.022824058309197426, 0.013123421929776669, 0.028743518516421318, 0.005180893000215292, 0.005887864623218775, 0.001449881587177515, 0.013965570367872715, 0.018376529216766357, -0.019120298326015472, 0.014993521384894848, -0.00448520015925169, -0.0027154211420565844, -0.005450145341455936], [0.0031190370209515095, 0.7341657280921936, -0.00173187127802521, 0.013172551989555359, -0.08634641766548157, 0.21230919659137726, 0.4482109248638153, -0.05167302116751671, -0.01821887120604515, 0.4137786030769348, -0.09937537461519241, 0.01173462625592947, 0.7374523282051086, -0.012043526396155357, -0.01834523305296898, -0.019219040870666504], [-0.0017358277691528201, 0.019980205222964287, 0.015250132419168949, -0.01484179962426424, -0.017834046855568886, -0.004349455703049898, 0.015144712291657925, -0.0009595645242370665, -0.009129622019827366, 0.023204132914543152, 0.004485669545829296, -0.03427999094128609, 0.004933128133416176, 0.0077485982328653336, 0.003384978976100683, 0.006437401752918959], [-0.003167189424857497, 0.01031489111483097, -0.006236149463802576, -0.015638668090105057, -0.0024830978363752365, -0.017966441810131073, 0.045612603425979614, 0.0015053683891892433, -0.007357295136898756, 0.01436032634228468, -0.000761666800826788, 0.018932946026325226, 0.014371320605278015, 0.007417282089591026, -0.007966350764036179, -0.02427693083882332], [-0.028850825503468513, 0.22471140325069427, 0.0026507126167416573, 0.002167892176657915, -0.06967819482088089, 0.1393435001373291, 0.08951658755540848, -0.021405646577477455, -0.011069199070334435, 0.17669284343719482, -0.0172516331076622, 0.01459496095776558, 0.19360539317131042, -0.046361301094293594, 0.02084479108452797, -0.06345093250274658], [-0.027026118710637093, -0.13837286829948425, 0.004111981950700283, 0.009225074201822281, -0.04009678214788437, 0.19300267100334167, -0.32282137870788574, 0.008538694120943546, -0.012801285833120346, -0.029651528224349022, 0.0010972251184284687, 0.008158857934176922, -0.3053947985172272, -0.022814016789197922, -0.012246157974004745, -0.023694073781371117], [0.0016179523663595319, 0.16166837513446808, 0.0102466382086277, -0.007315760012716055, 0.040956560522317886, 0.01486839260905981, 0.13357138633728027, 0.0098859379068017, -0.017823902890086174, 0.07526782155036926, 0.009289027191698551, 0.0002546134346630424, 0.14600065350532532, -0.005398599896579981, 0.01076242420822382, 0.00395060982555151], [-0.002108901273459196, -0.025721028447151184, 0.0027162102051079273, -0.005954659543931484, -0.022115744650363922, -0.03505728021264076, -0.01565876044332981, 0.01786140352487564, 0.01823984831571579, -0.014243559911847115, -0.0009951007086783648, -0.002166938502341509, -0.007122728507965803, -0.014579514041543007, 0.0471406951546669, -0.027868928387761116], [0.006456147413700819, -0.08975919336080551, -0.002625557594001293, -0.019998297095298767, -0.002416908275336027, 0.04271572455763817, -0.06209414079785347, -0.002044928027316928, -0.01366971805691719, -0.01804487220942974, 0.004969942849129438, 0.015288764610886574, -0.12577660381793976, 0.004424723330885172, 0.018426258116960526, -0.023173851892352104], [-0.0026949956081807613, -0.04434596747159958, -0.0015592542476952076, 0.00862659327685833, 0.008716360665857792, 0.12131170928478241, -0.14137053489685059, -0.025073779746890068, -0.018782837316393852, 0.008700607344508171, 0.008238446898758411, -0.0027161932084709406, -0.128581702709198, -0.020818162709474564, 0.000572622346226126, -0.015568253584206104], [0.013789632357656956, 0.06702430546283722, -0.007554507348686457, -0.012744206003844738, -0.12995420396327972, 0.2762603759765625, -0.24491946399211884, -0.08682665973901749, -0.000448488921392709, 0.13003259897232056, -0.05642370507121086, -0.008000167086720467, 0.013610662892460823, 0.002001652028411627, 0.009118596091866493, -0.15464043617248535], [-0.007775258272886276, 0.16570939123630524, 0.0060396622866392136, -0.00908967386931181, -0.09426739811897278, 0.3730476200580597, -0.15356317162513733, -0.03914371505379677, -0.03680015355348587, 0.24819007515907288, -0.06799629330635071, -0.039410702884197235, 0.022767240181565285, -0.030485330149531364, -0.029796389862895012, -0.08284160494804382], [0.021243995055556297, 0.01054357085376978, -0.0008832210442051291, -0.005707764998078346, 0.013883061707019806, 0.006129450164735317, 0.005972943734377623, -0.000292890501441434, -0.024164507165551186, -0.0021184897050261497, -0.0073793428018689156, 0.009662685915827751, 0.013573268428444862, -0.00963909737765789, 0.007208297960460186, 0.02579294703900814], [-0.009688194841146469, 0.025907067582011223, -0.0125657357275486, 0.0002467553422320634, -0.00042655470315366983, 0.0008928034221753478, -0.010635542683303356, -0.008795661851763725, -0.008483544923365116, 0.005478725302964449, 0.006181929726153612, 0.033488690853118896, 0.020303640514612198, -0.007416563108563423, 0.005601205863058567, 0.014975382015109062], [-0.00047346699284389615, 0.19992826879024506, -0.0016015754081308842, 0.0073484210297465324, 0.0007621389231644571, 0.03739510476589203, 0.17976300418376923, 0.002805517753586173, -0.002837462117895484, 0.11361242830753326, 0.000660786172375083, 0.032143592834472656, 0.2246023416519165, -0.003601324511691928, 0.00017715043213684112, 0.0033055394887924194], [-0.0106595978140831, -0.018861966207623482, -0.038045305758714676, -0.017451222985982895, -0.005796689540147781, -0.012969794683158398, -0.03616255521774292, -0.005588818341493607, -0.02377147041261196, -0.014887998811900616, -0.00629071332514286, 0.00032791413832455873, -0.002806715900078416, 0.0023161727003753185, 0.003049809718504548, 0.0007554261246696115], [-0.006947356276214123, -0.1406339854001999, -0.0029237952549010515, 0.00028923340141773224, -0.019685667008161545, 0.17509624361991882, -0.19659271836280823, -0.012666516937315464, -0.01992029882967472, -0.022870179265737534, 0.008856834843754768, -0.022622395306825638, -0.21213527023792267, -0.016861343756318092, 0.0028886618092656136, -0.04935118928551674], [0.015052019618451595, 0.2378612607717514, -6.705713167320937e-05, -0.00957468617707491, -0.12066797912120819, 0.2132270634174347, -0.03755040094256401, -0.06752680242061615, 0.005835323128849268, 0.19213071465492249, -0.05425006151199341, -0.0038058634381741285, 0.21195067465305328, -0.009243584237992764, -0.0279690008610487, -0.0878208577632904], [-0.025272859260439873, -0.16786348819732666, 0.038116101175546646, -0.009828503243625164, -0.025473318994045258, 0.06362587213516235, -0.17026430368423462, 0.0015736939385533333, -0.01533997617661953, -0.029295874759554863, -0.0032660046126693487, -0.0228154044598341, -0.16608378291130066, 0.018328208476305008, -0.00868908129632473, -0.040338121354579926], [0.015123661607503891, -0.03088643215596676, -0.018069876357913017, 0.014324173331260681, -0.0007869573892094195, -0.003853545291349292, 0.004564321134239435, -0.0022734554950147867, -0.01909375935792923, 0.018757136538624763, 0.019654249772429466, 0.003047042293474078, -0.0003113840357400477, 0.034436967223882675, -0.00393326161429286, -0.003954875282943249], [0.006245773285627365, 0.054839011281728745, 0.02258121781051159, -0.010342595167458057, 0.009281097911298275, 0.0011976987589150667, 0.032128315418958664, -0.013033215887844563, -0.020350538194179535, 0.0599106065928936, -0.018659574910998344, -0.00824795849621296, 0.038830727338790894, 0.01784026436507702, 0.001862654578872025, 0.0446431003510952], [-0.007545267231762409, 0.3749629557132721, 0.0020074935164302588, 0.009802035056054592, -0.12166786938905716, 0.43356817960739136, -0.07752516120672226, -0.0634569302201271, 0.005821149330586195, 0.3292243480682373, -0.0654863640666008, -0.016311615705490112, 0.24070699512958527, -0.025223124772310257, 0.007622770965099335, -0.1368618607521057], [-0.007778055965900421, 0.06186215579509735, 0.004337446764111519, 0.0028570869471877813, -0.0630098283290863, 0.0784277617931366, -0.04039999470114708, -0.006747646257281303, 0.009708626195788383, 0.09884505718946457, -0.023289227858185768, 0.007013928610831499, 0.06324154138565063, 0.016785049811005592, 0.0321376696228981, -0.07218615710735321], [-0.01712682470679283, -0.03599531948566437, -0.003683113493025303, -0.011212420649826527, -0.010371544398367405, 0.150875523686409, -0.12254409492015839, 0.004298096057027578, -0.0228726863861084, 0.056940484791994095, -0.017121726647019386, 0.008939058519899845, -0.05610716715455055, -0.009570306167006493, 0.003212464042007923, -0.023953115567564964], [-0.010757233016192913, 0.005296112969517708, 0.004282753448933363, 0.007960856892168522, -0.0047249868512153625, -0.04150421917438507, -0.002443793462589383, -0.004521227907389402, 0.02120506577193737, -0.00919564999639988, -0.0030825650319457054, 0.006795824971050024, 0.027373649179935455, 0.001841263147071004, 0.014993774704635143, -0.019586432725191116], [-0.008282932452857494, 0.08447706699371338, -0.01643204130232334, 0.017659064382314682, -0.045346908271312714, 0.2514899969100952, -0.14239266514778137, -0.041724469512701035, -0.006722067948430777, 0.08842368423938751, -0.03045358508825302, -0.012441971339285374, 0.0005393753526732326, 0.003654747037217021, -0.018681498244404793, -0.0696212649345398]], [[0.009445568546652794, 0.14355209469795227, -0.01593521423637867, -0.020535258576273918, -0.00569831533357501, 0.198294535279274, 0.0213022418320179, -0.015935342758893967, -0.03418847545981407, 0.1503860056400299, -0.011510439217090607, 0.011898175813257694, 0.1062704399228096, -0.0035846715327352285, -0.0022231785114854574, -0.061933308839797974], [0.01055667083710432, 0.08935808390378952, 0.00853954441845417, 0.013563713990151882, 0.02087000198662281, 0.19364452362060547, -0.036340124905109406, -0.017365768551826477, -0.026568863540887833, 0.07630445808172226, -0.025529973208904266, -0.024515578523278236, -0.015944963321089745, -0.000643345876596868, 0.04208407923579216, -0.021304942667484283], [-0.021803800016641617, 0.015528497286140919, -0.00443453062325716, -0.010150963440537453, 0.002989792497828603, -0.018125856295228004, 0.002424789359793067, -0.0010835665743798018, 0.002207384444773197, 0.005201656371355057, 0.0016961793880909681, 0.0001086951742763631, 0.0037027185317128897, 0.006256950553506613, -0.01510296668857336, -0.02116658166050911], [-0.03409181162714958, 0.5283600091934204, -0.0007463309448212385, -0.001084181945770979, -0.052719440311193466, 0.4909764230251312, 0.20125721395015717, -0.03894569352269173, -0.07780098915100098, 0.455377459526062, -0.07033518701791763, -0.046250760555267334, 0.3761207163333893, -0.04927683621644974, -0.042342521250247955, -0.08660517632961273], [-0.0029025552794337273, 0.4790383279323578, -0.014534561894834042, -0.01413016952574253, -0.08542260527610779, 0.2708980441093445, 0.3178156018257141, -0.03586519509553909, -0.03787969797849655, 0.3730016350746155, -0.05855287238955498, -0.016945699229836464, 0.40813782811164856, -0.02390380948781967, 0.005486089736223221, -0.056492555886507034], [-0.008534575812518597, -0.004035706166177988, 0.0039171939715743065, 0.006752575282007456, 0.018768487498164177, 0.007737404201179743, 0.0003647672710940242, 0.01846740022301674, 0.011037671007215977, -0.02080199494957924, 0.03735378012061119, 0.025281215086579323, -0.002827245742082596, 0.00554898614063859, 0.01847577840089798, -0.00261764251627028], [0.00585565809160471, 0.0017968880711123347, -0.0152135593816638, -0.011072156019508839, 0.02642938122153282, 0.032066985964775085, -0.006428307853639126, -0.0025446508079767227, -0.006783263757824898, -0.03353062644600868, -0.012617782689630985, 0.002701500663533807, -0.00989449117332697, 0.010128412395715714, -0.0016623375704512, -0.006815733853727579], [-0.03289458900690079, 0.9788217544555664, 0.015206363052129745, -0.0103243263438344, -0.028964407742023468, 0.3347610831260681, 0.7477512955665588, -0.05644341930747032, -0.09317509084939957, 0.5089823603630066, -0.1038062646985054, -0.0021750633604824543, 0.96689772605896, -0.009883375838398933, -0.027334650978446007, -0.06388062238693237], [0.002820829628035426, 0.008096479810774326, 0.0035215849056839943, 0.02047913148999214, 0.0011467506410554051, 0.004955040290951729, 0.02442150004208088, -0.02274317666888237, -0.006938909646123648, 0.02139456383883953, 0.01413978822529316, 0.00976876076310873, 0.012125717476010323, 0.004979555960744619, 0.02393208257853985, 0.005222182720899582], [-0.0005431944155134261, -0.0020489953458309174, 0.0025796247646212578, -0.018129918724298477, 0.027616892009973526, 0.0033548478968441486, 0.029777269810438156, -0.0008891326142475009, 0.0037750096525996923, 0.001280023716390133, -0.003658066038042307, 0.014789107255637646, 0.026411600410938263, 0.0033826075959950686, 0.00032324486528523266, -0.008313986472785473], [-0.03808858245611191, 0.492356538772583, 0.0022873382549732924, 0.011339263990521431, -0.019711753353476524, 0.18440726399421692, 0.3221014142036438, -0.005292927846312523, -0.041086625307798386, 0.2849993109703064, -0.026603957638144493, 0.013772831298410892, 0.44798916578292847, -0.02165733277797699, -0.04645618423819542, -0.014606177806854248], [-0.033873409032821655, -0.07267674803733826, 0.022498328238725662, 0.006198958493769169, -0.02143193781375885, 0.2346891611814499, -0.1859077364206314, -0.019645851105451584, 0.007155495695769787, 0.05434250831604004, 0.0026292093098163605, -0.0020720697939395905, -0.1699061095714569, -0.0053022876381874084, -0.008472546003758907, -0.03140633553266525], [-0.00013975454203318805, 0.02457251399755478, -0.019525209441781044, -0.01351202093064785, 0.0508156456053257, 0.026921596378087997, 0.05571378022432327, -0.005386065226048231, -0.015565224923193455, 0.0113499341532588, 0.012233891524374485, -0.005284877959638834, 0.009700465016067028, 0.012410514056682587, 0.023860549554228783, 0.00083495321450755], [-0.010038676671683788, 0.017344972118735313, -0.021325742825865746, -0.023067688569426537, 0.01922505348920822, -0.00927296094596386, 0.006472019478678703, -0.017228785902261734, 0.03718506172299385, -0.005067174322903156, 0.014976434409618378, 0.014678562059998512, 0.017461905255913734, 0.009532656520605087, 0.019178733229637146, -0.0009331616456620395], [-0.007699665147811174, -0.13000619411468506, -0.011536858975887299, 0.0019693863578140736, 0.039166610687971115, 0.07870393991470337, -0.13586890697479248, -0.01915479637682438, -0.048706620931625366, -0.035620398819446564, 0.007856656797230244, -0.008146598935127258, -0.1469114124774933, -0.02041945606470108, 0.007066898513585329, 0.022484904155135155], [-0.003982958849519491, -0.06518697738647461, -0.02421758323907852, 0.03221651911735535, -0.01347210630774498, 0.1720757633447647, -0.18335342407226562, 0.018994780257344246, 0.009889869019389153, -0.024578416720032692, 0.007865001447498798, 0.0014322410570457578, -0.17017762362957, -0.030498161911964417, -0.011724925599992275, -0.009926093742251396], [-0.020777503028512, 0.7616273164749146, 0.013681422919034958, -0.002299424260854721, -0.1011318787932396, 0.37934988737106323, 0.4621226191520691, -0.060415372252464294, -0.060836657881736755, 0.5727314949035645, -0.06834052503108978, -0.019494684413075447, 0.6778873205184937, -0.043663203716278076, -0.00034569294075481594, -0.08409115672111511], [-0.02768961526453495, 0.49896761775016785, -0.0002540882851462811, -0.04102800041437149, -0.04355259984731674, 0.4621988832950592, 0.18215128779411316, -0.03277244046330452, -0.08861184120178223, 0.35131269693374634, -0.07788790762424469, -0.041613880544900894, 0.317140132188797, -0.041314028203487396, -0.01407789345830679, -0.06325379014015198], [-0.0036218513268977404, -0.006068998947739601, -0.011521835811436176, 0.009195920079946518, -0.012000096961855888, -0.007542526349425316, -0.002058114390820265, -0.01906992867588997, -0.004023433197289705, -0.010886331088840961, -0.005025174003094435, -0.0007550361915491521, -0.01294207014143467, -0.003237151075154543, 0.019503921270370483, -0.00015824389993213117], [0.017016898840665817, 0.008205532096326351, 0.011383060365915298, -0.01139535941183567, 0.0010137311182916164, 0.0029883715324103832, -0.0038939891383051872, -0.012274387292563915, -0.020617812871932983, 0.024221571162343025, -0.012996925041079521, 0.020465878769755363, -0.003893620567396283, -0.012526464648544788, 0.010011644102633, -0.00921881478279829], [-0.0029069201555103064, 0.11412942409515381, 0.005377613473683596, -0.019776199012994766, 0.051150694489479065, 0.0669749304652214, 0.08909113705158234, 0.03838861733675003, -0.007919873110949993, 0.09153761714696884, 0.02148483693599701, -0.004746978171169758, 0.11043159663677216, -0.0015757700894027948, -0.029347319155931473, -0.011951879598200321], [0.0031457026489079, 0.00480697862803936, -0.01138273160904646, 0.0129191093146801, -0.01913217455148697, -0.0016189950983971357, -0.023682860657572746, 0.006185689941048622, 0.007626828737556934, 0.007943591102957726, 0.013389221392571926, 0.0035916154738515615, -0.011205953545868397, 0.023114237934350967, -0.004559759981930256, 0.011143110692501068], [-0.039542194455862045, -0.09736752510070801, -0.007535635493695736, -0.0017467316938564181, 0.0266544371843338, 0.18134501576423645, -0.18749484419822693, 0.019051825627684593, -0.015967827290296555, 0.0030545301269739866, -0.00046960124745965004, -0.013798592612147331, -0.21596959233283997, 0.0030912219081074, 0.014075192622840405, -0.032224491238594055], [-0.015154949389398098, 0.8915005922317505, -0.0014690372627228498, -0.021624131128191948, -0.08051422238349915, 0.3141069710254669, 0.5814351439476013, -0.055889517068862915, -0.0754242017865181, 0.5716975331306458, -0.10426849126815796, 0.009324698708951473, 0.8011441230773926, -0.03370150551199913, -0.011256268247961998, -0.061374932527542114], [0.02554144337773323, -0.11393174529075623, -0.0018637008033692837, -0.02516627311706543, -0.0077104526571929455, 0.0712105855345726, -0.14731645584106445, -0.027887048199772835, 0.02493860200047493, -0.05071646720170975, -0.037097133696079254, -0.021283622831106186, -0.1588873565196991, -0.020999526605010033, 0.01909331977367401, -0.016520503908395767], [0.0003167054965160787, 0.008444558829069138, 0.004213538020849228, 0.014540617354214191, -0.016349684447050095, -0.007827235385775566, 0.009310880675911903, -0.037331484258174896, -0.0202142596244812, 0.007314743939787149, -0.006933160591870546, 0.013780388981103897, 0.010979014448821545, -0.017657076939940453, 0.00603771535679698, 0.017598815262317657], [-0.001851003267802298, -0.012390663847327232, 0.012237091548740864, 0.004271914251148701, 0.02146773412823677, 0.038570813834667206, -0.039669737219810486, 0.012668204493820667, 0.020493242889642715, 0.016830768436193466, 0.0005309818661771715, 0.010623509995639324, 0.0026060196105390787, 0.010594609193503857, 0.0010752864181995392, -0.013074883259832859], [-0.045657381415367126, 0.9555073976516724, -0.023143071681261063, -0.029935194179415703, -0.042966753244400024, 0.5876445770263672, 0.5281590223312378, -0.05947709456086159, -0.10261651873588562, 0.6314316987991333, -0.11214299499988556, -0.026154130697250366, 0.78367680311203, -0.03675552085042, -0.026427024975419044, -0.08432471752166748], [-0.005090583581477404, 0.3682219982147217, -0.0006493047112599015, -0.011600863188505173, -0.05046199634671211, 0.1367996633052826, 0.27695852518081665, -0.023915788158774376, -0.023768000304698944, 0.26531821489334106, -0.05518081411719322, -0.002215695334598422, 0.38395971059799194, -0.010310373269021511, 0.01036109495908022, -0.022304147481918335], [0.024069784209132195, 0.06657489389181137, -0.016652503982186317, -0.014593795873224735, -0.006203845143318176, 0.19082780182361603, -0.07175365835428238, 0.009618367999792099, -0.028574451804161072, 0.08452383428812027, -0.028891118243336678, -0.008741305209696293, -0.00862054992467165, -0.01548855286091566, -0.0014953253557905555, -0.03182723745703697], [-0.015167417004704475, 0.0006204324890859425, 0.001450987416319549, 0.0038420394994318485, 0.018764890730381012, -0.04822535812854767, 0.00591934472322464, 0.018857385963201523, -0.011050919070839882, -0.037348970770835876, 0.01372544001787901, 0.010283087380230427, 0.021836459636688232, 0.0010744641767814755, 0.005997159518301487, 0.004542437847703695], [0.0030843124259263277, 0.3421024680137634, -0.003477133112028241, 0.021690212190151215, -0.018725218251347542, 0.32533231377601624, 0.13537843525409698, -0.0028711804188787937, -0.07231428474187851, 0.24955995380878448, -0.06593630462884903, -0.010071543045341969, 0.21102546155452728, -0.018420999869704247, -0.018043382093310356, -0.05925964564085007]], [[-0.05611780285835266, 0.15628394484519958, 0.024302823469042778, -0.009526652283966541, 0.02747168205678463, 0.24118168652057648, 0.06900164484977722, -0.04040537402033806, -0.06471940129995346, 0.15613824129104614, -0.02856685034930706, -0.016028933227062225, 0.06806397438049316, 0.00032450337312184274, -0.005323631223291159, -0.03799930959939957], [-0.015545970760285854, 0.04454600811004639, 0.0027767096180468798, 0.02391740120947361, 0.023088596761226654, 0.2152177095413208, -0.07395600527524948, -0.0040127867832779884, -0.014135224744677544, 0.0317048653960228, -0.025512322783470154, -0.0015009677736088634, -0.0694831982254982, -0.013256560079753399, 0.0024390958715230227, -0.034100618213415146], [0.01104328315705061, -0.014415285550057888, -0.014903057366609573, 0.0010747252963483334, -0.023553239181637764, -0.019647223874926567, 0.027164075523614883, 0.011256911791861057, 0.0008960873237811029, 0.01804717443883419, -0.014517010189592838, -0.004546653479337692, 0.009604595601558685, 0.013387663289904594, 0.0073744929395616055, -0.03763071820139885], [-0.10032463073730469, 0.4882160723209381, -0.009080175310373306, 0.0210479274392128, 0.05153534188866615, 0.6169641017913818, 0.19097954034805298, -0.030654944479465485, -0.14266499876976013, 0.3721785843372345, -0.0664973333477974, -0.04637472704052925, 0.25065988302230835, -0.015364857390522957, -0.03827366977930069, -0.09890583157539368], [-0.051243022084236145, 0.4253143072128296, -0.018263136968016624, -0.02489066682755947, -0.010456292890012264, 0.3667793273925781, 0.29882925748825073, -0.025240011513233185, -0.11536473035812378, 0.2799827456474304, -0.05943674594163895, -0.014111501164734364, 0.314351886510849, -0.03341320902109146, -0.02179107256233692, -0.062128305435180664], [0.003185490844771266, 0.023812592029571533, 0.014639296568930149, 0.006959844380617142, -0.009747697040438652, -0.015919078141450882, -0.01052075531333685, 0.022800587117671967, -0.0006589703843928874, -0.0054979328997433186, -0.002898898208513856, 0.010659955441951752, -0.019587136805057526, 0.020961148664355278, 0.0015372425550594926, -0.0034885972272604704], [0.0038754248525947332, -0.024212734773755074, -0.0051863049156963825, -0.0036295102909207344, 0.003589948872104287, 0.04000153765082359, -0.05204518139362335, -0.01624320261180401, -0.0009567478555254638, 0.0005388059071265161, 0.005861928686499596, -0.010308295488357544, -0.04761860519647598, 0.03140581026673317, -0.020757341757416725, -0.00010400799510534853], [-0.10474521666765213, 0.5460532903671265, 0.010121705941855907, -0.020606592297554016, 0.11580072343349457, 0.5212534666061401, 0.3931332230567932, -0.041264086961746216, -0.1645127832889557, 0.2320675551891327, -0.032862529158592224, -0.014155672863125801, 0.4735974669456482, 0.04195486381649971, -0.025555958971381187, -0.1360204666852951], [0.0032448202837258577, 0.008693981915712357, 0.0012286149431020021, -0.012160427868366241, 0.0006179790361784399, -0.0005703574861399829, -0.013589349575340748, 0.014946997165679932, -0.025492729619145393, 0.009247085079550743, 0.005829601548612118, 0.014527346007525921, -0.015159046277403831, 0.0016824373742565513, 0.03201216459274292, 0.009322864934802055], [-0.0023151407949626446, -0.02272471971809864, 0.001186308916658163, 0.031075069680809975, 0.03570465371012688, 0.002374940784648061, -0.014444014057517052, -0.006842005532234907, 0.016212686896324158, -0.03883782774209976, -0.01661587320268154, 0.01994134858250618, -0.003036963753402233, 0.010340111330151558, 0.0022000567987561226, 0.0018863949226215482], [-0.051298003643751144, 0.37559327483177185, -0.0015560437459498644, 0.0030545154586434364, 0.001453291391953826, 0.24525654315948486, 0.274859219789505, -0.025047745555639267, -0.09144285321235657, 0.22647079825401306, -0.03963392227888107, -0.0198554415255785, 0.28408581018447876, 0.00956803560256958, 0.0030291592702269554, -0.04175085574388504], [-0.03843800351023674, -0.03821882605552673, -0.012991975992918015, -0.014240606687963009, 0.014646989293396473, 0.24891377985477448, -0.18023796379566193, 0.004954253323376179, -0.03445068374276161, -0.002173918066546321, 0.015894750133156776, -0.029829690232872963, -0.19882303476333618, -0.024580832570791245, 0.009844212792813778, -0.036902692168951035], [-0.008397388271987438, -0.10374568402767181, -0.014611423015594482, 0.015135474503040314, 0.10248108208179474, 0.07010529935359955, -0.0815347209572792, 0.024896716699004173, -0.00954714696854353, -0.07468896359205246, 0.029086850583553314, -0.010859278962016106, -0.13817277550697327, -0.0018529838416725397, 0.019344013184309006, -0.05427611246705055], [0.009264621883630753, -0.019679870456457138, -0.03137775883078575, -0.02415470778942108, 0.0337204784154892, -0.009813081473112106, 0.029946478083729744, 0.0183393657207489, 0.0129884397611022, -0.014981783926486969, 0.015650823712348938, 0.011216267943382263, 0.014115354977548122, 0.002378799021244049, 0.02241787686944008, -0.008339829742908478], [0.00401420658454299, -0.11442070454359055, -0.026506314054131508, -0.007481094915419817, 0.031086331233382225, 0.0898246243596077, -0.12031317502260208, 0.00494734849780798, -0.018362706527113914, -0.027523959055542946, 0.017642943188548088, -0.018485046923160553, -0.16446661949157715, 0.015613788738846779, 0.005462657660245895, 0.0012947865761816502], [0.0014285551151260734, -0.09848879277706146, -0.01289884839206934, 0.004637680482119322, 0.01497807539999485, 0.17782971262931824, -0.2027798444032669, -0.002482593758031726, -0.026657240465283394, -0.04542755335569382, -0.030492791905999184, 0.004107706714421511, -0.19997940957546234, -0.03775043785572052, 0.005733878817409277, -0.015335812233388424], [-0.10000181943178177, 0.7564265727996826, -0.018172843381762505, -0.022065579891204834, 0.006579976994544268, 0.503934383392334, 0.5029409527778625, -0.033510420471429825, -0.13755957782268524, 0.48869460821151733, -0.07059034705162048, -0.0158451609313488, 0.5986624956130981, -0.036369577050209045, -0.050927627831697464, -0.07736968994140625], [-0.08437390625476837, 0.29967451095581055, -0.024507125839591026, -0.01402885839343071, 0.08302151411771774, 0.5468831658363342, 0.04072386026382446, -0.04136912524700165, -0.09082792699337006, 0.18633829057216644, -0.06909553706645966, -0.06776844710111618, 0.06573795527219772, -0.0288399551063776, 0.011679762974381447, -0.09237661957740784], [-0.013689029030501842, -0.022374024614691734, 0.0003245890839025378, 0.0006422414444386959, 0.022359877824783325, 0.00156184914521873, -0.001817535376176238, -0.01549440249800682, -0.0037367362529039383, -0.00715299230068922, -0.004642009735107422, -0.01404949277639389, 0.006941352039575577, -0.002164052566513419, -0.002772935200482607, -0.025200363248586655], [0.007332958281040192, 0.011058834381401539, -0.012358741834759712, 0.01467008888721466, -0.020410997793078423, 0.0009919117437675595, 0.0017840082291513681, -0.01958571933209896, 0.0036067990586161613, 0.02718053199350834, 0.001768699730746448, -0.006446382030844688, 0.010923024266958237, 0.002042457228526473, 0.0007231036433950067, -0.006140402052551508], [0.0018021934665739536, -0.009464352391660213, -0.007887999527156353, -0.006913705728948116, 0.04905566945672035, 0.06290918588638306, -0.023231273517012596, -0.017754968255758286, -0.007953422144055367, -0.029135188087821007, 0.022074131295084953, -0.01793486252427101, -0.039457179605960846, -0.00031080542248673737, 0.016960090026259422, -0.0255139097571373], [-0.011373087763786316, -0.03789892792701721, 0.0040587615221738815, -0.010042582638561726, -0.0014287567464634776, -0.0007652688072994351, 0.002665141597390175, 0.008519263938069344, 0.007479835767298937, -0.012447782792150974, 0.00845002569258213, 0.025583969429135323, -0.024177050217986107, 0.0023278023581951857, -0.02093764953315258, 0.02117093838751316], [-0.022678367793560028, -0.1254570633172989, -0.025541024282574654, 0.02948145754635334, 0.014850790612399578, 0.19451507925987244, -0.21767134964466095, -0.0058359624817967415, 0.0004524732939898968, -0.0763835683465004, 0.011226966977119446, -0.0055042109452188015, -0.24737142026424408, -0.016571035608649254, 0.011044171638786793, -0.05017497017979622], [-0.08073112368583679, 0.7726433277130127, -0.0015948847867548466, -0.018241172656416893, 0.003079091664403677, 0.44858431816101074, 0.5796175003051758, -0.06499063968658447, -0.15001118183135986, 0.45020878314971924, -0.06839309632778168, -0.04496194049715996, 0.6818097233772278, -0.044989846646785736, -0.014831767417490482, -0.08200758695602417], [0.012246939353644848, -0.10244183242321014, -0.002385662868618965, -0.0011329085100442171, -0.00788864679634571, 0.09863799065351486, -0.12194991856813431, 0.027874723076820374, 0.012699652463197708, -0.005870564375072718, 0.007507780566811562, -0.022204916924238205, -0.13274557888507843, 0.0005929230828769505, 0.009818848222494125, 0.008378492668271065], [-0.00699326116591692, -0.012997460551559925, 0.012655802071094513, -0.011863501742482185, 0.012736210599541664, 0.0179421529173851, 0.006785131525248289, -0.005272555164992809, 0.0006364462315104902, 0.008868178352713585, 0.00024165376089513302, 0.032363101840019226, -0.015088058076798916, -0.014785456471145153, -0.014364396221935749, -0.008798378519713879], [-0.03952596336603165, -0.04447704181075096, -0.009608191438019276, -0.0028607870917767286, 0.028341813012957573, 0.014562859199941158, -0.03144656866788864, 0.026580341160297394, -0.012776724994182587, 0.0013136152410879731, 0.010411230847239494, 0.02453254535794258, -0.03586815297603607, -0.02029426582157612, 0.005600473377853632, 0.004933265969157219], [-0.11247827112674713, 0.6914732456207275, 0.014985268004238605, -0.030323421582579613, 0.06674529612064362, 0.7190170288085938, 0.40693995356559753, -0.03557036444544792, -0.18586155772209167, 0.42823073267936707, -0.10744830220937729, -0.08626887947320938, 0.4646793007850647, -0.02208118885755539, -0.015988202765583992, -0.133314847946167], [-0.04821762815117836, 0.33697816729545593, 0.004813174717128277, -0.008524872362613678, -0.0168251134455204, 0.18499138951301575, 0.2877417802810669, -0.029786473140120506, -0.05788067728281021, 0.23288372159004211, -0.04357721284031868, -0.02324279211461544, 0.3429906666278839, -0.005262196063995361, -0.0277248527854681, -0.054041892290115356], [-0.0484505221247673, 0.0017265192000195384, -0.0014283780474215746, -0.015461922623217106, 0.02497989498078823, 0.19410134851932526, -0.07990659028291702, -0.014167111366987228, -0.03060699999332428, 0.05594278872013092, -0.004350288305431604, -0.03148317337036133, -0.05897805839776993, -0.0025010083336383104, 0.0032005084212869406, -0.043892279267311096], [0.007232768461108208, -0.014173598028719425, -0.04591837897896767, 0.01102032233029604, -0.020536890253424644, -0.012760568410158157, 0.0066244229674339294, 0.01671542227268219, 0.006215016823261976, -0.029089810326695442, -0.002978989854454994, 0.023529550060629845, 0.005668351426720619, 0.0024567293003201485, 0.015225122682750225, 0.0077588376589119434], [-0.0496848039329052, 0.26792407035827637, 0.021762877702713013, 0.004345378838479519, 0.03036610595881939, 0.37312397360801697, 0.12645356357097626, -0.005151917226612568, -0.10141917318105698, 0.17276616394519806, -0.046803656965494156, -0.03884253650903702, 0.1280876100063324, -0.015460575930774212, -0.010298714973032475, -0.043259426951408386]]], [[[-0.030100474134087563, 0.2426949143409729, -0.027422908693552017, 0.0022775318939238787, -0.0547599159181118, 0.0021195500157773495, 0.16034352779388428, -0.014565744437277317, -0.010707426816225052, 0.0545327365398407, -0.01986471563577652, 0.005833035800606012, 0.33019858598709106, -0.005841979756951332, 0.016003401950001717, -0.04661862552165985], [-0.027119874954223633, 0.24339638650417328, -0.017998691648244858, 0.01904943212866783, -0.02259417250752449, 0.06935310363769531, 0.17285111546516418, -0.008708774112164974, 0.0011903964914381504, 0.09741020202636719, -0.012902765534818172, 0.007889128290116787, 0.25016751885414124, 2.6886445994023234e-05, 0.02164420299232006, 0.0029987841844558716], [0.0025259358808398247, 0.0009134253486990929, -0.014910640195012093, -0.015413838438689709, 0.00467888405546546, -0.020180927589535713, -0.011970151215791702, 0.019203729927539825, 0.029009312391281128, -0.024975180625915527, 0.024466704577207565, -0.0029849482234567404, 0.0008158969576470554, -0.0016383836045861244, 0.016445646062493324, -0.023547299206256866], [0.007462209090590477, 0.6992983222007751, 0.0072714295238256454, 0.014666793867945671, -0.11634918302297592, -0.0491044707596302, 0.5602754950523376, -0.056602247059345245, 0.03838909789919853, 0.24575884640216827, -0.05918066203594208, -0.008950917981564999, 0.8544843792915344, -0.03165676072239876, 0.01738307625055313, -0.022120118141174316], [0.012876447290182114, 0.449265718460083, -0.04235892742872238, -0.020264120772480965, -0.09544821828603745, -0.10322770476341248, 0.4084946811199188, -0.02586500160396099, 0.037869665771722794, 0.13397659361362457, -0.0540020689368248, -0.0409918874502182, 0.5962507724761963, -0.00947953574359417, -0.00622317660599947, -0.03399883583188057], [-0.001064720214344561, 0.011468147858977318, -0.01157817430794239, -0.005884687416255474, 0.027906393632292747, -0.01128143910318613, -0.0014371469151228666, -0.008843563497066498, 0.007760551758110523, 0.016965793445706367, -0.006123611703515053, -0.0058358656242489815, -0.0029570329934358597, 0.007798043079674244, -0.011494130827486515, -0.0045566922053694725], [-0.04014446586370468, -0.003650058526545763, -0.0018018451519310474, 0.010957754217088223, 0.009442247450351715, -0.004561334848403931, -0.015856675803661346, 0.002458847127854824, -0.02482639253139496, 0.027203813195228577, 0.0005751235294155777, -0.02186553366482258, -0.003253621282055974, -0.00968860276043415, -0.011737851426005363, -0.0212213397026062], [0.004322281572967768, 0.7777236700057983, -0.013346390798687935, 0.006734343245625496, -0.09200263768434525, -0.3049008548259735, 0.8849379420280457, -0.05236893892288208, -0.027687279507517815, 0.28581756353378296, -0.11737290024757385, 0.027547724545001984, 1.1077666282653809, -0.028011871501803398, -0.010147374123334885, 0.02737876959145069], [0.015611322596669197, -0.014503322541713715, -0.002171947620809078, 0.016319802030920982, -0.024650659412145615, -0.006978342775255442, -0.0207758117467165, -0.013673506677150726, -0.014251588843762875, 0.019109396263957024, -0.0028835036791861057, -0.012677031569182873, -0.01395582314580679, 0.002189075108617544, -0.0002587909111753106, 0.019893979653716087], [0.004760240204632282, -0.005272245965898037, -0.010079044848680496, 0.014765112660825253, 0.002192149171605706, 0.018860770389437675, 0.007791631389409304, 0.0082789845764637, -0.015438600443303585, 0.008422857150435448, 0.01757144182920456, 0.005620167125016451, 0.03520170599222183, 0.011725750751793385, 0.011602119542658329, -0.01034541055560112], [0.009649751707911491, 0.4194026291370392, -0.012795505113899708, 0.020318860188126564, -0.07382595539093018, -0.1383441835641861, 0.39369070529937744, -0.05385979264974594, 0.02777465060353279, 0.12714561820030212, -0.04846702888607979, -0.004360932856798172, 0.5740672945976257, -0.024875950068235397, 0.006586245261132717, -0.017280954867601395], [-0.03001694194972515, 0.2482679933309555, 0.01363653689622879, -0.008529608137905598, -0.03273583576083183, 0.10009000450372696, 0.09781390428543091, -0.017813412472605705, -0.016719268634915352, 0.10893970727920532, -0.026555342599749565, 0.02109680138528347, 0.21188153326511383, -0.004434872418642044, -0.009175373241305351, -0.00765451742336154], [-0.030483737587928772, 0.11099691689014435, 0.019792716950178146, 0.006038472522050142, -0.0057654473930597305, -0.02739930897951126, 0.12342247366905212, 0.0065767583437263966, -0.010627564042806625, 0.05055425316095352, -0.002858409658074379, 0.030300740152597427, 0.12099374085664749, 0.016617540270090103, -0.040214311331510544, 8.983451698441058e-05], [-0.000727690989151597, -0.057908520102500916, 0.00496021518483758, 0.016572438180446625, 0.01114047970622778, -0.03871024027466774, -0.06365473568439484, 0.00869683362543583, -0.019114306196570396, -0.02343013510107994, 0.002675784984603524, -0.014274202287197113, -0.04891301319003105, -0.003234277479350567, 0.006055786740034819, 0.002601209795102477], [0.0009295890340581536, 0.033656321465969086, 0.006435544695705175, 0.015982169657945633, 0.01744435913860798, 0.08589065819978714, -0.02583315037190914, -0.007815414108335972, -0.018481187522411346, 0.007032576948404312, -0.015808533877134323, -0.00786659587174654, -0.013406801968812943, -0.006501555908471346, -0.00886873621493578, 0.0014927949523553252], [-0.00938290636986494, 0.1431821882724762, -0.006997647695243359, 0.011743738315999508, 0.0029844134114682674, 0.10286900401115417, 0.0791998952627182, -0.00048091408098116517, 0.02007332630455494, 0.06484319269657135, -0.0271510761231184, -0.00233301124535501, 0.09864836186170578, -0.011022972874343395, 0.020681563764810562, -0.0007496579200960696], [0.03033771738409996, 0.6461558938026428, -0.006448781117796898, -0.005448183976113796, -0.10397420823574066, -0.2327568233013153, 0.5728945732116699, -0.06779087334871292, 0.01873958297073841, 0.15072201192378998, -0.05089842155575752, 0.021997377276420593, 0.8761194348335266, -0.03433068469166756, 0.020357785746455193, -0.06718337535858154], [0.001417504739947617, 0.740608274936676, -0.030581478029489517, -0.001686391420662403, -0.07420049607753754, 0.022998232394456863, 0.6302661299705505, -0.04984578490257263, 0.002071394817903638, 0.28331583738327026, -0.08506909757852554, -0.006960931234061718, 0.8618500828742981, -0.03844650834798813, -0.016754141077399254, -0.029142051935195923], [-0.00959303043782711, -0.026672516018152237, -0.007046550512313843, -0.002866928232833743, 0.008226248435676098, 0.000216070213355124, -0.02396048977971077, 0.012821353040635586, -0.0011230971431359649, 0.006773435976356268, 0.014581947587430477, 0.021317722275853157, 0.02826598286628723, -0.001071333303116262, 0.004792204592376947, -0.015584775246679783], [0.016053572297096252, -0.016915613785386086, -0.026609018445014954, 0.012192592024803162, -0.0076331342570483685, 0.011205597780644894, 0.0082998713478446, -0.02397642284631729, -0.0386999174952507, -0.015738002955913544, 0.0013433444546535611, -0.016899840906262398, -0.008843167684972286, -0.021361473947763443, 0.0032111441250890493, 0.0017479424132034183], [-0.009711279533803463, 0.21834620833396912, 0.01984100230038166, 0.0006241677911020815, -0.01479337364435196, -0.030459951609373093, 0.2363925278186798, -0.011456801556050777, -0.02151942439377308, 0.12060200423002243, -0.007747069001197815, 0.02710544690489769, 0.2479943186044693, 0.025228070095181465, -0.017437487840652466, 0.035444311797618866], [0.0008629302028566599, -0.02208932302892208, -0.02403358183801174, -0.004568181931972504, -0.004449358209967613, 0.019845928996801376, -0.01409527100622654, -0.005781303625553846, 0.016736870631575584, -0.008400071412324905, -0.00842625368386507, 0.007463931106030941, -0.021601663902401924, 0.009651677682995796, -0.007309327367693186, -0.0034958436153829098], [-0.010004718787968159, 0.16227561235427856, -0.0017012458993121982, 0.010762477293610573, 0.005285998806357384, 0.13331420719623566, 0.035396043211221695, 0.008297888562083244, 0.0060797021724283695, 0.0940050408244133, -0.01821576990187168, 0.0030045455787330866, 0.12701638042926788, -0.013883429579436779, -0.0031640506349503994, 0.022624870762228966], [0.05870950222015381, 0.6888030767440796, 0.012814507819712162, -0.01472529023885727, -0.11353646963834763, -0.262722909450531, 0.6148942708969116, -0.05810413509607315, 0.017990276217460632, 0.16561782360076904, -0.07829058170318604, 0.0068349046632647514, 0.911751925945282, -0.017337819561362267, 0.003371941391378641, -0.06194278597831726], [-0.03372969850897789, 0.019362719729542732, -0.007596452254801989, -0.03244246542453766, -0.010300474241375923, 0.048655975610017776, -0.04029645025730133, 0.004854409024119377, 0.018063712865114212, -0.011101537384092808, 0.013601482845842838, 0.006445460952818394, -0.02638636715710163, -0.007832112722098827, 0.01523581799119711, -0.015143525786697865], [0.0044879247434437275, 0.01467984076589346, 0.02812923491001129, 0.024551017209887505, 0.013275621458888054, -0.02207464724779129, -0.010814359411597252, -0.008080157451331615, 0.02440834976732731, -0.010560628026723862, 0.0058218506164848804, 0.0013960847863927484, -0.014884592965245247, 0.005627519451081753, 0.005956417415291071, -0.018616285175085068], [0.0169542133808136, 0.020718038082122803, -0.009774425067007542, 0.0067167095839977264, -0.012666183523833752, 0.0203558336943388, 0.03837740048766136, -0.002344383392482996, -0.037845976650714874, 0.02656678855419159, -0.02962382510304451, 0.00015167791571002454, 0.05057232826948166, -0.008745242841541767, 0.007994909770786762, -0.007252467796206474], [0.03080008365213871, 1.0489482879638672, 0.00015903488383628428, -0.020295122638344765, -0.1631997674703598, -0.17912490665912628, 0.9331260323524475, -0.053341273218393326, 0.014136719517409801, 0.3443739712238312, -0.10837090760469437, -0.0066863433457911015, 1.3137545585632324, -0.006261901929974556, -0.024198705330491066, -0.02598726749420166], [0.020591646432876587, 0.29293572902679443, 0.00986191350966692, -0.021012630313634872, -0.08527203649282455, -0.12072322517633438, 0.301326721906662, -0.036797329783439636, 0.01370832696557045, 0.06453581154346466, -0.009834948927164078, -0.041041456162929535, 0.3547135591506958, -0.004979071207344532, 0.0033967560157179832, -0.03657415136694908], [-0.013206222094595432, 0.23570114374160767, -0.007237183395773172, -0.017343949526548386, -0.031440041959285736, 0.0678316205739975, 0.13861526548862457, -0.03117457777261734, 0.0014814329333603382, 0.10326367616653442, 0.00169765658210963, 0.006970123387873173, 0.23001953959465027, -0.0010793717810884118, 0.005672048777341843, -0.006407588720321655], [-0.0031544144731014967, -0.061415400356054306, -0.0009022335289046168, 0.010458722710609436, -0.014685707166790962, -0.07206636667251587, -0.06436734646558762, 0.012951850891113281, 0.011890814639627934, -0.032346345484256744, -0.004839681554585695, -0.01947028562426567, -0.05500170961022377, -0.006495596840977669, 0.02093411237001419, 0.014186893589794636], [0.0353395938873291, 0.43879589438438416, 0.011513354256749153, 0.014159842394292355, -0.060507263988256454, -0.02395687997341156, 0.3226502239704132, -0.046036139130592346, 0.0003537857555784285, 0.14699365198612213, -0.03956224024295807, 0.0017157928086817265, 0.532191812992096, -0.021518057212233543, -0.012657747603952885, -0.007750079035758972]], [[-0.01152048259973526, 0.40817999839782715, 0.019191181287169456, -0.020152682438492775, -0.03427664190530777, 0.04331373795866966, 0.39632800221443176, -0.01671179011464119, -0.04302230104804039, 0.20007365942001343, -0.01909700781106949, 0.00720659364014864, 0.4905623495578766, -0.03466896712779999, -0.02349388599395752, -0.0047667622566223145], [-0.017207682132720947, 0.3034910261631012, -0.018961511552333832, -0.001826210063882172, -0.020369047299027443, 0.06716354191303253, 0.24282048642635345, 0.0042925039306283, -0.01725955121219158, 0.13666889071464539, -0.04147186130285263, 0.017306236550211906, 0.31228697299957275, 0.023580705747008324, 0.011689230799674988, -0.040668874979019165], [0.009213975630700588, -0.020524844527244568, -0.011186501011252403, -0.004023368936032057, -0.001495214062742889, 0.00603679521009326, -0.013943646103143692, -0.016822410747408867, 0.010202029719948769, 0.00020139716798439622, 0.0036302742082625628, -0.031783752143383026, -0.0009603615617379546, -0.013042260892689228, -0.013595903292298317, 0.013882985338568687], [-0.05641021579504013, 1.081251621246338, -0.006957507226616144, -0.0019338225247338414, -0.08641057461500168, 0.10438741743564606, 1.0816770792007446, -0.05149286240339279, -0.0638716071844101, 0.4867830276489258, -0.12864914536476135, -0.012575329281389713, 1.311529517173767, 0.01806223951280117, -0.041831064969301224, 0.0038128793239593506], [-0.0020057240035384893, 0.7823704481124878, 0.007195007521659136, 0.003937288653105497, -0.0416826531291008, -0.02606656774878502, 0.8079190850257874, -0.04091513529419899, -0.03643930330872536, 0.36497896909713745, -0.08440402895212173, -0.04132981598377228, 0.9675897359848022, -0.008306802250444889, -0.015968432649970055, -0.03109152428805828], [0.007693739142268896, 0.010795999318361282, 0.006445862352848053, -0.001264126505702734, -0.026535362005233765, 7.804422784829512e-05, 0.01765523850917816, -0.012654059566557407, -0.028761107474565506, -0.02140134945511818, 0.005107636097818613, 0.005303332582116127, 0.013976898975670338, -0.0008050185278989375, -0.02298017591238022, -0.011702406220138073], [0.006313659716397524, 0.016910193488001823, 0.009440370835363865, 0.007347781211137772, 0.007359829265624285, 0.022592566907405853, 0.01620332896709442, 0.004801726434379816, -0.0033317094203084707, 0.010919414460659027, 0.005825712811201811, -0.02947249449789524, 0.00702299177646637, 0.03210285305976868, -0.012155231088399887, 0.018515178933739662], [-0.06421913206577301, 0.8000113368034363, 0.012257353402674198, -0.018398916348814964, 0.015073101967573166, -0.137630432844162, 0.9694809317588806, -0.04358996823430061, -0.10594959557056427, 0.31151634454727173, -0.14487889409065247, -0.005630384664982557, 1.1517646312713623, 0.0401441790163517, -0.027214134112000465, -0.005935696419328451], [-0.006362116429954767, 0.008044113405048847, -0.0027155845891684294, 0.004562028218060732, -0.038006555289030075, 0.0022099618799984455, 0.006859479937702417, -0.0029041138477623463, 0.01050979271531105, 0.01168825663626194, 0.019798563793301582, 0.0015108529478311539, -0.026764074340462685, -0.033435359597206116, -0.02384226769208908, -0.0006188015104271472], [-0.005838321056216955, -0.011450267396867275, -0.009355317801237106, -0.013131598941981792, 0.025912102311849594, 0.00888247974216938, -0.021279940381646156, -0.0007033633883111179, 0.0005512162460945547, -0.005060190334916115, -0.00820760428905487, -0.006690124981105328, -0.040925655514001846, -0.00043087603989988565, 0.016515254974365234, 0.00395128782838583], [-0.03257716819643974, 0.5634034276008606, 0.0004573054611682892, -0.012594468891620636, -0.06055548042058945, -0.0623481459915638, 0.6225257515907288, -0.05059288069605827, -0.04570057988166809, 0.26298850774765015, -0.04868156835436821, 0.0005528882029466331, 0.7181116938591003, -0.007513370364904404, -0.012656991370022297, 0.02240687608718872], [-0.010696147568523884, 0.3339657485485077, 0.015780121088027954, -0.005240693222731352, 0.01909893937408924, 0.15925365686416626, 0.21605844795703888, -0.006001757923513651, 0.014422239735722542, 0.17830531299114227, -0.00843051727861166, -0.004471238236874342, 0.313365638256073, -0.0430639423429966, -0.019066374748945236, -0.012190127745270729], [-0.008818614296615124, -0.009563107043504715, -0.002832073485478759, -0.012641157023608685, 0.0645255371928215, 0.006309718359261751, -0.0004263819719199091, 0.02770722098648548, -0.00975191593170166, -0.029894664883613586, 0.0017318299505859613, 0.02893148362636566, -0.035225432366132736, 0.0024390926118940115, -0.011109165847301483, -0.02682163007557392], [-0.013817818835377693, -0.024960188195109367, 0.01632852293550968, -0.007534473203122616, 0.0066924686543643475, -0.014155363664031029, -0.023313039913773537, -0.01455030869692564, -0.016351424157619476, -0.0045260777696967125, 0.0133889801800251, 0.011390252970159054, -0.055845122784376144, 0.002110574394464493, 0.013329187408089638, 0.008620294742286205], [-0.01504091639071703, 0.011452030390501022, -0.02246939204633236, 0.018069397658109665, 0.043811310082674026, 0.0999751165509224, -0.06542655825614929, -0.015595968812704086, 0.0018178756581619382, -0.02574191242456436, 0.016482265666127205, -0.0037080375477671623, -0.06671416759490967, 0.010195573791861534, -0.012791043147444725, -0.00044360122410580516], [-0.026155967265367508, 0.10776220262050629, -0.0021468931809067726, 0.0065779006108641624, 0.018614819273352623, 0.14320604503154755, 0.013291188515722752, -0.017426813021302223, -0.0007599513046443462, 0.08530223369598389, 0.00964079424738884, 0.03647984564304352, 0.0817813128232956, -0.0008441868121735752, -0.012973702512681484, -0.010525759309530258], [-0.03184763342142105, 1.156023383140564, -0.006165180820971727, -0.009843097999691963, -0.1055724024772644, -0.08519971370697021, 1.216543436050415, -0.050819672644138336, -0.06511985510587692, 0.5045170783996582, -0.1070697084069252, -0.0020651021040976048, 1.480698585510254, 0.007616927847266197, -0.03116954304277897, -0.010223448276519775], [-0.06247882917523384, 0.8952071070671082, 0.013753688894212246, -0.009889581240713596, -0.009305048733949661, 0.12052059173583984, 0.8417418003082275, -0.028803180903196335, -0.053152699023485184, 0.3949413001537323, -0.09535297751426697, -0.03041965886950493, 1.0519297122955322, 0.017412083223462105, -0.009897547774016857, -0.005212604999542236], [-0.0031574349850416183, -0.008577767759561539, 0.0099716205149889, -0.0005469254683703184, -0.0024252014700323343, 0.013392683118581772, -0.003715071827173233, -0.012309844605624676, 0.014045078307390213, 0.0008530626655556262, -0.014779642224311829, -0.01608574017882347, 0.0004595588252414018, 0.03443382680416107, -0.005617722403258085, -0.004708542954176664], [0.02277407981455326, 0.0012027265038341284, -0.02134006842970848, -0.023695874959230423, 0.017855798825621605, 0.0098069217056036, 0.01655496470630169, -0.0008049494354054332, -0.009438670240342617, -0.0020747454836964607, 0.003181210020557046, -0.011220538057386875, 0.0112372525036335, -0.018493926152586937, -0.004147156607359648, -0.002844791393727064], [-0.02448994107544422, 0.056699998676776886, 0.005071692168712616, -0.02033616229891777, 0.061938345432281494, 0.012032007798552513, 0.11318974196910858, -0.0013107677223160863, -0.005999492481350899, 0.030054660513997078, 0.0125803267583251, 0.02908351644873619, 0.14098294079303741, 0.04020893573760986, 0.018186291679739952, 0.01957513391971588], [0.023000815883278847, -0.0033605971839278936, -0.0063239578157663345, -0.033274710178375244, -0.01985394023358822, 0.0002673725539352745, -0.012209547683596611, -0.00193025975022465, -0.013430985622107983, -0.02618357352912426, -0.002007800852879882, -0.003260883502662182, -0.021946154534816742, -0.011039115488529205, -0.012404137291014194, -0.005902568809688091], [-0.026790883392095566, 0.19122067093849182, 0.0025086961686611176, -0.014570563100278378, 0.01029698085039854, 0.14189989864826202, 0.09142284095287323, 0.017001710832118988, 0.005607456900179386, 0.06436212360858917, -0.0026613539084792137, -0.003975745756179094, 0.12756815552711487, -0.021707847714424133, -0.007859456352889538, -0.018309537321329117], [-0.021345557644963264, 1.0926215648651123, -0.005693440325558186, 0.00048059734399430454, -0.08212441951036453, -0.1416858434677124, 1.1533598899841309, -0.05992785096168518, -0.06105929985642433, 0.4499368369579315, -0.13328619301319122, -0.009389705955982208, 1.3967307806015015, -0.024863136932253838, -0.004631564486771822, -0.006924266926944256], [-0.006416486110538244, 0.042010944336652756, -0.020906003192067146, -0.0080498605966568, -0.02743895910680294, 0.08229722082614899, -0.00864970963448286, -0.0009046419290825725, 0.005253644194453955, 0.04112811014056206, -0.013713180087506771, 0.007876146584749222, 0.0075798919424414635, 0.006602570414543152, -0.003211872885003686, 0.002434894908219576], [-0.019408829510211945, 0.006985337007790804, 0.0045127421617507935, 0.005432303994894028, 0.004589189309626818, -0.0026523498818278313, 0.01792965643107891, -0.002295741578564048, -0.010808717459440231, -0.0009966747602447867, -0.013923600316047668, -0.006910198833793402, -0.0035171557683497667, -0.005605855491012335, 0.002917505567893386, 0.02855326607823372], [0.002427113940939307, 0.03748880699276924, -0.008048363029956818, -0.014667411334812641, 0.01044747419655323, 0.04029801860451698, -0.014076047576963902, -0.015980800613760948, -0.0031887178774923086, 0.012590094469487667, 0.02968272939324379, 0.012939181178808212, 0.010531899519264698, -0.01701953448355198, -0.002982634585350752, -0.021122897043824196], [-0.04054255783557892, 1.3381896018981934, 0.0022371201775968075, 0.015025798231363297, -0.09416795521974564, 0.0030378210358321667, 1.387702226638794, -0.047798193991184235, -0.07928260415792465, 0.5883298516273499, -0.1449424922466278, -0.022869952023029327, 1.6586724519729614, -0.00580102251842618, -0.032491493970155716, -0.019300460815429688], [-0.034438878297805786, 0.5269282460212708, 0.003915861248970032, -0.012885711155831814, -0.049841657280921936, -0.09944227337837219, 0.5384125709533691, -0.01993662118911743, -0.03604387119412422, 0.23711170256137848, -0.03951166197657585, -0.015386373735964298, 0.6246582865715027, -0.005538814701139927, -0.016663668677210808, -0.0088605722412467], [-0.004446802195161581, 0.2580673396587372, 0.001857844414189458, 0.02474331296980381, -0.008535506203770638, 0.10647939145565033, 0.24225300550460815, -0.007219083607196808, -0.031703997403383255, 0.1291191279888153, -0.009774438105523586, 0.010352367535233498, 0.28396764397621155, -0.02229025773704052, -0.027936721220612526, 0.016324535012245178], [-0.005169434938579798, -0.03256779909133911, 0.008348043076694012, 0.013322319835424423, 0.006925757508724928, -0.03620543330907822, -0.07083293050527573, 0.03408980742096901, 0.005445566959679127, -0.05520454794168472, 0.002217567292973399, 0.015486535616219044, -0.09111946821212769, 0.006737072020769119, -0.009211902506649494, -0.0018769226735457778], [-0.030731607228517532, 0.597388505935669, -0.0175256859511137, 0.0032905547413975, -0.02741587720811367, 0.04742914438247681, 0.5541503429412842, -0.03767729178071022, -0.07027146965265274, 0.26657968759536743, -0.05770859867334366, -0.0063803610391914845, 0.7183135151863098, -0.020358167588710785, -0.02336440235376358, -0.013886511325836182]], [[-0.06823176145553589, 0.31957516074180603, -0.014589579775929451, 0.003408456686884165, 0.011343964375555515, 0.14515836536884308, 0.36222854256629944, -0.028702406212687492, -0.06331004947423935, 0.16547934710979462, 0.008510756306350231, -0.033825792372226715, 0.40220949053764343, -0.02063562162220478, -0.012952725403010845, 0.005393072962760925], [-0.03566713258624077, 0.1969752460718155, -0.0012597993481904268, -0.006886380258947611, 0.02897663228213787, 0.13180473446846008, 0.16449347138404846, -0.02750222012400627, -0.01270331535488367, 0.08399423211812973, -0.005186184775084257, -0.012737458571791649, 0.22175554931163788, 0.0039946287870407104, -0.000541625136975199, -0.053732484579086304], [0.004869612865149975, 0.027930008247494698, -0.0128141138702631, -0.0070733921602368355, -0.016850000247359276, 0.00202033924870193, 0.002407297259196639, 0.01045528706163168, 0.009489716030657291, -0.011296113952994347, 0.004103059880435467, -0.0044306060299277306, -0.014222231693565845, -0.0017645086627453566, 0.055385444313287735, 0.03412647917866707], [-0.11122647672891617, 0.8109869360923767, -0.004278442356735468, -0.011185713112354279, 0.020739873871207237, 0.25902143120765686, 0.8610220551490784, -0.03328586742281914, -0.14653661847114563, 0.3653218150138855, -0.10659606754779816, -0.03904964029788971, 0.9809173941612244, 0.029026079922914505, -0.027418352663517, -0.07354828715324402], [-0.08787687122821808, 0.5439171195030212, 0.015463064424693584, -0.01345461793243885, 0.014870570041239262, 0.1150256022810936, 0.6724163293838501, -0.050309572368860245, -0.11447768658399582, 0.23794271051883698, -0.09167195111513138, -0.04833352938294411, 0.7620016932487488, 0.01706285960972309, -0.022642144933342934, -0.038989726454019547], [0.015290912240743637, 0.007020995020866394, 0.005149294622242451, -0.0049658543430268764, -0.004744259174913168, 0.009176231920719147, 0.013120508752763271, 0.0002870069001801312, 0.01704581268131733, 0.019550001248717308, -0.024297090247273445, 0.005516501609236002, -0.00014249452215153724, 0.005885128863155842, 0.01605927012860775, -0.013565444387495518], [-0.027198998257517815, 0.024645036086440086, -0.014622666873037815, -0.007002638187259436, 0.01676362007856369, 0.02200193516910076, -0.04719316586852074, -0.0026756993029266596, -0.014510925859212875, 0.001844827551394701, -0.005406923126429319, -0.010874037630856037, -0.026458170264959335, 0.01910478249192238, 0.01278610248118639, -0.022056691348552704], [-0.10097907483577728, 0.2656228840351105, -0.019771791994571686, 0.0035607684403657913, 0.16005629301071167, 0.146021768450737, 0.47501274943351746, -0.040123362094163895, -0.1810910701751709, 0.05496251583099365, -0.09155084937810898, 0.003671864280477166, 0.5516719222068787, 0.08783504366874695, -0.012320115230977535, -0.10682512819766998], [-0.019859593361616135, 0.0073128314688801765, -0.02050067111849785, -0.038084857165813446, -0.012106784619390965, 0.005961766466498375, -0.00291549414396286, 0.01861773058772087, 0.0033894977532327175, -0.010229913517832756, -0.006282084621489048, -0.021405473351478577, 0.01747865416109562, -0.020210323855280876, -0.013637957163155079, -0.0025102540384978056], [-0.0025213956832885742, -0.05875091254711151, -0.013232442550361156, 0.0007013403228484094, 0.03860951215028763, 0.005892342887818813, -0.0357789471745491, -0.025273915380239487, -0.013238432817161083, -0.018243616446852684, 0.02585875615477562, 0.013406938873231411, -0.05350632220506668, 0.023720474913716316, 0.04315629601478577, -0.016567746177315712], [-0.06872112303972244, 0.3574662208557129, 0.0021940183360129595, -0.0044876146130263805, 0.037911366671323776, 0.042141981422901154, 0.4261755049228668, -0.029362263157963753, -0.06537976115942001, 0.10019604861736298, -0.04218093678355217, -0.0164828859269619, 0.5069394707679749, 0.04379076138138771, 0.006344708614051342, -0.01946359872817993], [-0.0501270554959774, 0.2899013161659241, 0.017523182556033134, -0.0008987528854049742, 0.023801859468221664, 0.2262742668390274, 0.23285804688930511, -0.007074558641761541, -0.018108557909727097, 0.13798661530017853, 0.005845122504979372, 0.01679246686398983, 0.2215471863746643, 0.000848464434966445, 0.007891277782619, -0.03654004633426666], [-0.014706309884786606, -0.11388029158115387, 0.0015033454401418567, -0.03821349889039993, 0.06342688947916031, 0.027157187461853027, -0.12367741018533707, 0.015425723977386951, -0.012867912650108337, -0.08558715134859085, 0.012184908613562584, -0.0016337535344064236, -0.1711553931236267, 0.03114524856209755, 0.030086420476436615, -0.01365197729319334], [0.004578879103064537, -0.01867593079805374, -0.00574264582246542, 0.03133206441998482, -0.006949651520699263, -0.00010077745537273586, -0.02280076965689659, -0.006344853434711695, -0.0227520614862442, -0.003278267802670598, -0.018052881583571434, 0.025624847039580345, -0.013638759031891823, 0.005573817528784275, 0.005510155577212572, -0.011970842257142067], [0.0009211943252012134, 0.007125528529286385, 0.0004579701053444296, -0.008022477850317955, 0.004997694864869118, 0.06776618212461472, -0.081503726541996, 0.007892405614256859, 0.0036173935513943434, -0.025067027658224106, 0.02117759734392166, -0.010395374149084091, -0.07170826941728592, 0.008641702122986317, -0.006274171639233828, -0.007371807936578989], [-0.040502168238162994, 0.07219801843166351, -0.0015167630044743419, -0.03042183816432953, -0.003003435442224145, 0.11294219642877579, 0.02235129103064537, 3.0392950066016056e-05, -0.004597957711666822, 0.011501467786729336, 0.021656189113855362, 0.018677162006497383, 0.012290834449231625, 0.015122024342417717, -0.00013283138105180115, -0.04058775305747986], [-0.12842489778995514, 0.9062461853027344, -0.0034403600730001926, -0.0024628308601677418, 0.004760007373988628, 0.10456288605928421, 1.115052580833435, -0.02050253376364708, -0.16200092434883118, 0.4191538393497467, -0.10560180991888046, -0.022721588611602783, 1.2227989435195923, 0.03525525704026222, -0.021038014441728592, -0.04390403628349304], [-0.0784374251961708, 0.5180863738059998, -0.004704599268734455, -0.0019879513420164585, 0.09139392524957657, 0.3155122697353363, 0.5806152820587158, -0.01660577952861786, -0.11950039118528366, 0.2297085076570511, -0.04112734645605087, -0.01946193352341652, 0.6606587171554565, 0.033892665058374405, -0.031766701489686966, -0.06771811842918396], [-0.011096915230154991, 0.0007903065998107195, 0.016811653971672058, 0.002170928055420518, -0.006146995350718498, -0.012405980378389359, -0.021276993677020073, 0.019745774567127228, -0.02545183338224888, -0.014453825540840626, -0.033506687730550766, -0.004488707985728979, -0.005936049856245518, -0.006137136835604906, -0.0007702745497226715, -0.012005009688436985], [-0.01349437702447176, 0.029878707602620125, -0.0049158427864313126, 0.013071196153759956, -0.012535654939711094, 0.023790201172232628, 0.027258438989520073, 0.0034498192835599184, -0.015188656747341156, 0.0024604150094091892, 0.0016347041819244623, 0.004160141572356224, -0.011194484308362007, -0.022243650630116463, 0.002758069196715951, -4.6771627239650115e-05], [-0.020617714151740074, -0.0196315199136734, -0.021415414288640022, 0.002119589364156127, 0.05832880362868309, 0.03089151531457901, -0.025640079751610756, -0.004172735847532749, -0.05409517511725426, -0.04884558171033859, 0.007323278114199638, 0.015084012411534786, -0.03859011083841324, 0.030368132516741753, 0.002914709970355034, -0.0396026112139225], [0.012780009768903255, -0.01588491164147854, -0.007747768424451351, 0.002827233402058482, 0.013422578573226929, 0.0023715004790574312, 0.02003280632197857, -0.008172578178346157, 0.011046046391129494, -0.0009194359299726784, 0.02222633548080921, 0.0029263871256262064, -0.03237833455204964, 0.015684599056839943, -0.0005464411224238575, -0.007617156021296978], [0.0004569321172311902, 0.08840148895978928, 0.00824698992073536, -0.012725098989903927, 0.020832639187574387, 0.19903075695037842, 0.028696419671177864, -0.011706343851983547, -0.04313331097364426, 0.07069649547338486, 0.008716090582311153, 0.0011946724262088537, 0.055714838206768036, -0.021926945075392723, -0.005535290576517582, -0.025058457627892494], [-0.13431641459465027, 0.7632941007614136, -0.0023456064518541098, -0.022044427692890167, 0.02207842655479908, 0.04463500156998634, 0.9695191979408264, 0.012247293256223202, -0.15026555955410004, 0.335223525762558, -0.11367470771074295, -0.04692504554986954, 1.093260645866394, 0.030731910839676857, -0.052645497024059296, -0.04236641153693199], [0.0023639195133000612, 0.08347121626138687, -1.951802732946817e-05, 0.02523057535290718, 0.0008724048384465277, 0.06842721998691559, -0.005505342036485672, -0.00347024854272604, 0.016170218586921692, 0.045120444148778915, 0.01155182160437107, 0.03340274468064308, 0.036356884986162186, 0.011169941164553165, -0.027882486581802368, 0.011973387561738491], [0.0009130082908086479, -0.0035464116372168064, -0.0024067063350230455, -0.0022212094627320766, -0.00461300415918231, 0.0031252633780241013, -0.00260329176671803, -0.017031218856573105, 0.006239006295800209, -0.008998982608318329, 0.015474488027393818, -0.000518394575919956, 0.0012111880350857973, -0.030220525339245796, -0.01859229803085327, 0.013763629831373692], [-0.019341371953487396, -0.017175424844026566, -0.004106949083507061, 0.01376587525010109, 0.03133932873606682, 0.05389074236154556, -0.03360490873456001, 0.0025703220162540674, -0.02806723862886429, 0.003901237389072776, 0.013111485168337822, 0.0006418127450160682, -0.026910515502095222, 0.02910415641963482, 4.3519772589206696e-05, 0.013007685542106628], [-0.16464048624038696, 0.7933057546615601, 0.02684617228806019, -0.029288293793797493, 0.096671923995018, 0.2708780765533447, 1.0090116262435913, -0.06449548155069351, -0.22281990945339203, 0.3387634754180908, -0.10225699096918106, -0.034144897013902664, 1.1604063510894775, 0.07088930159807205, -0.013369090855121613, -0.10864654183387756], [-0.050389643758535385, 0.40545716881752014, -0.00956555176526308, 0.0014774788869544864, -0.026700424030423164, 0.0230115819722414, 0.48096269369125366, 0.011220245622098446, -0.05792929232120514, 0.20059388875961304, -0.046758539974689484, -0.016657819971442223, 0.5241039395332336, 0.01689654216170311, 0.01733052171766758, -0.03718091920018196], [-0.03703775256872177, 0.15540805459022522, 0.019257323816418648, -0.007573415990918875, 0.05665253847837448, 0.13275116682052612, 0.15473082661628723, 0.008653516881167889, -0.02741381898522377, 0.054520852863788605, -0.011145062744617462, 0.0043767280876636505, 0.19090066850185394, -0.001799676101654768, -0.006077713333070278, -0.03075362741947174], [-0.0019321595318615437, -0.060141682624816895, -0.008657568134367466, 0.010946016758680344, 0.01483636349439621, -0.04042800888419151, -0.0655566081404686, 0.005619496572762728, 0.020320912823081017, -0.013853487558662891, 0.014219763688743114, 0.009028143249452114, -0.08850579708814621, -0.021199604496359825, -0.002474179957062006, -0.01537737250328064], [-0.07644885778427124, 0.35733938217163086, -0.008247310295701027, -0.00830184668302536, 0.02826755866408348, 0.16597285866737366, 0.4495130479335785, -0.026607312262058258, -0.07698999345302582, 0.20506633818149567, -0.043456196784973145, -0.006412988994270563, 0.4927893877029419, 0.040188077837228775, -0.02986982651054859, -0.0634506344795227]]], [[[0.000796305132098496, 0.13772153854370117, 0.0018234457820653915, -0.019471487030386925, -0.053572408854961395, -0.20900022983551025, 0.2266479730606079, -0.023462645709514618, -0.013078710064291954, -0.0349920392036438, -0.0035741054452955723, -0.02849677950143814, 0.2577013373374939, -0.046898454427719116, 0.00323164532892406, -0.0012833476066589355], [0.0037359094712883234, 0.17955894768238068, -0.006363168358802795, -0.01069739181548357, -0.02079230546951294, -0.11941847205162048, 0.2492915838956833, 0.0008867032011039555, -0.011595328338444233, 0.015953855589032173, -0.017651429399847984, 0.009124817326664925, 0.2902205288410187, -0.021534482017159462, -0.0160785261541605, 0.02642243355512619], [0.014687581919133663, 0.01272177416831255, -0.002045243978500366, 0.013428389094769955, -0.0187218114733696, 0.022151896730065346, 0.0017459644004702568, 0.011734753847122192, 0.011265846900641918, -0.0007716434192843735, -0.0014719468308612704, 0.018799955025315285, 0.018032118678092957, -0.026150066405534744, -0.024529695510864258, -0.013072156347334385], [-0.004454912152141333, 0.31794971227645874, 0.0027914538513869047, -0.0027449282351881266, -0.09702244400978088, -0.5144191980361938, 0.6412867307662964, -0.0035436342004686594, -0.008963133208453655, -0.11298483610153198, -0.06929979473352432, -0.04114890471100807, 0.6463319063186646, -0.05202817544341087, -0.005174476653337479, -0.024085819721221924], [0.003864455269649625, 0.16452853381633759, 0.00298762833699584, -0.0051484424620866776, -0.05825843662023544, -0.4256495237350464, 0.4041718542575836, -0.02679283544421196, 0.011842201463878155, -0.12226992100477219, -0.018731920048594475, -0.06639076769351959, 0.3608502149581909, -0.03829400986433029, -0.0027373763732612133, -0.057991474866867065], [-0.004994731396436691, -0.0034247953444719315, -0.005477274302393198, -0.010030198842287064, -0.01965440809726715, 0.011099332943558693, -0.005283467937260866, -0.014882580377161503, -0.01076708734035492, -0.005234318319708109, 0.002668023109436035, 0.010657455772161484, -0.01253523025661707, -0.007079964503645897, -0.019982144236564636, -0.048512499779462814], [-0.004937020596116781, 0.04596077278256416, 0.007242893800139427, -0.01094249077141285, 0.004210827872157097, -0.015314135700464249, -0.005510511342436075, -0.006282307207584381, -0.010141189210116863, 0.010928114876151085, 0.04193444177508354, 0.028798604384064674, 0.009015900082886219, 0.01731814630329609, 0.012235784903168678, -0.009202264249324799], [-0.004282094072550535, -0.07020633667707443, -0.013717521913349628, -0.0012585691874846816, -0.08188816159963608, -0.6127893328666687, 0.3909217119216919, -0.022762801498174667, -0.0718788206577301, -0.18051482737064362, -0.13972190022468567, -0.07849525660276413, 0.23127064108848572, -0.05252733826637268, -0.03299105912446976, 0.007959814742207527], [-0.015483397990465164, 0.005124621093273163, 0.035538747906684875, -0.006712581962347031, 0.004820056259632111, 0.022461865097284317, 0.012031390331685543, 0.0064063589088618755, -0.014545098878443241, -0.018769193440675735, 0.0014905548887327313, -0.006558975204825401, 0.0009181147906929255, 0.0031869641970843077, -0.009779638610780239, 0.007277906872332096], [0.025227701291441917, -0.014564437791705132, -0.007657940965145826, -0.0031589046120643616, 0.02647501416504383, -0.02165493555366993, -0.01774265430867672, -0.03149862587451935, -0.009806030429899693, 0.017782961949706078, 0.018736187368631363, 0.01699560508131981, -0.01003422774374485, 0.01708858460187912, 0.004266814794391394, -0.02601141482591629], [-0.007956869900226593, 0.08604751527309418, 0.004586446098983288, -0.02243485115468502, -0.048132628202438354, -0.3198294937610626, 0.28214728832244873, -0.0024939030408859253, -0.07145404815673828, -0.06790688633918762, -0.028742715716362, -0.058632511645555496, 0.2462756484746933, -0.03512072190642357, -0.008470234461128712, -0.019706567749381065], [-0.028102390468120575, 0.29402145743370056, -0.005268640350550413, 0.002520628971979022, -0.03757631033658981, -0.09473054856061935, 0.2812666594982147, -0.0011361887445673347, 0.026383087038993835, 0.05796177312731743, -0.01209970097988844, 0.00769574660807848, 0.38247695565223694, -0.020030487328767776, 0.0112556591629982, 0.005067162215709686], [0.0065543390810489655, 0.03658713027834892, -0.018309475854039192, -0.020944729447364807, 0.03373091667890549, -0.006137074436992407, 0.008647107519209385, 0.0025392253883183002, -0.006815021391957998, -0.005700166802853346, 0.0025605300907045603, 0.022860093042254448, -0.0049922652542591095, 0.036112137138843536, -0.012961472384631634, -0.006620211061090231], [0.00767160439863801, -0.06151951476931572, 0.010558301582932472, 0.0009561295155435801, 0.004472291562706232, -0.03558333218097687, -0.10078004747629166, 0.022515350952744484, 0.002816887805238366, -0.04401567950844765, -0.022758712992072105, 0.005000422243028879, -0.11016425490379333, -0.006891755852848291, -0.0011664220364764333, -0.004915089346468449], [0.0029647666960954666, 0.06889290362596512, 0.015057733282446861, -0.018044443801045418, 0.007696422282606363, 0.035864949226379395, -0.0026845138054341078, -0.00105959246866405, -0.019145168364048004, -0.0024491245858371258, -0.013664275407791138, -0.0014748719986528158, 0.05784989893436432, 0.0052261194214224815, 0.02517649531364441, -0.008796907030045986], [-0.006132845301181078, 0.16511164605617523, 0.036872297525405884, 0.0010002936469390988, 0.009113653562963009, 0.024065250530838966, 0.13493017852306366, -0.023549992591142654, 0.007088589482009411, 0.05241158604621887, -0.008854584768414497, 0.026931434869766235, 0.2169840782880783, 0.003461049171164632, 0.0037132506258785725, -0.01088942214846611], [0.054786376655101776, 0.15827475488185883, -0.016772989183664322, 0.009664560668170452, -0.13864503800868988, -0.6651785969734192, 0.5333784818649292, -0.007370723877102137, 0.008209070190787315, -0.20084327459335327, -0.07929611206054688, -0.03399591147899628, 0.5124021768569946, -0.09435496479272842, 0.011810628697276115, -0.06703343987464905], [0.00026173979858867824, 0.3777890205383301, -0.015642812475562096, 0.024549096822738647, -0.07771976292133331, -0.38622501492500305, 0.6571575403213501, -0.029367156326770782, -0.04363253712654114, -0.0027247013058513403, -0.05647778511047363, -0.06398510187864304, 0.6955558657646179, -0.03616686165332794, -0.010597840882837772, -0.0009249746799468994], [-0.014607002958655357, -0.0127785699442029, -0.03077717311680317, -0.016905393451452255, -0.02158176340162754, 0.0006247633718885481, 0.019744684919714928, -4.570230521494523e-05, 0.0052198804914951324, 0.011377215385437012, 0.010174182243645191, -0.005088238976895809, -0.021357020363211632, -0.006327696610242128, 0.0011918590171262622, -0.012420129030942917], [0.006217328365892172, -0.004521118011325598, 0.009102952666580677, -0.012148004025220871, -0.01317862793803215, 0.025628168135881424, 0.002087193774059415, 0.008575672283768654, -0.01489146240055561, -0.005436555482447147, 0.011143549345433712, 0.024354923516511917, -0.011372757144272327, -0.011777177453041077, 0.00034506141673773527, -0.02198060043156147], [-0.007563616149127483, 0.07966067641973495, 0.008851935155689716, 0.008396435528993607, 0.01840049773454666, -0.04698824882507324, 0.1448412537574768, -0.00685109943151474, -0.048103928565979004, 0.03815283253788948, -0.012798305600881577, -0.015403115190565586, 0.13961082696914673, 0.0007382893818430603, -0.02459542453289032, 0.002655138960108161], [0.008717508055269718, 0.019374167546629906, -0.028686871752142906, -0.0023286922369152308, 0.013092895969748497, 0.00465245870873332, 0.0005527723114937544, -0.020949242636561394, -0.0030013900250196457, 0.028547091409564018, -0.01158218551427126, -0.019976209849119186, 0.004436706192791462, 0.011507565155625343, 0.01892591267824173, -0.006943687796592712], [-0.00889655016362667, 0.2307940572500229, 0.007969915866851807, -0.005422970745712519, 0.023309215903282166, -0.0007545961416326463, 0.19609741866588593, -0.004964552819728851, -0.009469586424529552, 0.05329057201743126, -0.015719156712293625, 0.007563075516372919, 0.2546710669994354, 0.006472451612353325, -0.008562243543565273, -0.005426466464996338], [0.036773599684238434, 0.0776355192065239, -0.021669073030352592, -0.007322859019041061, -0.12130148708820343, -0.6467733979225159, 0.49493706226348877, -0.04076257720589638, -0.039695754647254944, -0.2146255224943161, -0.07599947601556778, -0.0679917111992836, 0.3894698917865753, -0.05093638598918915, 0.012092228047549725, -0.07830541580915451], [-0.018376167863607407, 0.10100191831588745, 0.014563133008778095, -0.0006282302783802152, 0.0025116170290857553, 0.039435528218746185, 0.05403555929660797, -0.021798109635710716, 0.03714505955576897, -0.006632067263126373, 0.01793387159705162, 0.01799900084733963, 0.09693191945552826, 0.019217072054743767, -0.019880060106515884, -0.0017254166305065155], [0.028693508356809616, 0.01450555119663477, 0.0026071188040077686, -0.015096421353518963, 0.0015665064565837383, -0.013273211196064949, -0.02184898592531681, 0.008443987928330898, 0.0011573501396924257, -0.01150840800255537, 0.006106704473495483, -0.007483292371034622, 0.026204565539956093, -0.0004482585936784744, 0.02319375053048134, -0.011881029233336449], [0.007254103664308786, 0.06299000233411789, 0.003105365904048085, 0.008922439068555832, -0.020099597051739693, 0.0084697175770998, 0.04721192643046379, 0.009924559853971004, 0.007711806334555149, -0.004065664019435644, -0.012129613198339939, -0.0010560434311628342, 0.050256673246622086, -0.02414998598396778, -0.018569225445389748, 0.02049151062965393], [0.014611373655498028, 0.2991379499435425, -0.0052830250933766365, 0.016657056286931038, -0.16781146824359894, -0.7337794899940491, 0.8084672689437866, -0.028852783143520355, -0.03890340402722359, -0.12064439803361893, -0.11537304520606995, -0.09691904485225677, 0.7803047299385071, -0.07655056565999985, -0.01595916785299778, -0.014404326677322388], [0.029925530776381493, 0.06955242156982422, -0.03299149498343468, -0.003234273986890912, -0.0690813884139061, -0.27411124110221863, 0.24938061833381653, -0.010729036293923855, 0.01258197333663702, -0.09284283220767975, -0.019720537588000298, -0.037280332297086716, 0.17467032372951508, -0.02231988124549389, 0.012196643278002739, -0.007452539633959532], [-0.00010942868539132178, 0.19800205528736115, -0.026258815079927444, -0.0017550684278830886, -0.02140023373067379, -0.08931864798069, 0.22217591106891632, -0.016625983640551567, 0.0073001803830266, 0.013983421958982944, -0.016029687598347664, -0.003033640328794718, 0.27591362595558167, -0.023020457476377487, 0.016489017754793167, -0.004782460629940033], [-0.028020044788718224, -0.10213723033666611, -0.00027313586906529963, 0.010578990913927555, 0.0025210115127265453, -0.044860485941171646, -0.12973248958587646, 0.003941220231354237, -0.020306458696722984, -0.06430424749851227, -0.01843959093093872, 0.022736331447958946, -0.16831552982330322, -0.02160950005054474, -0.017863508313894272, -0.015791062265634537], [-0.012309636920690536, 0.177510067820549, -0.03615708649158478, -0.031247880309820175, -0.06273844093084335, -0.273561030626297, 0.33995306491851807, -0.015535171143710613, 0.0004191719344817102, -0.07635711878538132, -0.05480337515473366, -0.03939656913280487, 0.38978540897369385, -0.01763652265071869, 0.0016261613927781582, 0.018426328897476196]], [[-0.0021665850654244423, 0.22539649903774261, -0.0032049447763711214, -0.016745634377002716, -0.053054988384246826, -0.1510649025440216, 0.3561572730541229, -0.0038472579326480627, -0.04897499457001686, 0.0274424497038126, -0.059995975345373154, 0.006771755870431662, 0.3978203535079956, -0.016013365238904953, -0.00977262295782566, 0.006117954850196838], [-0.03349120914936066, 0.20520000159740448, -0.015505348332226276, -0.004254797473549843, -0.02463635802268982, -0.08723507076501846, 0.2821056544780731, -0.006754531990736723, -0.053215984255075455, 0.018078692257404327, 0.0012804137077182531, -0.003611919702962041, 0.3164564371109009, 0.012444346211850643, -0.003313095308840275, -0.010567858815193176], [-0.009368943981826305, 0.004009763244539499, -0.0008898749365471303, 0.01194615475833416, -0.002358898986130953, 0.011541998945176601, 0.015826746821403503, 0.0027351481840014458, -0.017434176057577133, -0.0017719585448503494, -0.02705536037683487, -0.01681876741349697, 0.013553633354604244, 0.007241770625114441, -0.0004175671492703259, -0.003757634898647666], [-0.0772935226559639, 0.5130939483642578, 0.012196091003715992, 0.002375663723796606, -0.092905692756176, -0.4088098108768463, 0.9457278847694397, -0.004770433064550161, -0.12162648886442184, 0.04568696394562721, -0.0883142352104187, -0.07834112644195557, 0.9718049168586731, -0.026574714109301567, -0.034011732786893845, -0.010773271322250366], [-0.03824330493807793, 0.33701246976852417, -0.008838461712002754, 0.006893828511238098, -0.07682130485773087, -0.3676305413246155, 0.6501903533935547, 0.005078578367829323, -0.073078952729702, -0.008833491243422031, -0.06682254374027252, -0.08527804911136627, 0.628113329410553, -0.02513362281024456, -0.018621060997247696, 0.005336129572242498], [0.011011834256350994, 0.005192624870687723, 0.0005578492418862879, -0.025290897116065025, -0.011306880973279476, 0.010311742313206196, 0.011729131452739239, -0.014992602169513702, 0.004964396357536316, 0.004260860849171877, 0.026445651426911354, -0.005883129313588142, -0.006238396745175123, -0.0135444151237607, -0.014643630012869835, 0.006246175151318312], [-0.016833504661917686, 0.04135812819004059, -0.009842785075306892, 0.021078117191791534, 0.012451544404029846, 0.01755099557340145, -0.024162428453564644, 0.002749308478087187, 0.0013242170680314302, 0.012339466251432896, -0.0029164410661906004, -0.015810834243893623, 0.016460156068205833, 0.010258103720843792, 0.004318573046475649, 0.011157282628118992], [-0.12476764619350433, -0.1266147941350937, 0.004990758839994669, 0.011135897599160671, -0.0004737798008136451, -0.46690091490745544, 0.234367236495018, -0.05613827705383301, -0.18595381081104279, -0.20336408913135529, -0.09821610897779465, -0.08112795650959015, 0.21622991561889648, -0.004037763923406601, -0.03980283811688423, -0.023594031110405922], [0.0016104030655696988, -0.006351351272314787, -0.012769894674420357, -0.0012858484406024218, 0.01753046363592148, -0.02270630933344364, 0.013791256584227085, 0.004153395537286997, -0.014052766375243664, -0.00010897850006585941, -0.0024835204239934683, -0.013785132206976414, -0.006318251136690378, -0.01827298104763031, -0.03029825910925865, 0.0020969060715287924], [0.012910515069961548, 0.0026524970307946205, -0.016555098816752434, 0.027628468349575996, 0.038792625069618225, 0.024165911599993706, -0.05209437385201454, -0.008564334362745285, -0.03572704643011093, -0.015129176899790764, 0.004642115440219641, 0.009195208549499512, -0.0553123876452446, 0.020406357944011688, 0.009222354739904404, -0.0212996918708086], [-0.03567392751574516, 0.13008087873458862, 0.028965681791305542, -0.003621842944994569, -0.05009125545620918, -0.2783690392971039, 0.3682410717010498, -0.014812846668064594, -0.08570107072591782, -0.04137197509407997, -0.0705612525343895, -0.04582398384809494, 0.3643893301486969, -0.01779191754758358, 0.004527282901108265, 0.007187091279774904], [-0.003071961458772421, 0.31149834394454956, 0.008411245420575142, -0.006465886253863573, -0.014565808698534966, -0.0419510193169117, 0.3943585455417633, -0.011919588781893253, -0.0059135290794074535, 0.12082672119140625, -0.02601678855717182, 0.02521151304244995, 0.4351040720939636, -0.02667076885700226, -0.027398239821195602, -0.007830511778593063], [-0.008081766776740551, -0.031066957861185074, -0.00565646355971694, 0.00218487367965281, 0.053902722895145416, 0.005046776495873928, -0.09049328416585922, 0.016425417736172676, -0.007326249964535236, -0.05013420060276985, 0.028524667024612427, -0.008607117459177971, -0.08966287970542908, 0.030212605372071266, 0.007273057475686073, -0.014359604567289352], [0.018772048875689507, -0.050354138016700745, -0.0023288095835596323, 0.0012474788818508387, 0.0167143102735281, -0.029344625771045685, -0.07367464154958725, 0.0027004145085811615, 0.0268192570656538, -0.029281897470355034, 0.018705198541283607, 0.0034509317483752966, -0.08293314278125763, -0.011408377438783646, -0.01829153671860695, 0.001359495334327221], [0.003685747040435672, 0.06316229701042175, 0.005732501856982708, -0.010191019624471664, 0.037988848984241486, 0.06056840345263481, 0.00975608080625534, 0.028114477172493935, 0.006797206122428179, -0.008996044285595417, 0.019550014287233353, 0.023086203262209892, 0.0077103679068386555, 0.007567601278424263, 0.014150712639093399, 0.0052785724401474], [-0.007874319329857826, 0.10981085151433945, 0.0035536037757992744, -0.0013345705810934305, -0.0029904504772275686, 0.048189010471105576, 0.1575331687927246, -0.02046148292720318, 0.018304316326975822, 0.07039763033390045, 0.012791740708053112, 0.005735837854444981, 0.18658718466758728, -0.0037364172749221325, 0.001760802697390318, 0.0019441749900579453], [-0.054244514554739, 0.44563472270965576, -0.0036114484537392855, -0.00684977974742651, -0.1315053254365921, -0.5610525608062744, 0.9869778156280518, -0.017093993723392487, -0.11072122305631638, 0.03406200930476189, -0.07270416617393494, -0.09201879799365997, 0.8976209759712219, 0.011883797124028206, -0.013877497985959053, -0.0034579038619995117], [-0.08532156050205231, 0.38774651288986206, 0.003484275657683611, 0.002043028362095356, -0.009712357074022293, -0.262475848197937, 0.6963035464286804, -0.005282148253172636, -0.0922485813498497, 0.009013932198286057, -0.07058122009038925, -0.03445708379149437, 0.7410086989402771, 0.003869859967380762, -0.0018265906255692244, -0.014986991882324219], [-0.011791948229074478, -0.02263188734650612, -0.011330025270581245, -0.03499344736337662, -0.003551086876541376, 0.0020148593466728926, -0.018215611577033997, -0.007739275228232145, 0.023114357143640518, 0.001306700985878706, 0.022870441898703575, -0.002031077863648534, -0.0027274228632450104, -0.0323442667722702, 0.010947366245090961, 0.016624705865979195], [-0.004560921341180801, -0.003685613861307502, 0.011988118290901184, -0.011544336564838886, -0.011174841783940792, 0.004226380959153175, -0.006558852735906839, 0.00930981244891882, -0.01229479257017374, 0.02252388373017311, 0.010800627991557121, 0.0021777809597551823, -0.012204520404338837, -0.015591579489409924, -0.012478722259402275, -0.02071298100054264], [0.0008029457530938089, -0.0006327417213469744, 0.014421517960727215, 0.013867092318832874, 0.058878540992736816, -0.006092485040426254, 0.007951975800096989, 0.007081886753439903, -0.0222155824303627, -0.0210273414850235, -0.008726853877305984, 0.026096230372786522, 0.03295088931918144, 0.018189625814557076, -0.007158062886446714, 0.0025311107747256756], [-0.010910614393651485, 0.01714656874537468, 0.025413792580366135, -0.006448542233556509, -8.891956895240583e-06, 0.0376729741692543, -0.0009291359456256032, 0.0031169597059488297, -0.010148139670491219, -0.007140760775655508, -0.020251676440238953, 0.045233115553855896, 0.014581702649593353, -0.0010711007053032517, -0.014559786766767502, -0.026435725390911102], [-0.011956874281167984, 0.19504323601722717, 0.006016712635755539, 0.013123133219778538, 0.031290821731090546, 0.048686668276786804, 0.20476946234703064, -0.010456453077495098, -0.027346232905983925, 0.05797591805458069, 0.010889841243624687, 0.021258531138300896, 0.24560394883155823, 0.006644731387495995, 0.02466673217713833, -0.031248103827238083], [-0.07751162350177765, 0.3069480061531067, 0.00938571896404028, -0.011548303999006748, -0.07560539990663528, -0.5977101922035217, 0.7620646357536316, -0.03823242336511612, -0.07662974298000336, -0.033818453550338745, -0.14892694354057312, 