{"layer0": {"kernels": [[[[0.09865862131118774, 0.2319486141204834, 0.3688422739505768, 0.9003304243087769, 1.6284244060516357, -0.03332514688372612, 0.5833825469017029, 0.007642905227839947, 0.08759967237710953, 2.054819107055664, 0.35084423422813416, 2.643958330154419, -0.2803208529949188, 0.020823394879698753, 0.17827889323234558, 1.2197880744934082, 1.5299913883209229, 0.566245973110199, 0.38372674584388733, -0.432927668094635]], [[-0.14566105604171753, 0.09979221969842911, 0.3652746081352234, 0.7636335492134094, 1.713586449623108, -0.08912786096334457, 0.6780012845993042, 0.41078948974609375, 0.4074724614620209, 2.8531880378723145, 0.6267182230949402, 3.240612506866455, 0.2407854050397873, -0.10381633788347244, 0.1937561184167862, 1.6040138006210327, 1.9595227241516113, 0.9935722947120667, 0.0971505269408226, 0.32306933403015137]], [[-0.058935727924108505, -0.20759426057338715, 0.000358781311661005, 0.9103442430496216, 1.307802677154541, -0.03513815999031067, 0.20408399403095245, 0.8983727693557739, -0.02186814323067665, 2.1341099739074707, 0.3676627576351166, 2.6776435375213623, 0.2950434982776642, -0.06518062204122543, 0.19505518674850464, 0.8699138164520264, 1.768907070159912, 0.5924836993217468, -0.2103193998336792, 0.3923036754131317]], [[-0.03732357174158096, -0.18643160164356232, -0.2034381479024887, 0.7524410486221313, 1.0365766286849976, -0.02828281931579113, -0.4159664213657379, 0.9884527921676636, -0.46811792254447937, 0.6731725335121155, -0.023642269894480705, 1.5146950483322144, -0.28369343280792236, -0.06914763897657394, 0.09935316443443298, -0.5059025883674622, 1.0444856882095337, -0.2746194005012512, -0.48661813139915466, -0.2812095880508423]]], [[[-0.060490019619464874, 0.2844301760196686, 0.3137848973274231, 0.12113996595144272, 1.0149575471878052, 0.1776847541332245, 0.644936203956604, -0.1064763069152832, 0.32234442234039307, 1.814336895942688, 0.5444645881652832, 2.153055191040039, 0.8649637699127197, 0.06511407345533371, 0.13230659067630768, 1.7359029054641724, 1.0690200328826904, 0.7439029216766357, 0.4536246359348297, 0.8296845555305481]], [[0.10339386761188507, -0.07704322785139084, 0.047556355595588684, 0.4452072083950043, 0.9402096271514893, 0.1771446168422699, 0.31374067068099976, 0.34793221950531006, 0.4054270386695862, 2.566441535949707, 0.730983316898346, 2.6697185039520264, 1.0154107809066772, 0.10834996402263641, 0.10321400314569473, 2.00216007232666, 1.8234364986419678, 0.5080198645591736, 0.5759778022766113, 1.1807221174240112]], [[0.020816804841160774, -0.1976393461227417, -0.09030242264270782, 0.7501825094223022, 1.0190016031265259, 0.04542168974876404, -0.1919264793395996, 0.95232754945755, -0.11035114526748657, 2.136955738067627, 0.17673233151435852, 2.5185775756835938, 0.5481041669845581, 0.001180994906462729, 0.0093606635928154, 1.2429317235946655, 2.198115587234497, -0.12327122688293457, 0.6801792979240417, 0.6058918833732605]], [[-0.08332520723342896, -0.053230319172143936, -0.2245720773935318, 0.9981166124343872, 1.3113548755645752, 0.10342364758253098, -0.5895785689353943, 1.0166349411010742, -0.582455575466156, 1.338686466217041, -0.2252601981163025, 2.266187906265259, -0.19685474038124084, -0.04753158614039421, -0.07595324516296387, 0.2453741878271103, 2.191016912460327, -0.7844291925430298, 0.5962491035461426, -0.16653163731098175]]], [[[-0.026504788547754288, 0.33327963948249817, 0.2972486615180969, -0.8479457497596741, -0.868537425994873, 0.03690739721059799, 0.5277543067932129, -0.3406156897544861, 0.6437662839889526, 0.4223395884037018, 0.5723960995674133, 0.037939734756946564, 1.6847174167633057, -0.03590906038880348, 0.03907179459929466, 1.035447359085083, -0.2940562069416046, 0.6550638675689697, -0.10654748231172562, 1.6608173847198486]], [[-0.02044929936528206, -0.06620774418115616, -0.05682889744639397, -0.6275995373725891, -0.4843202829360962, -0.0748036652803421, 0.017276182770729065, 0.16973164677619934, 0.295144647359848, 0.9448466897010803, 0.35247892141342163, 0.46604210138320923, 1.6663480997085571, -0.06763962656259537, 0.05407707020640373, 1.2655363082885742, 0.5503785610198975, 0.18650101125240326, 0.5301607847213745, 1.8288133144378662]], [[-0.020883917808532715, -0.03825405612587929, -0.15358442068099976, 0.05547100678086281, -0.05092395469546318, -0.05299708619713783, -0.4229333996772766, 0.43338799476623535, -0.10033315420150757, 1.0829676389694214, 0.08597204834222794, 0.8507162928581238, 1.3220304250717163, -0.027532942593097687, -0.11562632024288177, 1.176411747932434, 1.3689310550689697, -0.5203638076782227, 1.2727293968200684, 1.3207536935806274]], [[-0.053403258323669434, 0.0430419035255909, -0.2652829587459564, 0.6702021360397339, 0.5318260788917542, 0.07359866052865982, -0.5716469883918762, 0.6600414514541626, -0.4056828022003174, 1.4782353639602661, -0.29517507553100586, 1.6753093004226685, 0.7774233818054199, 0.021589050069451332, -0.20277154445648193, 1.2583402395248413, 2.3446037769317627, -0.9873243570327759, 1.7142789363861084, 0.8019214868545532]]], [[[-0.035284366458654404, 0.20842964947223663, 0.182451531291008, -1.3991605043411255, -1.9827749729156494, -0.17362725734710693, 0.5533687472343445, -0.15579333901405334, 0.5005884170532227, -0.15902666747570038, 0.3774014115333557, -1.380271553993225, 1.677608847618103, -0.022889072075486183, 0.0953998938202858, 0.23117513954639435, -0.9844576716423035, 0.5772115588188171, -0.5785519480705261, 1.7525235414505005]], [[-0.0667644813656807, 0.08560320734977722, -0.13306918740272522, -0.8661416172981262, -1.4600225687026978, -0.021342426538467407, -0.06893972307443619, 0.06385969370603561, 0.30478835105895996, -0.015502441674470901, 0.16100357472896576, -0.9020133018493652, 1.6978836059570312, 0.020104454830288887, -0.10407326370477676, 0.1829707771539688, -0.2208315134048462, -0.11968964338302612, -0.018840819597244263, 1.7428241968154907]], [[-0.006676866672933102, 0.21418260037899017, -0.28657129406929016, -0.29488301277160645, -0.8583793044090271, 0.043643683195114136, -0.5958625078201294, 0.13048213720321655, 0.04715539142489433, 0.013334774412214756, -0.18283408880233765, -0.4707889258861542, 1.6014145612716675, -0.05881987512111664, -0.16838760673999786, 0.4549641013145447, 0.282426655292511, -0.7860960364341736, 0.9079008102416992, 1.4619598388671875]], [[-0.07323551923036575, 0.323958158493042, -0.24849195778369904, 0.18207453191280365, -0.10568229854106903, 0.045915085822343826, -0.6875289082527161, 0.09614591300487518, -0.14398296177387238, 0.5031850934028625, -0.2566913068294525, 0.5190337300300598, 1.3471308946609497, -0.040315065532922745, -0.1944325715303421, 0.9366939067840576, 1.125617265701294, -1.0113804340362549, 1.6854318380355835, 1.3059587478637695]]]], "biases": [[-2.1209148144407663e-06], [0.00027998193399980664], [3.513925548759289e-05], [-0.00016866964870132506], [-0.00025562592782080173], [-9.300661986344494e-06], [0.00011606414773268625], [8.930463081924245e-05], [0.00012102605978725478], [-0.00031797823612578213], [-0.00014251723769120872], [-8.555626845918596e-05], [0.0006416823016479611], [9.804994988371618e-06], [6.501712050521746e-05], [-0.0005546966567635536], [-0.000282367313047871], [0.0001224535226356238], [-0.00012410141061991453], [0.0006745544378645718]]}, "layer1": {"kernels": [[[[-0.013394061475992203, -0.015176955610513687, 0.004748118110001087, -0.016860049217939377, -0.017232827842235565, -0.007095860783010721, -0.004821326583623886, 0.040201131254434586, -0.015822621062397957, 0.016726184636354446, 0.012156207114458084, -0.023845484480261803, 0.012644299305975437, -0.02252361923456192, -0.04971540719270706, 0.010265793651342392], [-0.038736458867788315, -0.015112102031707764, -0.0304428618401289, -0.011078731156885624, -0.07526721805334091, -0.08982737362384796, 0.04435119405388832, -0.026879649609327316, -0.09745556861162186, -0.07274408638477325, -0.06851741671562195, -0.11219702661037445, -0.08180652558803558, 0.07792939990758896, 0.007330059073865414, -0.10692340135574341], [0.02739819325506687, -0.11003255099058151, -0.02993893437087536, -0.04637958109378815, -0.0717349722981453, -0.04699001461267471, -0.08508200198411942, 0.007455970160663128, 0.00453026220202446, -0.03966742381453514, 0.007458999752998352, 0.06240781024098396, -0.08324061334133148, -0.04264349862933159, 0.015746794641017914, -0.0859721377491951], [-0.017119303345680237, -0.2755255699157715, 0.06522359699010849, -0.09187255054712296, 0.6831415891647339, 0.4889321029186249, -0.24610978364944458, 0.006584188435226679, -0.08213077485561371, -0.0921546146273613, 0.33962956070899963, -0.4429723024368286, 0.26256170868873596, -0.1848115175962448, -0.06730306893587112, 0.0009017508127726614], [-0.018036682158708572, -0.6036210656166077, -0.012894459068775177, -0.16872286796569824, 1.149423360824585, 0.7487115263938904, -0.2364894598722458, -0.009406942874193192, -0.28633973002433777, -0.3391837179660797, 0.6162890791893005, -0.6869597434997559, 0.4420120120048523, -0.3908475339412689, 0.007089781109243631, 0.23597560822963715], [-0.012319391593337059, -0.015004233457148075, 0.013484778814017773, -0.0035249756183475256, 0.020802674815058708, 0.033512771129608154, 0.026266364380717278, 0.0007581389509141445, -0.005116944666951895, -0.020467907190322876, -0.013661187142133713, -0.055488839745521545, -0.018325302749872208, 0.020429173484444618, 0.03238140791654587, 0.05277673527598381], [0.01158084161579609, -0.20771600306034088, -0.016620125621557236, -0.05521811172366142, -0.07696259766817093, -0.08476084470748901, -0.17182327806949615, -0.0016989255091175437, -0.020423488691449165, -0.10216663777828217, -0.0038014014717191458, 0.12873110175132751, -0.18952669203281403, -0.059234194457530975, 0.04938817396759987, -0.2101331502199173], [-0.021392550319433212, -0.33508801460266113, 0.02845815196633339, -0.07993657886981964, 0.4762309789657593, 0.2830326557159424, -0.2032482773065567, 0.0015939727891236544, 0.05878249555826187, 0.1842326819896698, 0.15374170243740082, 0.4031277298927307, 0.17191670835018158, -0.26746225357055664, 0.0816885232925415, -0.11854694783687592], [-0.017318017780780792, -0.09610600769519806, -0.06997143477201462, -0.0680941715836525, -0.14592663943767548, -0.11196534335613251, 0.16626086831092834, 0.037136971950531006, -0.04339729622006416, -0.18497717380523682, -0.054762423038482666, 0.13868889212608337, 0.03300083428621292, 0.11842665076255798, 0.07575543224811554, -0.005619375966489315], [-0.10142118483781815, -1.7078136205673218, -0.19659611582756042, -0.6006312370300293, 1.1305360794067383, 0.670093834400177, 0.23764654994010925, -0.01334983017295599, -0.46345579624176025, -0.15574681758880615, 0.5335516333580017, 0.6686368584632874, 0.6416786313056946, -0.5336521863937378, 0.5751252770423889, 0.30242791771888733], [-0.0010746102780103683, -0.2745753526687622, -0.09945251047611237, -0.15092462301254272, 0.1046110987663269, -0.07776224613189697, 0.1880527287721634, 0.008264221251010895, -0.04373772069811821, -0.12096104025840759, 0.016399404034018517, 0.2709376811981201, 0.030976224690675735, 0.058570969849824905, 0.17170171439647675, 0.051855579018592834], [-0.10432752966880798, -1.86037278175354, -0.12700439989566803, -0.5592687726020813, 1.7796168327331543, 1.0986195802688599, 0.11658547073602676, -0.012047355994582176, -0.46269404888153076, -0.256304532289505, 0.8181694149971008, 0.06172182410955429, 0.8323416113853455, -0.7299210429191589, 0.48463407158851624, 0.3814966380596161], [-0.0966937318444252, -0.168324276804924, -0.17656517028808594, -0.25351962447166443, -0.3124619126319885, -0.3458667993545532, 0.3481143116950989, 0.02867470309138298, -0.1418152004480362, 0.059523385018110275, -0.40642049908638, 0.9373357892036438, -0.15693140029907227, 0.5171331763267517, 0.2786874771118164, 0.15683338046073914], [-0.044173359870910645, 0.01613059639930725, -0.04221268743276596, 0.007452512625604868, 0.025609197095036507, 0.0018385194707661867, -0.024233127012848854, -0.011366741731762886, -0.0037248225416988134, -0.0034510474652051926, -0.00392081867903471, -0.002389616798609495, 0.005813524592667818, -0.022298337891697884, -0.005344043485820293, 0.03432010859251022], [-0.007639731280505657, -0.06141986325383186, 0.004611372947692871, -0.06271813064813614, 0.053545139729976654, -0.01236659288406372, -0.04757429659366608, 0.0012999670580029488, -0.0004557439824566245, -0.030865419656038284, 0.006308703683316708, 0.06972105801105499, -0.1286013275384903, -0.038630060851573944, -0.025532172992825508, -0.06747667491436005], [-0.03955606371164322, -1.0457454919815063, -0.196262389421463, -0.5109407901763916, 0.37265458703041077, 0.12416717410087585, 0.48046526312828064, 0.007203160785138607, -0.4176965653896332, -0.1523146629333496, 0.04695397987961769, 0.5186575055122375, 0.24746829271316528, 0.04344184696674347, 0.4683115482330322, 0.3190118372440338], [-0.10149937868118286, -1.4331973791122437, -0.02940766140818596, -0.4209333658218384, 1.2092448472976685, 0.811247706413269, -0.12760499119758606, 0.010965178720653057, -0.34843650460243225, 0.13350506126880646, 0.4736469089984894, 0.3344678580760956, 0.5698716044425964, -0.6628705263137817, 0.41606631875038147, 0.21525779366493225], [-0.0024977335706353188, -0.3003576695919037, -0.07313202321529388, -0.09712585061788559, -0.022168437018990517, -0.09983347356319427, -0.21190248429775238, -0.003296786919236183, -0.033588018268346786, -0.11120247840881348, -0.0028164673130959272, 0.3218763768672943, -0.31686413288116455, -0.12373552471399307, 0.06832848489284515, -0.24152499437332153], [-0.04476640745997429, -0.3805435299873352, -0.03495056927204132, -0.1844978779554367, 0.2059284746646881, 0.2137889862060547, 0.008480723015964031, 0.006309978663921356, -0.2759498357772827, 0.143727108836174, -0.03913562372326851, -0.09147271513938904, 0.10579785704612732, -0.023269949480891228, 0.1996058225631714, 0.23848170042037964], [-0.07853677868843079, -0.1834901124238968, -0.16664257645606995, -0.22991855442523956, -0.30212047696113586, -0.3546615242958069, 0.3290034830570221, -0.0030204984359443188, -0.1113339513540268, 0.057431962341070175, -0.3756135106086731, 1.0535776615142822, -0.15374381840229034, 0.5116326808929443, 0.2792832553386688, 0.19996216893196106]], [[-0.0011783138616010547, 0.024884741753339767, 0.018094724044203758, -0.018570855259895325, -0.02201930619776249, -0.00619808305054903, 0.01640564389526844, -0.0018227535765618086, -0.012204242870211601, 0.02681121975183487, 0.0044490378350019455, -0.04227724298834801, 0.004656145349144936, 0.008040343411266804, 0.004193477798253298, 0.007790425792336464], [-0.004471953958272934, -0.07999174296855927, -0.041535668075084686, -0.01370510458946228, -0.09451641142368317, -0.08359050750732422, 0.10734537988901138, 0.0016713999211788177, -0.1412077695131302, -0.07632273435592651, -0.049649063497781754, 0.0411292240023613, -0.022160517051815987, 0.013204166665673256, 0.040470484644174576, -0.0704466700553894], [-0.0312659926712513, -0.11208244413137436, -0.019989097490906715, -0.0087422551587224, 0.0008047480368986726, 0.003723281202837825, -0.06771157681941986, 0.00744412699714303, -0.003456308739259839, 0.020666277036070824, 0.014155282638967037, 0.1860438585281372, -0.09933491796255112, -0.1247374415397644, 0.07753685116767883, -0.13153290748596191], [-0.009652920998632908, -0.18620748817920685, 0.13637831807136536, -0.03818770870566368, 0.4151441752910614, 0.2428670972585678, -0.4157056212425232, 0.02080721966922283, 0.2049901783466339, -0.13042855262756348, 0.37726452946662903, -0.43597397208213806, -0.0813317596912384, -0.2837860882282257, -0.16621574759483337, -0.00591931352391839], [-0.01751912385225296, -0.4438932538032532, 0.13760043680667877, -0.10196369886398315, 0.9670926332473755, 0.5250174403190613, -0.70302414894104, 0.013692190870642662, 0.21422649919986725, -0.15867909789085388, 0.673050045967102, -0.06164396181702614, -0.17305049300193787, -0.6385139226913452, -0.20119909942150116, 0.05199259892106056], [-0.009159586392343044, -0.017257243394851685, 0.0036023191642016172, -0.014620428904891014, 0.004104694817215204, 0.003386950120329857, -0.011672306805849075, 0.02308044396340847, 0.008274972438812256, -0.006024938076734543, -0.0017538327956572175, -0.07583765685558319, -0.02441336400806904, -0.02607344649732113, 0.035108767449855804, 0.0013315875548869371], [0.017412923276424408, -0.1987287402153015, -0.046382077038288116, -0.059983331710100174, 0.03874872997403145, -0.04325590655207634, -0.14371447265148163, -0.0027664864901453257, -0.0024650495033711195, 0.03831138089299202, -0.006185855716466904, 0.4296369254589081, -0.19365033507347107, -0.07771438360214233, 0.11727769672870636, -0.25947335362434387], [-0.025160806253552437, -0.25986647605895996, 0.14753320813179016, -0.07664772868156433, 0.3533925712108612, 0.18974310159683228, -0.38642674684524536, -0.02921857126057148, 0.2683067321777344, 0.25566378235816956, 0.20975449681282043, 0.05737762525677681, -0.1690429300069809, -0.3400275707244873, -0.11977062374353409, -0.1399979144334793], [0.025834275409579277, -0.04394138604402542, -0.04407333955168724, -0.022162791341543198, -0.0402965173125267, -0.029704947024583817, 0.03703944757580757, -0.03318079188466072, -0.02199370414018631, 0.013715662062168121, -0.0801924616098404, 0.331505686044693, 0.169629767537117, 0.07774581760168076, 0.13707084953784943, -0.045261092483997345], [-0.09980989992618561, -1.5147114992141724, 0.14420278370380402, -0.34186962246894836, 1.1196889877319336, 0.6460448503494263, -0.6374235153198242, -0.000530982215423137, 0.27432939410209656, 0.49603772163391113, 0.5363634824752808, 1.258394718170166, 0.2192094326019287, -1.3044484853744507, 0.08863870799541473, -0.02911645546555519], [0.006399709731340408, -0.21244004368782043, -0.02804635837674141, -0.07967235893011093, 0.2524946928024292, 0.07949042320251465, -0.03909853473305702, -0.0005515017546713352, -0.014447975903749466, 0.11052023619413376, 0.012661995366215706, 0.5129272937774658, 0.06108105182647705, -0.09953638911247253, 0.11143001168966293, -0.020681101828813553], [-0.11826135218143463, -1.4536092281341553, 0.21634532511234283, -0.36738836765289307, 1.5896774530410767, 0.9032189846038818, -0.9456572532653809, -0.010911338031291962, 0.5226374864578247, 0.3277810513973236, 0.9377251267433167, 0.9908351302146912, 0.19549070298671722, -1.4267975091934204, -0.10681568086147308, 0.0936712846159935], [-0.0791902020573616, -0.24127832055091858, -0.03025304153561592, -0.04430234804749489, -0.16249457001686096, -0.1050507128238678, 0.0071282051503658295, 0.005370784550905228, -0.2368461787700653, 0.4025128185749054, -0.2984130084514618, 0.6963623762130737, -0.07449567317962646, -0.007399914786219597, 0.20090653002262115, -0.022306004539132118], [-0.01371901948004961, -0.0007241092389449477, -0.04871595650911331, -0.021563444286584854, -0.0069875940680503845, -0.023942796513438225, -0.021378319710493088, -0.00829186849296093, -0.0279089268296957, -0.008813244290649891, -0.008209122344851494, 0.0013940182980149984, 0.021860508248209953, 0.0008410740992985666, 0.00041424352093599737, 0.00824104342609644], [0.004067877307534218, -0.0632893443107605, -0.007945171557366848, -0.0011497195810079575, 0.0612003467977047, 0.041607968509197235, -0.03819426894187927, -0.011818977072834969, -0.013605784624814987, -0.0007269749767147005, 0.032664328813552856, 0.08406470715999603, -0.0829520896077156, -0.05887654796242714, 0.0047660693526268005, -0.09506499767303467], [-0.0598379410803318, -1.097928762435913, 0.008989271707832813, -0.25495561957359314, 0.43106603622436523, 0.2270352989435196, -0.14532534778118134, -0.009900323115289211, -0.0597933866083622, 0.3105268180370331, 0.07273056358098984, 1.0591094493865967, 0.24202075600624084, -0.7780956029891968, 0.163412407040596, 0.11152942478656769], [-0.10622064024209976, -1.286901831626892, 0.29442647099494934, -0.31662824749946594, 0.8758984804153442, 0.5916110277175903, -0.7585357427597046, 0.004200589843094349, 0.35323432087898254, 0.43419694900512695, 0.5826063752174377, 0.40451058745384216, 0.03535160422325134, -1.1986310482025146, -0.14856845140457153, 0.027133148163557053], [0.014216086827218533, -0.24030111730098724, -0.07433568686246872, -0.035707008093595505, 0.22631369531154633, 0.00946776196360588, -0.25945621728897095, -0.002485438250005245, 0.020584380254149437, 0.13487978279590607, 0.021185709163546562, 0.6146520972251892, -0.26130110025405884, -0.07568472623825073, 0.10971754044294357, -0.30908694863319397], [-0.034986793994903564, -0.5470505356788635, 0.10375376045703888, -0.09165935963392258, -0.08858425915241241, 0.04702623561024666, -0.1466682106256485, -0.015908226370811462, -0.10947726666927338, 0.11961863189935684, -0.01059665996581316, -0.1559855043888092, 0.02975483611226082, -0.5677060484886169, -0.03501865267753601, 0.23804901540279388], [-0.08366343379020691, -0.2337079793214798, -0.009646889753639698, -0.046942759305238724, -0.10298829525709152, -0.07856593281030655, -0.053861718624830246, 0.004493952728807926, -0.19892185926437378, 0.4348747432231903, -0.31689345836639404, 0.7431344389915466, -0.07648001611232758, -0.015696005895733833, 0.22248849272727966, -0.025133438408374786]], [[-0.006275724619626999, 0.01618335396051407, 0.003187311114743352, 0.015287330374121666, -0.01019930001348257, -0.0038679272402077913, -0.002851539757102728, 0.0294839795678854, 0.013329979963600636, 0.012292579747736454, -0.014246771112084389, 0.022690149024128914, 0.0015016441466286778, 0.02172894962131977, 0.038637079298496246, -0.008091333322227001], [-0.015193196013569832, -0.05427337437868118, -0.03176974132657051, 0.022427886724472046, -0.042055174708366394, -0.03690248355269432, 0.04811491072177887, 0.02004832774400711, -0.08314526826143265, -0.023374313488602638, -0.04649665579199791, 0.12130551785230637, 0.1114269345998764, -0.04982483386993408, 0.029205569997429848, -0.0025673990603536367], [-0.015640635043382645, -0.04287252575159073, -0.0005420029046945274, -0.005255376920104027, 0.0760403573513031, -0.0022930011618882418, -0.13692563772201538, -0.0062017603777348995, 0.04232127591967583, 0.08483283966779709, -0.03487539663910866, 0.22523069381713867, -0.07323992252349854, -0.050936028361320496, 0.04142758250236511, -0.20649902522563934], [-0.009107456542551517, -0.19470711052417755, 0.07438606023788452, -0.020654290914535522, 0.41723549365997314, 0.2655697464942932, -0.4387620985507965, -0.016014454886317253, 0.11077969521284103, -0.11602116376161575, 0.4316501021385193, -0.24749964475631714, -0.4439545273780823, -0.1836424320936203, -0.2082938253879547, 0.14898036420345306], [-0.0024522626772522926, -0.40861040353775024, 0.16660922765731812, -0.12588901817798615, 1.036852478981018, 0.4954611361026764, -0.85970538854599, 0.003864690661430359, 0.2851342558860779, 0.1293542981147766, 0.6524280309677124, 0.2658805847167969, -0.9748654961585999, -0.4847696125507355, -0.3481570780277252, 0.060636620968580246], [0.02923361398279667, -0.005985913332551718, 0.011748023331165314, 0.016134366393089294, 0.04577893391251564, 0.02984095923602581, -0.001166703412309289, -0.011168759316205978, -0.022033873945474625, -0.03560738265514374, -0.007057711947709322, -0.04772861674427986, -0.018917258828878403, 0.00560661731287837, 0.04181508719921112, 0.04664843901991844], [-0.03041909821331501, -0.027951914817094803, -0.0021435245871543884, -0.04423220828175545, 0.18592913448810577, -0.015810638666152954, -0.25725024938583374, -0.0013232668861746788, 0.09667791426181793, 0.18518312275409698, -0.07549279183149338, 0.40756165981292725, -0.14065980911254883, -0.04958587512373924, 0.0582754909992218, -0.4128398001194], [-0.02700626291334629, -0.35356053709983826, 0.09825944155454636, -0.0791291892528534, 0.25641658902168274, 0.16040122509002686, -0.3641771674156189, 0.006097948644310236, 0.19025759398937225, 0.1737198680639267, 0.3067636787891388, -0.2805827558040619, -0.49832573533058167, -0.31701940298080444, -0.24189378321170807, 0.10629548877477646], [-0.0045906854793429375, 0.013473588041961193, 0.006640973035246134, -0.004625449888408184, -0.011899550445377827, -0.03264738619327545, -0.07537175714969635, -0.001542113022878766, 0.11898063868284225, 0.10888653993606567, -0.0745500773191452, 0.22129783034324646, 0.058546748012304306, -0.010368573479354382, 0.09219846874475479, -0.1676596999168396], [-0.12175780534744263, -1.2901313304901123, 0.36665549874305725, -0.28933945298194885, 1.0375357866287231, 0.6260345578193665, -1.1899160146713257, 0.024051006883382797, 0.76065593957901, 0.7731930613517761, 0.7205531597137451, 0.6857357621192932, -0.8519723415374756, -1.3282907009124756, -0.4510151743888855, 0.030487067997455597], [-0.012881683185696602, -0.13349035382270813, 0.04700955003499985, -0.07351860404014587, 0.2812380790710449, 0.11752346158027649, -0.24360769987106323, -0.0023720483295619488, 0.13120825588703156, 0.20617973804473877, -0.02335992269217968, 0.27752768993377686, -0.10627949237823486, -0.1492697298526764, -0.00827526580542326, -0.17077569663524628], [-0.10374251008033752, -1.1941465139389038, 0.4501785933971405, -0.3398091495037079, 1.4919151067733765, 0.8442193269729614, -1.5385578870773315, -0.020907340571284294, 0.9188726544380188, 0.7571320533752441, 1.0284181833267212, 0.6491080522537231, -1.195231556892395, -1.2452318668365479, -0.6349263191223145, 0.17883329093456268], [-0.08499433100223541, -0.44878751039505005, 0.06721416860818863, 0.05469663813710213, -0.42052221298217773, -0.1066831722855568, -0.15837787091732025, -0.028690529987215996, -0.10891366750001907, 0.34610164165496826, -0.15626075863838196, -0.21070906519889832, -0.1964276134967804, -0.6192131638526917, -0.12561087310314178, 0.030015267431735992], [0.0045554921962320805, 0.0017932148184627295, 0.0025049031246453524, -0.021589109674096107, 0.013462873175740242, -0.0027474695816636086, 0.03112279810011387, -0.001413659774698317, 0.010743080638349056, 0.004570116754621267, -0.010242804884910583, 0.020795391872525215, 0.032873041927814484, -0.003295737551525235, -0.0052358838729560375, -0.00340905855409801], [-0.03727813810110092, -0.02032039873301983, 0.016540559008717537, 0.012770367786288261, 0.13983091711997986, 0.03288426995277405, -0.07199842482805252, 0.0210795346647501, 0.009606907144188881, 0.04582148417830467, 0.029273129999637604, 0.10261400043964386, -0.07853104919195175, -0.03888554871082306, -0.04209636524319649, -0.07531268894672394], [-0.10522738099098206, -1.093005895614624, 0.25239098072052, -0.18557830154895782, 0.22832044959068298, 0.20020979642868042, -0.6138834953308105, -0.01608976162970066, 0.3492634892463684, 0.5404467582702637, 0.21367602050304413, 0.4976145923137665, -0.3122575283050537, -1.1109519004821777, -0.28763604164123535, 0.01148881297558546], [-0.06888344138860703, -1.1953494548797607, 0.2834952771663666, -0.27200403809547424, 0.6494868993759155, 0.4952286183834076, -0.9798539280891418, -0.006349883507937193, 0.5717264413833618, 0.47726207971572876, 0.8123713731765747, 0.011422352865338326, -0.9230890274047852, -1.2124037742614746, -0.5504294037818909, 0.4199187457561493], [-0.033481910824775696, -0.03446350246667862, 0.009710181504487991, -0.06910157948732376, 0.39649155735969543, 0.07099276781082153, -0.36616331338882446, -0.02027163654565811, 0.20240750908851624, 0.299338698387146, -0.0840720683336258, 0.4793727397918701, -0.28393983840942383, -0.07301498204469681, 0.06945715099573135, -0.5230681300163269], [-0.036258433014154434, -0.7679391503334045, 0.05265730246901512, -0.03355119004845619, -0.3877580761909485, -0.04901549592614174, -0.11552657932043076, -0.023479333147406578, -0.07573196291923523, -0.027531610801815987, 0.1613336056470871, -0.24444624781608582, -0.14103223383426666, -0.820216178894043, -0.28471559286117554, 0.42586272954940796], [-0.08043187856674194, -0.45025065541267395, 0.07071122527122498, 0.04564141482114792, -0.42348167300224304, -0.057951878756284714, -0.2747042179107666, 0.026196954771876335, -0.05622744932770729, 0.33870619535446167, -0.177899569272995, -0.22984501719474792, -0.2924412786960602, -0.6460904479026794, -0.1914164125919342, 0.015777310356497765]]], [[[-0.001394909922964871, -0.01063627377152443, 0.017338793724775314, 0.009303821250796318, -0.009643404744565487, -0.023390071466565132, 0.007654381915926933, -0.010332937352359295, 0.0006813438958488405, 0.028667423874139786, 0.007795251440256834, -0.01665560156106949, 0.002479122718796134, -0.018781287595629692, 0.02914602868258953, -0.009780948981642723], [-0.0035926010459661484, 0.04176882281899452, -0.022228723391890526, -0.03209792450070381, -0.1134638637304306, -0.08905915915966034, -0.00011453172191977501, -0.0055871810764074326, -0.044601377099752426, -0.08300437033176422, -0.0589568056166172, -0.016612235456705093, -0.08672015368938446, 0.05149310082197189, 0.02231951430439949, -0.10679659247398376], [-0.0022395378910005093, -0.0473925918340683, -0.039940495043992996, -0.009607141837477684, -0.0682225152850151, -0.06642214208841324, -0.0996459349989891, -0.02696957439184189, 0.022364657372236252, -0.03540066257119179, -0.037354473024606705, 0.1391623318195343, -0.11270207166671753, -0.04649300500750542, 0.006517705973237753, -0.050670940428972244], [0.0031646769493818283, 0.033779602497816086, 0.027188261970877647, -0.11392217129468918, 0.3820382058620453, 0.20917443931102753, 0.21078942716121674, -0.015993205830454826, -0.05659369379281998, -0.10575550049543381, -0.016457248479127884, -0.5890087485313416, 0.2967188060283661, 0.2735883593559265, 0.11134061217308044, 0.43307429552078247], [-0.015557505190372467, 0.04861235246062279, -0.042732954025268555, -0.19517846405506134, 0.5201024413108826, 0.17647449672222137, 0.549336850643158, 0.0460977777838707, -0.0041744764894247055, -0.2984113395214081, -0.02125394716858864, -0.6220887303352356, 0.41759195923805237, 0.4952543377876282, 0.05134209245443344, 0.8731240034103394], [0.005494516342878342, 0.056773774325847626, -0.01457813661545515, 0.012132040224969387, -0.01938115619122982, -0.025008289143443108, 0.015116970986127853, 0.006832958664745092, 0.039699602872133255, -0.0047808256931602955, 0.007803716231137514, -0.04558999091386795, 0.012756379321217537, 0.07728352397680283, 0.0003847214684356004, 0.07922635227441788], [-0.03265960142016411, -0.08035429567098618, -0.06166725233197212, -0.05246511474251747, -0.1023443341255188, -0.12291096150875092, -0.18570062518119812, 0.025255952030420303, 0.05947709083557129, -0.012774987146258354, -0.07902580499649048, 0.41529303789138794, -0.24404969811439514, -0.042262692004442215, -0.031084295362234116, -0.12999433279037476], [-0.03548995405435562, -0.06394429504871368, 0.03783499449491501, -0.10218262672424316, 0.1879294365644455, 0.07160928845405579, -0.032971031963825226, -0.006876490544527769, -0.0176390390843153, 0.22543416917324066, -0.10812164098024368, 0.13915792107582092, 0.12113075703382492, 0.06814824044704437, 0.11416997760534286, 0.1577031910419464], [0.038287147879600525, 0.023580363020300865, -0.044308509677648544, -0.06661172956228256, -0.18136312067508698, -0.15152586996555328, 0.011102389544248581, -0.03267802298069, 0.0953642725944519, -0.04207257553935051, -0.1392240673303604, 0.35507750511169434, -0.08947322517633438, 0.11300401389598846, 0.050825417041778564, -0.12308268249034882], [-0.10823805630207062, -0.236976757645607, -0.2128346711397171, -0.43211469054222107, 0.15590406954288483, -0.20448419451713562, 0.7803006768226624, -0.048496313393116, -0.016235368326306343, 0.0361824631690979, -0.4469543993473053, 0.8846940994262695, 0.38081613183021545, 0.9957478642463684, 0.524351954460144, 0.7904524803161621], [-0.015021046623587608, -0.054896220564842224, -0.048376426100730896, -0.08664904534816742, -0.060916315764188766, -0.12164656072854996, 0.06961949914693832, 0.01581898331642151, 0.0836615040898323, 0.015212700702250004, -0.11744982749223709, 0.4913751780986786, -0.08186742663383484, 0.18480484187602997, 0.04009714722633362, 0.019104786217212677], [-0.12593773007392883, -0.31393298506736755, -0.21241992712020874, -0.5616506934165955, 0.5399848222732544, 0.019556498154997826, 0.9190356731414795, -0.011283593252301216, 0.06167926266789436, -0.18171057105064392, -0.3717181086540222, 0.26538288593292236, 0.6987630128860474, 1.2116100788116455, 0.5916662812232971, 1.3084592819213867], [-0.07594864070415497, 0.447450190782547, -0.13687746226787567, 0.0714508667588234, -0.6059604287147522, -0.5038594007492065, 0.004499055445194244, 0.00030317530035972595, 0.013251785188913345, 0.4072008728981018, -0.466266006231308, 1.1576851606369019, -0.4011695384979248, 0.4812109172344208, 0.17646010220050812, -0.48350098729133606], [0.05069412663578987, -0.002028354676440358, -0.01882646232843399, -0.013827181421220303, -0.010535956360399723, 0.006523465737700462, -0.03830424323678017, 0.02431313879787922, -0.0016948310658335686, -0.0052186837419867516, -0.02092958241701126, -0.0018867870094254613, 0.0027476963587105274, 0.00022262697166297585, 0.00459985202178359, -0.008597437292337418], [-0.018723439425230026, -0.01210242509841919, -0.0064461724832654, -0.0041948906145989895, 0.03939024731516838, -0.024373680353164673, -0.06730137020349503, 0.023207277059555054, -0.039538778364658356, -0.027220912277698517, 0.0010626037837937474, 0.07321816682815552, -0.08340106159448624, -0.029776936396956444, -0.03017430007457733, -0.013541785068809986], [-0.06057428568601608, 0.10579909384250641, -0.233433336019516, -0.1876267045736313, -0.2920551896095276, -0.4090868830680847, 0.590133786201477, 0.023397088050842285, -0.033957138657569885, 0.055893074721097946, -0.4921073019504547, 0.9505607485771179, -0.03707871213555336, 0.8816521167755127, 0.3790566027164459, 0.18027004599571228], [-0.12812942266464233, -0.17428527772426605, -0.09016060084104538, -0.34283506870269775, 0.30593156814575195, -0.010980562306940556, 0.5471163988113403, -0.03503124415874481, -0.03598394617438316, 0.14383743703365326, -0.3343842625617981, 0.152708038687706, 0.4743780493736267, 0.877199113368988, 0.5283005237579346, 0.7600650191307068], [0.00781775638461113, -0.11754097044467926, -0.06430629640817642, -0.03019440360367298, -0.07553182542324066, -0.12217073887586594, -0.2914101779460907, 0.0024550296366214752, 0.1138952225446701, -0.011497053317725658, -0.11289691179990768, 0.5957775115966797, -0.37162861227989197, -0.09278517961502075, -0.06469031423330307, -0.11116107553243637], [-0.027674458920955658, 0.23635734617710114, -0.09855834394693375, 0.015970461070537567, -0.20594613254070282, -0.19659923017024994, 0.2549190819263458, 0.0140281543135643, -0.036408379673957825, 0.08003400266170502, -0.22062556445598602, -0.1520894169807434, 0.09918839484453201, 0.5559202432632446, 0.325484961271286, 0.07429748773574829], [-0.10168010741472244, 0.45593106746673584, -0.14632458984851837, 0.12324878573417664, -0.5786700248718262, -0.49625614285469055, -0.025992996990680695, -0.0011099247494712472, 0.007054639980196953, 0.4632793068885803, -0.4414266347885132, 1.2754453420639038, -0.4117914140224457, 0.4950956106185913, 0.1158386766910553, -0.4856720566749573]], [[0.008719966746866703, -0.0036460459232330322, -0.020645596086978912, -0.015337114222347736, -0.0304530281573534, 0.0074477666057646275, 0.020130544900894165, -0.001984710106626153, -0.006334714125841856, -0.029575126245617867, 0.015531118959188461, 0.04456690326333046, -0.034854955971241, -0.02387395314872265, -0.012125191278755665, -0.010725206695497036], [-0.004746364429593086, 0.09929673373699188, -0.01699911244213581, 0.06152944266796112, -0.04578855261206627, -0.0635179728269577, 0.03864109888672829, 0.02871479094028473, -0.0576745979487896, -0.057126421481370926, -0.04343040660023689, 0.10738299787044525, -0.04144936054944992, 0.130997434258461, 0.042625024914741516, -0.08348085731267929], [0.010411509312689304, -0.05608303099870682, -0.0265063289552927, -0.017512906342744827, -0.0130356065928936, -0.006100405007600784, -0.1280718296766281, -0.017989570274949074, 0.01583263836801052, 0.07606745511293411, -0.02532808855175972, 0.2047577202320099, -0.11463186144828796, -0.0050404430367052555, -0.025272004306316376, -0.06536160409450531], [-0.009434993378818035, -0.09205729514360428, 0.08489634096622467, -0.07725464552640915, 0.04911070317029953, 0.135153666138649, 0.031587839126586914, -0.017700593918561935, 0.08457298576831818, -0.21510840952396393, 0.06083204224705696, -0.5451791286468506, 0.18237963318824768, -0.13052549958229065, -0.18466195464134216, 0.3132985830307007], [-0.029048873111605644, -0.15204910933971405, 0.0745786502957344, -0.15511874854564667, 0.22121736407279968, 0.19138973951339722, 0.1553993672132492, 0.018683237954974174, -0.03973107039928436, -0.11787586659193039, 0.005384952295571566, -0.23587414622306824, 0.18721862137317657, -0.24942244589328766, -0.26562485098838806, 0.7002333402633667], [0.0017550779739394784, 0.0318090058863163, 0.0019207890145480633, 0.04095246270298958, 0.014411735348403454, -0.009173111990094185, 0.039846021682024, -0.007258727680891752, 0.0378623902797699, -0.04918217286467552, -0.04138685762882233, -0.0020037880167365074, 0.047238633036613464, 0.037120360881090164, -0.0012387782335281372, 0.061166126281023026], [-0.010516778565943241, -0.104439876973629, -0.03023527003824711, -0.02304581180214882, -0.024805672466754913, -0.04407765343785286, -0.23537299036979675, -0.012723893858492374, -0.008923348970711231, 0.1933610886335373, -0.07181446999311447, 0.45052412152290344, -0.3024434447288513, -0.01082615926861763, 0.03930104151368141, -0.18106606602668762], [-0.0541062131524086, -0.2288559228181839, 0.09290115535259247, -0.08895682543516159, -0.059494346380233765, 0.021078240126371384, -0.1268884241580963, 0.01150022353976965, -0.007933270186185837, 0.10506463050842285, 0.013597619719803333, -0.2951339781284332, -0.059143222868442535, -0.2605487108230591, -0.09437596052885056, 0.11878205835819244], [-0.0038878321647644043, 0.09841398149728775, -0.038980551064014435, 0.0367463044822216, -0.010976068675518036, -0.023040130734443665, -0.05960248038172722, 0.03416478633880615, 0.04579434171319008, 0.11448132246732712, -0.07788801193237305, 0.29623839259147644, -0.006825258489698172, 0.1640337109565735, 0.12300725281238556, -0.1869133561849594], [-0.1082657128572464, -0.641038179397583, -0.006121682934463024, -0.26674970984458923, 0.1133224219083786, 0.07658921182155609, 0.12103456258773804, 0.026454323902726173, 0.0017649943474680185, 0.449382483959198, -0.34926098585128784, 0.6345014572143555, 0.30664393305778503, -0.28827300667762756, 0.06949704140424728, 0.4142164885997772], [-0.011608673259615898, -0.035022638738155365, -0.03914714977145195, -0.062409933656454086, 0.056107841432094574, 0.023354031145572662, -0.019730953499674797, 0.011061888188123703, -0.06011677905917168, 0.23207364976406097, -0.10369201749563217, 0.353039026260376, -0.04270848259329796, 0.09913376718759537, 0.07024747878313065, -0.008670222014188766], [-0.0938127338886261, -0.6896398663520813, 0.08952150493860245, -0.3337758183479309, 0.17179374396800995, 0.234965980052948, 0.18494436144828796, -0.00275046075694263, -0.0005235786084085703, 0.29420211911201477, -0.28630155324935913, 0.35223183035850525, 0.4510805904865265, -0.41789960861206055, -0.15094010531902313, 0.9603374004364014], [-0.12767855823040009, 0.5563592314720154, -0.108607217669487, 0.30070143938064575, -0.332688570022583, -0.24707400798797607, -0.07991109043359756, 0.005030422005802393, -0.07489514350891113, 0.42574235796928406, -0.36344781517982483, 0.2019939124584198, -0.14247377216815948, 0.45795339345932007, 0.22371326386928558, -0.5116715431213379], [-0.006010549142956734, 0.013606968335807323, -0.028532106429338455, -0.005198410712182522, 0.015955129638314247, -0.01610409840941429, -0.015092471614480019, -0.026996545493602753, 0.05300242453813553, -0.014481060206890106, -0.02485872060060501, -0.01297659520059824, -0.01324168499559164, -0.006977785844355822, 0.01379299070686102, -0.004505103919655085], [-0.018708830699324608, -0.05562271177768707, 0.006214608903974295, -0.005417945329099894, 0.07160966098308563, 0.018401984125375748, -0.06175496056675911, -0.01959005743265152, -0.048566706478595734, 0.03743039816617966, -0.020037053152918816, 0.060761138796806335, -0.0832180455327034, -0.03133774176239967, -0.021957864984869957, -0.04929151013493538], [-0.08657756447792053, -0.022237278521060944, -0.10654829442501068, 0.032583169639110565, -0.13335087895393372, -0.11973366141319275, 0.20824114978313446, -0.024535128846764565, -0.027237560600042343, 0.40906375646591187, -0.42411696910858154, 0.6438576579093933, 0.2063284069299698, 0.1697695553302765, 0.178166463971138, -0.04978542774915695], [-0.07894299924373627, -0.5585229992866516, 0.050395380705595016, -0.1619042605161667, -0.10629979521036148, 0.0402970090508461, 0.1494811326265335, -0.02121691033244133, 0.0655815601348877, 0.20013971626758575, -0.2127252072095871, -0.13955320417881012, 0.36355748772621155, -0.4899832308292389, -0.08574865758419037, 0.5122756958007812], [-0.024202924221754074, -0.15033012628555298, -0.010073402896523476, -0.05908619239926338, 0.08303924649953842, -0.013414175249636173, -0.3360082507133484, 0.010122078470885754, -0.013559448532760143, 0.26700931787490845, -0.1054447665810585, 0.5672607421875, -0.4350130558013916, -0.0442725233733654, -0.016648579388856888, -0.1922425627708435], [-0.05461039021611214, 0.11676934361457825, -0.11652465909719467, 0.1785748451948166, -0.2576209008693695, -0.13873420655727386, 0.2836485803127289, -0.004786865320056677, 0.13276678323745728, -0.10504582524299622, -0.18382896482944489, -0.2214033454656601, 0.2704339325428009, -0.0027040052227675915, 0.039006635546684265, -0.025864053517580032], [-0.09747440367937088, 0.5555097460746765, -0.07181768864393234, 0.28810131549835205, -0.3457077443599701, -0.2529763877391815, -0.07966826856136322, -0.03891652449965477, -0.11017203330993652, 0.46384960412979126, -0.378019243478775, 0.2207920104265213, -0.1155567318201065, 0.40992146730422974, 0.25024449825286865, -0.4895941913127899]], [[0.02536313235759735, -0.03131939470767975, -0.005638254340738058, 0.0011912572663277388, -0.010989191010594368, 0.019146617501974106, -0.01018892228603363, 0.03793244808912277, 0.02135656401515007, 0.01762538030743599, 0.008439406752586365, -0.009601570665836334, -0.013601797632873058, 0.0068197473883628845, 0.01605992019176483, 0.01911124400794506], [-0.02066541276872158, 0.0988660529255867, -0.0069575863890349865, 0.05627908930182457, 0.02895771525800228, 0.003566071856766939, 0.029680458828806877, -0.006613660138100386, 0.010080964304506779, -0.00684738252311945, -0.04626675322651863, 0.10144390165805817, 0.040108345448970795, 0.075792595744133, 0.004462803713977337, -0.08949045091867447], [-0.042396970093250275, -0.04674365743994713, -0.010088118724524975, -0.014158275909721851, 0.044988155364990234, -0.02197941765189171, -0.12160906940698624, 0.03359305486083031, -0.012436974793672562, 0.1504046469926834, -0.03754568099975586, 0.19467265903949738, -0.1252039074897766, -0.0565703846514225, 0.021732773631811142, -0.11179417371749878], [-0.007644118275493383, -0.23136259615421295, 0.10004212707281113, -0.10084560513496399, -0.14950762689113617, 0.1059434786438942, -0.07062076777219772, -0.00034954387228935957, -0.1460236757993698, -0.2059948742389679, 0.20069248974323273, -0.43709230422973633, 0.008561365306377411, -0.23465105891227722, -0.22467343509197235, 0.5826334953308105], [-0.04023931920528412, -0.43804997205734253, 0.19510319828987122, -0.18188433349132538, -0.08206930011510849, 0.24200087785720825, -0.15569107234477997, -0.013743944466114044, -0.2635158896446228, -0.0024631922133266926, 0.25652971863746643, -0.3283064663410187, -0.16132691502571106, -0.5172840356826782, -0.481628954410553, 0.8985735774040222], [-0.028300704434514046, -0.027354493737220764, -0.0012111442629247904, -0.017282282933592796, -0.012719507329165936, -0.014686549082398415, 0.01567908748984337, -0.008954859338700771, -0.0012172047281637788, -0.0044409967958927155, -0.0001910574792418629, -0.03757654130458832, 0.01757045090198517, 0.0142122283577919, -0.012208946980535984, 0.03158953785896301], [0.006368258967995644, -0.024332400411367416, -0.04318353533744812, -0.0284119900316, 0.029275113716721535, 0.01874864660203457, -0.31253141164779663, 0.022302983328700066, -0.01113617792725563, 0.2515195608139038, -0.11566109955310822, 0.2524537444114685, -0.3054395616054535, -0.002112162299454212, 0.09244240075349808, -0.2868422865867615], [-0.023793891072273254, -0.3960588574409485, 0.0842030793428421, -0.043228667229413986, -0.3063919246196747, 0.019759684801101685, -0.011290895752608776, 0.013460546731948853, -0.15734410285949707, -0.06721732020378113, 0.1515311598777771, -0.47856149077415466, -0.1662474423646927, -0.4431699514389038, -0.24798595905303955, 0.4477812647819519], [-0.05011337995529175, 0.1766078621149063, -0.027096569538116455, 0.03956933692097664, -0.04745198413729668, -0.02487606555223465, -0.1480075865983963, 0.0046301851980388165, 0.08378791064023972, 0.12742561101913452, -0.10201048851013184, 0.011060681194067001, 0.05418792739510536, 0.13613516092300415, 0.11277841031551361, -0.24066850543022156], [-0.1371828317642212, -1.1354705095291138, 0.16602823138237, -0.1516503393650055, -0.4795050621032715, 0.09853629767894745, -0.25282910466194153, 0.0008057602681219578, -0.11447548866271973, 0.3520106375217438, 0.038731012493371964, -0.46573173999786377, -0.1529594510793686, -1.2988625764846802, -0.5111764669418335, 0.7839325666427612], [-0.018841702491044998, -0.05331354960799217, 0.03702189773321152, -0.05707461014389992, 0.02206757292151451, 0.004248319659382105, -0.18865232169628143, 0.023910967633128166, 0.011067175306379795, 0.19007064402103424, -0.050029173493385315, -0.033574994653463364, -0.11772273480892181, -0.06712554395198822, 0.03647284209728241, -0.0964500829577446], [-0.08946244418621063, -1.2901848554611206, 0.2926699221134186, -0.3021261394023895, -0.479777991771698, 0.22336094081401825, -0.27386462688446045, -0.01484642829746008, -0.30123692750930786, 0.2992209792137146, 0.2922993004322052, -0.5802854299545288, -0.24426008760929108, -1.3887330293655396, -0.746265709400177, 1.4769129753112793], [-0.1099817305803299, 0.4693365693092346, -0.17966262996196747, 0.45887234807014465, -0.5027866363525391, -0.2698601186275482, 0.06900055706501007, 0.009583616629242897, 0.15693044662475586, 0.013588398694992065, -0.3306199312210083, -0.8900436162948608, 0.0896676629781723, 0.08737265318632126, 0.008580712601542473, -0.4370609521865845], [-0.0005304543883539736, 0.011343514546751976, -0.015319476835429668, -0.006203299388289452, 0.033508434891700745, -0.018003879114985466, -0.009156343527138233, -0.010975643061101437, 0.010919850319623947, 0.02077634632587433, -0.00978049822151661, -0.004123132675886154, -0.007897871546447277, 0.007688487879931927, -0.014598486945033073, -0.008804481476545334], [-0.04721442237496376, -0.04496152698993683, 0.02215803973376751, 0.007407580967992544, 0.059082482010126114, 0.010406439192593098, -0.09222311526536942, 0.0032526266295462847, -0.08128213882446289, 0.09075585007667542, -0.008640200830996037, 0.0005270281108096242, -0.12239178270101547, -0.03892674669623375, -0.01984468661248684, -0.05179000645875931], [-0.11615258455276489, -0.3772745430469513, 0.0152072012424469, 0.11205076426267624, -0.42604485154151917, -0.14160467684268951, -0.05288703367114067, -0.01634003035724163, 0.050547271966934204, 0.24023431539535522, -0.23095616698265076, -0.3168190121650696, 0.10911067575216293, -0.6319202780723572, -0.24513958394527435, 0.07904078811407089], [-0.06689030677080154, -1.1261005401611328, 0.08764556050300598, -0.08308356255292892, -0.7388582229614258, -0.026558680459856987, 0.009093721397221088, -0.017336372286081314, -0.18608947098255157, -0.0706038847565651, 0.21019144356250763, -0.8159013390541077, -0.022180497646331787, -1.292366623878479, -0.6773467659950256, 1.0889695882797241], [-0.008398976176977158, -0.06438416242599487, 0.04731999710202217, -0.03137805312871933, 0.13067597150802612, 0.08849745243787766, -0.42055296897888184, 0.010669883340597153, -0.0842476487159729, 0.3712172508239746, -0.11155719310045242, 0.17251144349575043, -0.4657592475414276, -0.015848349779844284, 0.06940192729234695, -0.3348636329174042], [-0.04259607195854187, -0.1993342489004135, -0.15004919469356537, 0.24353447556495667, -0.501013994216919, -0.22329384088516235, 0.34814226627349854, -0.03992520645260811, 0.1615733653306961, -0.3324902057647705, -0.07765498012304306, -0.39336636662483215, 0.41320285201072693, -0.4880126416683197, -0.2780872583389282, 0.1911163330078125], [-0.11957619339227676, 0.4728001356124878, -0.08441294729709625, 0.4428900480270386, -0.5444945693016052, -0.3274030387401581, 0.0759626179933548, -0.010538912378251553, 0.08110470324754715, 0.06003102660179138, -0.35567447543144226, -0.8978163599967957, 0.07485268265008926, 0.048851098865270615, -0.004130147863179445, -0.4196770489215851]]], [[[-0.029970683157444, 0.010575536638498306, 0.028081057593226433, 0.016285182908177376, -0.036611925810575485, -0.020984221249818802, -0.005509797018021345, 0.008918926119804382, -0.0008709850953891873, -0.009781107306480408, 0.0097367437556386, 0.0225461944937706, -0.004265821538865566, 0.011273830197751522, -0.047663673758506775, -0.01673000119626522], [-0.016144590452313423, 0.05303337797522545, -0.01742914505302906, 0.036074016243219376, -0.053580787032842636, -0.08825915306806564, -0.05955277755856514, 0.007876018062233925, -0.04107961431145668, -0.022009631618857384, -0.06649865955114365, 0.1242581233382225, -0.08687416464090347, 0.04197477176785469, -0.021913016214966774, -0.1155407503247261], [0.007917448878288269, -0.003984679467976093, -0.01034813467413187, 0.0032398607581853867, -0.07711011171340942, -0.03683708235621452, -0.09475527703762054, -0.012080932036042213, 0.02553066425025463, 0.023373426869511604, -0.06135137006640434, 0.20261065661907196, -0.11015041172504425, -0.07229513674974442, -0.05121327191591263, -0.07567866891622543], [-0.00680895708501339, 0.35166284441947937, -0.041412342339754105, -0.028551628813147545, -0.06587202847003937, -0.10954643040895462, 0.46145862340927124, 0.003171936608850956, 0.25113117694854736, -0.15710410475730896, -0.18714340031147003, -0.5147095322608948, 0.30669695138931274, 0.6198551058769226, 0.2319815456867218, 0.26080751419067383], [0.012389559298753738, 0.5943227410316467, -0.10358336567878723, -0.09318096935749054, -0.2928646206855774, -0.3619263172149658, 0.74964839220047, -0.021398333832621574, 0.46435776352882385, -0.16193629801273346, -0.3737068176269531, -0.28417396545410156, 0.34974995255470276, 0.9371787905693054, 0.20634829998016357, 0.3870452642440796], [0.008843332529067993, 0.023435797542333603, -0.039367858320474625, 0.012716771103441715, -0.004175097215920687, 0.0006190433050505817, 0.052768222987651825, -0.022250689566135406, 0.05048511549830437, -0.002980948658660054, -0.016076235100626945, -0.031104441732168198, 0.026119396090507507, -0.0071570053696632385, 0.012592162936925888, -0.01685471273958683], [-0.015865609049797058, -0.07400545477867126, -0.046358320862054825, -0.0376393161714077, -0.15776701271533966, -0.14011116325855255, -0.25001320242881775, 0.013700657524168491, 0.05913432687520981, 0.08859410136938095, -0.07155180722475052, 0.6011485457420349, -0.2295922487974167, -0.1097172275185585, -0.06747160851955414, -0.22699743509292603], [-0.012948598712682724, 0.20020589232444763, -0.04095722734928131, 0.03610854968428612, -0.11798488348722458, -0.08641421049833298, 0.07978858053684235, -0.03000691905617714, -0.007637230679392815, 0.1728319227695465, -0.16885438561439514, -0.1183130294084549, 0.05386689677834511, 0.3040597438812256, 0.17085981369018555, -0.019108101725578308], [-0.02341407723724842, 0.09743764251470566, 0.0003480238956399262, 4.634651122614741e-05, -0.18361833691596985, -0.1392572522163391, -0.10063208639621735, -0.012517880648374557, 0.038963500410318375, 0.13673362135887146, -0.08542593568563461, 0.5741215348243713, -0.1887212097644806, 0.09421264380216599, -0.0281366016715765, -0.2139911949634552], [-0.08489208668470383, 0.8773788809776306, -0.23648276925086975, -0.02487936057150364, -0.8389824032783508, -0.7921319007873535, 0.5716832876205444, -0.008737887255847454, 0.3759308159351349, 0.45388996601104736, -0.8435758352279663, 1.131430983543396, -0.21194766461849213, 1.4271961450576782, 0.4200489819049835, -0.3367767333984375], [-0.01762337051331997, 0.11024680733680725, -0.0455414243042469, -0.013061332516372204, -0.19679181277751923, -0.19261440634727478, -0.011270866729319096, 0.015667419880628586, 0.03661799430847168, 0.18171942234039307, -0.19035100936889648, 0.6052002310752869, -0.20074708759784698, 0.11778225749731064, -0.015017467550933361, -0.1728488802909851], [-0.03222578763961792, 1.034178376197815, -0.2096557319164276, -0.14033281803131104, -0.8834537267684937, -0.8438432812690735, 0.8871247172355652, -0.011338133364915848, 0.6694570779800415, 0.26716405153274536, -0.9045975804328918, 0.57275390625, 0.2045711874961853, 1.779901385307312, 0.5413650870323181, 0.09944571554660797], [-0.1399431973695755, 0.6517033576965332, -0.10146337747573853, 0.20876987278461456, -0.40824928879737854, -0.48658886551856995, -0.34277719259262085, 0.005081893876194954, -0.11004631221294403, 0.6405410170555115, -0.44759127497673035, 1.3853901624679565, -0.7850971221923828, 0.36242544651031494, 0.11208346486091614, -1.2216802835464478], [0.007889357395470142, 0.021427523344755173, 0.03534279018640518, 0.03099418431520462, 0.014950389973819256, -0.02999052405357361, -0.012702547945082188, -0.010399993509054184, 0.032118089497089386, -0.013713882304728031, 0.006490850821137428, 0.0016937368782237172, -0.016341477632522583, 0.008806954137980938, 0.007267022039741278, -0.02426188625395298], [0.02053852751851082, -0.05029217526316643, -0.014381198212504387, 0.012220676057040691, -0.043105121701955795, -0.013857855461537838, -0.060253024101257324, -0.0021725089754909277, -0.0576585978269577, -0.0030530476942658424, -0.049857303500175476, 0.08033019304275513, -0.07977601140737534, -0.04272421821951866, -0.02171650528907776, -0.023342737928032875], [-0.07676307111978531, 0.8001796007156372, -0.17231640219688416, 0.09327463805675507, -0.7264560461044312, -0.7104289531707764, 0.2273232638835907, 0.0011933365603908896, 0.17503811419010162, 0.460151731967926, -0.6557179689407349, 1.2688719034194946, -0.47246095538139343, 0.9669166207313538, 0.2557283937931061, -0.7908510565757751], [-0.06625024229288101, 0.9381481409072876, -0.1582813560962677, 0.04468035697937012, -0.652442216873169, -0.6002036929130554, 0.6172813773155212, -0.014716101810336113, 0.3987122178077698, 0.3041902184486389, -0.6514816284179688, 0.10668618977069855, 0.04482339695096016, 1.46086847782135, 0.5465701222419739, -0.21600890159606934], [-0.010832438245415688, -0.0653284341096878, -0.05182654410600662, -0.0639386996626854, -0.19860053062438965, -0.13900670409202576, -0.28719136118888855, -0.026197876781225204, 0.07383456081151962, 0.16599105298519135, -0.09897695481777191, 0.7320577502250671, -0.4026552140712738, -0.14728425443172455, -0.10530663281679153, -0.23815888166427612], [-0.03375392034649849, 0.5594496130943298, -0.07395713776350021, 0.18946638703346252, -0.26716408133506775, -0.286011278629303, 0.12441422790288925, 0.011524935252964497, 0.15818171203136444, 0.14724686741828918, -0.26854199171066284, -0.12010610103607178, -0.06427226960659027, 0.6899797916412354, 0.32595768570899963, -0.44520193338394165], [-0.07625007629394531, 0.6579142212867737, -0.07892321050167084, 0.2752188444137573, -0.413644015789032, -0.4603232443332672, -0.41158536076545715, -0.031332001090049744, -0.14762893319129944, 0.721478283405304, -0.44942331314086914, 1.4494885206222534, -0.7711911797523499, 0.3565884530544281, 0.08540220558643341, -1.215542197227478]], [[0.008205261081457138, -0.005112960934638977, 0.02256307564675808, -0.024080906063318253, -0.012261482886970043, -0.009456588886678219, 0.010915081016719341, 1.4364258277055342e-05, -0.01979178935289383, 0.008802338503301144, 0.018364742398262024, 0.019344326108694077, 0.008763971738517284, -0.04050323739647865, -0.013738171197474003, 0.006577078718692064], [-0.010724959895014763, 0.12149406969547272, -0.040692612528800964, 0.040884580463171005, -0.029227692633867264, -0.0664583221077919, 0.012463763356208801, 0.014896298758685589, -0.017290670424699783, -0.009563852101564407, -0.06782884150743484, 0.17367520928382874, -0.04516538605093956, 0.19283045828342438, 0.026336947456002235, -0.12819091975688934], [0.01463337242603302, -0.07340475171804428, -0.023852091282606125, -0.01908641867339611, -0.037077177315950394, -0.02440630830824375, -0.14936628937721252, -0.021558649837970734, 0.00367622054181993, 0.10004210472106934, -0.027436163276433945, 0.17829515039920807, -0.13289295136928558, -0.0522933155298233, -0.027019236236810684, -0.0860760509967804], [-0.039641402661800385, 0.26462385058403015, -0.04496894031763077, 0.031711872667074203, -0.24813345074653625, -0.07061390578746796, 0.44607314467430115, -0.016457203775644302, 0.15978699922561646, -0.22536778450012207, -0.16732798516750336, -0.479261577129364, 0.32150861620903015, 0.2859119772911072, -0.0817214623093605, 0.18680760264396667], [-0.0014999806880950928, 0.44903501868247986, -0.04912380501627922, 0.031048037111759186, -0.37337526679039, -0.19892685115337372, 0.6017590165138245, -0.016269491985440254, 0.1756468266248703, -0.010541039519011974, -0.29973527789115906, -0.3930100202560425, 0.3236171007156372, 0.32253843545913696, -0.14011143147945404, 0.23386813700199127], [0.012635068036615849, 0.0504220575094223, 0.003022935939952731, 0.011786386370658875, -0.047039419412612915, -0.014788316562771797, 0.05427873879671097, -0.016072958707809448, -0.03393029794096947, -0.045868102461099625, -0.0027303877286612988, -0.02835775539278984, 0.023632820695638657, 0.024156177416443825, -0.03196987137198448, -0.020968157798051834], [0.013675356283783913, -0.07867014408111572, -0.0028932855930179358, -0.02797706425189972, -0.08116146922111511, -0.06355256587266922, -0.25082385540008545, 0.007492749951779842, -0.04874282702803612, 0.24707922339439392, -0.075102798640728, 0.4006349742412567, -0.2669702172279358, 0.0063852546736598015, -0.00841125100851059, -0.2136109620332718], [-0.04191769286990166, 0.12072604894638062, 0.00905799400061369, 0.07747440040111542, -0.23613689839839935, -0.1411740630865097, 0.1417902261018753, -0.010857705026865005, 0.0709337517619133, -0.0027197846211493015, -0.14698456227779388, -0.4284055233001709, 0.09292100369930267, 0.02248683013021946, -0.03583323583006859, -0.034024570137262344], [-0.022336438298225403, 0.13615858554840088, -0.010042239911854267, 0.02009342610836029, -0.11319268494844437, -0.053366467356681824, -0.15239983797073364, -0.004234903492033482, 0.04676384478807449, 0.21472866833209991, -0.05851861461997032, 0.2564718723297119, -0.1378304660320282, 0.15729595720767975, 0.06395283341407776, -0.2338789850473404], [-0.12358783930540085, 0.8269308805465698, -0.14090369641780853, 0.27482327818870544, -0.6817423701286316, -0.4167460799217224, 0.4692426919937134, -0.0005921380943618715, 0.10677172243595123, 0.5332880616188049, -0.7140699625015259, -0.09105286002159119, 0.13006314635276794, 0.7899474501609802, 0.2343381941318512, -0.4734041392803192], [-0.040889665484428406, 0.11384328454732895, -0.00701151555404067, 0.006746954284608364, -0.12539248168468475, -0.08504639565944672, -0.055629368871450424, -0.040460869669914246, -0.10171627998352051, 0.2879559099674225, -0.12236014753580093, 0.24638333916664124, -0.14587494730949402, 0.14087651669979095, 0.07700029015541077, -0.14362041652202606], [-0.10015277564525604, 0.752732515335083, -0.12437685579061508, 0.20861639082431793, -0.8597990274429321, -0.4996190667152405, 0.7643159031867981, 0.003131643868982792, 0.2522045075893402, 0.39318835735321045, -0.7033460140228271, -0.3236376941204071, 0.4279661178588867, 0.6691403388977051, 0.060468707233667374, -0.08994182199239731], [-0.10831496119499207, 0.9694246053695679, -0.07347691804170609, 0.448041707277298, -0.12347450852394104, -0.2727009057998657, -0.14457270503044128, 0.0332755409181118, 0.04805559664964676, 0.3838924765586853, -0.3903510868549347, -0.04439263790845871, -0.2719603180885315, 0.9004796147346497, 0.27475857734680176, -1.1002932786941528], [-0.01782437600195408, 0.015313689596951008, 0.020031217485666275, -0.012518486008048058, 0.002045727102085948, 0.0117441201582551, 0.0004147580766584724, -0.017806468531489372, -0.026177000254392624, 0.019214443862438202, 0.009153083898127079, 0.011642089113593102, -0.019918376579880714, 0.0031039738096296787, 0.009895434603095055, 0.004274916369467974], [-0.01640784554183483, -0.009917198680341244, -0.022746291011571884, 0.010656756348907948, 0.012423548847436905, 0.02797008864581585, -0.061613939702510834, -0.01865418627858162, -0.04669266939163208, 0.037135638296604156, -0.012114974670112133, 0.0589248351752758, -0.10038256645202637, -0.021002523601055145, -0.04145077243447304, 0.002638283185660839], [-0.1242753192782402, 0.9375418424606323, -0.1286233365535736, 0.37878718972206116, -0.3849373757839203, -0.33413562178611755, 0.15734434127807617, -0.018914293497800827, 0.06601951271295547, 0.4886184334754944, -0.5467426776885986, 0.15264534950256348, -0.04782641679048538, 0.95670485496521, 0.26242607831954956, -0.8637035489082336], [-0.12435544282197952, 0.8606147766113281, -0.16380779445171356, 0.36291593313217163, -0.6790043115615845, -0.3889799416065216, 0.7085402011871338, -0.00635860301554203, 0.28608793020248413, 0.11670725792646408, -0.5715276002883911, -0.6731947064399719, 0.45222973823547363, 0.7259964346885681, 0.07738835364580154, -0.3717244267463684], [-0.03497367352247238, -0.11310429126024246, 0.013679828494787216, -0.05275154113769531, -0.049015503376722336, -0.06955085694789886, -0.39344534277915955, -0.0025570550933480263, -0.10393472760915756, 0.34368839859962463, -0.12988807260990143, 0.43006667494773865, -0.4086727201938629, -0.045220401138067245, 0.007385589648038149, -0.27003854513168335], [-0.05231579393148422, 0.8334193825721741, -0.10017029196023941, 0.35758933424949646, -0.16389872133731842, -0.16125980019569397, 0.36596354842185974, -0.01564699225127697, 0.31356948614120483, -0.0858631506562233, -0.26248154044151306, -0.5115478038787842, 0.2740981876850128, 0.7535886168479919, 0.122121162712574, -0.5586960315704346], [-0.08756352961063385, 0.9761822819709778, -0.09397681802511215, 0.4287272095680237, -0.12032584846019745, -0.2486724704504013, -0.18002507090568542, -0.003633933374658227, -0.005157765932381153, 0.4230581820011139, -0.376069039106369, -0.09250449389219284, -0.25361505150794983, 0.8629335761070251, 0.2901051938533783, -1.0920724868774414]], [[-0.013904753141105175, -0.0424329936504364, 0.006811954081058502, -0.014010380953550339, 0.023232193663716316, -0.010831719264388084, -0.01543032843619585, 0.0017043945845216513, 0.02282075770199299, -0.006128767970949411, 0.016416149213910103, 0.0399293452501297, 0.011525574140250683, 0.026250077411532402, 0.02915177308022976, 0.020367059856653214], [0.018741335719823837, 0.1715724617242813, -0.014376054517924786, 0.00040771407657302916, 0.008132144808769226, -0.021994804963469505, -0.018367143347859383, -0.0030088697094470263, 0.01665421575307846, -0.014108462259173393, -0.048014458268880844, 0.0004893800942227244, -0.00043332285713404417, 0.18132410943508148, 0.00925842858850956, -0.10301908105611801], [-0.015646744519472122, -0.014523814432322979, 0.004048395436257124, -0.03871327266097069, -0.01927134394645691, -0.03627420589327812, -0.136468306183815, 0.025782587006688118, -0.03070615977048874, 0.11312959343194962, -0.04343971982598305, 0.09080104529857635, -0.1553012579679489, -0.031182290986180305, 0.019070366397500038, -0.1294250637292862], [-0.010484812781214714, -0.025487108156085014, -0.09040416777133942, 0.05470937862992287, -0.42682451009750366, -0.11991088837385178, 0.3253420889377594, -0.021810390055179596, -0.05603955313563347, -0.3376818001270294, -0.003699607215821743, -0.4433562159538269, 0.346271276473999, -0.155074343085289, -0.1779467612504959, 0.4806539714336395], [-0.0260971337556839, -0.130699023604393, -0.105403371155262, 0.05372578650712967, -0.707015335559845, -0.18855324387550354, 0.4085434675216675, 0.003110934514552355, -0.17500928044319153, -0.18953317403793335, -0.048021554946899414, -0.6672752499580383, 0.27244260907173157, -0.3700106739997864, -0.3817788362503052, 0.6712417602539062], [-0.023465391248464584, 0.03343343362212181, -0.004621421452611685, 0.024094410240650177, -0.009941604919731617, -0.017352871596813202, 0.05542338639497757, -0.0029027576092630625, -0.027504341676831245, -0.02354978397488594, -0.023895801976323128, -0.041074417531490326, 0.01370295137166977, -0.003346844343468547, -0.0095860930159688, 0.046331677585840225], [0.006802805699408054, -0.03564952313899994, -0.006296725012362003, -0.06266666203737259, -0.04381335526704788, -0.008311663754284382, -0.3573780655860901, -0.01957986131310463, -0.11392461508512497, 0.26460278034210205, -0.05941331759095192, 0.1377328336238861, -0.34737280011177063, -0.010830027051270008, 0.09521838277578354, -0.273993581533432], [-0.020564544945955276, -0.13398070633411407, -0.08982940763235092, 0.18902531266212463, -0.4973498582839966, -0.1737736165523529, 0.31736257672309875, -0.0014291172847151756, 0.009626341983675957, -0.290085107088089, 0.031789712607860565, -0.5078664422035217, 0.19079363346099854, -0.298743337392807, -0.23847346007823944, 0.2522093951702118], [-0.046618442982435226, 0.21095281839370728, 0.0049869343638420105, 0.029102656990289688, -0.04315054416656494, -0.07641160488128662, -0.17900751531124115, 0.002174883848056197, 0.08112574368715286, 0.1518070101737976, -0.084400475025177, -0.11515407264232635, -0.10768499970436096, 0.23283545672893524, 0.12191328406333923, -0.26879820227622986], [-0.11311908811330795, 0.18372002243995667, -0.20508180558681488, 0.5218175649642944, -1.0863438844680786, -0.4452856481075287, 0.6094046235084534, 0.003926215693354607, 0.04698072373867035, -0.11629711836576462, -0.31796836853027344, -1.3021576404571533, 0.4733263850212097, -0.3756071925163269, -0.36533209681510925, 0.043671660125255585], [-0.027413029223680496, 0.12754079699516296, 0.013174271211028099, 0.06442718952894211, -0.10126252472400665, -0.03217281028628349, -0.08080782741308212, 0.040053997188806534, -0.03365343064069748, 0.13481909036636353, -0.08708903938531876, -0.18790879845619202, -0.09537863731384277, 0.06838297098875046, 0.058533813804388046, -0.15169461071491241], [-0.12349669635295868, -0.20490656793117523, -0.2627309262752533, 0.39347535371780396, -1.425778865814209, -0.5412099957466125, 0.7711779475212097, -0.0223076194524765, -0.1011730208992958, -0.22498922049999237, -0.20444248616695404, -1.370066523551941, 0.6909129619598389, -0.8978328704833984, -0.6045439839363098, 0.6737033724784851], [-0.15158849954605103, 1.294407844543457, -0.16247019171714783, 0.6426645517349243, -0.1537875086069107, -0.2392677515745163, 0.2945747375488281, -0.0187101811170578, 0.4390738010406494, -0.20940855145454407, -0.31745144724845886, -1.2534825801849365, 0.3201363980770111, 1.0252447128295898, 0.12436174601316452, -0.9669032692909241], [-0.006503636483103037, 0.019816456362605095, -0.0015020368155092, -0.006935281213372946, -0.005586348474025726, -0.013202275149524212, -0.016860676929354668, -0.024784643203020096, 0.027469107881188393, -0.004573593847453594, 0.005636143498122692, -0.013804065994918346, 0.02020912431180477, -0.00894128531217575, -0.003994055557996035, -0.03658539801836014], [0.0043784091249108315, -0.0011040394892916083, -0.001733453944325447, -0.01754279062151909, -0.021714936941862106, 0.012829002924263477, -0.05775130167603493, 0.013130322098731995, -0.06779634207487106, 0.04129211604595184, 0.003394067520275712, 0.007100504823029041, -0.12393990159034729, -0.031830430030822754, 0.07310619950294495, 0.04669221118092537], [-0.1136026605963707, 0.8529517650604248, -0.15759910643100739, 0.5327221751213074, -0.5634483098983765, -0.3688269555568695, 0.33560582995414734, 0.002239648951217532, 0.23879121243953705, -0.04679793864488602, -0.4440920948982239, -1.091198444366455, 0.3636810779571533, 0.3800494074821472, -0.07115628570318222, -0.6572123169898987], [-0.11642741411924362, 0.16035959124565125, -0.28270086646080017, 0.5320863723754883, -1.1408573389053345, -0.47895947098731995, 0.9321562647819519, -0.03225239738821983, 0.13233274221420288, -0.5652788877487183, -0.21329210698604584, -1.3757200241088867, 0.8191388249397278, -0.48483017086982727, -0.5734359622001648, 0.25329503417015076], [0.006543328985571861, -0.09419286996126175, 0.0277707576751709, -0.06695859134197235, -0.031145362183451653, 0.01357939187437296, -0.3600217401981354, 0.00029613127117045224, -0.2006513774394989, 0.3609056770801544, -0.13381080329418182, 0.04431381821632385, -0.4740040898323059, -0.025015823543071747, 0.11202606558799744, -0.2486339807510376], [-0.07964286208152771, 0.7781804800033569, -0.2198551893234253, 0.4389520585536957, -0.23918229341506958, -0.2550279498100281, 0.5203160643577576, 0.0006804426084272563, 0.3410080373287201, -0.4074699580669403, -0.22774021327495575, -0.718893826007843, 0.6458064913749695, 0.37496471405029297, -0.1915530562400818, -0.38230231404304504], [-0.06639980524778366, 1.2746034860610962, -0.16564087569713593, 0.6590798497200012, -0.1787988692522049, -0.25720107555389404, 0.286361962556839, -0.005878763739019632, 0.46893614530563354, -0.18785275518894196, -0.3927457332611084, -1.2656340599060059, 0.28583192825317383, 1.0131878852844238, 0.1281815767288208, -1.0186402797698975]]]], "biases": [[-4.5915385271655396e-07], [0.00010339087020838633], [8.203629477065988e-06], [5.7386423577554524e-05], [7.341085438383743e-05], [-9.119869355345145e-05], [-0.0002649236121214926], [-2.1586611183010973e-05], [-0.00011649979569483548], [-0.00014896431821398437], [-9.657882765168324e-05], [1.1334414011798799e-05], [-0.0002031906769843772], [2.6820200218935497e-05], [-3.4737771784421057e-05], [-0.0001494035095674917]]}, "layer4": {"weights": [[-0.00982093345373869, 0.0021074998658150434, -0.010251152329146862, -0.019399048760533333, -0.006201494485139847, 0.002378451870754361, -0.0023131456691771746, 0.009333300404250622, 0.0008092679781839252, -0.005796703044325113, -0.003311395412310958, -0.0105753717944026, 0.007656452711671591, -0.01056092418730259, -0.006783608812838793, -0.001270962879061699, 1.7825997929321602e-05, -0.012771911919116974, -0.006715607829391956, 0.0016217695083469152, 0.007944516837596893, 0.0022540497593581676, -0.0009251845185644925, -0.011508211493492126, -0.005629426334053278, 0.0016634248895570636, 0.007749918382614851, 0.005569586530327797, 0.0012456419644877315, 0.00694187730550766, 0.020801391452550888, -0.00439238827675581, -0.005609732586890459, 0.012953037396073341, 0.0019043254433199763, 0.0015143667114898562, 0.0031971747521311045, -0.004660369362682104, -0.006105139851570129, -0.0057241590693593025, 0.010448680259287357, -0.007451540790498257, 0.0038041183724999428, -0.004529542755335569, -0.001181222265586257, 0.00658513093367219, 0.005878908094018698, 0.004902868997305632, -0.013771796599030495, 0.01020761951804161, 0.009880311787128448, -0.00020108817261643708, 0.0018019085982814431, 0.014284792356193066, 0.007479665335267782, -0.00021594481950160116, -0.0027542829047888517, -6.663565727649257e-05, 0.00916972104460001, 0.008395042270421982, -0.0105924466624856, 0.0030521859880536795, 0.005713824648410082, -0.005309356842190027, 1.8440243366057985e-05, -0.014393072575330734, 0.0009831601055338979, -0.015552828088402748, -0.003932270221412182, -0.003915066830813885, -0.003021066542714834, 0.010691056028008461, 0.0040040770545601845, -0.004048079252243042, -0.006883387453854084, -0.003022089833393693, -0.005274602212011814, 0.006465700920671225, 0.013959246687591076, 0.011950359679758549, 0.002479917136952281, -0.0015326549764722586, -0.0029518555384129286, 0.012627024203538895, -0.003718569176271558, 0.011791076511144638, -0.009983254596590996, -0.0021820776164531708, -0.013952551409602165, 0.0005888831801712513, -0.009175020270049572, 0.012812686152756214, 0.001682370901107788, 0.0040491484105587006, 0.0018479651771485806, -0.007576606702059507, 0.0009149168035946786, 0.01165545079857111, -8.910164615372196e-05, -0.008714398369193077, -0.013996436260640621, -0.00557162519544363, -0.01459738053381443, 0.006117336917668581, 0.003463740460574627, -0.008335727266967297, 0.00398374954238534, -0.004674455616623163, -0.0017399077769368887, 0.0015661163488402963, -0.0032855963800102472, 0.000931030954234302, -0.012420080602169037, -0.0029071259777992964, -2.2512369923788356e-06, -0.016535703092813492, -0.014561062678694725, -0.013910152949392796, 0.00041797664016485214, 0.000913062656763941, 0.0006040626903995872, -0.013664414174854755, 0.008625563234090805, 0.0014320570044219494, -0.006667254958301783, 0.005563466344028711, -0.0024672229774296284, -0.015139197930693626, -0.011979904025793076, 0.005394552834331989, 0.00013557684724219143, 0.00588398240506649, 0.0003154257428832352, 0.0033799128141254187, 0.018637916073203087, 0.010288857854902744, -0.0021343850530683994, 0.004351858049631119, 0.005399794317781925, 0.006261215079575777, 0.003067085752263665, -0.0010971480514854193, 0.0011404062388464808, -0.0017765776719897985, 0.012466920539736748, 0.009771881625056267, -0.000765131029766053, 0.002699644071981311, 0.0019488040124997497, 0.01067791786044836, 0.010015981271862984, 0.0041878558695316315, 0.002150815911591053, 0.0021996391005814075, 0.010155903175473213, 0.0012763559352606535, 0.0007737954729236662, -0.0018406552262604237, -0.012408630922436714, 0.0026788669638335705, -0.005386458709836006, 0.0023110993206501007, 0.008453227579593658, 0.0025019419845193624, -0.002741812029853463, -0.005698003806173801, -0.008258946239948273, 0.009816375561058521, -0.009524207562208176, -0.0047023543156683445, -0.016837000846862793, -0.004958316683769226, 0.0010466391686350107, -0.003604186698794365, -0.002649514237418771, -0.0003314240893814713, -0.006653304677456617, 0.01662321388721466, -0.0023708015214651823, 0.007840128615498543, -0.004805323667824268, 0.01253587193787098, 0.014194764196872711, 0.001701377797871828, -0.004004593938589096, 0.004683014005422592, 0.0013542602537199855, 0.00735093280673027, -0.004124990664422512, -0.009210219606757164, 0.0019917767494916916, 0.003574696835130453, 1.1337709111103322e-05, 0.007317437324672937, -0.011331398971378803, 0.006813648622483015, -0.007668749894946814, -0.004344998858869076, -0.007423670031130314, 0.000660116202197969, -0.017714623361825943, -0.007913842797279358, -0.005329412408173084, 0.00739210145547986, -0.0004894865560345352, 0.0054347277618944645, 5.8664380048867315e-05, -0.010968460701406002, 0.0066784522496163845, -0.008422987535595894, -0.004452550783753395, 0.0002724598743952811, -8.419829100603238e-05, -0.005183075554668903, 0.007388622500002384, -0.004209334496408701, 0.003210242372006178, -0.005240249447524548, 0.009051553905010223, -0.005554683972150087, -0.014985579997301102, 0.006063643377274275, -0.001309199957177043, -0.00651989970356226, 0.009079208597540855, -0.003769234288483858, 0.004366909619420767, -0.006563367322087288, -0.01000612135976553, 0.011601054109632969, -0.005122549831867218, -0.004307311028242111, -0.013334324583411217, 0.01199433859437704, 0.0016600025119259953, 0.0014063044218346477, 0.00879506766796112, -0.007884400896728039, -0.002484395867213607, -0.001176909077912569, -0.011334930546581745, 0.0109125766903162, 0.00030514414538629353, -0.0025436882860958576, 0.0018072008388116956, -0.005815240554511547, 0.0031766979955136776, 0.02524563856422901, 0.00031742919236421585, 0.007944362238049507, -0.002930369693785906, -0.007020218297839165, 0.005172944627702236, -0.006682774052023888, -0.016735833138227463, 0.00758796650916338, 0.0047759125009179115, 0.00728760939091444, 0.00040465316851623356, 0.014966357499361038, 0.0040802257135510445, -0.0014305560616776347, -0.021267838776111603, -0.00034774065716192126, 0.007157679181545973, 0.0005056191585026681, 0.010043350048363209, 0.01585431583225727, 8.139906276483089e-05, 0.008876797743141651, -0.013288923539221287, 0.013483569957315922, 0.0005026975413784385, -0.0024053992237895727, -0.0008882012916728854, -0.0012741097016260028, 0.00439845398068428, 0.004835064522922039, -0.0006141906487755477, -0.008513118140399456, 0.005101803224533796, -0.0025430030655115843, 0.010923671536147594, 0.003699661698192358, 0.0008833539905026555, -0.01512068696320057, -0.008909858763217926, 0.011800275184214115, -0.005394218023866415, -0.0009867477929219604, -0.002172991167753935, 0.010001122951507568, 0.002018122933804989, 0.008935869671404362, -0.0011392885353416204, 0.001570209045894444, -0.011223063804209232, 0.005432145670056343, -4.233065192238428e-05, -0.001989196054637432, 0.0015099078882485628, 0.01412418857216835, -0.0015915592666715384, 0.010894129052758217, -0.006249791942536831, 0.0032308201771229506, 0.015034142881631851, -0.004305663052946329, -0.0023937723599374294, 0.004691488109529018, -0.002702404512092471, -0.011051147244870663, -0.01073327474296093, 0.0003949286765418947, 0.005753367207944393, -0.0002471632033120841, 0.007319513242691755, 0.0019185449928045273, 0.00161966762971133, -0.01173466257750988, 0.002407441148534417, 0.0038399244658648968, -0.004157558549195528, 0.004026277922093868, -0.018869569525122643, 0.0026411719154566526, 0.0025543805677443743, 0.01554587110877037, 0.00856953114271164, 0.01130958553403616, 0.0036270597483962774, 0.00488332798704505, -0.007311487104743719, -0.0007364890188910067, 0.014914726838469505, -0.013829028233885765, -0.003244084771722555, -0.011110563762485981, 0.010745637118816376, -0.00550396041944623, 0.010652768425643444, -0.004066587891429663, -0.002102544065564871, 0.009416528046131134, 0.0036495814565569162, -0.021991079673171043, 0.002037564991042018, 0.0013145022094249725, 0.001842825673520565, 0.001784348743967712, 0.002036861376836896, -0.007872757501900196, 0.0015928465873003006, -0.002477512462064624, -0.004582761786878109, 2.8032953196088783e-05, 0.00598305044695735, 0.0024943219032138586, -0.006106531247496605, 0.002476631198078394, 0.004446883220225573, 0.009177912026643753, 0.008572655729949474, 0.0007058248738758266, -0.010789294727146626, -0.008355624973773956, -0.0015864379238337278, -0.014579650945961475, -0.005783644039183855, -0.0024132495746016502, -0.0036614027339965105, -0.00305319600738585, -0.010207467712461948, 0.0008625517366454005, 0.0027571823447942734, -0.004037297330796719, -0.0005440078093670309, 0.015745198354125023, -0.0020643193274736404, 0.0022177749779075384, -0.0032987683080136776, 0.004319316707551479, -0.013792481273412704, -0.01317937858402729, 0.0010983410757035017, 0.010455386713147163, 0.0013688817853108048, -0.01135336421430111, -0.005102001596242189, -0.004943731240928173, 0.004567948170006275, -0.005612940061837435, -0.005585058126598597, 0.005732258316129446, 0.010868999175727367, -0.006004566792398691, 0.0029373939614742994, -0.010481715202331543, 0.0011954905930906534, 0.009566977620124817, 0.00395353976637125, 0.0033726394176483154, -0.002252314705401659, -0.004226683638989925, -0.0019546132534742355, -0.010311341844499111, 0.014264863915741444, 0.0041558402590453625, -0.0022533151786774397, -0.006150410510599613, -1.6027346646296792e-05, -0.00032033456955105066, 0.006760234944522381, -0.004017907194793224, -0.007512533571571112, 0.015533867292106152, 0.008441310375928879, 0.0069707115180790424, -0.0014425357803702354, 0.007701643742620945, -0.011466250754892826, 0.010142000392079353, 0.0015473072417080402, 0.005825089756399393, 0.0014711441472172737, -0.0031486074440181255, -0.00416291318833828, 0.006303940899670124, 0.0068641589023172855, -0.009647801518440247, -0.011767327785491943, -0.008510258048772812, -0.006517339963465929, -0.011274103075265884, 0.001357724075205624, -0.004129823297262192, 0.006704243365675211, 0.009093398228287697, 0.00047514986363239586, 0.012399425730109215, 0.0004920669598504901, -0.0010791865643113852, -0.00237178523093462, 0.005463359411805868, -0.013724845834076405, 7.048056431813166e-05, 0.0036928311455994844, 0.0002586384362075478, -0.002704580081626773, -0.0010936536127701402, 0.0015027245972305536, -0.0062256488017737865, 0.014899839647114277, 0.0022063590586185455, -0.004753554705530405, -0.004211326129734516, 0.004575968254357576, -0.0010020629270002246, 0.016939453780651093, -0.002976903924718499, -0.011759178712964058, -0.0012865805765613914, 0.0017114190850406885, -0.01850893907248974, -0.00228473381139338, -0.0036026940215379, -0.002921678125858307, -0.004879355430603027, -0.014167740941047668, 0.0027228049002587795, -0.00512195099145174, -0.007540620863437653, -0.009213005192577839, -0.007000538986176252, -0.0021507160272449255, 0.0005755506572313607, -0.00886003952473402, -0.004335375968366861, -0.010522287338972092, -0.03035002574324608, 0.0011749663390219212, 0.012515340931713581, 0.004432137124240398, -0.0031409256625920534, 0.0011921935947611928, -0.008062932640314102, -0.001543748308904469, -0.0031503774225711823, -0.0055996873416006565, 0.00299392594024539, 0.02025577425956726, 0.011317048221826553, -0.0016356176929548383, 0.0073627387173473835, 0.00616731122136116, -0.0032865088433027267, 0.004810510668903589, -0.010384281165897846, -0.005549121182411909, 0.0029000446666032076, -0.0009712959872558713, 0.015079422853887081, 0.006050260737538338, -0.0028140798676759005, -0.0008048837189562619, 0.0037482427433133125, -0.006424467079341412, 0.005687148775905371, -0.007669184356927872, 0.004010480362921953, -0.0025537011679261923, 0.009188219904899597, -0.007394281681627035, -0.0021761779207736254, 0.017207307741045952, -0.003303114091977477, 0.0023976932279765606, 0.010854530148208141, 0.0027659477200359106, 0.0031805012840777636, -0.004494806285947561, -0.00559469498693943, -0.0005291983252391219, 0.0005168946809135377, -0.0006866632029414177, -0.004153725691139698, -0.006681373342871666, 0.005590367130935192, 0.013726149685680866, -0.013099896721541882, -0.004551973659545183, -0.0016557731432840228, 0.007584722246974707, -0.010064742527902126, -0.013718587346374989, -0.015937522053718567, 0.0009254763717763126, 0.009371398948132992, 0.005844953004270792, 0.012103388085961342, -0.005463946145027876, -0.0015609603142365813, 0.0024190214462578297, -0.01434614323079586, -0.009052732028067112, 0.007365447003394365, 0.0016746220644563437, -0.010896044783294201, -6.24090971541591e-05, 0.003849796950817108, -0.0073077804408967495, 0.0048440732061862946, -0.02942776493728161, 0.0041544195264577866, 0.005103398580104113, -0.01001124270260334, 0.0003694411716423929, -0.007134382147341967, -0.001108019845560193, -0.009122359566390514, -0.009814966470003128, 0.013315458782017231, -0.0022683844435960054, 0.0006992044509388506, -0.009196314960718155, -0.008669883944094181, 0.002517030341550708, 0.003876844886690378, 0.006502844858914614, 0.007868235930800438, -0.0023252619430422783, -0.004300215747207403, 0.005066936369985342, -0.005610836669802666, 0.006001368165016174, 0.001585917896591127], [0.008507753722369671, 0.004978942219167948, -0.007763775531202555, -0.006366729270666838, 0.005415312480181456, 0.014123214408755302, -0.009458341635763645, 0.00017097062664106488, 0.002553487429395318, -0.01108264084905386, 0.0037700815591961145, -0.0006639201892539859, -0.014978400431573391, 0.011945946142077446, -0.006336017046123743, -0.008919107727706432, 0.00309895072132349, 0.003985603339970112, 0.005425228271633387, -0.0028447445947676897, -5.486813734023599e-06, -0.00535968691110611, -0.008900148794054985, 0.007948565296828747, 0.00014833229943178594, -0.0008578154956921935, -0.014120983891189098, -0.0011653330875560641, -0.00534343346953392, -0.0012771656038239598, -0.0015037315897643566, -0.002076726872473955, 0.0069305854849517345, 0.002250839024782181, 0.00828746147453785, -0.009815520606935024, -0.004793097730726004, -0.0010297326371073723, -0.003874602261930704, -0.0005836903001181781, -0.011305452324450016, -0.005197237711399794, -0.012624559924006462, -0.006496236193925142, 0.002732207765802741, -0.001593002351000905, 0.011051717214286327, -0.006265219766646624, 0.0008792577427811921, -0.010436036624014378, 0.019129350781440735, -0.0013516823528334498, 0.006007364019751549, 0.001906122313812375, -0.006285062991082668, -0.009802876971662045, -0.0035089070443063974, -0.004244845826178789, -0.002303522313013673, 0.004611505661159754, -0.0037810211069881916, 0.002671258756890893, 0.0008132641087286174, -0.014675341546535492, 0.010274266824126244, 0.007642998825758696, -0.008375071920454502, 0.0037344342563301325, -0.004899699706584215, -0.006161519326269627, -0.0011099077528342605, 0.012872827239334583, 0.00531286746263504, 0.004712803289294243, -0.00882003828883171, 0.018748866394162178, 0.004083053674548864, -0.01740197464823723, 0.002731099259108305, -0.005335226655006409, 0.003033437067642808, 0.003080683760344982, -0.006762518081814051, 0.013463463634252548, 0.001590090338140726, 0.007187570910900831, 0.011130928993225098, -0.005437109619379044, -0.004835810046643019, 0.008968807756900787, 0.011257669888436794, -0.009950414299964905, 0.016698630526661873, -0.0017306971130892634, 0.005238283891230822, 0.006358036305755377, -0.0071548218838870525, -0.00667545385658741, -0.015330024063587189, -0.008492615073919296, -0.01089255977421999, 0.0001349494996247813, 0.009934737347066402, -0.00019994081230834126, 0.0020340823102742434, 0.005820533726364374, 0.005022784229367971, -0.002810603938996792, -0.01126028597354889, -0.003197714453563094, 0.00045859377132728696, -0.006648113951086998, 0.0026720226742327213, -0.0032481977250427008, 0.004602261818945408, -0.00592759670689702, -0.00672176294028759, 0.012352599762380123, -0.00034213505568914115, 0.004072992596775293, -0.010452156886458397, -0.0023861576337367296, 0.004931526258587837, 0.01161850057542324, -0.007300861645489931, -0.005940463859587908, -0.0001816859730752185, -0.012504915706813335, -0.00019350749789737165, -0.002067646011710167, 0.005283399485051632, 0.010398653335869312, 0.004122376907616854, 0.004180192016065121, -0.0008198421564884484, -0.002649652538821101, -0.019183998927474022, -0.0060987817123532295, 0.001005321741104126, -0.012262928299605846, -0.001889506820589304, -0.002982327016070485, -0.0076688420958817005, -0.006689043249934912, 0.005385215859860182, 0.004575918894261122, -0.014357262291014194, -0.001163541222922504, 0.006597778294235468, -0.0036439949180930853, -0.0012470914516597986, -0.011014614254236221, -0.009449772536754608, 0.013701485469937325, -0.0069875530898571014, -0.010740617290139198, -0.004271715879440308, 0.005662628915160894, 0.008508301340043545, -0.008809546008706093, 0.0016246968880295753, 0.0021231425926089287, 0.004806013312190771, -0.004115486983209848, 0.012591565027832985, -0.006824797950685024, 0.0027367116417735815, -0.0001611571351531893, -0.010428112931549549, -0.00472988560795784, -0.005759827792644501, -0.0033173863776028156, -0.013343158178031445, 0.004896336700767279, -0.005548424553126097, -0.009806709364056587, 0.0035936394706368446, -0.0014110521879047155, -0.01031740102916956, -0.006882925517857075, -0.0013063299702480435, -0.004472576081752777, 0.005056510213762522, -0.00563023379072547, -0.00795768667012453, -0.006905864924192429, 0.0033217971213161945, 0.0036243265494704247, -0.013226555660367012, 0.004491537343710661, 0.006208157166838646, -0.012406296096742153, -0.005085596349090338, 0.009891005232930183, 0.007428300101310015, 0.00014548853505402803, 0.003615729510784149, 0.015013491734862328, 0.0028213991317898035, -0.008992106653749943, 0.007941149175167084, -0.006564253009855747, 0.006722467020153999, 0.0047607324086129665, 0.004587244242429733, 0.011309043504297733, -0.010859708301723003, -0.0023144397418946028, 0.014339921064674854, 0.006242076400667429, 0.0014011836610734463, -0.00749313086271286, 0.0008801602525636554, -0.007176481653004885, -0.010349521413445473, 0.004246153403073549, -0.00015947115025483072, -0.00458268728107214, 0.0038173822686076164, -0.0037107737734913826, 0.012945708818733692, -0.00024761774693615735, 0.011590718291699886, -0.0052025215700268745, 0.004547541961073875, 0.01272640936076641, 0.0020291530527174473, 0.008409270085394382, -0.012656614184379578, 0.004741199314594269, 0.0019590111915022135, 0.00563470833003521, 0.007244180887937546, -0.01491347886621952, -0.0015690784202888608, -0.004594236612319946, 0.002473992994055152, -0.0142741734161973, -0.007818284444510937, 0.009959755465388298, 0.0013612986076623201, -0.009071741253137589, -0.0018597651505842805, 0.008007345721125603, -0.013516043312847614, -0.0025951205752789974, -0.001342552131973207, 0.0013774510007351637, 0.0017261379398405552, 0.015129998326301575, 0.004509900230914354, -0.004203194286674261, 0.007977357134222984, -0.006272042170166969, 0.0032389326952397823, 0.01110675185918808, 0.007976933382451534, 0.0043584019877016544, -0.016431856900453568, -0.0008798752096481621, -0.004411594942212105, 0.008058185689151287, 0.004124978091567755, 0.0019241893896833062, -0.00022218366211745888, -0.004841110669076443, 0.0032514124177396297, 0.00034004083136096597, -0.017662540078163147, 0.0025111737195402384, 0.004859070293605328, 0.003931986168026924, 0.0038702627643942833, 0.006247140001505613, -0.012647217139601707, -0.0027712301816791296, -0.0012334174243733287, -0.0035150707699358463, -0.0033596151042729616, -0.004252128768712282, 0.00011244879715377465, -0.007777076214551926, -0.0006222710944712162, 6.41610095044598e-05, -0.003930230624973774, -0.0070757255889475346, 0.009815563447773457, -0.006504348944872618, -0.010595469735562801, 0.005281084217131138, 2.5672559786471538e-05, -0.0007793246768414974, -0.0008605017210356891, 0.0020974481012672186, -0.0016423020279034972, -0.005697352346032858, -0.013768278993666172, 0.0018394261132925749, -0.012325743213295937, 0.008132455870509148, -0.009958503767848015, -0.006245406810194254, -0.007318800315260887, -0.013127346523106098, -0.0056810830719769, -0.0033442394342273474, -0.01678420975804329, -0.017980562523007393, -0.00526855606585741, 0.0056508067063987255, -0.010547991842031479, -0.0005622998578473926, 0.007802955340594053, -0.009167006239295006, -0.0032538347877562046, -0.005569257773458958, 0.004153559450060129, 0.00343818380497396, 0.004371692426502705, 0.017185963690280914, 0.012020643800497055, -0.0021283773239701986, -0.0010137722129002213, -0.010575968772172928, -0.012402541004121304, -0.0008966478053480387, -0.009253916330635548, 0.004606102127581835, -0.006485681980848312, -0.0028827013447880745, -0.010203909128904343, 0.015777159482240677, 0.0052504269406199455, -0.005222736857831478, 0.0011165132746100426, 0.011491834186017513, -0.0067820497788488865, 0.012732465751469135, -0.007195074111223221, -0.0012128211092203856, -0.011854913085699081, -0.019090399146080017, 0.00831408891826868, 0.0006314477068372071, -0.012910740450024605, -0.01060038898140192, 0.009955862537026405, -0.0007567467400804162, 0.010968789458274841, 0.004750811029225588, -0.0003763580753002316, 0.002998808864504099, -0.00401839567348361, -0.0005097701796330512, -0.000361709768185392, 0.00616535684093833, -0.0012169633992016315, 0.005157072562724352, 0.00623628543689847, 0.0013319074641913176, -0.012831448577344418, -0.0005730342236347497, -0.014058016240596771, -0.009160480462014675, 0.0032354930881410837, 0.003747990820556879, -0.000171481107827276, -0.0034273716155439615, -0.005429922603070736, -0.004558623302727938, 0.00708508025854826, 0.0034782991278916597, -0.010368173010647297, 0.00045959113049320877, -0.0009406977915205061, 0.012143728323280811, -0.017491629347205162, -0.006337003782391548, 0.005620589014142752, -0.008581386879086494, 0.013497589156031609, -0.008660629391670227, -6.83545003994368e-05, -0.00022284247097559273, 0.00649268226698041, 0.0047546373680233955, -0.003397878259420395, 0.0066786459647119045, -0.00562765309587121, -0.004569037351757288, 0.0025203414261341095, 0.011119088158011436, -0.004051500931382179, -0.006709910463541746, 0.008246014825999737, -0.009321626275777817, 0.011403346434235573, -0.007235839031636715, 0.004678783472627401, 0.004817490000277758, 0.00580207072198391, 0.00043289331370033324, 0.00043115695007145405, -0.012237411923706532, -0.005927542224526405, 0.003946338780224323, 0.0030484069138765335, -0.007644662167876959, -0.0025650684256106615, 0.001770024304278195, 0.011644420213997364, -0.0033656505402177572, -0.008322769775986671, -0.006737485993653536, -0.007590924389660358, -0.0014068029122427106, -0.005169738549739122, 0.006245517637580633, -0.004485365003347397, 0.011324948631227016, 0.002877037040889263, 0.00028018979355692863, -0.010609602555632591, 0.00242423452436924, -0.005867287050932646, 0.004806398414075375, -0.005068181082606316, -0.011167464777827263, -0.0033082407899200916, 0.0010798722505569458, 0.0014080613618716598, 0.002487249206751585, -0.006898482330143452, -0.01912827044725418, 0.003620882984250784, 0.0031063994392752647, -0.003569030901417136, 4.2464300349820405e-05, -0.0087492186576128, -0.015513259917497635, -0.01659472845494747, 0.0010511920554563403, 0.009974871762096882, -0.0029998854734003544, 0.0026050922460854053, -0.004372898023575544, -0.0006116408039815724, 0.0033539801370352507, 0.0010129796573892236, -0.005134915001690388, -0.006380697246640921, -0.0006366558372974396, 0.00870522577315569, -0.012369650416076183, 0.005889199674129486, 0.0020897097419947386, -0.009452390484511852, 0.000529198965523392, -0.0013394795823842287, -0.006943064741790295, -0.0058399708941578865, -0.009236592799425125, -0.015347392298281193, -1.4156679753796197e-05, 0.0076974243856966496, 0.011418656446039677, -0.008237196132540703, 0.01580038294196129, 0.011059594340622425, 0.009736950509250164, -0.007063111290335655, -0.004141378682106733, -0.01744195446372032, 0.001076743588782847, -0.003919836133718491, 0.0009771089535206556, -0.008922363631427288, 0.004962224047631025, 0.002360289916396141, -0.011468451470136642, -0.00033738240017555654, 0.0018182472558692098, 0.014785263687372208, 0.0006798637332394719, -0.006969752721488476, -0.0027079330757260323, -0.0005247959634289145, -0.0009840234415605664, -0.01492798700928688, -0.0024728800635784864, -0.005459683481603861, -0.0019194366177543998, 0.014529379084706306, -0.0061293188482522964, 0.010586663149297237, 0.0074005695059895515, 0.005043048411607742, -0.0008875157800503075, 0.004850598983466625, -0.0033622845076024532, -0.004160454496741295, -0.006669589783996344, 0.000805223360657692, -0.001545138075016439, -0.005981252528727055, 0.01045480091124773, -0.006161150522530079, 0.005332939326763153, -0.007430938072502613, -0.011704795993864536, -0.010584145784378052, -0.007099159061908722, 0.004651475697755814, 0.003489681286737323, -0.0016843293560668826, 0.004567974247038364, 0.00046042355825193226, -0.0031716490630060434, 0.005166184157133102, 0.008749827742576599, 0.003394524333998561, -0.0017802382353693247, 0.0036665096413344145, -0.015781911090016365, -0.002077610930427909, 0.0026939325034618378, 0.0009547065710648894, -0.004608807619661093, 0.009625659324228764, -0.0015794152859598398, -0.0009403945878148079, -0.0017343780491501093, 0.007624782621860504, -0.0029606425669044256, -0.005844921339303255, -0.000800218025688082, 0.011125864461064339, -0.0011862115934491158, 0.005079894792288542, -0.0019249295582994819, -0.0030367120634764433, -0.004127998370677233, -0.008939484134316444, -0.0011187170166522264, 0.00530208321288228, 0.011342073790729046, 0.0032490708399564028, -0.006013442762196064, 0.005520201753824949, 0.0030203338246792555, 0.011325557716190815, 0.015392186120152473, 0.009531103074550629, -0.002051691757515073, -0.000361032405635342, 0.008793664164841175, -0.003027866827324033, -0.001058140187524259, 0.004827058874070644, 0.008903790265321732, 0.0016415660502389073, -0.021435920149087906, 0.0024609847459942102, -0.0023092073388397694, -0.00724708940833807, -6.271951860981062e-05, 0.008129806257784367, -0.008322350680828094, 0.011048221960663795, 0.007194658741354942, 0.006685099098831415, -0.005997888743877411, -0.0023827184922993183, -0.00283282739110291, 1.1416142115194816e-05, -0.0011286177905276418], [-0.0023370692506432533, -0.0017189271748065948, -0.0015584045322611928, 0.001850087777711451, -0.012201938778162003, 0.003474359167739749, 0.011879486963152885, 0.007899717427790165, -0.008281470276415348, 0.007109301630407572, 0.016530802473425865, -0.0019100102363154292, 0.004244718234986067, 0.016544323414564133, 0.007485277950763702, 0.010600444860756397, -0.008062753826379776, -0.0005716453888453543, 0.002884721150621772, 0.003570691915228963, 0.0056847878731787205, 0.0007857071468606591, -0.01224344689399004, 0.007853833958506584, -0.002249107463285327, -0.010268637910485268, 0.004283570684492588, 0.002666402840986848, -0.00011115479719592258, -0.004249641206115484, 0.011467952281236649, 0.0012253213208168745, -0.00577487563714385, -0.01417040079832077, -0.0056072864681482315, -0.0179501473903656, -0.0018803937127813697, 0.0008399682119488716, -0.011910109780728817, -0.0040176729671657085, 0.0045022801496088505, -0.00303971697576344, 0.00996168702840805, -0.0053617279045283794, -0.005314097739756107, -0.019426025450229645, 0.004257382825016975, 0.0048118107952177525, -0.0024130551610141993, 0.0006287679425440729, 0.006196223199367523, -0.004058656748384237, -0.005186647642403841, 0.0031145168468356133, -0.002318467479199171, 0.004500760696828365, -0.008338790386915207, 0.010173371061682701, 0.004603089764714241, -0.0036438533570617437, -0.006001128815114498, -0.0063203913159668446, -0.007175063248723745, -0.011022677645087242, 0.009980343282222748, 0.011804455891251564, 0.00800701417028904, 0.014886078424751759, 0.00999104231595993, 0.003961059730499983, 0.0037324107252061367, 0.005519327241927385, 0.002751876600086689, 0.0004954256000928581, -0.004195906687527895, 0.01012379676103592, 0.012892195954918861, 0.008200962096452713, -0.0008016228675842285, 0.0044023338705301285, -0.004662389401346445, 0.011565105058252811, 0.012791353277862072, -0.0017498440574854612, -0.00011955262016272172, 0.014318077825009823, 0.0005079905386082828, 0.0010392621625214815, -0.007215857971459627, -0.00222230632789433, -0.011287818662822247, 0.02517085149884224, 0.0030156357679516077, 0.00838758796453476, -0.005594632122665644, -0.016661593690514565, 0.001789727946743369, -0.000678982469253242, 0.003744968445971608, 0.005038432311266661, 0.007541368715465069, -6.100520840846002e-05, 0.0054590036161243916, -0.0030017797835171223, -0.006571220234036446, -0.002953046001493931, 0.0059072962030768394, 0.0037518301978707314, 0.0008270784164778888, 0.0024486505426466465, 0.011679752729833126, -0.012646757066249847, -0.009158183820545673, 0.002008019248023629, 0.005288473796099424, -0.0010643673595041037, 0.007968385703861713, -0.021410100162029266, -0.01591014303267002, -0.004182262346148491, 0.017219772562384605, -0.0021837586537003517, -0.01663181744515896, -0.0052157980389893055, 0.004262497182935476, 0.008189504034817219, 0.002711893990635872, -0.0030729733407497406, 0.005141975358128548, 0.010232298634946346, -0.0035031295847147703, -1.6237816453212872e-05, 0.002762762364000082, -0.009688288904726505, -0.006990897934883833, -0.017078358680009842, 0.00287986290641129, -0.0026995898224413395, -0.00018339113739784807, -0.002843998372554779, 0.00571845006197691, -0.0055036386474967, 0.006393204443156719, -0.008943595923483372, 0.0001000993070192635, 0.00025198303046636283, 0.007242994848638773, -0.0028690167237073183, 0.012549043633043766, 0.0036049755290150642, 0.004576627630740404, 